{"learner":{"attributes":{"scikit_learn":"{\"_estimator_type\": \"classifier\"}"},"feature_names":["ema_diff","rsi","macd_hist","atr","candle_body","upper_wick","lower_wick"],"feature_types":["float","float","float","float","float","float","float"],"gradient_booster":{"model":{"cats":{"enc":[],"feature_segments":[],"sorted_idx":[]},"gbtree_model_param":{"num_parallel_tree":"1","num_trees":"50"},"iteration_indptr":[0,1,2,3,4,5,6,7,8,9,10,11,12,13,14,15,16,17,18,19,20,21,22,23,24,25,26,27,28,29,30,31,32,33,34,35,36,37,38,39,40,41,42,43,44,45,46,47,48,49,50],"tree_info":[0,0,0,0,0,0,0,0,0,0,0,0,0,0,0,0,0,0,0,0,0,0,0,0,0,0,0,0,0,0,0,0,0,0,0,0,0,0,0,0,0,0,0,0,0,0,0,0,0,0],"trees":[{"base_weights":[8.492335E-8,5.406076E-1,-1.305965E-1,7.7207285E-1,-8.7036216E-1,-2.773476E-1,6.2693405E-1,-6.769392E-2,9.12256E-2,-1.1214047E-1,-2.3247382E-2,2.4571475E-2,-4.4609595E-2,-1.1214047E-1,8.718898E-2],"categories":[],"categories_nodes":[],"categories_segments":[],"categories_sizes":[],"default_left":[0,0,0,0,0,0,0,0,0,0,0,0,0,0,0],"id":0,"left_children":[1,3,5,7,9,11,13,-1,-1,-1,-1,-1,-1,-1,-1],"loss_changes":[7.800814E0,7.693111E0,1.00670395E1,4.4766436E0,2.9974866E-1,6.751065E0,7.294158E0,0E0,0E0,0E0,0E0,0E0,0E0,0E0,0E0],"parents":[2147483647,0,0,1,1,2,2,3,3,4,4,5,5,6,6],"right_children":[2,4,6,8,10,12,14,-1,-1,-1,-1,-1,-1,-1,-1],"split_conditions":[2.046875E0,7.297656E1,7.1237724E1,3.0334898E1,6.791015E1,3.296875E0,5.9070312E1,-6.769392E-2,9.12256E-2,-1.1214047E-1,-2.3247382E-2,2.4571475E-2,-4.4609595E-2,-1.1214047E-1,8.718898E-2],"split_indices":[6,4,1,1,1,5,3,0,0,0,0,0,0,0,0],"split_type":[0,0,0,0,0,0,0,0,0,0,0,0,0,0,0],"sum_hessian":[1.0849078E2,2.0498259E1,8.799252E1,1.799847E1,2.4997876E0,7.424369E1,1.3748832E1,1.2498938E0,1.6748577E1,1.2498938E0,1.2498938E0,1.799847E1,5.6245224E1,1.2498938E0,1.2498939E1],"tree_param":{"num_deleted":"0","num_feature":"7","num_nodes":"15","size_leaf_vector":"1"}},{"base_weights":[-1.4077179E-3,-9.2644975E-2,6.28605E-1,-2.4498118E-2,-1.5668033E-1,1.139649E0,-2.4291693E-1,6.480432E-2,-1.7451113E-2,1.3947438E-1,-2.442191E-2,7.375307E-2,-7.336953E-2],"categories":[],"categories_nodes":[],"categories_segments":[],"categories_sizes":[],"default_left":[0,0,0,0,0,0,0,0,0,0,0,0,0],"id":1,"left_children":[1,3,5,7,-1,9,11,-1,-1,-1,-1,-1,-1],"loss_changes":[6.3460855E0,9.648349E0,6.4972124E0,9.514001E0,0E0,3.510559E0,3.4218214E0,0E0,0E0,0E0,0E0,0E0,0E0],"parents":[2147483647,0,0,1,1,2,2,3,3,5,5,6,6],"right_children":[2,4,6,8,-1,10,12,-1,-1,-1,-1,-1,-1],"split_conditions":[7.51848E1,3.9795345E1,8.1844185E1,2.046875E0,-1.5668033E-1,6.9015625E1,2.0134816E2,6.480432E-2,-1.7451113E-2,1.3947438E-1,-2.442191E-2,7.375307E-2,-7.336953E-2],"split_indices":[1,2,1,6,0,4,0,0,0,0,0,0,0],"split_type":[0,0,0,0,0,0,0,0,0,0,0,0,0],"sum_hessian":[1.0839075E2,9.54245E1,1.2966249E1,9.2179855E1,3.2446387E0,7.9795423E0,4.9867067E0,1.6205795E1,7.597406E1,6.7309384E0,1.2486037E0,1.4957701E0,3.4909368E0],"tree_param":{"num_deleted":"0","num_feature":"7","num_nodes":"13","size_leaf_vector":"1"}},{"base_weights":[-1.147803E-3,-1.0472597E0,5.1124543E-2,-1.4443453E-1,-3.1242245E-3,-1.03662305E-1,3.9414588E-1,1.8536614E-2,-5.034175E-2,6.671945E-2,-3.5060935E-2],"categories":[],"categories_nodes":[],"categories_segments":[],"categories_sizes":[],"default_left":[0,0,0,0,0,0,0,0,0,0,0],"id":2,"left_children":[1,3,5,-1,-1,7,9,-1,-1,-1,-1],"loss_changes":[6.0264406E0,2.0708451E0,5.6149783E0,0E0,0E0,8.543039E0,6.9144173E0,0E0,0E0,0E0,0E0],"parents":[2147483647,0,0,1,1,2,2,5,5,6,6],"right_children":[2,4,6,-1,-1,8,10,-1,-1,-1,-1],"split_conditions":[-4.858823E1,5.105915E1,5.7759712E1,-1.4443453E-1,-3.1242245E-3,6.803627E1,9.2489395E1,1.8536614E-2,-5.034175E-2,6.671945E-2,-3.5060935E-2],"split_indices":[2,3,0,0,0,3,3,0,0,0,0],"split_type":[0,0,0,0,0,0,0,0,0,0,0],"sum_hessian":[1.0822829E2,4.244743E0,1.0398354E2,2.748848E0,1.495895E0,7.2132065E1,3.1851477E1,4.2175156E1,2.9956911E1,2.338281E1,8.468667E0],"tree_param":{"num_deleted":"0","num_feature":"7","num_nodes":"11","size_leaf_vector":"1"}},{"base_weights":[-2.380215E-3,-3.4313434E-1,1.381665E-1,-5.153007E-1,7.614176E-1,2.8679192E-1,-4.8161995E-1,-6.544421E-2,2.2635294E-2,1.1430671E-1,-1.7026423E-2,6.390722E-3,1.329242E-1,2.9248063E-2,-1.0739616E-1],"categories":[],"categories_nodes":[],"categories_segments":[],"categories_sizes":[],"default_left":[0,0,0,0,0,0,0,0,0,0,0,0,0,0,0],"id":3,"left_children":[1,3,5,7,9,11,13,-1,-1,-1,-1,-1,-1,-1,-1],"loss_changes":[5.2719784E0,6.504919E0,7.3183603E0,3.079383E0,1.8793926E0,1.4668552E1,7.3983393E0,0E0,0E0,0E0,0E0,0E0,0E0,0E0,0E0],"parents":[2147483647,0,0,1,1,2,2,3,3,4,4,5,5,6,6],"right_children":[2,4,6,8,10,12,14,-1,-1,-1,-1,-1,-1,-1,-1],"split_conditions":[-1.5665944E1,8.678571E1,9.2489395E1,2.771875E1,3.6007812E1,2.53896E1,2.8180555E1,-6.544421E-2,2.2635294E-2,1.1430671E-1,-1.7026423E-2,6.390722E-3,1.329242E-1,2.9248063E-2,-1.0739616E-1],"split_indices":[2,3,3,4,6,2,2,0,0,0,0,0,0,0,0],"split_type":[0,0,0,0,0,0,0,0,0,0,0,0,0,0,0],"sum_hessian":[1.08090904E2,3.114317E1,7.694774E1,2.7405027E1,3.7381425E0,6.249794E1,1.4449796E1,2.3174803E1,4.2302246E0,2.490898E0,1.2472446E0,5.2363487E1,1.0134455E1,6.483316E0,7.9664793E0],"tree_param":{"num_deleted":"0","num_feature":"7","num_nodes":"15","size_leaf_vector":"1"}},{"base_weights":[-1.0250864E-3,4.3110198E-1,-1.0486408E-1,6.397152E-1,-8.1909955E-1,-1.2620996E-1,-3.5794955E-2,-6.31844E-2,7.661411E-2,-1.0622772E-1,-2.1099307E-2,-2.3423916E-2,4.0902626E-2],"categories":[],"categories_nodes":[],"categories_segments":[],"categories_sizes":[],"default_left":[0,0,0,0,0,0,0,0,0,0,0,0,0],"id":4,"left_children":[1,3,5,7,9,-1,11,-1,-1,-1,-1,-1,-1],"loss_changes":[4.928615E0,6.074175E0,7.0325513E0,3.5061712E0,2.9073286E-1,0E0,7.562906E0,0E0,0E0,0E0,0E0,0E0,0E0],"parents":[2147483647,0,0,1,1,2,2,3,3,4,4,6,6],"right_children":[2,4,6,8,10,-1,12,-1,-1,-1,-1,-1,-1],"split_conditions":[2.046875E0,7.297656E1,-4.5791718E1,3.0334898E1,6.791015E1,-1.2620996E-1,5.7759712E1,-6.31844E-2,7.661411E-2,-1.0622772E-1,-2.1099307E-2,-2.3423916E-2,4.0902626E-2],"split_indices":[6,4,2,1,1,0,0,0,0,0,0,0,0],"split_type":[0,0,0,0,0,0,0,0,0,0,0,0,0],"sum_hessian":[1.078306E2,2.0280684E1,8.754991E1,1.779899E1,2.4816942E0,3.9582057E0,8.3591705E1,1.2481079E0,1.6550882E1,1.2392613E0,1.2424331E0,5.8131443E1,2.5460266E1],"tree_param":{"num_deleted":"0","num_feature":"7","num_nodes":"13","size_leaf_vector":"1"}},{"base_weights":[-2.9612242E-3,-7.500547E-2,5.0324094E-1,-1.4996195E-2,-1.3829333E-1,9.603135E-1,-2.5469223E-1,3.0231375E-2,-2.423617E-2,1.1914104E-1,-2.3832442E-2,5.444326E-2,-7.163255E-2],"categories":[],"categories_nodes":[],"categories_segments":[],"categories_sizes":[],"default_left":[0,0,0,0,0,0,0,0,0,0,0,0,0],"id":5,"left_children":[1,3,5,7,-1,9,11,-1,-1,-1,-1,-1,-1],"loss_changes":[3.9951918E0,7.50355E0,4.9732747E0,6.7590647E0,0E0,2.700636E0,2.57584E0,0E0,0E0,0E0,0E0,0E0,0E0],"parents":[2147483647,0,0,1,1,2,2,3,3,5,5,6,6],"right_children":[2,4,6,8,-1,10,12,-1,-1,-1,-1,-1,-1],"split_conditions":[7.51848E1,3.9795345E1,8.1844185E1,8.703125E0,-1.3829333E-1,6.9015625E1,3.6953125E0,3.0231375E-2,-2.423617E-2,1.1914104E-1,-2.3832442E-2,5.444326E-2,-7.163255E-2],"split_indices":[1,2,1,6,0,4,4,0,0,0,0,0,0],"split_type":[0,0,0,0,0,0,0,0,0,0,0,0,0],"sum_hessian":[1.0751548E2,9.486573E1,1.2649754E1,9.167121E1,3.194518E0,7.72448E0,4.9252734E0,3.8128986E1,5.3542225E1,6.48098E0,1.2435004E0,1.7377409E0,3.1875327E0],"tree_param":{"num_deleted":"0","num_feature":"7","num_nodes":"13","size_leaf_vector":"1"}},{"base_weights":[-3.1141243E-3,-8.638823E-1,3.946759E-2,-1.23102605E-1,2.359931E-3,2.2560577E-1,-1.7270645E-1,-3.0886644E-5,7.3876016E-2,-6.135757E-2,2.3049261E-2],"categories":[],"categories_nodes":[],"categories_segments":[],"categories_sizes":[],"default_left":[0,0,0,0,0,0,0,0,0,0,0],"id":6,"left_children":[1,3,5,-1,-1,7,9,-1,-1,-1,-1],"loss_changes":[4.0008345E0,1.7055016E0,4.14943E0,0E0,0E0,6.4777336E0,8.887893E0,0E0,0E0,0E0,0E0],"parents":[2147483647,0,0,1,1,2,2,5,5,6,6],"right_children":[2,4,6,-1,-1,8,10,-1,-1,-1,-1],"split_conditions":[-4.858823E1,5.105915E1,6.803627E1,-1.23102605E-1,2.359931E-3,6.0873325E1,5.3173546E1,-3.0886644E-5,7.3876016E-2,-6.135757E-2,2.3049261E-2],"split_indices":[2,3,3,0,0,3,1,0,0,0,0],"split_type":[0,0,0,0,0,0,0,0,0,0,0],"sum_hessian":[1.07224174E2,4.145115E0,1.03079056E2,2.6582983E0,1.4868165E0,5.4874714E1,4.8204346E1,3.879481E1,1.6079899E1,2.277727E1,2.5427076E1],"tree_param":{"num_deleted":"0","num_feature":"7","num_nodes":"11","size_leaf_vector":"1"}},{"base_weights":[-3.629804E-3,1.2075233E-1,-3.20275E-2,6.1304364E-2,-3.9401722E-1,-1.3125752E-3,7.27072E-2,-7.995164E-2,1.3587872E-2],"categories":[],"categories_nodes":[],"categories_segments":[],"categories_sizes":[],"default_left":[0,0,0,0,0,0,0,0,0],"id":7,"left_children":[1,-1,3,5,7,-1,-1,-1,-1],"loss_changes":[3.7511718E0,0E0,3.620306E0,4.245775E0,4.8257446E0,0E0,0E0,0E0,0E0],"parents":[2147483647,0,0,2,2,3,3,4,4],"right_children":[2,-1,4,6,8,-1,-1,-1,-1],"split_conditions":[-1.14203125E2,1.2075233E-1,2.7125E1,2.1960938E1,3.8210938E1,-1.3125752E-3,7.27072E-2,-7.995164E-2,1.3587872E-2],"split_indices":[4,0,6,6,6,0,0,0,0],"split_type":[0,0,0,0,0,0,0,0,0],"sum_hessian":[1.069404E2,1.4987171E0,1.0544168E2,8.448862E1,2.0953068E1,7.687463E1,7.6139865E0,1.158155E1,9.371518E0],"tree_param":{"num_deleted":"0","num_feature":"7","num_nodes":"9","size_leaf_vector":"1"}},{"base_weights":[-2.1079027E-3,-8.087727E-1,3.7316866E-2,-1.1601918E-1,2.297279E-3,2.0604374E-1,-1.5531242E-1,4.6367313E-5,6.7534715E-2,-3.773448E-2,5.4404266E-2],"categories":[],"categories_nodes":[],"categories_segments":[],"categories_sizes":[],"default_left":[0,0,0,0,0,0,0,0,0,0,0],"id":8,"left_children":[1,3,5,-1,-1,7,9,-1,-1,-1,-1],"loss_changes":[3.4613054E0,1.5089533E0,3.4062326E0,0E0,0E0,5.3805227E0,7.8209896E0,0E0,0E0,0E0,0E0],"parents":[2147483647,0,0,1,1,2,2,5,5,6,6],"right_children":[2,4,6,-1,-1,8,10,-1,-1,-1,-1],"split_conditions":[-4.858823E1,5.105915E1,6.803627E1,-1.1601918E-1,2.297279E-3,6.0873325E1,7.31252E1,4.6367313E-5,6.7534715E-2,-3.773448E-2,5.4404266E-2],"split_indices":[2,3,3,0,0,3,1,0,0,0,0],"split_type":[0,0,0,0,0,0,0,0,0,0,0],"sum_hessian":[1.0688827E2,4.0713153E0,1.02816956E2,2.5844686E0,1.4868467E0,5.4771843E1,4.8045113E1,3.8783554E1,1.5988288E1,3.681687E1,1.122824E1],"tree_param":{"num_deleted":"0","num_feature":"7","num_nodes":"11","size_leaf_vector":"1"}},{"base_weights":[-2.1747758E-3,1.0067862E-1,-3.3118624E-2,3.7044355E-1,-1.287392E-1,8.794015E-2,-1.7325183E-2,-5.070115E-2,3.815721E-3],"categories":[],"categories_nodes":[],"categories_segments":[],"categories_sizes":[],"default_left":[0,0,0,0,0,0,0,0,0],"id":9,"left_children":[1,-1,3,5,7,-1,-1,-1,-1],"loss_changes":[3.3895507E0,0E0,4.1098347E0,5.8035774E0,5.4389377E0,0E0,0E0,0E0,0E0],"parents":[2147483647,0,0,2,2,3,3,4,4],"right_children":[2,-1,4,6,8,-1,-1,-1,-1],"split_conditions":[-1.0096875E2,1.0067862E-1,2.046875E0,1.2078125E1,-1.7015625E1,8.794015E-2,-1.7325183E-2,-5.070115E-2,3.815721E-3],"split_indices":[4,0,6,4,4,0,0,0,0],"split_type":[0,0,0,0,0,0,0,0,0],"sum_hessian":[1.0649791E2,2.2306008E0,1.042673E2,1.9422298E1,8.484501E1,9.712702E0,9.709598E0,2.535034E1,5.9494667E1],"tree_param":{"num_deleted":"0","num_feature":"7","num_nodes":"9","size_leaf_vector":"1"}},{"base_weights":[-7.5884315E-4,-5.7600325E-1,4.7653906E-2,-9.7702885E-1,7.882843E-2,2.3516819E-1,-1.6162631E-1,8.266649E-3,-1.2187246E-1,3.752312E-2,-2.6152655E-2,-5.9145667E-2,2.1356514E-2],"categories":[],"categories_nodes":[],"categories_segments":[],"categories_sizes":[],"default_left":[0,0,0,0,0,0,0,0,0,0,0,0,0],"id":10,"left_children":[1,3,5,7,-1,9,11,-1,-1,-1,-1,-1,-1],"loss_changes":[3.0157068E0,5.3691792E0,3.9582157E0,1.8789883E0,0E0,3.7918756E0,7.835057E0,0E0,0E0,0E0,0E0,0E0,0E0],"parents":[2147483647,0,0,1,1,2,2,3,3,5,5,6,6],"right_children":[2,4,6,8,-1,10,12,-1,-1,-1,-1,-1,-1],"split_conditions":[-3.669494E1,6.0032925E1,6.803627E1,2.046875E0,7.882843E-2,6.429651E1,5.3173546E1,8.266649E-3,-1.2187246E-1,3.752312E-2,-2.6152655E-2,-5.9145667E-2,2.1356514E-2],"split_indices":[2,3,3,6,0,1,1,0,0,0,0,0,0],"split_type":[0,0,0,0,0,0,0,0,0,0,0,0,0],"sum_hessian":[1.06301544E2,7.405927E0,9.8895615E1,5.9428964E0,1.463031E0,5.2094997E1,4.6800617E1,1.2259204E0,4.716976E0,4.0826786E1,1.12682085E1,2.1543425E1,2.5257195E1],"tree_param":{"num_deleted":"0","num_feature":"7","num_nodes":"13","size_leaf_vector":"1"}},{"base_weights":[-1.3494835E-3,-3.8313946E-1,7.269592E-2,-7.2091025E-1,1.05869554E-1,1.3153894E-1,3.0019792E-2,9.997766E-3,-1.0668589E-1,8.917427E-2,-3.9938334E-2,3.5175435E-2,-7.880154E-3],"categories":[],"categories_nodes":[],"categories_segments":[],"categories_sizes":[],"default_left":[0,0,0,0,0,0,0,0,0,0,0,0,0],"id":11,"left_children":[1,3,5,7,9,-1,11,-1,-1,-1,-1,-1,-1],"loss_changes":[3.051142E0,2.9720302E0,4.7554045E0,3.0877094E0,3.5462348E0,0E0,3.123944E0,0E0,0E0,0E0,0E0,0E0,0E0],"parents":[2147483647,0,0,1,1,2,2,3,3,4,4,6,6],"right_children":[2,4,6,8,10,-1,12,-1,-1,-1,-1,-1,-1],"split_conditions":[5.1077568E1,4.6875E-1,5.218527E1,-1.9343266E1,8.9765625E0,1.3153894E-1,3.296875E0,9.997766E-3,-1.0668589E-1,8.917427E-2,-3.9938334E-2,3.5175435E-2,-7.880154E-3],"split_indices":[3,4,3,2,4,0,5,0,0,0,0,0,0],"split_type":[0,0,0,0,0,0,0,0,0,0,0,0,0],"sum_hessian":[1.0594417E2,1.653137E1,8.9412796E1,9.497194E0,7.0341763E0,1.9784801E0,8.743431E1,3.0265703E0,6.470624E0,2.4533222E0,4.580854E0,2.1534454E1,6.589986E1],"tree_param":{"num_deleted":"0","num_feature":"7","num_nodes":"13","size_leaf_vector":"1"}},{"base_weights":[-1.6803482E-4,1.0771574E-1,-2.5461711E-2,5.7222538E-2,-3.5582793E-1,6.317267E-2,-1.7195859E-3,-6.295916E-2,3.0470822E-2],"categories":[],"categories_nodes":[],"categories_segments":[],"categories_sizes":[],"default_left":[0,0,0,0,0,0,0,0,0],"id":12,"left_children":[1,-1,3,5,7,-1,-1,-1,-1],"loss_changes":[2.9395604E0,0E0,2.8993282E0,3.651689E0,4.0320315E0,0E0,0E0,0E0,0E0],"parents":[2147483647,0,0,2,2,3,3,4,4],"right_children":[2,-1,4,6,8,-1,-1,-1,-1],"split_conditions":[-1.14203125E2,1.0771574E-1,2.784375E1,-4.1127857E1,4.7054688E1,6.317267E-2,-1.7195859E-3,-6.295916E-2,3.0470822E-2],"split_indices":[4,0,6,0,6,0,0,0,0],"split_type":[0,0,0,0,0,0,0,0,0],"sum_hessian":[1.058692E2,1.4746321E0,1.0439457E2,8.4158195E1,2.0236372E1,8.792436E0,7.536576E1,1.4339936E1,5.896436E0],"tree_param":{"num_deleted":"0","num_feature":"7","num_nodes":"9","size_leaf_vector":"1"}},{"base_weights":[1.1198261E-3,-5.4417187E-1,4.628981E-2,-9.254272E-1,7.280647E-2,2.187005E-1,-1.4660767E-1,3.9428296E-3,-1.1413433E-1,-6.7292424E-3,4.4568077E-2,-5.59269E-2,2.0499935E-2],"categories":[],"categories_nodes":[],"categories_segments":[],"categories_sizes":[],"default_left":[0,0,0,0,0,0,0,0,0,0,0,0,0],"id":13,"left_children":[1,3,5,7,-1,9,11,-1,-1,-1,-1,-1,-1],"loss_changes":[2.6552606E0,4.6739445E0,3.342281E0,1.4586611E0,0E0,3.467787E0,7.017393E0,0E0,0E0,0E0,0E0,0E0,0E0],"parents":[2147483647,0,0,1,1,2,2,3,3,5,5,6,6],"right_children":[2,4,6,8,-1,10,12,-1,-1,-1,-1,-1,-1],"split_conditions":[-3.669494E1,6.0032925E1,6.803627E1,2.046875E0,7.280647E-2,5.5162388E1,-1.6355429E0,3.9428296E-3,-1.1413433E-1,-6.7292424E-3,4.4568077E-2,-5.59269E-2,2.0499935E-2],"split_indices":[2,3,3,6,0,3,2,0,0,0,0,0,0],"split_type":[0,0,0,0,0,0,0,0,0,0,0,0,0],"sum_hessian":[1.0577969E2,7.246982E0,9.8532715E1,5.7857466E0,1.4612355E0,5.1958622E1,4.657409E1,1.2074507E0,4.5782957E0,2.3301939E1,2.8656683E1,2.1155024E1,2.5419067E1],"tree_param":{"num_deleted":"0","num_feature":"7","num_nodes":"13","size_leaf_vector":"1"}},{"base_weights":[6.055046E-4,8.9034945E-2,-2.655779E-2,3.1539726E-1,-1.0735814E-1,5.1769134E-2,-8.1700034E-2,-4.420708E-2,3.965215E-3],"categories":[],"categories_nodes":[],"categories_segments":[],"categories_sizes":[],"default_left":[0,0,0,0,0,0,0,0,0],"id":14,"left_children":[1,-1,3,5,7,-1,-1,-1,-1],"loss_changes":[2.5940685E0,0E0,2.9122274E0,5.042231E0,4.2005663E0,0E0,0E0,0E0,0E0],"parents":[2147483647,0,0,2,2,3,3,4,4],"right_children":[2,-1,4,6,8,-1,-1,-1,-1],"split_conditions":[-1.0096875E2,8.9034945E-2,2.046875E0,7.297656E1,-1.7015625E1,5.1769134E-2,-8.1700034E-2,-4.420708E-2,3.965215E-3],"split_indices":[4,0,6,4,4,0,0,0,0],"split_type":[0,0,0,0,0,0,0,0,0],"sum_hessian":[1.053548E2,2.1797156E0,1.0317508E2,1.9164713E1,8.401037E1,1.6720552E1,2.4441607E0,2.5025438E1,5.898493E1],"tree_param":{"num_deleted":"0","num_feature":"7","num_nodes":"9","size_leaf_vector":"1"}},{"base_weights":[7.508286E-4,3.1372335E-2,-7.4824244E-1,-6.608584E-2,4.3469685E-1,-1.17087744E-1,1.2002992E-3,4.352241E-3,-7.3200956E-2,-7.739833E-2,6.579664E-2],"categories":[],"categories_nodes":[],"categories_segments":[],"categories_sizes":[],"default_left":[0,0,0,0,0,0,0,0,0,0,0],"id":15,"left_children":[1,3,5,7,9,-1,-1,-1,-1,-1,-1],"loss_changes":[2.456207E0,4.0719895E0,1.3655984E0,6.142107E0,5.947045E0,0E0,0E0,0E0,0E0,0E0,0E0],"parents":[2147483647,0,0,1,1,2,2,3,3,4,4],"right_children":[2,4,6,8,10,-1,-1,-1,-1,-1,-1],"split_conditions":[6.4557396E1,7.91968E1,8.815482E1,6.429651E1,6.0032925E1,-1.17087744E-1,1.2002992E-3,4.352241E-3,-7.3200956E-2,-7.739833E-2,6.579664E-2],"split_indices":[2,0,1,1,3,0,0,0,0,0,0],"split_type":[0,0,0,0,0,0,0,0,0,0,0],"sum_hessian":[1.0506937E2,1.0186296E2,3.2064056E0,8.271266E1,1.9150301E1,1.7136332E0,1.4927723E0,7.182518E1,1.088748E1,2.601324E0,1.6548977E1],"tree_param":{"num_deleted":"0","num_feature":"7","num_nodes":"11","size_leaf_vector":"1"}},{"base_weights":[-1.131808E-3,9.735593E-2,-2.3717048E-2,8.848278E-3,-7.613041E-1,-8.546438E-3,4.0877346E-2,-1.1583098E-1,1.1284081E-3],"categories":[],"categories_nodes":[],"categories_segments":[],"categories_sizes":[],"default_left":[0,0,0,0,0,0,0,0,0],"id":16,"left_children":[1,-1,3,5,7,-1,-1,-1,-1],"loss_changes":[2.3527222E0,0E0,2.514552E0,3.8437047E0,1.3706942E0,0E0,0E0,0E0,0E0],"parents":[2147483647,0,0,2,2,3,3,4,4],"right_children":[2,-1,4,6,8,-1,-1,-1,-1],"split_conditions":[-1.14203125E2,9.735593E-2,5.662424E1,7.91968E1,8.815482E1,-8.546438E-3,4.0877346E-2,-1.1583098E-1,1.1284081E-3],"split_indices":[4,0,2,0,1,0,0,0,0],"split_type":[0,0,0,0,0,0,0,0,0],"sum_hessian":[1.048268E2,1.4204329E0,1.03406364E2,9.998013E1,3.4262352E0,8.1537735E1,1.84424E1,1.9334464E0,1.4927888E0],"tree_param":{"num_deleted":"0","num_feature":"7","num_nodes":"9","size_leaf_vector":"1"}},{"base_weights":[-8.61421E-4,3.6756536E-1,-5.7864655E-2,-5.3605255E-2,1.0380745E0,-8.352532E-1,1.5988962E-3,-4.726824E-2,7.5657845E-2,1.3030806E-1,2.6583532E-2,-2.1611545E-2,-1.14820234E-1,1.2454909E-1,-5.184623E-3],"categories":[],"categories_nodes":[],"categories_segments":[],"categories_sizes":[],"default_left":[0,0,0,0,0,0,0,0,0,0,0,0,0,0,0],"id":17,"left_children":[1,3,5,7,9,11,13,-1,-1,-1,-1,-1,-1,-1,-1],"loss_changes":[2.239247E0,4.0901966E0,4.269115E0,3.6598132E0,7.916274E-1,1.0233154E0,5.83248E0,0E0,0E0,0E0,0E0,0E0,0E0,0E0,0E0],"parents":[2147483647,0,0,1,1,2,2,3,3,4,4,5,5,6,6],"right_children":[2,4,6,8,10,12,14,-1,-1,-1,-1,-1,-1,-1,-1],"split_conditions":[-4.08781E1,-1.4618874E1,-3.4221336E1,8.678571E1,1.3953125E1,-5.703125E0,4.0931137E1,-4.726824E-2,7.5657845E-2,1.3030806E-1,2.6583532E-2,-2.1611545E-2,-1.14820234E-1,1.2454909E-1,-5.184623E-3],"split_indices":[0,2,0,3,4,4,1,0,0,0,0,0,0,0,0],"split_type":[0,0,0,0,0,0,0,0,0,0,0,0,0,0,0],"sum_hessian":[1.0461037E2,1.3286714E1,9.1323654E1,8.725789E0,4.560925E0,5.562081E0,8.576157E1,6.0255666E0,2.7002223E0,2.8838732E0,1.6770517E0,2.4350872E0,3.1269937E0,2.614195E0,8.314738E1],"tree_param":{"num_deleted":"0","num_feature":"7","num_nodes":"15","size_leaf_vector":"1"}},{"base_weights":[8.259863E-4,-5.011312E-1,4.168634E-2,-8.4996814E-1,6.466435E-2,2.050048E-1,-1.4233232E-1,3.3897886E-3,-1.054574E-1,3.273211E-2,-3.1737845E-2,-5.1024932E-2,1.7679546E-2],"categories":[],"categories_nodes":[],"categories_segments":[],"categories_sizes":[],"default_left":[0,0,0,0,0,0,0,0,0,0,0,0,0],"id":18,"left_children":[1,3,5,7,-1,9,11,-1,-1,-1,-1,-1,-1],"loss_changes":[2.184119E0,3.7591596E0,2.9881122E0,1.2256541E0,0E0,3.462968E0,5.594973E0,0E0,0E0,0E0,0E0,0E0,0E0],"parents":[2147483647,0,0,1,1,2,2,3,3,5,5,6,6],"right_children":[2,4,6,8,-1,10,12,-1,-1,-1,-1,-1,-1],"split_conditions":[-3.669494E1,6.0032925E1,6.803627E1,2.046875E0,6.466435E-2,6.300581E0,5.3173546E1,3.3897886E-3,-1.054574E-1,3.273211E-2,-3.1737845E-2,-5.1024932E-2,1.7679546E-2],"split_indices":[2,3,3,6,0,2,1,0,0,0,0,0,0],"split_type":[0,0,0,0,0,0,0,0,0,0,0,0,0],"sum_hessian":[1.0447115E2,7.016092E0,9.745506E1,5.5797367E0,1.4363552E0,5.157112E1,4.5883945E1,1.2056855E0,4.3740516E0,4.20893E1,9.481824E0,2.103461E1,2.4849333E1],"tree_param":{"num_deleted":"0","num_feature":"7","num_nodes":"13","size_leaf_vector":"1"}},{"base_weights":[-1.3005539E-5,2.582629E-1,-7.94768E-2,-2.6003724E-1,4.933359E-1,3.5340005E-1,-1.8217681E-1,2.649737E-2,-7.025694E-2,6.477617E-2,-5.763906E-2,6.676246E-2,-3.622025E-2,-3.0782556E-2,2.6526159E-2],"categories":[],"categories_nodes":[],"categories_segments":[],"categories_sizes":[],"default_left":[0,0,0,0,0,0,0,0,0,0,0,0,0,0,0],"id":19,"left_children":[1,3,5,7,9,11,13,-1,-1,-1,-1,-1,-1,-1,-1],"loss_changes":[2.1761694E0,3.167848E0,3.6691337E0,2.146862E0,3.2656264E0,3.8145418E0,3.803218E0,0E0,0E0,0E0,0E0,0E0,0E0,0E0,0E0],"parents":[2147483647,0,0,1,1,2,2,3,3,4,4,5,5,6,6],"right_children":[2,4,6,8,10,12,14,-1,-1,-1,-1,-1,-1,-1,-1],"split_conditions":[3.296875E0,-1.3899667E1,2.046875E0,-2.2276882E1,7.49375E1,7.8654015E1,7.91968E1,2.649737E-2,-7.025694E-2,6.477617E-2,-5.763906E-2,6.676246E-2,-3.622025E-2,-3.0782556E-2,2.6526159E-2],"split_indices":[5,2,6,2,4,3,0,0,0,0,0,0,0,0,0],"split_type":[0,0,0,0,0,0,0,0,0,0,0,0,0,0,0],"sum_hessian":[1.0403251E2,2.3947495E1,8.0085014E1,7.4391356E0,1.6508358E1,1.4888679E1,6.5196335E1,3.5860057E0,3.85313E0,1.4770543E1,1.7378153E0,1.039238E1,4.496299E0,5.1145725E1,1.4050612E1],"tree_param":{"num_deleted":"0","num_feature":"7","num_nodes":"15","size_leaf_vector":"1"}},{"base_weights":[-4.9748996E-5,3.8069803E-1,-5.8598746E-2,-8.768774E-3,9.963831E-1,2.767988E-2,-5.4730374E-1,-4.023267E-2,7.289909E-2,1.23348914E-1,2.8188154E-2,-1.2993573E-2,1.0865169E-1,5.6440752E-2,-1.0395717E-1],"categories":[],"categories_nodes":[],"categories_segments":[],"categories_sizes":[],"default_left":[0,0,0,0,0,0,0,0,0,0,0,0,0,0,0],"id":20,"left_children":[1,3,5,7,9,11,13,-1,-1,-1,-1,-1,-1,-1,-1],"loss_changes":[2.3533094E0,3.38249E0,3.8730237E0,3.0833833E0,5.7734823E-1,1.3278329E1,8.126536E0,0E0,0E0,0E0,0E0,0E0,0E0,0E0,0E0],"parents":[2147483647,0,0,1,1,2,2,3,3,4,4,5,5,6,6],"right_children":[2,4,6,8,10,12,14,-1,-1,-1,-1,-1,-1,-1,-1],"split_conditions":[-4.08781E1,-1.4618874E1,9.2489395E1,8.678571E1,1.3953125E1,2.53896E1,9.674461E0,-4.023267E-2,7.289909E-2,1.23348914E-1,2.8188154E-2,-1.2993573E-2,1.0865169E-1,5.6440752E-2,-1.0395717E-1],"split_indices":[0,2,3,3,4,2,2,0,0,0,0,0,0,0,0],"split_type":[0,0,0,0,0,0,0,0,0,0,0,0,0,0,0],"sum_hessian":[1.0356483E2,1.3069678E1,9.049515E1,8.609367E0,4.460311E0,7.771779E1,1.2777358E1,5.910875E0,2.6984925E0,2.8035834E0,1.6567276E0,6.841152E1,9.30627E0,3.876449E0,8.900909E0],"tree_param":{"num_deleted":"0","num_feature":"7","num_nodes":"15","size_leaf_vector":"1"}},{"base_weights":[2.3282384E-3,3.5876104E-1,-5.2306008E-2,-4.59371E-3,9.387022E-1,-7.573965E-1,1.1959986E-3,-3.6983382E-2,6.751625E-2,1.1685157E-1,2.6401132E-2,-9.892934E-2,-5.692051E-3,1.1784723E-1,-4.927253E-3],"categories":[],"categories_nodes":[],"categories_segments":[],"categories_sizes":[],"default_left":[0,0,0,0,0,0,0,0,0,0,0,0,0,0,0],"id":21,"left_children":[1,3,5,7,9,11,13,-1,-1,-1,-1,-1,-1,-1,-1],"loss_changes":[2.045707E0,2.9463086E0,3.438527E0,2.627819E0,5.2610826E-1,9.879265E-1,5.1498265E0,0E0,0E0,0E0,0E0,0E0,0E0,0E0,0E0],"parents":[2147483647,0,0,1,1,2,2,3,3,4,4,5,5,6,6],"right_children":[2,4,6,8,10,12,14,-1,-1,-1,-1,-1,-1,-1,-1],"split_conditions":[-4.08781E1,-1.4618874E1,-3.4221336E1,8.678571E1,1.3953125E1,1.3796875E1,4.0931137E1,-3.6983382E-2,6.751625E-2,1.1685157E-1,2.6401132E-2,-9.892934E-2,-5.692051E-3,1.1784723E-1,-4.927253E-3],"split_indices":[0,2,0,3,4,5,1,0,0,0,0,0,0,0,0],"split_type":[0,0,0,0,0,0,0,0,0,0,0,0,0,0,0],"sum_hessian":[1.0308752E2,1.2961345E1,9.012617E1,8.578608E0,4.3827376E0,5.4285226E0,8.469765E1,5.8768473E0,2.7017598E0,2.7232246E0,1.6595131E0,3.7685914E0,1.6599311E0,2.562879E0,8.2134766E1],"tree_param":{"num_deleted":"0","num_feature":"7","num_nodes":"15","size_leaf_vector":"1"}},{"base_weights":[3.877814E-3,7.352684E-2,-2.6609427E-1,6.043874E-3,6.8086344E-1,-5.018035E-1,2.9716566E-1,1.9469976E-2,-2.3568282E-2,1.2565924E-1,4.9747513E-3,-8.5691124E-2,1.4516607E-2,6.608669E-2,-5.2301932E-2],"categories":[],"categories_nodes":[],"categories_segments":[],"categories_sizes":[],"default_left":[0,0,0,0,0,0,0,0,0,0,0,0,0,0,0],"id":22,"left_children":[1,3,5,7,9,11,13,-1,-1,-1,-1,-1,-1,-1,-1],"loss_changes":[1.9729227E0,3.4125056E0,3.0063455E0,3.5133467E0,2.9632862E0,3.6954813E0,2.426922E0,0E0,0E0,0E0,0E0,0E0,0E0,0E0,0E0],"parents":[2147483647,0,0,1,1,2,2,3,3,4,4,5,5,6,6],"right_children":[2,4,6,8,10,12,14,-1,-1,-1,-1,-1,-1,-1,-1],"split_conditions":[2.7125E1,2.1960938E1,4.7054688E1,3.6067017E1,2.4929688E1,4.9878788E1,2.5421875E1,1.9469976E-2,-2.3568282E-2,1.2565924E-1,4.9747513E-3,-8.5691124E-2,1.4516607E-2,6.608669E-2,-5.2301932E-2],"split_indices":[6,6,6,0,6,0,5,0,0,0,0,0,0,0,0],"split_type":[0,0,0,0,0,0,0,0,0,0,0,0,0,0,0],"sum_hessian":[1.02883804E2,8.236296E1,2.0520842E1,7.50355E1,7.327464E0,1.4543771E1,5.9770713E0,4.225336E1,3.278214E1,3.3136013E0,4.0138626E0,9.180365E0,5.363406E0,4.2754297E0,1.7016414E0],"tree_param":{"num_deleted":"0","num_feature":"7","num_nodes":"15","size_leaf_vector":"1"}},{"base_weights":[4.131364E-3,-4.8037013E-1,4.299868E-2,-7.9698384E-1,5.57656E-2,1.8520415E-1,-1.190089E-1,2.6140152E-3,-9.93553E-2,3.0011147E-2,-3.051394E-2,-4.5070913E-2,1.7462853E-2],"categories":[],"categories_nodes":[],"categories_segments":[],"categories_sizes":[],"default_left":[0,0,0,0,0,0,0,0,0,0,0,0,0],"id":23,"left_children":[1,3,5,7,-1,9,11,-1,-1,-1,-1,-1,-1],"loss_changes":[1.9734809E0,3.0024815E0,2.254869E0,1.0575948E0,0E0,3.0217175E0,4.5506506E0,0E0,0E0,0E0,0E0,0E0,0E0],"parents":[2147483647,0,0,1,1,2,2,3,3,5,5,6,6],"right_children":[2,4,6,8,-1,10,12,-1,-1,-1,-1,-1,-1],"split_conditions":[-3.669494E1,6.0032925E1,6.803627E1,2.046875E0,5.57656E-2,6.300581E0,-5.7808244E-1,2.6140152E-3,-9.93553E-2,3.0011147E-2,-3.051394E-2,-4.5070913E-2,1.7462853E-2],"split_indices":[2,3,3,6,0,2,2,0,0,0,0,0,0],"split_type":[0,0,0,0,0,0,0,0,0,0,0,0,0],"sum_hessian":[1.0270121E2,6.7833953E0,9.5917816E1,5.3758817E0,1.4075134E0,5.100444E1,4.4913372E1,1.203462E0,4.17242E0,4.1635513E1,9.368929E0,2.0838623E1,2.407475E1],"tree_param":{"num_deleted":"0","num_feature":"7","num_nodes":"13","size_leaf_vector":"1"}},{"base_weights":[2.9795205E-3,-3.1439224E-1,6.443328E-2,-6.423063E-1,1.5575536E-1,1.2119718E-1,2.4142785E-2,1.630785E-2,-9.6392386E-2,5.6345236E-2,-5.9441473E-2,-5.477933E-2,7.2900713E-3],"categories":[],"categories_nodes":[],"categories_segments":[],"categories_sizes":[],"default_left":[0,0,0,0,0,0,0,0,0,0,0,0,0],"id":24,"left_children":[1,3,5,7,9,-1,11,-1,-1,-1,-1,-1,-1],"loss_changes":[2.0347214E0,2.709395E0,4.0098624E0,2.7904792E0,2.7080352E0,0E0,2.4219377E0,0E0,0E0,0E0,0E0,0E0,0E0],"parents":[2147483647,0,0,1,1,2,2,3,3,4,4,6,6],"right_children":[2,4,6,8,10,-1,12,-1,-1,-1,-1,-1,-1],"split_conditions":[5.1077568E1,4.6875E-1,5.218527E1,-1.9343266E1,1.27578125E1,1.2119718E-1,5.4353794E1,1.630785E-2,-9.6392386E-2,5.6345236E-2,-5.9441473E-2,-5.477933E-2,7.2900713E-3],"split_indices":[3,4,3,2,6,0,3,0,0,0,0,0,0],"split_type":[0,0,0,0,0,0,0,0,0,0,0,0,0],"sum_hessian":[1.02286316E2,1.5925378E1,8.636094E1,9.166107E0,6.7592697E0,1.9429086E0,8.441803E1,2.7564445E0,6.409663E0,4.540521E0,2.2187488E0,5.827369E0,7.859066E1],"tree_param":{"num_deleted":"0","num_feature":"7","num_nodes":"13","size_leaf_vector":"1"}},{"base_weights":[2.581656E-3,4.3431018E-2,-4.7432297E-1,-7.1707405E-3,9.98044E-1,7.9583466E-2,-8.453598E-1,-8.478991E-3,6.6811435E-2,1.2700868E-1,2.0308165E-2,-1.22945E-1,1.9146929E-2],"categories":[],"categories_nodes":[],"categories_segments":[],"categories_sizes":[],"default_left":[0,0,0,0,0,0,0,0,0,0,0,0,0],"id":25,"left_children":[1,3,5,7,9,-1,11,-1,-1,-1,-1,-1,-1],"loss_changes":[2.0299127E0,4.640554E0,4.547314E0,4.883227E0,7.878432E-1,0E0,2.962381E0,0E0,0E0,0E0,0E0,0E0,0E0],"parents":[2147483647,0,0,1,1,2,2,3,3,4,4,6,6],"right_children":[2,4,6,8,10,-1,12,-1,-1,-1,-1,-1,-1],"split_conditions":[4.240649E1,1.12533485E2,8.824107E1,2.53896E1,1.473419E2,7.9583466E-2,8.815482E1,-8.478991E-3,6.6811435E-2,1.2700868E-1,2.0308165E-2,-1.22945E-1,1.9146929E-2],"split_indices":[2,3,3,2,0,0,1,0,0,0,0,0,0],"split_type":[0,0,0,0,0,0,0,0,0,0,0,0,0],"sum_hessian":[1.0214083E2,9.491942E1,7.2214108E0,9.108377E1,3.8356454E0,1.3737626E0,5.847648E0,8.247797E1,8.60581E0,2.4124246E0,1.4232209E0,4.1314034E0,1.7162447E0],"tree_param":{"num_deleted":"0","num_feature":"7","num_nodes":"13","size_leaf_vector":"1"}},{"base_weights":[4.1279327E-3,2.397045E-1,-6.8026915E-2,-1.9420265E-1,4.3585822E-1,2.9953024E-1,-1.5501113E-1,2.875801E-2,-6.1516937E-2,5.8116306E-2,-5.3979646E-2,5.9786636E-2,-3.722849E-2,-2.6280483E-2,2.3442386E-2],"categories":[],"categories_nodes":[],"categories_segments":[],"categories_sizes":[],"default_left":[0,0,0,0,0,0,0,0,0,0,0,0,0,0,0],"id":26,"left_children":[1,3,5,7,9,11,13,-1,-1,-1,-1,-1,-1,-1,-1],"loss_changes":[1.7633622E0,2.154604E0,2.586895E0,1.8528235E0,2.7318347E0,3.3386154E0,2.7865605E0,0E0,0E0,0E0,0E0,0E0,0E0,0E0,0E0],"parents":[2147483647,0,0,1,1,2,2,3,3,4,4,5,5,6,6],"right_children":[2,4,6,8,10,12,14,-1,-1,-1,-1,-1,-1,-1,-1],"split_conditions":[3.296875E0,-1.3899667E1,2.046875E0,-2.2276882E1,7.49375E1,7.8654015E1,7.91968E1,2.875801E-2,-6.1516937E-2,5.8116306E-2,-5.3979646E-2,5.9786636E-2,-3.722849E-2,-2.6280483E-2,2.3442386E-2],"split_indices":[5,2,6,2,4,3,0,0,0,0,0,0,0,0,0],"split_type":[0,0,0,0,0,0,0,0,0,0,0,0,0,0,0],"sum_hessian":[1.01780136E2,2.3320272E1,7.845986E1,7.2632804E0,1.6056992E1,1.4547023E1,6.3912838E1,3.5347414E0,3.728539E0,1.432752E1,1.7294712E0,1.0149818E1,4.3972044E0,5.0311913E1,1.3600928E1],"tree_param":{"num_deleted":"0","num_feature":"7","num_nodes":"15","size_leaf_vector":"1"}},{"base_weights":[3.7037793E-3,3.2130265E-1,-5.3696945E-2,6.322332E-1,-2.848385E-1,-2.9375184E-1,9.882121E-2,-3.834814E-2,9.626176E-2,-9.6334405E-2,2.149184E-2,-3.702401E-2,5.882735E-2,-2.5154972E-2,2.9158393E-2],"categories":[],"categories_nodes":[],"categories_segments":[],"categories_sizes":[],"default_left":[0,0,0,0,0,0,0,0,0,0,0,0,0,0,0],"id":27,"left_children":[1,3,5,7,9,11,13,-1,-1,-1,-1,-1,-1,-1,-1],"loss_changes":[1.8819779E0,3.157888E0,3.232147E0,3.9778295E0,2.2572913E0,2.5278587E0,3.7370024E0,0E0,0E0,0E0,0E0,0E0,0E0,0E0,0E0],"parents":[2147483647,0,0,1,1,2,2,3,3,4,4,5,5,6,6],"right_children":[2,4,6,8,10,12,14,-1,-1,-1,-1,-1,-1,-1,-1],"split_conditions":[4.0840775E1,2.4820312E1,-8.2109375E0,2.9847507E1,3.1820312E1,7.61326E1,5.7189175E1,-3.834814E-2,9.626176E-2,-9.6334405E-2,2.149184E-2,-3.702401E-2,5.882735E-2,-2.5154972E-2,2.9158393E-2],"split_indices":[1,6,4,1,6,1,3,0,0,0,0,0,0,0,0],"split_type":[0,0,0,0,0,0,0,0,0,0,0,0,0,0,0],"sum_hessian":[1.0128654E2,1.4800065E1,8.648647E1,9.753694E0,5.046371E0,3.324101E1,5.3245464E1,2.3544862E0,7.3992076E0,1.7469549E0,3.2994158E0,3.1122349E1,2.1186578E0,1.878903E1,3.4456436E1],"tree_param":{"num_deleted":"0","num_feature":"7","num_nodes":"15","size_leaf_vector":"1"}},{"base_weights":[3.432745E-3,4.2915307E-2,-4.636817E-1,-3.4121207E-3,9.237746E-1,7.4734434E-2,-8.051788E-1,-7.0113586E-3,5.8897037E-2,1.1913635E-1,1.659506E-2,-1.16137005E-1,1.5278122E-2],"categories":[],"categories_nodes":[],"categories_segments":[],"categories_sizes":[],"default_left":[0,0,0,0,0,0,0,0,0,0,0,0,0],"id":28,"left_children":[1,3,5,7,9,-1,11,-1,-1,-1,-1,-1,-1],"loss_changes":[1.9006803E0,3.8777092E0,3.923729E0,3.644798E0,7.6505995E-1,0E0,2.4796648E0,0E0,0E0,0E0,0E0,0E0,0E0],"parents":[2147483647,0,0,1,1,2,2,3,3,4,4,6,6],"right_children":[2,4,6,8,10,-1,12,-1,-1,-1,-1,-1,-1],"split_conditions":[4.240649E1,1.12533485E2,8.824107E1,2.53896E1,1.473419E2,7.4734434E-2,8.815482E1,-7.0113586E-3,5.8897037E-2,1.1913635E-1,1.659506E-2,-1.16137005E-1,1.5278122E-2],"split_indices":[2,3,3,2,0,0,1,0,0,0,0,0,0],"split_type":[0,0,0,0,0,0,0,0,0,0,0,0,0],"sum_hessian":[1.0097876E2,9.3946144E1,7.0326133E0,9.0198425E1,3.74772E0,1.285501E0,5.7471123E0,8.1862465E1,8.33596E0,2.3469305E0,1.4007894E0,4.0346146E0,1.7124976E0],"tree_param":{"num_deleted":"0","num_feature":"7","num_nodes":"13","size_leaf_vector":"1"}},{"base_weights":[4.7176974E-3,7.376271E-2,-1.7137686E-2,5.415562E-2,-3.0224103E-1,-1.17248E-3,6.418625E-2,-6.268428E-2,1.0172992E-2],"categories":[],"categories_nodes":[],"categories_segments":[],"categories_sizes":[],"default_left":[0,0,0,0,0,0,0,0,0],"id":29,"left_children":[1,-1,3,5,7,-1,-1,-1,-1],"loss_changes":[1.6399542E0,0E0,2.0414069E0,3.1261635E0,2.69705E0,0E0,0E0,0E0,0E0],"parents":[2147483647,0,0,2,2,3,3,4,4],"right_children":[2,-1,4,6,8,-1,-1,-1,-1],"split_conditions":[-1.0096875E2,7.376271E-2,2.7125E1,2.1960938E1,3.8210938E1,-1.17248E-3,6.418625E-2,-6.268428E-2,1.0172992E-2],"split_indices":[4,0,6,6,6,0,0,0,0],"split_type":[0,0,0,0,0,0,0,0,0],"sum_hessian":[1.0059269E2,1.9644799E0,9.8628204E1,7.954671E1,1.9081503E1,7.2409805E1,7.136902E0,1.0274199E1,8.807304E0],"tree_param":{"num_deleted":"0","num_feature":"7","num_nodes":"9","size_leaf_vector":"1"}},{"base_weights":[5.0750026E-3,4.1412834E-2,-4.333454E-1,-1.740534E-3,8.7181944E-1,7.200616E-2,-7.562674E-1,-8.070081E-3,4.27257E-2,1.112595E-1,1.0009884E-2,-1.0943073E-1,1.36986375E-2],"categories":[],"categories_nodes":[],"categories_segments":[],"categories_sizes":[],"default_left":[0,0,0,0,0,0,0,0,0,0,0,0,0],"id":30,"left_children":[1,3,5,7,9,-1,11,-1,-1,-1,-1,-1,-1],"loss_changes":[1.6335438E0,3.3901126E0,3.468063E0,3.1132047E0,7.56979E-1,0E0,2.148859E0,0E0,0E0,0E0,0E0,0E0,0E0],"parents":[2147483647,0,0,1,1,2,2,3,3,4,4,6,6],"right_children":[2,4,6,8,10,-1,12,-1,-1,-1,-1,-1,-1],"split_conditions":[4.240649E1,1.12533485E2,8.824107E1,1.7860264E1,1.6768988E1,7.200616E-2,8.815482E1,-8.070081E-3,4.27257E-2,1.112595E-1,1.0009884E-2,-1.0943073E-1,1.36986375E-2],"split_indices":[2,3,3,2,2,0,1,0,0,0,0,0,0],"split_type":[0,0,0,0,0,0,0,0,0,0,0,0,0],"sum_hessian":[1.0041064E2,9.356147E1,6.8491645E0,8.988819E1,3.6732755E0,1.2291342E0,5.62003E0,7.660107E1,1.3287126E1,2.463089E0,1.2101866E0,3.9138184E0,1.7062117E0],"tree_param":{"num_deleted":"0","num_feature":"7","num_nodes":"13","size_leaf_vector":"1"}},{"base_weights":[5.9134183E-3,8.792037E-2,-2.0102213E-1,-4.3000046E-2,4.939131E-1,-7.0023733E-1,1.7698374E-1,1.0632874E-2,-5.132836E-2,-2.9744659E-2,6.7515306E-2,2.3625765E-2,-1.0584135E-1,-9.136965E-2,4.056378E-2],"categories":[],"categories_nodes":[],"categories_segments":[],"categories_sizes":[],"default_left":[0,0,0,0,0,0,0,0,0,0,0,0,0,0,0],"id":31,"left_children":[1,3,5,7,9,11,13,-1,-1,-1,-1,-1,-1,-1,-1],"loss_changes":[1.7318894E0,3.9035065E0,5.5914497E0,3.9978013E0,2.7667203E0,4.5056267E0,4.6817594E0,0E0,0E0,0E0,0E0,0E0,0E0,0E0,0E0],"parents":[2147483647,0,0,1,1,2,2,3,3,4,4,5,5,6,6],"right_children":[2,4,6,8,10,12,14,-1,-1,-1,-1,-1,-1,-1,-1],"split_conditions":[6.3808704E1,5.8181427E1,6.982186E1,2.4929688E1,-2.2335938E1,-3.6370823E0,5.9070312E1,1.0632874E-2,-5.132836E-2,-2.9744659E-2,6.7515306E-2,2.3625765E-2,-1.0584135E-1,-9.136965E-2,4.056378E-2],"split_indices":[1,1,1,6,4,2,3,0,0,0,0,0,0,0,0],"split_type":[0,0,0,0,0,0,0,0,0,0,0,0,0,0,0],"sum_hessian":[1.0001356E2,7.2039856E1,2.7973701E1,5.5149796E1,1.6890059E1,1.1686896E1,1.6286806E1,4.244589E1,1.2703906E1,3.0279117E0,1.3862146E1,3.3273983E0,8.359498E0,2.3034358E0,1.398337E1],"tree_param":{"num_deleted":"0","num_feature":"7","num_nodes":"15","size_leaf_vector":"1"}},{"base_weights":[3.9624283E-3,3.070205E-1,-5.056885E-2,6.044685E-1,-2.0913725E-1,-7.0885E-1,8.9838717E-4,8.120621E-3,8.318927E-2,-5.6780513E-2,2.7195439E-2,-1.0847407E-1,-1.4286119E-2,9.082453E-3,-4.0045835E-2],"categories":[],"categories_nodes":[],"categories_segments":[],"categories_sizes":[],"default_left":[0,0,0,0,0,0,0,0,0,0,0,0,0,0,0],"id":32,"left_children":[1,3,5,7,9,11,13,-1,-1,-1,-1,-1,-1,-1,-1],"loss_changes":[1.677969E0,2.5033402E0,2.9181361E0,1.1318502E0,1.259265E0,1.17381E0,2.9550686E0,0E0,0E0,0E0,0E0,0E0,0E0,0E0,0E0],"parents":[2147483647,0,0,1,1,2,2,3,3,4,4,5,5,6,6],"right_children":[2,4,6,8,10,12,14,-1,-1,-1,-1,-1,-1,-1,-1],"split_conditions":[4.0840775E1,-5.703125E0,-3.669494E1,-6.0335938E1,-8.680741E1,6.7890625E0,9.1907364E1,8.120621E-3,8.318927E-2,-5.6780513E-2,2.7195439E-2,-1.0847407E-1,-1.4286119E-2,9.082453E-3,-4.0045835E-2],"split_indices":[1,4,2,4,0,5,3,0,0,0,0,0,0,0,0],"split_type":[0,0,0,0,0,0,0,0,0,0,0,0,0,0,0],"sum_hessian":[9.959476E1,1.4481809E1,8.5112946E1,9.078828E0,5.402981E0,5.2457256E0,7.986722E1,3.161606E0,5.9172215E0,2.9920654E0,2.4109154E0,2.601469E0,2.6442566E0,6.588013E1,1.3987093E1],"tree_param":{"num_deleted":"0","num_feature":"7","num_nodes":"15","size_leaf_vector":"1"}},{"base_weights":[2.5881436E-3,3.254963E-1,-4.596396E-2,9.074988E-2,1.0063131E-1,3.183297E-2,-4.5788446E-1,-2.6172256E-2,5.8014672E-2,-8.2424665E-3,9.456148E-2,3.5752222E-2,-8.1629544E-2],"categories":[],"categories_nodes":[],"categories_segments":[],"categories_sizes":[],"default_left":[0,0,0,0,0,0,0,0,0,0,0,0,0],"id":33,"left_children":[1,3,5,7,-1,9,11,-1,-1,-1,-1,-1,-1],"loss_changes":[1.589043E0,2.0257752E0,2.8395944E0,2.0406168E0,0E0,7.917345E0,4.403616E0,0E0,0E0,0E0,0E0,0E0,0E0],"parents":[2147483647,0,0,1,1,2,2,3,3,5,5,6,6],"right_children":[2,4,6,8,-1,10,12,-1,-1,-1,-1,-1,-1],"split_conditions":[-4.08781E1,4.1204124E1,9.1907364E1,8.678571E1,1.0063131E-1,2.53896E1,9.674461E0,-2.6172256E-2,5.8014672E-2,-8.2424665E-3,9.456148E-2,3.5752222E-2,-8.1629544E-2],"split_indices":[0,1,3,3,0,2,2,0,0,0,0,0,0],"split_type":[0,0,0,0,0,0,0,0,0,0,0,0,0],"sum_hessian":[9.940151E1,1.2246824E1,8.715469E1,9.949515E0,2.297309E0,7.408536E1,1.3069332E1,6.054308E0,3.8952076E0,6.6660095E1,7.425261E0,3.9913192E0,9.078013E0],"tree_param":{"num_deleted":"0","num_feature":"7","num_nodes":"13","size_leaf_vector":"1"}},{"base_weights":[4.1888054E-3,2.2552206E-1,-6.2899336E-2,-1.2922598E-1,4.2916512E-1,2.605488E-1,-1.3870977E-1,2.0438833E-2,-9.655316E-2,5.902151E-2,-5.347679E-2,6.949555E-2,-1.6052028E-2,-5.154368E-2,-3.1123178E-3],"categories":[],"categories_nodes":[],"categories_segments":[],"categories_sizes":[],"default_left":[0,0,0,0,0,0,0,0,0,0,0,0,0,0,0],"id":34,"left_children":[1,3,5,7,9,11,13,-1,-1,-1,-1,-1,-1,-1,-1],"loss_changes":[1.49815E0,1.7505554E0,1.9358602E0,2.7992907E0,2.6657171E0,2.8658965E0,2.5542555E0,0E0,0E0,0E0,0E0,0E0,0E0,0E0,0E0],"parents":[2147483647,0,0,1,1,2,2,3,3,4,4,5,5,6,6],"right_children":[2,4,6,8,10,12,14,-1,-1,-1,-1,-1,-1,-1,-1],"split_conditions":[3.296875E0,-1.54921875E1,2.046875E0,-3.2710938E1,7.49375E1,1.2078125E1,6.7109375E0,2.0438833E-2,-9.655316E-2,5.902151E-2,-5.347679E-2,6.949555E-2,-1.6052028E-2,-5.154368E-2,-3.1123178E-3],"split_indices":[5,4,6,4,4,4,5,0,0,0,0,0,0,0,0],"split_type":[0,0,0,0,0,0,0,0,0,0,0,0,0,0,0],"sum_hessian":[9.893812E1,2.2464146E1,7.647397E1,8.325857E0,1.4138289E1,1.4058024E1,6.2415947E1,6.491793E0,1.834064E0,1.2446484E1,1.6918056E0,6.5992665E0,7.4587574E0,1.3023109E1,4.9392838E1],"tree_param":{"num_deleted":"0","num_feature":"7","num_nodes":"15","size_leaf_vector":"1"}},{"base_weights":[3.1150181E-3,6.9555506E-2,-1.755317E-2,-2.1908276E-1,6.804618E-2,2.1196427E-2,-3.801533E-2,-1.8992828E-2,2.0382842E-2],"categories":[],"categories_nodes":[],"categories_segments":[],"categories_sizes":[],"default_left":[0,0,0,0,0,0,0,0,0],"id":35,"left_children":[1,-1,3,5,7,-1,-1,-1,-1],"loss_changes":[1.4376067E0,0E0,1.7000852E0,2.1189833E0,2.4671347E0,0E0,0E0,0E0,0E0],"parents":[2147483647,0,0,2,2,3,3,4,4],"right_children":[2,-1,4,6,8,-1,-1,-1,-1],"split_conditions":[-1.0096875E2,6.9555506E-2,-1.7015625E1,4.2548393E1,5.1543606E1,2.1196427E-2,-3.801533E-2,-1.8992828E-2,2.0382842E-2],"split_indices":[4,0,4,1,1,0,0,0,0],"split_type":[0,0,0,0,0,0,0,0,0],"sum_hessian":[9.859818E1,1.9112934E0,9.668689E1,2.8359566E1,6.8327324E1,7.6285467E0,2.073102E1,2.3424341E1,4.4902985E1],"tree_param":{"num_deleted":"0","num_feature":"7","num_nodes":"9","size_leaf_vector":"1"}},{"base_weights":[3.3596465E-3,7.7867635E-2,-1.87108E-1,-4.198484E-2,4.4997165E-1,-6.4431304E-1,1.654667E-1,9.147019E-3,-4.6446208E-2,-2.3511684E-2,6.0410913E-2,2.1623338E-2,-9.757818E-2,-8.571159E-2,3.816969E-2],"categories":[],"categories_nodes":[],"categories_segments":[],"categories_sizes":[],"default_left":[0,0,0,0,0,0,0,0,0,0,0,0,0,0,0],"id":36,"left_children":[1,3,5,7,9,11,13,-1,-1,-1,-1,-1,-1,-1,-1],"loss_changes":[1.4254314E0,3.2374208E0,4.660277E0,3.1717236E0,2.007661E0,3.7776089E0,4.0297027E0,0E0,0E0,0E0,0E0,0E0,0E0,0E0,0E0],"parents":[2147483647,0,0,1,1,2,2,3,3,4,4,5,5,6,6],"right_children":[2,4,6,8,10,12,14,-1,-1,-1,-1,-1,-1,-1,-1],"split_conditions":[6.3808704E1,5.8181427E1,6.982186E1,2.4929688E1,-2.2335938E1,-3.6370823E0,5.9070312E1,9.147019E-3,-4.6446208E-2,-2.3511684E-2,6.0410913E-2,2.1623338E-2,-9.757818E-2,-8.571159E-2,3.816969E-2],"split_indices":[1,1,1,6,4,2,3,0,0,0,0,0,0,0,0],"split_type":[0,0,0,0,0,0,0,0,0,0,0,0,0,0,0],"sum_hessian":[9.8416954E1,7.116823E1,2.724873E1,5.450096E1,1.6667265E1,1.1503714E1,1.5745016E1,4.2013073E1,1.2487889E1,2.9647207E0,1.3702543E1,3.2955596E0,8.208154E0,2.2308958E0,1.351412E1],"tree_param":{"num_deleted":"0","num_feature":"7","num_nodes":"15","size_leaf_vector":"1"}},{"base_weights":[1.7462618E-3,3.1688258E-1,-4.5739155E-2,-1.5924666E-2,7.4753594E-1,-6.869516E-1,3.387785E-3,-5.882671E-2,6.1861407E-2,8.642761E-3,8.9850254E-2,-8.9244165E-2,-6.7847716E-3,1.03433326E-1,-4.120241E-3],"categories":[],"categories_nodes":[],"categories_segments":[],"categories_sizes":[],"default_left":[0,0,0,0,0,0,0,0,0,0,0,0,0,0,0],"id":37,"left_children":[1,3,5,7,9,11,13,-1,-1,-1,-1,-1,-1,-1,-1],"loss_changes":[1.4951597E0,1.88704E0,2.738578E0,3.39971E0,4.9363518E-1,7.264776E-1,3.7972908E0,0E0,0E0,0E0,0E0,0E0,0E0,0E0,0E0],"parents":[2147483647,0,0,1,1,2,2,3,3,4,4,5,5,6,6],"right_children":[2,4,6,8,10,12,14,-1,-1,-1,-1,-1,-1,-1,-1],"split_conditions":[-4.08781E1,3.5495304E1,-3.4221336E1,8.678571E1,5.234375E-1,1.3796875E1,4.0931137E1,-5.882671E-2,6.1861407E-2,8.642761E-3,8.9850254E-2,-8.9244165E-2,-6.7847716E-3,1.03433326E-1,-4.120241E-3],"split_indices":[0,1,0,3,6,5,1,0,0,0,0,0,0,0,0],"split_type":[0,0,0,0,0,0,0,0,0,0,0,0,0,0,0],"sum_hessian":[9.794602E1,1.2083144E1,8.586288E1,7.3590903E0,4.724054E0,5.1863704E0,8.067651E1,3.9075096E0,3.4515808E0,1.1705427E0,3.5535111E0,3.5624378E0,1.6239328E0,2.424502E0,7.825201E1],"tree_param":{"num_deleted":"0","num_feature":"7","num_nodes":"15","size_leaf_vector":"1"}},{"base_weights":[2.6316182E-3,1.130209E-1,-1.22679904E-1,-2.3565E-4,9.991768E-1,-4.255656E-1,8.9654945E-2,1.3533595E-2,-3.4551676E-2,1.2040343E-1,3.0003428E-2,2.1088539E-2,-7.128148E-2,2.9771818E-2,-4.1889828E-2],"categories":[],"categories_nodes":[],"categories_segments":[],"categories_sizes":[],"default_left":[0,0,0,0,0,0,0,0,0,0,0,0,0,0,0],"id":38,"left_children":[1,3,5,7,9,11,13,-1,-1,-1,-1,-1,-1,-1,-1],"loss_changes":[1.3795086E0,5.320194E0,3.042611E0,2.2936563E0,4.9912357E-1,3.7019331E0,3.1180298E0,0E0,0E0,0E0,0E0,0E0,0E0,0E0,0E0],"parents":[2147483647,0,0,1,1,2,2,3,3,4,4,5,5,6,6],"right_children":[2,4,6,8,10,12,14,-1,-1,-1,-1,-1,-1,-1,-1],"split_conditions":[1.05546875E1,9.3125E0,5.1543606E1,6.3536697E1,3.46469E0,-3.8045525E1,2.3487364E1,1.3533595E-2,-3.4551676E-2,1.2040343E-1,3.0003428E-2,2.1088539E-2,-7.128148E-2,2.9771818E-2,-4.1889828E-2],"split_indices":[5,5,1,1,2,0,2,0,0,0,0,0,0,0,0],"split_type":[0,0,0,0,0,0,0,0,0,0,0,0,0,0,0],"sum_hessian":[9.772322E1,5.2007187E1,4.571603E1,4.700001E1,5.0071764E0,1.8426819E1,2.7289213E1,3.418544E1,1.2814573E1,3.3139799E0,1.6931963E0,5.812981E0,1.2613838E1,1.966024E1,7.628972E0],"tree_param":{"num_deleted":"0","num_feature":"7","num_nodes":"15","size_leaf_vector":"1"}},{"base_weights":[3.0169087E-3,-4.0870565E-1,3.516356E-2,-7.063862E-1,5.051298E-2,1.7110085E-1,-1.25357E-1,8.3887234E-4,-8.877104E-2,2.8296221E-2,-3.162175E-2,-4.1447636E-2,1.3973551E-2],"categories":[],"categories_nodes":[],"categories_segments":[],"categories_sizes":[],"default_left":[0,0,0,0,0,0,0,0,0,0,0,0,0],"id":39,"left_children":[1,3,5,7,-1,9,11,-1,-1,-1,-1,-1,-1],"loss_changes":[1.3195397E0,2.3211546E0,2.0374691E0,7.6741433E-1,0E0,2.8395348E0,3.3491046E0,0E0,0E0,0E0,0E0,0E0,0E0],"parents":[2147483647,0,0,1,1,2,2,3,3,5,5,6,6],"right_children":[2,4,6,8,-1,10,12,-1,-1,-1,-1,-1,-1],"split_conditions":[-3.669494E1,6.0032925E1,6.803627E1,2.046875E0,5.051298E-2,6.300581E0,-5.7808244E-1,8.3887234E-4,-8.877104E-2,2.8296221E-2,-3.162175E-2,-4.1447636E-2,1.3973551E-2],"split_indices":[2,3,3,6,0,2,2,0,0,0,0,0,0],"split_type":[0,0,0,0,0,0,0,0,0,0,0,0,0],"sum_hessian":[9.761116E1,6.2210054E0,9.139016E1,4.863679E0,1.3573266E0,4.9448578E1,4.194158E1,1.1771442E0,3.6865346E0,4.0558044E1,8.890535E0,1.9792097E1,2.2149483E1],"tree_param":{"num_deleted":"0","num_feature":"7","num_nodes":"13","size_leaf_vector":"1"}},{"base_weights":[1.9544237E-3,2.7893257E-1,-4.7582887E-2,5.501599E-1,-1.9430174E-1,-3.7914702E-1,3.963493E-2,7.3278346E-3,7.519038E-2,-5.384427E-2,2.6817132E-2,-5.6698304E-2,5.88559E-2,-3.5935342E-2,1.5451789E-2],"categories":[],"categories_nodes":[],"categories_segments":[],"categories_sizes":[],"default_left":[0,0,0,0,0,0,0,0,0,0,0,0,0,0,0],"id":40,"left_children":[1,3,5,7,9,11,13,-1,-1,-1,-1,-1,-1,-1,-1],"loss_changes":[1.3606933E0,2.0379357E0,2.4487486E0,8.9009285E-1,1.1343706E0,3.5368462E0,3.1511974E0,0E0,0E0,0E0,0E0,0E0,0E0,0E0,0E0],"parents":[2147483647,0,0,1,1,2,2,3,3,4,4,5,5,6,6],"right_children":[2,4,6,8,10,12,14,-1,-1,-1,-1,-1,-1,-1,-1],"split_conditions":[4.0840775E1,-5.703125E0,4.78845E1,-6.0335938E1,-8.680741E1,-4.624565E0,-2.2335938E1,7.3278346E-3,7.519038E-2,-5.384427E-2,2.6817132E-2,-5.6698304E-2,5.88559E-2,-3.5935342E-2,1.5451789E-2],"split_indices":[1,4,1,4,0,2,4,0,0,0,0,0,0,0,0],"split_type":[0,0,0,0,0,0,0,0,0,0,0,0,0,0,0],"sum_hessian":[9.720314E1,1.4044623E1,8.3158516E1,8.824461E0,5.220163E0,1.6621956E1,6.653656E1,3.0286274E0,5.7958336E0,2.898803E0,2.3213596E0,1.4266802E1,2.3551533E0,1.4399415E1,5.2137142E1],"tree_param":{"num_deleted":"0","num_feature":"7","num_nodes":"15","size_leaf_vector":"1"}},{"base_weights":[2.1139816E-3,6.8120785E-2,-1.8205173E-2,-7.6636426E-2,3.2930595E-3,7.785652E-3,-1.8246433E-2],"categories":[],"categories_nodes":[],"categories_segments":[],"categories_sizes":[],"default_left":[0,0,0,0,0,0,0],"id":41,"left_children":[1,-1,3,-1,5,-1,-1],"loss_changes":[1.3635659E0,0E0,1.5473937E0,0E0,1.3211921E0,0E0,0E0],"parents":[2147483647,0,0,2,2,4,4],"right_children":[2,-1,4,-1,6,-1,-1],"split_conditions":[-1.0096875E2,6.8120785E-2,-8.3859375E1,-7.6636426E-2,6.3808704E1,7.785652E-3,-1.8246433E-2],"split_indices":[4,0,4,0,1,0,0],"split_type":[0,0,0,0,0,0,0],"sum_hessian":[9.692031E1,1.8707833E0,9.504953E1,1.6871548E0,9.336237E1,6.7035164E1,2.6327208E1],"tree_param":{"num_deleted":"0","num_feature":"7","num_nodes":"7","size_leaf_vector":"1"}},{"base_weights":[1.7144699E-3,2.0927131E-1,-6.0520884E-2,-1.6008498E-1,3.794627E-1,2.3825626E-1,-1.3002832E-1,2.9015472E-2,-5.6777555E-2,5.1653553E-2,-4.95916E-2,5.1875126E-2,-3.9587606E-2,-9.398386E-2,-8.027804E-3],"categories":[],"categories_nodes":[],"categories_segments":[],"categories_sizes":[],"default_left":[0,0,0,0,0,0,0,0,0,0,0,0,0,0,0],"id":42,"left_children":[1,3,5,7,9,11,13,-1,-1,-1,-1,-1,-1,-1,-1],"loss_changes":[1.2772398E0,1.4944314E0,1.6111602E0,1.6143831E0,2.1651733E0,2.822513E0,2.4375858E0,0E0,0E0,0E0,0E0,0E0,0E0,0E0,0E0],"parents":[2147483647,0,0,1,1,2,2,3,3,4,4,5,5,6,6],"right_children":[2,4,6,8,10,12,14,-1,-1,-1,-1,-1,-1,-1,-1],"split_conditions":[3.296875E0,-1.3899667E1,2.046875E0,-2.2276882E1,7.49375E1,7.8654015E1,3.0078125E0,2.9015472E-2,-5.6777555E-2,5.1653553E-2,-4.95916E-2,5.1875126E-2,-3.9587606E-2,-9.398386E-2,-8.027804E-3],"split_indices":[5,2,6,2,4,3,6,0,0,0,0,0,0,0,0],"split_type":[0,0,0,0,0,0,0,0,0,0,0,0,0,0,0],"sum_hessian":[9.689719E1,2.1807135E1,7.509005E1,6.8974304E0,1.4909703E1,1.3713766E1,6.1376286E1,3.414675E0,3.4827554E0,1.3245553E1,1.6641506E0,9.634222E0,4.0795436E0,2.5168667E0,5.8859417E1],"tree_param":{"num_deleted":"0","num_feature":"7","num_nodes":"15","size_leaf_vector":"1"}},{"base_weights":[4.030717E-4,7.485463E-2,-1.5997088E-2,1.4530368E-2,-4.037837E-1,-2.334708E-3,7.773243E-2,6.4482264E-2,-6.9800995E-2],"categories":[],"categories_nodes":[],"categories_segments":[],"categories_sizes":[],"default_left":[0,0,0,0,0,0,0,0,0],"id":43,"left_children":[1,-1,3,5,7,-1,-1,-1,-1],"loss_changes":[1.2084937E0,0E0,1.1471312E0,2.628184E0,2.6314335E0,0E0,0E0,0E0,0E0],"parents":[2147483647,0,0,2,2,3,3,4,4],"right_children":[2,-1,4,6,8,-1,-1,-1,-1],"split_conditions":[-1.14203125E2,7.485463E-2,4.240649E1,1.12533485E2,8.824107E1,-2.334708E-3,7.773243E-2,6.4482264E-2,-6.9800995E-2],"split_indices":[4,0,2,3,3,0,0,0,0],"split_type":[0,0,0,0,0,0,0,0,0],"sum_hessian":[9.651848E1,1.1127849E0,9.540569E1,8.9335526E1,6.070168E0,8.603285E1,3.3026724E0,1.0689392E0,5.0012293E0],"tree_param":{"num_deleted":"0","num_feature":"7","num_nodes":"9","size_leaf_vector":"1"}},{"base_weights":[1.8736628E-3,-2.455212E-1,5.0513834E-2,-5.47291E-1,1.8047154E-1,1.04072414E-1,1.48545215E-2,1.9465076E-2,-8.320435E-2,8.0788724E-2,-2.6355688E-2,-4.9593303E-2,6.0044075E-3],"categories":[],"categories_nodes":[],"categories_segments":[],"categories_sizes":[],"default_left":[0,0,0,0,0,0,0,0,0,0,0,0,0],"id":44,"left_children":[1,3,5,7,9,-1,11,-1,-1,-1,-1,-1,-1],"loss_changes":[1.1828463E0,2.175152E0,2.8840303E0,2.211814E0,2.2882993E0,0E0,1.8827043E0,0E0,0E0,0E0,0E0,0E0,0E0],"parents":[2147483647,0,0,1,1,2,2,3,3,4,4,6,6],"right_children":[2,4,6,8,10,-1,12,-1,-1,-1,-1,-1,-1],"split_conditions":[5.1077568E1,4.6875E-1,5.218527E1,-1.9343266E1,8.9765625E0,1.04072414E-1,5.4353794E1,1.9465076E-2,-8.320435E-2,8.0788724E-2,-2.6355688E-2,-4.9593303E-2,6.0044075E-3],"split_indices":[3,4,3,2,4,0,3,0,0,0,0,0,0],"split_type":[0,0,0,0,0,0,0,0,0,0,0,0,0],"sum_hessian":[9.626685E1,1.5152108E1,8.1114746E1,8.70255E0,6.449558E0,1.839835E0,7.927491E1,2.5014024E0,6.201148E0,2.3332324E0,4.1163254E0,5.632704E0,7.3642204E1],"tree_param":{"num_deleted":"0","num_feature":"7","num_nodes":"13","size_leaf_vector":"1"}},{"base_weights":[2.2102192E-3,-3.8450935E-1,3.1802215E-2,-6.790374E-1,4.895511E-2,3.7876177E-1,-3.392104E-2,-1.3265683E-3,-8.487212E-2,-1.485266E-2,9.3639545E-2,-5.6800075E-2,3.0297192E-3],"categories":[],"categories_nodes":[],"categories_segments":[],"categories_sizes":[],"default_left":[0,0,0,0,0,0,0,0,0,0,0,0,0],"id":45,"left_children":[1,3,5,7,-1,9,11,-1,-1,-1,-1,-1,-1],"loss_changes":[1.1231865E0,2.1285317E0,2.0902874E0,6.2560296E-1,0E0,4.4293404E0,2.6756704E0,0E0,0E0,0E0,0E0,0E0,0E0],"parents":[2147483647,0,0,1,1,2,2,3,3,5,5,6,6],"right_children":[2,4,6,8,-1,10,12,-1,-1,-1,-1,-1,-1],"split_conditions":[-3.669494E1,6.0032925E1,-1.9343266E1,2.046875E0,4.895511E-2,-2.888927E1,-1.5665944E1,-1.3265683E-3,-8.487212E-2,-1.485266E-2,9.3639545E-2,-5.6800075E-2,3.0297192E-3],"split_indices":[2,3,2,6,0,0,2,0,0,0,0,0,0],"split_type":[0,0,0,0,0,0,0,0,0,0,0,0,0],"sum_hessian":[9.607945E1,5.9769306E0,9.010252E1,4.6374083E0,1.3395225E0,1.3591049E1,7.6511475E1,1.1608547E0,3.4765534E0,7.36268E0,6.228369E0,7.370323E0,6.914115E1],"tree_param":{"num_deleted":"0","num_feature":"7","num_nodes":"13","size_leaf_vector":"1"}},{"base_weights":[1.7968661E-3,7.206034E-2,-1.3790788E-2,-1.7237206E-1,5.4950077E-2,2.2213774E-2,-3.2095376E-2,1.34309055E-2,-3.819969E-2],"categories":[],"categories_nodes":[],"categories_segments":[],"categories_sizes":[],"default_left":[0,0,0,0,0,0,0,0,0],"id":46,"left_children":[1,-1,3,5,7,-1,-1,-1,-1],"loss_changes":[1.094485E0,0E0,1.0529426E0,1.7821834E0,2.3931181E0,0E0,0E0,0E0,0E0],"parents":[2147483647,0,0,2,2,3,3,4,4],"right_children":[2,-1,4,6,8,-1,-1,-1,-1],"split_conditions":[-1.14203125E2,7.206034E-2,-1.7015625E1,4.2548393E1,9.224052E1,2.2213774E-2,-3.2095376E-2,1.34309055E-2,-3.819969E-2],"split_indices":[4,0,4,1,3,0,0,0,0],"split_type":[0,0,0,0,0,0,0,0,0],"sum_hessian":[9.579565E1,1.0732843E0,9.472236E1,2.8187601E1,6.653476E1,7.576266E0,2.0611336E1,5.6894173E1,9.640589E0],"tree_param":{"num_deleted":"0","num_feature":"7","num_nodes":"9","size_leaf_vector":"1"}},{"base_weights":[2.0075336E-3,1.918071E-1,-5.455057E-2,6.055249E-2,6.786715E-1,-7.407264E-1,-2.3343608E-2,1.6951535E-2,-8.2787E-2,-2.1883483E-4,9.453697E-2,-8.67897E-3,-1.0167807E-1,6.1353695E-2,-5.4081087E-3],"categories":[],"categories_nodes":[],"categories_segments":[],"categories_sizes":[],"default_left":[0,0,0,0,0,0,0,0,0,0,0,0,0,0,0],"id":47,"left_children":[1,3,5,7,9,11,13,-1,-1,-1,-1,-1,-1,-1,-1],"loss_changes":[1.0478793E0,1.3908525E0,1.5937135E0,1.9552175E0,8.483021E-1,4.9667966E-1,1.4621006E0,0E0,0E0,0E0,0E0,0E0,0E0,0E0,0E0],"parents":[2147483647,0,0,1,1,2,2,3,3,4,4,5,5,6,6],"right_children":[2,4,6,8,10,12,14,-1,-1,-1,-1,-1,-1,-1,-1],"split_conditions":[3.296875E0,2.2578125E0,3.6953125E0,1.3143303E2,1.9636154E1,-1.4256504E1,4.345982E1,1.6951535E-2,-8.2787E-2,-2.1883483E-4,9.453697E-2,-8.67897E-3,-1.0167807E-1,6.1353695E-2,-5.4081087E-3],"split_indices":[5,5,5,3,0,2,3,0,0,0,0,0,0,0,0],"split_type":[0,0,0,0,0,0,0,0,0,0,0,0,0,0,0],"sum_hessian":[9.5641335E1,2.1408075E1,7.423326E1,1.7747791E1,3.660285E0,2.240192E0,7.199307E1,1.6529663E1,1.218128E0,1.309367E0,2.350918E0,1.055127E0,1.185065E0,2.4416447E0,6.955142E1],"tree_param":{"num_deleted":"0","num_feature":"7","num_nodes":"15","size_leaf_vector":"1"}},{"base_weights":[1.5463775E-3,-2.3417605E-1,4.7376513E-2,-1.2694494E-2,-7.810579E-1,9.862814E-2,1.41409915E-2,-3.0446423E-2,9.34641E-2,-1.6565522E-2,-1.089432E-1,-7.774525E-2,4.0760697E-3],"categories":[],"categories_nodes":[],"categories_segments":[],"categories_sizes":[],"default_left":[0,0,0,0,0,0,0,0,0,0,0,0,0],"id":48,"left_children":[1,3,5,7,9,-1,11,-1,-1,-1,-1,-1,-1],"loss_changes":[1.0536243E0,1.9131176E0,2.5331764E0,3.6889265E0,6.848824E-1,0E0,1.7142755E0,0E0,0E0,0E0,0E0,0E0,0E0],"parents":[2147483647,0,0,1,1,2,2,3,3,4,4,6,6],"right_children":[2,4,6,8,10,-1,12,-1,-1,-1,-1,-1,-1],"split_conditions":[5.1077568E1,4.1097763E1,5.218527E1,5.628826E1,-6.612285E0,9.862814E-2,5.2996094E1,-3.0446423E-2,9.34641E-2,-1.6565522E-2,-1.089432E-1,-7.774525E-2,4.0760697E-3],"split_indices":[3,0,3,1,2,0,3,0,0,0,0,0,0],"split_type":[0,0,0,0,0,0,0,0,0,0,0,0,0],"sum_hessian":[9.550203E1,1.4876529E1,8.0625496E1,1.1316625E1,3.5599046E0,1.7760652E0,7.8849434E1,9.170739E0,2.145885E0,1.7015057E0,1.8583989E0,1.647634E0,7.72018E1],"tree_param":{"num_deleted":"0","num_feature":"7","num_nodes":"13","size_leaf_vector":"1"}},{"base_weights":[1.0084452E-3,2.6477334E-1,-3.821549E-2,6.254546E-2,8.587869E-2,-6.03588E-1,5.0912714E-3,-2.5028283E-2,5.0175626E-2,-7.799125E-3,-8.6784534E-2,9.0046726E-2,-3.2520953E-3],"categories":[],"categories_nodes":[],"categories_segments":[],"categories_sizes":[],"default_left":[0,0,0,0,0,0,0,0,0,0,0,0,0],"id":49,"left_children":[1,3,5,7,-1,9,11,-1,-1,-1,-1,-1,-1],"loss_changes":[1.0065267E0,1.4591597E0,2.0772848E0,1.5646806E0,0E0,7.7064013E-1,2.7126644E0,0E0,0E0,0E0,0E0,0E0,0E0],"parents":[2147483647,0,0,1,1,2,2,3,3,5,5,6,6],"right_children":[2,4,6,8,-1,10,12,-1,-1,-1,-1,-1,-1],"split_conditions":[-4.08781E1,4.1204124E1,-3.4221336E1,8.678571E1,8.587869E-2,1.01796875E1,4.0931137E1,-2.5028283E-2,5.0175626E-2,-7.799125E-3,-8.6784534E-2,9.0046726E-2,-3.2520953E-3],"split_indices":[0,1,0,3,0,6,1,0,0,0,0,0,0],"split_type":[0,0,0,0,0,0,0,0,0,0,0,0,0],"sum_hessian":[9.530952E1,1.1594041E1,8.371548E1,9.473982E0,2.1200593E0,5.0357637E0,7.867971E1,5.784278E0,3.6897035E0,2.1180956E0,2.917668E0,2.2470424E0,7.643267E1],"tree_param":{"num_deleted":"0","num_feature":"7","num_nodes":"13","size_leaf_vector":"1"}}]},"name":"gbtree"},"learner_model_param":{"base_score":"[5.046083E-1]","boost_from_average":"1","num_class":"0","num_feature":"7","num_target":"1"},"objective":{"name":"binary:logistic","reg_loss_param":{"scale_pos_weight":"1"}}},"version":[3,2,0]}