{"learner":{"attributes":{"scikit_learn":"{\"_estimator_type\": \"classifier\"}"},"feature_names":["ema_diff","rsi","macd_hist","atr","candle_body","upper_wick","lower_wick","vwap_dist","rel_volume"],"feature_types":["float","float","float","float","float","float","float","float","float"],"gradient_booster":{"model":{"cats":{"enc":[],"feature_segments":[],"sorted_idx":[]},"gbtree_model_param":{"num_parallel_tree":"1","num_trees":"100"},"iteration_indptr":[0,1,2,3,4,5,6,7,8,9,10,11,12,13,14,15,16,17,18,19,20,21,22,23,24,25,26,27,28,29,30,31,32,33,34,35,36,37,38,39,40,41,42,43,44,45,46,47,48,49,50,51,52,53,54,55,56,57,58,59,60,61,62,63,64,65,66,67,68,69,70,71,72,73,74,75,76,77,78,79,80,81,82,83,84,85,86,87,88,89,90,91,92,93,94,95,96,97,98,99,100],"tree_info":[0,0,0,0,0,0,0,0,0,0,0,0,0,0,0,0,0,0,0,0,0,0,0,0,0,0,0,0,0,0,0,0,0,0,0,0,0,0,0,0,0,0,0,0,0,0,0,0,0,0,0,0,0,0,0,0,0,0,0,0,0,0,0,0,0,0,0,0,0,0,0,0,0,0,0,0,0,0,0,0,0,0,0,0,0,0,0,0,0,0,0,0,0,0,0,0,0,0,0,0],"trees":[{"base_weights":[-5.531006E-2,-3.0450785E-1,1.9678514E-1,-4.6108213E-1,6.50468E-1,3.2494846E-1,-1.1175807E0,-2.3909755E-1,-1.3413639E0,-1.4193228E-2,9.912707E-1,-1.4422609E-1,7.4493366E-1,-7.609985E-2,-4.2069983E-1,9.2859817E-1,-5.0893396E-1,3.2104526E-3,-1.6215961E0,6.673016E-2,-1.6338134E-2,6.168664E-1,-3.578425E-1,-2.8937018E-1,1.0653265E0,-6.0995698E-2,2.8319428E-2,-6.661082E-3,6.8710424E-2,-4.9043614E-2,-8.938774E-3,-3.5408903E-2,-9.3134746E-2,-1.6338134E-2,4.5192312E-2,-4.6757047E-4,-4.79004E-2,-3.407045E-2,5.0648212E-2,6.2066596E-2,-1.2131364E-3],"categories":[],"categories_nodes":[],"categories_segments":[],"categories_sizes":[],"default_left":[0,0,0,0,0,0,0,0,0,0,0,0,0,0,0,0,0,0,0,0,0,0,0,0,0,0,0,0,0,0,0,0,0,0,0,0,0,0,0,0,0],"id":0,"left_children":[1,3,5,7,9,11,13,15,17,-1,19,21,23,-1,25,27,29,-1,31,-1,-1,33,35,37,39,-1,-1,-1,-1,-1,-1,-1,-1,-1,-1,-1,-1,-1,-1,-1,-1],"loss_changes":[7.783421E0,9.603278E0,1.0760756E1,1.0239267E1,3.2042341E0,1.1341972E1,9.68719E-1,1.4454316E1,4.305416E0,0E0,3.580439E0,4.7353244E0,1.0331491E1,0E0,3.4351363E0,4.2917056E0,5.5415945E0,0E0,6.477623E-1,0E0,0E0,2.0427654E0,4.6583405E0,4.7440677E0,4.499735E0,0E0,0E0,0E0,0E0,0E0,0E0,0E0,0E0,0E0,0E0,0E0,0E0,0E0,0E0,0E0,0E0],"parents":[2147483647,0,0,1,1,2,2,3,3,4,4,5,5,6,6,7,7,8,8,10,10,11,11,12,12,14,14,15,15,16,16,18,18,21,21,22,22,23,23,24,24],"right_children":[2,4,6,8,10,12,14,16,18,-1,20,22,24,-1,26,28,30,-1,32,-1,-1,34,36,38,40,-1,-1,-1,-1,-1,-1,-1,-1,-1,-1,-1,-1,-1,-1,-1,-1],"split_conditions":[-3.6768225E-1,2.7196428E1,4.299643E1,2.2292856E1,2.3E0,2.0464285E1,7.956452E1,4.318887E1,1.35E0,-1.4193228E-2,1.155E1,3.030485E-1,6.075035E-1,-7.609985E-2,4.3E0,8.025574E-1,1.6282143E1,3.2104526E-3,9.4006974E-1,6.673016E-2,-1.6338134E-2,4.1154213E1,1.8239286E1,9.35E0,1.9378555E0,-6.0995698E-2,2.8319428E-2,-6.661082E-3,6.8710424E-2,-4.9043614E-2,-8.938774E-3,-3.5408903E-2,-9.3134746E-2,-1.6338134E-2,4.5192312E-2,-4.6757047E-4,-4.79004E-2,-3.407045E-2,5.0648212E-2,6.2066596E-2,-1.2131364E-3],"split_indices":[2,3,3,3,5,3,1,1,5,0,6,2,8,0,6,8,3,0,8,0,0,1,3,4,8,0,0,0,0,0,0,0,0,0,0,0,0,0,0,0,0],"split_type":[0,0,0,0,0,0,0,0,0,0,0,0,0,0,0,0,0,0,0,0,0,0,0,0,0,0,0,0,0,0,0,0,0,0,0,0,0,0,0,0,0],"sum_hessian":[1.2194342E2,6.1219563E1,6.0723858E1,5.304043E1,8.1791315E0,5.601466E1,4.709197E0,4.3374184E1,9.666246E0,2.2306724E0,5.9484596E0,2.6768066E1,2.9246592E1,2.2306724E0,2.4785247E0,7.683427E0,3.5690758E1,1.7349674E0,7.931279E0,4.709197E0,1.2392623E0,5.4527545E0,2.1315313E1,6.9398694E0,2.2306723E1,1.2392623E0,1.2392623E0,2.4785247E0,5.204902E0,1.3879739E1,2.1811018E1,2.4785247E0,5.4527545E0,1.2392623E0,4.213492E0,1.4127591E1,7.1877217E0,5.700607E0,1.2392623E0,1.908464E1,3.2220821E0],"tree_param":{"num_deleted":"0","num_feature":"9","num_nodes":"41","size_leaf_vector":"1"}},{"base_weights":[6.574554E-2,2.276212E-1,-5.0870484E-1,-6.1861925E-2,5.512066E-1,-9.132983E-1,1.680246E-2,-1.9676246E-1,8.220337E-1,6.754833E-1,-7.046428E-2,2.230948E-2,-1.1227472E0,1.013415E0,-5.117393E-1,1.00868106E-1,-9.2052424E-1,6.289592E-2,-1.5353586E-2,1.3604292E-1,1.1464729E0,-7.7465355E-2,-3.7934676E-1,6.154165E-3,6.478258E-2,-7.586387E-1,2.8197175E-2,2.2013562E-2,-3.0872637E-2,-6.3035876E-2,4.1741904E-2,-3.4200314E-2,2.721884E-2,6.3755624E-2,-6.6840462E-3,2.79579E-2,-6.386868E-2,1.4689179E-2,-5.294053E-2],"categories":[],"categories_nodes":[],"categories_segments":[],"categories_sizes":[],"default_left":[0,0,0,0,0,0,0,0,0,0,0,0,0,0,0,0,0,0,0,0,0,0,0,0,0,0,0,0,0,0,0,0,0,0,0,0,0,0,0],"id":1,"left_children":[1,3,5,7,9,11,13,15,17,19,-1,-1,21,23,25,27,29,-1,-1,31,33,-1,35,-1,-1,37,-1,-1,-1,-1,-1,-1,-1,-1,-1,-1,-1,-1,-1],"loss_changes":[1.13140745E1,8.8994055E0,5.710009E0,6.225246E0,1.1864602E1,4.8150635E0,7.172965E0,9.770428E0,3.7952352E0,1.0717104E1,0E0,0E0,3.665493E0,1.0249391E0,2.7966902E0,8.252804E0,8.929018E0,0E0,0E0,7.43201E0,3.9107437E0,0E0,5.9517684E0,0E0,0E0,2.7374597E0,0E0,0E0,0E0,0E0,0E0,0E0,0E0,0E0,0E0,0E0,0E0,0E0,0E0],"parents":[2147483647,0,0,1,1,2,2,3,3,4,4,5,5,6,6,7,7,8,8,9,9,12,12,13,13,14,14,15,15,16,16,19,19,20,20,22,22,25,25],"right_children":[2,4,6,8,10,12,14,16,18,20,-1,-1,22,24,26,28,30,-1,-1,32,34,-1,36,-1,-1,38,-1,-1,-1,-1,-1,-1,-1,-1,-1,-1,-1,-1,-1],"split_conditions":[2.1526625E0,-3.6768225E-1,1.8203571E1,2.7196428E1,4.299643E1,-9.373156E0,2.2960477E0,2.1217857E1,1.363725E0,1.985E1,-7.046428E-2,2.230948E-2,1.4373301E1,2.1793121E1,1.9567518E0,2.01015E0,6.182417E-1,6.289592E-2,-1.5353586E-2,8.53871E-1,1.340629E1,-7.7465355E-2,1.6257143E1,6.154165E-3,6.478258E-2,5.980021E-1,2.8197175E-2,2.2013562E-2,-3.0872637E-2,-6.3035876E-2,4.1741904E-2,-3.4200314E-2,2.721884E-2,6.3755624E-2,-6.6840462E-3,2.79579E-2,-6.386868E-2,1.4689179E-2,-5.294053E-2],"split_indices":[7,2,3,3,3,0,2,3,7,3,0,0,0,0,8,7,7,0,0,7,2,0,3,0,0,8,0,0,0,0,0,0,0,0,0,0,0,0,0],"split_type":[0,0,0,0,0,0,0,0,0,0,0,0,0,0,0,0,0,0,0,0,0,0,0,0,0,0,0,0,0,0,0,0,0,0,0,0,0,0,0],"sum_hessian":[1.194252E2,9.364151E1,2.5783691E1,4.9852093E1,4.378942E1,1.4150862E1,1.1632831E1,4.392555E1,5.9265437E0,4.1795437E1,1.9939841E0,1.73821E0,1.2412651E1,3.7134364E0,7.919394E0,3.1735628E1,1.218992E1,4.1935606E0,1.7329834E0,2.0082787E1,2.1712648E1,7.198247E0,5.214404E0,1.2394905E0,2.4739459E0,6.6807194E0,1.2386746E0,2.1815155E1,9.920472E0,1.0447049E1,1.7428709E0,6.451416E0,1.36313715E1,1.9733604E1,1.9790435E0,2.734254E0,2.4801502E0,1.4873295E0,5.19339E0],"tree_param":{"num_deleted":"0","num_feature":"9","num_nodes":"39","size_leaf_vector":"1"}},{"base_weights":[-2.5756251E-2,-7.4020006E-2,1.3794202E-2,6.354004E-2,-8.6690456E-1,-2.0373006E-1,3.4524244E-1,-7.353858E-2,-1.178456E-1,-3.11867E-1,5.4068893E-1,2.5536269E-2,6.4225453E-1,-5.7595056E-2,3.8888585E-2,-5.364136E-2,-7.818478E-3,-1.459939E-2,5.1739957E-2,1.5607494E-2,-4.0342722E-2,5.0448526E-2,1.3487692E-2],"categories":[],"categories_nodes":[],"categories_segments":[],"categories_sizes":[],"default_left":[0,0,0,0,0,0,0,0,0,0,0,0,0,0,0,0,0,0,0,0,0,0,0],"id":2,"left_children":[1,-1,3,5,7,9,11,-1,13,15,17,19,21,-1,-1,-1,-1,-1,-1,-1,-1,-1,-1],"loss_changes":[7.0402365E0,0E0,5.302657E0,8.676441E0,2.7542295E0,4.9409356E0,5.3031783E0,0E0,4.578056E0,6.032442E0,3.5464277E0,6.937017E0,3.689271E0,0E0,0E0,0E0,0E0,0E0,0E0,0E0,0E0,0E0,0E0],"parents":[2147483647,0,0,2,2,3,3,4,4,5,5,6,6,8,8,9,9,10,10,11,11,12,12],"right_children":[2,-1,4,6,8,10,12,-1,14,16,18,20,22,-1,-1,-1,-1,-1,-1,-1,-1,-1,-1],"split_conditions":[1.4267858E1,-7.4020006E-2,4.2025E1,-3.6768225E-1,5.674911E1,2.7196428E1,2.0464285E1,-7.353858E-2,4.3E0,-7.9228916E0,5.980021E-1,1.2731083E1,4.4E0,-5.7595056E-2,3.8888585E-2,-5.364136E-2,-7.818478E-3,-1.459939E-2,5.1739957E-2,1.5607494E-2,-4.0342722E-2,5.0448526E-2,1.3487692E-2],"split_indices":[3,0,3,2,0,3,3,0,6,2,8,0,6,0,0,0,0,0,0,0,0,0,0],"split_type":[0,0,0,0,0,0,0,0,0,0,0,0,0,0,0,0,0,0,0,0,0,0,0],"sum_hessian":[1.2101621E2,2.23893E0,1.1877728E2,1.1330515E2,5.4721336E0,5.8283985E1,5.5021168E1,2.4962475E0,2.9758859E0,5.139869E1,6.8852963E0,2.7021255E1,2.7999912E1,1.248383E0,1.727503E0,7.7199802E0,4.3678707E1,2.7165005E0,4.168796E0,2.0565142E1,6.4561133E0,1.32485075E1,1.4751405E1],"tree_param":{"num_deleted":"0","num_feature":"9","num_nodes":"23","size_leaf_vector":"1"}},{"base_weights":[4.8638623E-2,-6.528881E-2,4.366525E-1,-1.20767176E-1,6.7583466E-1,-1.946738E-1,7.341772E-1,5.408314E-2,-1.7328194E-1,6.650955E-2,-2.3884311E-1,3.3727026E-1,-6.347763E-2,-1.8820349E-3,1.0579265E0,-1.1601933E-1,-1.2175268E0,-5.6467444E-2,3.328473E-2,-5.106582E-1,9.437773E-1,-4.4199896E-1,3.216629E-2,7.324617E-2,6.5731674E-1,2.0347936E-3,-1.9984365E-2,-7.391845E-2,-1.4821144E-2,-5.9873868E-2,1.5626328E-2,5.9016712E-2,1.6706765E-2,2.2549566E-3,-4.487277E-2,-2.4359463E-2,5.3469922E-2],"categories":[],"categories_nodes":[],"categories_segments":[],"categories_sizes":[],"default_left":[0,0,0,0,0,0,0,0,0,0,0,0,0,0,0,0,0,0,0,0,0,0,0,0,0,0,0,0,0,0,0,0,0,0,0,0,0],"id":3,"left_children":[1,3,5,7,9,11,13,-1,15,-1,17,19,-1,21,23,25,27,-1,-1,29,31,33,-1,-1,35,-1,-1,-1,-1,-1,-1,-1,-1,-1,-1,-1,-1],"loss_changes":[5.5254445E0,4.0697193E0,5.4688396E0,5.939267E0,4.4515657E0,6.0731378E0,4.644409E0,0E0,5.129122E0,0E0,3.754846E0,4.2846994E0,0E0,2.257754E0,1.2434473E0,3.7799397E0,6.3734674E-1,0E0,0E0,2.4844627E0,2.7793884E-1,1.0885177E0,0E0,0E0,4.5928E0,0E0,0E0,0E0,0E0,0E0,0E0,0E0,0E0,0E0,0E0,0E0,0E0],"parents":[2147483647,0,0,1,1,2,2,3,3,4,4,5,5,6,6,8,8,10,10,11,11,13,13,14,14,15,15,16,16,19,19,20,20,21,21,24,24],"right_children":[2,4,6,8,10,12,14,-1,16,-1,18,20,-1,22,24,26,28,-1,-1,30,32,34,-1,-1,36,-1,-1,-1,-1,-1,-1,-1,-1,-1,-1,-1,-1],"split_conditions":[8.75E0,7.757551E1,2.65E0,3E-1,8.290953E1,2.03E1,-1.258574E0,5.408314E-2,7.058607E1,6.650955E-2,4.3E0,1.9232143E1,-6.347763E-2,2.3E0,4.5E0,-6E-1,2.297857E1,-5.6467444E-2,3.328473E-2,1.2E1,4.3700447E0,1.755E1,3.216629E-2,7.324617E-2,5.15E0,2.0347936E-3,-1.9984365E-2,-7.391845E-2,-1.4821144E-2,-5.9873868E-2,1.5626328E-2,5.9016712E-2,1.6706765E-2,2.2549566E-3,-4.487277E-2,-2.4359463E-2,5.3469922E-2],"split_indices":[4,1,6,6,1,4,2,0,1,0,6,3,0,5,6,4,3,0,0,4,2,4,0,0,6,0,0,0,0,0,0,0,0,0,0,0,0],"split_type":[0,0,0,0,0,0,0,0,0,0,0,0,0,0,0,0,0,0,0,0,0,0,0,0,0,0,0,0,0,0,0,0,0,0,0,0,0],"sum_hessian":[1.23349785E2,9.599559E1,2.7354193E1,9.008885E1,5.9067426E0,8.872682E0,1.8481512E1,2.9498081E0,8.713904E1,3.1785495E0,2.728193E0,6.394398E0,2.4782832E0,5.949418E0,1.2532094E1,8.36624E1,3.4766393E0,1.2495197E0,1.4786733E0,2.7323978E0,3.6620002E0,3.724065E0,2.2253528E0,4.8986287E0,7.633466E0,5.4441944E1,2.9220459E1,2.2379036E0,1.2387358E0,1.2417026E0,1.4906952E0,1.963861E0,1.6981393E0,2.234891E0,1.4891741E0,1.9725866E0,5.660879E0],"tree_param":{"num_deleted":"0","num_feature":"9","num_nodes":"37","size_leaf_vector":"1"}},{"base_weights":[4.014058E-2,2.6417843E-1,-5.655448E-1,-1.725781E-2,6.553927E-1,-6.903862E-1,5.6170113E-2,1.8392727E-1,-8.600452E-1,1.3049313E-1,1.0560511E0,-8.89492E-1,9.6843414E-2,4.930927E-1,-3.709373E-1,-1.0749825E0,1.4055768E-2,6.178633E-2,-1.0656871E-1,1.1987506E0,-2.6402453E-2,3.718583E-1,-1.1529782E0,5.700164E-1,-5.263862E-1,2.8691966E-2,-3.6581125E-2,-2.8708596E-2,5.1329482E-2,-2.7070506E-2,-7.3080674E-2,3.7989315E-2,-2.197564E-2,7.9500675E-2,3.2776024E-2,-2.0205643E-2,4.8760206E-2,-3.476548E-2,-7.496959E-2,5.3974073E-2,-2.7129432E-5,-4.440297E-2,5.560455E-3],"categories":[],"categories_nodes":[],"categories_segments":[],"categories_sizes":[],"default_left":[0,0,0,0,0,0,0,0,0,0,0,0,0,0,0,0,0,0,0,0,0,0,0,0,0,0,0,0,0,0,0,0,0,0,0,0,0,0,0,0,0,0,0],"id":4,"left_children":[1,3,5,7,9,11,-1,13,15,17,19,21,23,25,27,29,-1,-1,31,33,-1,35,37,39,41,-1,-1,-1,-1,-1,-1,-1,-1,-1,-1,-1,-1,-1,-1,-1,-1,-1,-1],"loss_changes":[1.7076883E1,1.0112466E1,7.944811E0,9.370615E0,7.9402637E0,5.1458616E0,0E0,7.8485484E0,2.9135885E0,4.7871957E0,5.525316E0,9.024092E0,2.4876144E0,3.3001323E0,5.292939E0,1.099678E0,0E0,0E0,4.819598E0,3.2426147E0,0E0,2.8403609E0,2.387907E0,1.3658471E0,9.569005E-1,0E0,0E0,0E0,0E0,0E0,0E0,0E0,0E0,0E0,0E0,0E0,0E0,0E0,0E0,0E0,0E0,0E0,0E0],"parents":[2147483647,0,0,1,1,2,2,3,3,4,4,5,5,7,7,8,8,9,9,10,10,11,11,12,12,13,13,14,14,15,15,18,18,19,19,21,21,22,22,23,23,24,24],"right_children":[2,4,6,8,10,12,-1,14,16,18,20,22,24,26,28,30,-1,-1,32,34,-1,36,38,40,42,-1,-1,-1,-1,-1,-1,-1,-1,-1,-1,-1,-1,-1,-1,-1,-1,-1,-1],"split_conditions":[2.1233022E0,9.0605956E-1,1.165E1,5.2024686E-1,9.5697343E-1,8.8E0,5.6170113E-2,1.0183104E0,1.2816783E0,3.452111E1,1.555E1,1.6E0,1.46171E1,1.3001885E1,6.821103E0,6.055153E-1,1.4055768E-2,6.178633E-2,1.55E0,2.01015E0,-2.6402453E-2,1.2508021E1,8.5324043E-1,1.155E1,4.55E0,2.8691966E-2,-3.6581125E-2,-2.8708596E-2,5.1329482E-2,-2.7070506E-2,-7.3080674E-2,3.7989315E-2,-2.197564E-2,7.9500675E-2,3.2776024E-2,-2.0205643E-2,4.8760206E-2,-3.476548E-2,-7.496959E-2,5.3974073E-2,-2.7129432E-5,-4.440297E-2,5.560455E-3],"split_indices":[7,7,6,7,8,4,0,8,8,1,6,6,0,2,2,7,0,0,6,7,0,0,8,4,6,0,0,0,0,0,0,0,0,0,0,0,0,0,0,0,0,0,0],"split_type":[0,0,0,0,0,0,0,0,0,0,0,0,0,0,0,0,0,0,0,0,0,0,0,0,0,0,0,0,0,0,0,0,0,0,0,0,0,0,0,0,0,0,0],"sum_hessian":[1.237452E2,9.074371E1,3.3001488E1,5.3332592E1,3.7411125E1,3.1280565E1,1.7209231E0,4.3685917E1,9.646673E0,1.6768518E1,2.0642607E1,2.486246E1,6.418106E0,2.8125805E1,1.5560113E1,8.166506E0,1.4801674E0,2.2174783E0,1.455104E1,1.9159899E1,1.4827079E0,4.2250714E0,2.0637388E1,3.696787E0,2.721319E0,2.6884722E1,1.2410843E0,1.4098934E1,1.4611785E0,4.4397407E0,3.726765E0,3.6836853E0,1.0867354E1,1.0017679E1,9.1422205E0,1.9925892E0,2.2324822E0,1.0186513E1,1.0450875E1,1.4817379E0,2.2150493E0,1.485723E0,1.235596E0],"tree_param":{"num_deleted":"0","num_feature":"9","num_nodes":"43","size_leaf_vector":"1"}},{"base_weights":[-6.2443707E-3,1.7609803E-1,-5.2906644E-1,-5.050663E-2,4.9609163E-1,-1.176748E0,-1.3326992E-1,5.3816076E-2,-7.5555585E-2,1.850078E-1,1.1230102E0,-7.671154E-2,-1.5250785E0,9.925415E-1,-4.2538935E-1,-2.1702038E-1,6.697838E-1,6.164731E-1,-5.687896E-1,1.409601E0,3.3344904E-1,3.600837E-2,-4.205471E-2,-3.0760914E-2,-8.27096E-2,6.308717E-2,6.6891327E-3,5.420257E-1,-7.0008564E-1,-4.0529784E-2,3.2798268E-3,4.4965066E-2,-5.8687896E-2,-6.514133E-3,4.886978E-2,3.319008E-3,-6.0734596E-2,7.507532E-2,2.1955198E-2,3.4406286E-2,-1.8319469E-2,-2.2493865E-2,5.958972E-2,-5.261739E-2,3.4831673E-2],"categories":[],"categories_nodes":[],"categories_segments":[],"categories_sizes":[],"default_left":[0,0,0,0,0,0,0,0,0,0,0,0,0,0,0,0,0,0,0,0,0,0,0,0,0,0,0,0,0,0,0,0,0,0,0,0,0,0,0,0,0,0,0,0,0],"id":5,"left_children":[1,3,5,7,9,11,13,15,-1,17,19,21,23,25,27,29,31,33,35,37,39,-1,-1,-1,-1,-1,-1,41,43,-1,-1,-1,-1,-1,-1,-1,-1,-1,-1,-1,-1,-1,-1,-1,-1],"loss_changes":[1.199192E1,6.789629E0,8.1807165E0,8.541371E0,7.352826E0,4.561138E0,7.432185E0,8.951444E0,0E0,9.167067E0,2.394639E0,3.035613E0,6.538963E-2,9.1573954E-1,5.062932E0,6.3305383E0,7.980393E0,4.9031606E0,4.342379E0,1.4151192E-1,1.4140954E0,0E0,0E0,0E0,0E0,0E0,0E0,3.4114363E0,7.701309E0,0E0,0E0,0E0,0E0,0E0,0E0,0E0,0E0,0E0,0E0,0E0,0E0,0E0,0E0,0E0,0E0],"parents":[2147483647,0,0,1,1,2,2,3,3,4,4,5,5,6,6,7,7,9,9,10,10,11,11,12,12,13,13,14,14,15,15,16,16,17,17,18,18,19,19,20,20,27,27,28,28],"right_children":[2,4,6,8,10,12,14,16,-1,18,20,22,24,26,28,30,32,34,36,38,40,-1,-1,-1,-1,-1,-1,42,44,-1,-1,-1,-1,-1,-1,-1,-1,-1,-1,-1,-1,-1,-1,-1,-1],"split_conditions":[2.1233022E0,9.0605956E-1,6.020594E1,3.8009644E1,5.4114433E1,-7.7183075E0,1.2731083E1,1.2023437E0,-7.5555585E-2,-1.7434425E0,2.0902793E0,4.3553677E1,-4.9629884E0,6.694213E1,2.1E0,-9.542327E0,1.3001885E1,-1.6089888E1,2.0497155E0,5.1983463E1,2.5066953E0,3.600837E-2,-4.205471E-2,-3.0760914E-2,-8.27096E-2,6.308717E-2,6.6891327E-3,1.05E0,6.949066E1,-4.0529784E-2,3.2798268E-3,4.4965066E-2,-5.8687896E-2,-6.514133E-3,4.886978E-2,3.319008E-3,-6.0734596E-2,7.507532E-2,2.1955198E-2,3.4406286E-2,-1.8319469E-2,-2.2493865E-2,5.958972E-2,-5.261739E-2,3.4831673E-2],"split_indices":[7,7,1,0,1,0,0,2,0,0,7,1,0,1,6,0,2,0,7,0,2,0,0,0,0,0,0,6,0,0,0,0,0,0,0,0,0,0,0,0,0,0,0,0,0],"split_type":[0,0,0,0,0,0,0,0,0,0,0,0,0,0,0,0,0,0,0,0,0,0,0,0,0,0,0,0,0,0,0,0,0,0,0,0,0,0,0,0,0,0,0,0,0],"sum_hessian":[1.23813E2,9.228896E1,3.1524044E1,5.452151E1,3.776745E1,1.12088175E1,2.0315228E1,5.1785896E1,2.7356172E0,2.6107653E1,1.1659796E1,2.98917E0,8.219647E0,3.69133E0,1.6623898E1,3.6419975E1,1.5365919E1,1.6719673E1,9.3879795E0,7.978503E0,3.6812925E0,1.4917967E0,1.4973733E0,1.7378678E0,6.4817796E0,2.4530797E0,1.2382504E0,3.4611979E0,1.3162699E1,1.1144727E1,2.527525E1,1.41201725E1,1.2457469E0,5.656107E0,1.1063567E1,5.1856875E0,4.2022915E0,6.7884865E0,1.1900167E0,2.4542298E0,1.2270626E0,1.4916927E0,1.9695052E0,1.0708499E1,2.4541998E0],"tree_param":{"num_deleted":"0","num_feature":"9","num_nodes":"45","size_leaf_vector":"1"}},{"base_weights":[-1.0455005E-1,1.1043273E-1,-6.842602E-1,-1.8144323E-1,4.9598363E-1,-7.7773964E-1,4.8513066E-2,-1.01038806E-1,-6.812995E-2,2.1101508E-1,1.134931E0,-1.3219757E0,-4.5210376E-1,-2.4931502E-1,7.346012E-1,5.999638E-1,-4.894638E-1,1.2528023E0,3.0173163E-3,-1.2041871E-2,-7.455006E-2,4.003493E-1,-7.451715E-1,1.2388523E-2,-2.1256946E-2,6.295456E-2,-5.5662233E-2,-5.646059E-3,4.8101135E-2,3.0681102E-2,-4.2604133E-2,1.2030496E-2,6.9424905E-2,-3.5698112E-2,5.509722E-2,-4.5708515E-2,7.576141E-3],"categories":[],"categories_nodes":[],"categories_segments":[],"categories_sizes":[],"default_left":[0,0,0,0,0,0,0,0,0,0,0,0,0,0,0,0,0,0,0,0,0,0,0,0,0,0,0,0,0,0,0,0,0,0,0,0,0],"id":6,"left_children":[1,3,5,7,9,11,-1,13,-1,15,17,19,21,23,25,27,29,31,-1,-1,-1,33,35,-1,-1,-1,-1,-1,-1,-1,-1,-1,-1,-1,-1,-1,-1],"loss_changes":[1.5337797E1,1.0239875E1,5.8999557E0,4.807001E0,6.8851376E0,5.081238E0,0E0,6.3570285E0,0E0,8.000923E0,1.4241381E0,1.7380123E0,5.686592E0,3.8691921E0,8.924785E0,4.9192996E0,4.783003E0,1.1244926E0,0E0,0E0,0E0,5.6091957E0,2.6237173E0,0E0,0E0,0E0,0E0,0E0,0E0,0E0,0E0,0E0,0E0,0E0,0E0,0E0,0E0],"parents":[2147483647,0,0,1,1,2,2,3,3,4,4,5,5,7,7,9,9,10,10,11,11,12,12,13,13,14,14,15,15,16,16,17,17,21,21,22,22],"right_children":[2,4,6,8,10,12,-1,14,-1,16,18,20,22,24,26,28,30,32,-1,-1,-1,34,36,-1,-1,-1,-1,-1,-1,-1,-1,-1,-1,-1,-1,-1,-1],"split_conditions":[2.1233022E0,9.0605956E-1,1.165E1,3.8009644E1,5.4114433E1,6.020594E1,4.8513066E-2,6.821103E0,-6.812995E-2,2.0210156E0,1.735383E0,4.3553677E1,2.1E0,1.65E0,1.340629E1,7.836495E-1,4.318887E1,7.369157E-1,3.0173163E-3,-1.2041871E-2,-7.455006E-2,1.05E0,6.949066E1,1.2388523E-2,-2.1256946E-2,6.295456E-2,-5.5662233E-2,-5.646059E-3,4.8101135E-2,3.0681102E-2,-4.2604133E-2,1.2030496E-2,6.9424905E-2,-3.5698112E-2,5.509722E-2,-4.5708515E-2,7.576141E-3],"split_indices":[7,7,6,0,1,1,0,2,0,7,8,1,6,5,2,8,1,8,0,0,0,6,0,0,0,0,0,0,0,0,0,0,0,0,0,0,0],"split_type":[0,0,0,0,0,0,0,0,0,0,0,0,0,0,0,0,0,0,0,0,0,0,0,0,0,0,0,0,0,0,0,0,0,0,0,0,0],"sum_hessian":[1.21462616E2,8.919469E1,3.226793E1,5.1065586E1,3.81291E1,3.1043898E1,1.224031E0,4.8827324E1,2.2382643E0,2.7288685E1,1.0840416E1,1.0475873E1,2.0568024E1,4.2064953E1,6.7623706E0,1.7638311E1,9.650374E0,9.619413E0,1.2210025E0,1.744214E0,8.731659E0,5.1684284E0,1.5399595E1,1.0884194E1,3.1180758E1,5.515481E0,1.2468896E0,6.1726437E0,1.1465668E1,2.2162752E0,7.434099E0,1.4649675E0,8.154446E0,1.9900675E0,3.1783612E0,1.2941112E1,2.4584832E0],"tree_param":{"num_deleted":"0","num_feature":"9","num_nodes":"37","size_leaf_vector":"1"}},{"base_weights":[5.4301275E-3,1.4736234E-1,-4.648108E-1,1.943856E-1,-6.273331E-2,-9.756712E-1,-1.819155E-3,1.2951897E-1,5.6852E-2,2.4696207E-2,-1.2315676E0,1.7251998E-1,-4.562085E-2,-5.61691E-2,1.6043115E-1,-7.3097564E-2,4.068353E-3,5.7006266E-2,-2.8557217E-2,5.326073E-3,4.2653415E-2,-4.004283E-2,1.5736386E-2],"categories":[],"categories_nodes":[],"categories_segments":[],"categories_sizes":[],"default_left":[0,0,0,0,0,0,0,0,0,0,0,0,0,0,0,0,0,0,0,0,0,0,0],"id":7,"left_children":[1,3,5,7,-1,9,11,13,-1,-1,15,17,-1,-1,19,-1,-1,-1,21,-1,-1,-1,-1],"loss_changes":[8.278731E0,6.5236897E0,6.8010063E0,5.541053E0,0E0,5.7498484E0,2.7116601E0,3.5949035E0,0E0,0E0,3.7277184E0,2.8235767E0,0E0,0E0,3.1546583E0,0E0,0E0,0E0,3.6594825E0,0E0,0E0,0E0,0E0],"parents":[2147483647,0,0,1,1,2,2,3,3,5,5,6,6,7,7,10,10,11,11,14,14,18,18],"right_children":[2,4,6,8,-1,10,12,14,-1,-1,16,18,-1,-1,20,-1,-1,-1,22,-1,-1,-1,-1],"split_conditions":[2.1526625E0,4.299643E1,1.4373301E1,7.536678E1,-6.273331E-2,-9.373156E0,7.05E0,1.4267858E1,5.6852E-2,2.4696207E-2,6.6605415E1,1.5703571E1,-4.562085E-2,-5.61691E-2,1.215E1,-7.3097564E-2,4.068353E-3,5.7006266E-2,1.8203571E1,5.326073E-3,4.2653415E-2,-4.004283E-2,1.5736386E-2],"split_indices":[7,3,0,1,0,0,5,3,0,0,1,3,0,0,5,0,0,0,3,0,0,0,0],"split_type":[0,0,0,0,0,0,0,0,0,0,0,0,0,0,0,0,0,0,0,0,0,0,0],"sum_hessian":[1.2201392E2,9.425245E1,2.7761473E1,9.202726E1,2.2251906E0,1.2671996E1,1.5089476E1,8.71665E1,4.8607674E0,1.7413533E0,1.0930643E1,1.3345035E1,1.7444407E0,1.2478731E0,8.5918625E1,9.202381E0,1.728262E0,1.4925646E0,1.185247E1,8.078474E1,5.133887E0,3.2370505E0,8.615419E0],"tree_param":{"num_deleted":"0","num_feature":"9","num_nodes":"23","size_leaf_vector":"1"}},{"base_weights":[4.536466E-2,2.3616168E-1,-5.5549467E-1,1.2296818E-2,5.128819E-1,-9.4738007E-1,-1.5815824E-1,1.8627976E-1,-6.660082E-1,8.895615E-1,1.6972387E-1,-1.1438515E0,1.05018895E-2,2.4266624E-1,-9.6163905E-1,-3.4510636E-1,5.338185E-1,-8.7823063E-1,9.81862E-3,-2.1694662E-2,1.1072041E0,-1.0836421E0,5.788289E-1,-1.57599E-1,-1.3998847E0,-4.4032705E-1,5.9985226E-1,-6.343236E-2,-4.0557254E-3,-4.0898908E-2,4.2782366E-2,4.108004E-2,2.5193952E-4,-7.0058177E-3,-6.574985E-2,6.239037E-2,-1.9523049E-2,4.3002027E-3,-7.917091E-2,-4.5789517E-2,3.984172E-2,2.9589608E-2,-3.8342666E-2,-2.1185493E-2,-7.613485E-2,-3.8542617E-2,-8.25158E-4,-1.8230362E-2,5.5487383E-2],"categories":[],"categories_nodes":[],"categories_segments":[],"categories_sizes":[],"default_left":[0,0,0,0,0,0,0,0,0,0,0,0,0,0,0,0,0,0,0,0,0,0,0,0,0,0,0,0,0,0,0,0,0,0,0,0,0,0,0,0,0,0,0,0,0,0,0,0,0],"id":8,"left_children":[1,3,5,7,9,11,13,15,17,19,21,23,-1,25,27,29,31,33,-1,-1,35,37,39,41,43,45,47,-1,-1,-1,-1,-1,-1,-1,-1,-1,-1,-1,-1,-1,-1,-1,-1,-1,-1,-1,-1,-1,-1],"loss_changes":[1.40028925E1,5.726322E0,4.4374714E0,6.281985E0,5.195202E0,3.5674725E0,5.3311357E0,7.9978166E0,2.1619158E0,6.091729E0,1.2358464E1,2.9770718E0,0E0,3.0352573E0,1.3757291E0,1.0543939E1,3.948163E0,2.686998E0,0E0,0E0,4.06942E0,3.6308103E0,6.5623283E0,2.1599193E0,5.4488754E-1,6.144766E-1,4.2807083E0,0E0,0E0,0E0,0E0,0E0,0E0,0E0,0E0,0E0,0E0,0E0,0E0,0E0,0E0,0E0,0E0,0E0,0E0,0E0,0E0,0E0,0E0],"parents":[2147483647,0,0,1,1,2,2,3,3,4,4,5,5,6,6,7,7,8,8,9,9,10,10,11,11,13,13,14,14,15,15,16,16,17,17,20,20,21,21,22,22,23,23,24,24,25,25,26,26],"right_children":[2,4,6,8,10,12,14,16,18,20,22,24,-1,26,28,30,32,34,-1,-1,36,38,40,42,44,46,48,-1,-1,-1,-1,-1,-1,-1,-1,-1,-1,-1,-1,-1,-1,-1,-1,-1,-1,-1,-1,-1,-1],"split_conditions":[2.1412306E0,9.0605956E-1,1.4558511E1,5.2024686E-1,2.01015E0,2.0167856E1,4.899085E0,4.58812E1,1.2816783E0,6.003095E-1,-2.5958467E0,-7.874975E0,1.05018895E-2,-1.1325852E1,9.2962354E-1,2.7196428E1,3.3702006E0,1.9E0,9.81862E-3,-2.1694662E-2,1.9683384E0,4.318887E1,1.5007143E1,2.2275717E0,2.166844E0,3.4257275E1,2.283265E0,-6.343236E-2,-4.0557254E-3,-4.0898908E-2,4.2782366E-2,4.108004E-2,2.5193952E-4,-7.0058177E-3,-6.574985E-2,6.239037E-2,-1.9523049E-2,4.3002027E-3,-7.917091E-2,-4.5789517E-2,3.984172E-2,2.9589608E-2,-3.8342666E-2,-2.1185493E-2,-7.613485E-2,-3.8542617E-2,-8.25158E-4,-1.8230362E-2,5.5487383E-2],"split_indices":[7,7,0,7,7,3,2,1,8,8,2,0,0,2,8,3,2,5,0,0,8,1,3,7,7,0,7,0,0,0,0,0,0,0,0,0,0,0,0,0,0,0,0,0,0,0,0,0,0],"split_type":[0,0,0,0,0,0,0,0,0,0,0,0,0,0,0,0,0,0,0,0,0,0,0,0,0,0,0,0,0,0,0,0,0,0,0,0,0,0,0,0,0,0,0,0,0,0,0,0,0],"sum_hessian":[1.2000002E2,9.1539505E1,2.8460518E1,5.1179806E1,4.0359703E1,1.36316E1,1.48289175E1,4.130945E1,9.870359E0,1.8481043E1,2.1878658E1,1.1663453E1,1.968147E0,1.03591385E1,4.469779E0,1.6337078E1,2.4972368E1,7.90632E0,1.9640388E0,2.4696763E0,1.6011368E1,4.978211E0,1.6900448E1,2.7367811E0,8.926672E0,3.4772835E0,6.8818545E0,2.9873943E0,1.4823848E0,1.1949856E1,4.387223E0,1.5812714E1,9.159655E0,3.4302185E0,4.476102E0,1.4789715E1,1.2216522E0,1.7381839E0,3.240027E0,1.743876E0,1.5156571E1,1.2401013E0,1.4966799E0,1.4948554E0,7.4318166E0,1.4936416E0,1.9836417E0,2.4785852E0,4.4032693E0],"tree_param":{"num_deleted":"0","num_feature":"9","num_nodes":"49","size_leaf_vector":"1"}},{"base_weights":[-2.0184927E-2,-2.3911917E-1,2.2255284E-1,-1.5494096E-2,-7.604182E-1,-5.422316E-2,2.876663E-1,-7.327881E-1,2.9130092E-1,-2.7234417E-1,-1.0122514E0,-9.9816166E-2,5.4568803E-1,-2.096358E-1,-1.1743597E0,-5.6178965E-2,4.045479E-1,3.5567965E-2,-7.802967E-1,-1.2952005E0,-5.493292E-1,3.7512216E-1,-6.3590467E-1,7.201403E-1,-4.5779973E-1,-3.682707E-2,9.053142E-3,-7.360079E-2,-2.048019E-2,5.886438E-2,9.574869E-3,-5.1829316E-2,-1.549777E-3,-1.988216E-2,-7.870955E-2,3.0101804E-2,-4.686724E-2,6.494661E-4,5.6859046E-2,-6.1233588E-2,1.5310049E-2,5.4562785E-2,2.4459241E-2,2.5017882E-2,-4.1399013E-2],"categories":[],"categories_nodes":[],"categories_segments":[],"categories_sizes":[],"default_left":[0,0,0,0,0,0,0,0,0,0,0,0,0,0,0,0,0,0,0,0,0,0,0,0,0,0,0,0,0,0,0,0,0,0,0,0,0,0,0,0,0,0,0,0,0],"id":9,"left_children":[1,3,5,7,9,-1,11,13,15,17,19,21,23,25,27,-1,29,-1,31,33,35,37,39,41,43,-1,-1,-1,-1,-1,-1,-1,-1,-1,-1,-1,-1,-1,-1,-1,-1,-1,-1,-1,-1],"loss_changes":[6.5247245E0,7.5083117E0,5.270621E0,1.0372377E1,2.1020136E0,0E0,5.682382E0,3.014308E0,5.750124E0,4.528549E0,9.1170406E-1,6.182665E0,6.272105E0,1.7138803E0,1.0898685E0,0E0,4.9334307E0,0E0,1.0665379E0,1.1155825E0,3.4402924E0,3.5750113E0,6.6639934E0,1.978056E0,2.4142423E0,0E0,0E0,0E0,0E0,0E0,0E0,0E0,0E0,0E0,0E0,0E0,0E0,0E0,0E0,0E0,0E0,0E0,0E0,0E0,0E0],"parents":[2147483647,0,0,1,1,2,2,3,3,4,4,6,6,7,7,8,8,9,9,10,10,11,11,12,12,13,13,14,14,16,16,18,18,19,19,20,20,21,21,22,22,23,23,24,24],"right_children":[2,4,6,8,10,-1,12,14,16,18,20,22,24,26,28,-1,30,-1,32,34,36,38,40,42,44,-1,-1,-1,-1,-1,-1,-1,-1,-1,-1,-1,-1,-1,-1,-1,-1,-1,-1,-1,-1],"split_conditions":[1.989643E1,5.9377792E1,5E-2,8.025574E-1,8.238464E-1,-5.422316E-2,5.2708908E1,7.101089E-1,-1.2903028E1,1.6385714E1,2.334016E0,9.8564917E-1,4.299643E1,-1.160193E1,7.7530485E-1,-5.6178965E-2,-9.071039E0,3.5567965E-2,7.471485E-1,1.4E0,3.3564165E0,7.05E0,1.6834277E0,2.5066953E0,6.5052233E0,-3.682707E-2,9.053142E-3,-7.360079E-2,-2.048019E-2,5.886438E-2,9.574869E-3,-5.1829316E-2,-1.549777E-3,-1.988216E-2,-7.870955E-2,3.0101804E-2,-4.686724E-2,6.494661E-4,5.6859046E-2,-6.1233588E-2,1.5310049E-2,5.4562785E-2,2.4459241E-2,2.5017882E-2,-4.1399013E-2],"split_indices":[3,1,5,8,8,0,1,8,2,3,2,8,3,0,8,0,0,0,8,5,2,5,8,2,2,0,0,0,0,0,0,0,0,0,0,0,0,0,0,0,0,0,0,0,0],"split_type":[0,0,0,0,0,0,0,0,0,0,0,0,0,0,0,0,0,0,0,0,0,0,0,0,0,0,0,0,0,0,0,0,0,0,0,0,0,0,0,0,0,0,0,0,0],"sum_hessian":[1.20773964E2,6.3508335E1,5.726563E1,4.5163834E1,1.8344503E1,1.9746041E0,5.5291023E1,1.3114139E1,3.2049694E1,6.9521313E0,1.1392373E1,2.2346085E1,3.294494E1,6.6775985E0,6.4365406E0,1.7139924E0,3.0335701E1,2.2310412E0,4.7210903E0,5.954786E0,5.4375873E0,1.2008036E1,1.033805E1,2.8306358E1,4.638582E0,2.4662986E0,4.2113E0,3.9675028E0,2.4690378E0,5.578063E0,2.4757637E1,3.232163E0,1.4889271E0,1.987138E0,3.9676476E0,1.2315652E0,4.206022E0,8.829346E0,3.1786892E0,6.1775017E0,4.160548E0,9.429466E0,1.887689E1,1.194678E0,3.4439044E0],"tree_param":{"num_deleted":"0","num_feature":"9","num_nodes":"45","size_leaf_vector":"1"}},{"base_weights":[5.6378964E-2,-6.056149E-2,8.406129E-2,-7.3890334E-1,1.2806433E-1,-6.526598E-2,1.3320075E-1,-9.691114E-2,2.522853E-1,-1.6374337E-2,2.655162E-2,4.800349E-2,-1.9099316E-1,-6.881998E-1,3.0622807E-1,1.394088E-2,-2.2949843E-2,2.7151186E-2,-6.587121E-2,3.070499E-2,7.5592855E-3],"categories":[],"categories_nodes":[],"categories_segments":[],"categories_sizes":[],"default_left":[0,0,0,0,0,0,0,0,0,0,0,0,0,0,0,0,0,0,0,0,0],"id":10,"left_children":[1,-1,3,5,7,-1,9,11,13,-1,-1,-1,15,17,19,-1,-1,-1,-1,-1,-1],"loss_changes":[4.491825E0,0E0,4.562119E0,3.3398645E0,3.3209822E0,0E0,8.027327E-1,4.4279995E0,4.080301E0,0E0,0E0,0E0,5.168119E0,4.1593323E0,3.3834887E0,0E0,0E0,0E0,0E0,0E0,0E0],"parents":[2147483647,0,0,2,2,3,3,4,4,6,6,7,7,8,8,12,12,13,13,14,14],"right_children":[2,-1,4,6,8,-1,10,12,14,-1,-1,-1,16,18,20,-1,-1,-1,-1,-1,-1],"split_conditions":[1.4267858E1,-6.056149E-2,1.5E-1,-9.182444E-1,8.025574E-1,-6.526598E-2,-1.455E1,-3.3571156E1,-2.6745663E1,-1.6374337E-2,2.655162E-2,4.800349E-2,2.75E0,1.211255E0,-2.782719E0,1.394088E-2,-2.2949843E-2,2.7151186E-2,-6.587121E-2,3.070499E-2,7.5592855E-3],"split_indices":[3,0,5,2,8,0,4,0,0,0,0,0,6,8,0,0,0,0,0,0,0],"split_type":[0,0,0,0,0,0,0,0,0,0,0,0,0,0,0,0,0,0,0,0,0],"sum_hessian":[1.24105835E2,1.7385976E0,1.2236723E2,5.409234E0,1.16958E2,2.9781988E0,2.4310355E0,4.1684116E1,7.527389E1,1.208462E0,1.2225735E0,2.6547096E0,3.9029408E1,3.4454224E0,7.182846E1,1.4162383E1,2.4867025E1,1.2116138E0,2.2338085E0,2.3065613E1,4.8762848E1],"tree_param":{"num_deleted":"0","num_feature":"9","num_nodes":"21","size_leaf_vector":"1"}},{"base_weights":[1.1527927E-2,1.0956234E0,-4.817312E-2,6.612093E-2,1.113552E-2,-3.3446813E-1,1.5661454E-1,-1.1539235E-1,-9.094016E-1,-1.1126778E0,2.571042E-1,3.33765E-1,-7.3488224E-1,-7.455411E-2,-2.1910323E-1,-6.806253E-2,-1.0277112E-2,5.9275128E-2,1.5768401E-1,2.3733258E-2,-4.4541236E-2,-5.7072815E-2,1.2643223E-2,3.497945E-2,-4.3975513E-2,2.0916755E-3,4.690171E-2],"categories":[],"categories_nodes":[],"categories_segments":[],"categories_sizes":[],"default_left":[0,0,0,0,0,0,0,0,0,0,0,0,0,0,0,0,0,0,0,0,0,0,0,0,0,0,0],"id":11,"left_children":[1,3,5,-1,-1,7,9,11,13,15,17,19,21,-1,23,-1,-1,-1,25,-1,-1,-1,-1,-1,-1,-1,-1],"loss_changes":[7.4928184E0,9.0167713E-1,6.4965005E0,0E0,0E0,5.7083054E0,8.546069E0,9.862856E0,4.7281895E0,8.337827E-1,5.426846E0,3.9987817E0,6.2482758E0,0E0,4.8193393E0,0E0,0E0,0E0,5.031549E0,0E0,0E0,0E0,0E0,0E0,0E0,0E0,0E0],"parents":[2147483647,0,0,1,1,2,2,5,5,6,6,7,7,8,8,9,9,10,10,11,11,12,12,14,14,18,18],"right_children":[2,4,6,-1,-1,8,10,12,14,16,18,20,22,-1,24,-1,-1,-1,26,-1,-1,-1,-1,-1,-1,-1,-1],"split_conditions":[-2.6852894E-1,2.85E0,5.2708908E1,6.612093E-2,1.113552E-2,2.0491662E0,1.5125E1,2.0592857E1,1.5875E1,2.3193882E0,7.347243E-2,5.0943275E1,5.027598E-1,-7.455411E-2,-4.35E0,-6.806253E-2,-1.0277112E-2,5.9275128E-2,1.135E1,2.3733258E-2,-4.4541236E-2,-5.7072815E-2,1.2643223E-2,3.497945E-2,-4.3975513E-2,2.0916755E-3,4.690171E-2],"split_indices":[7,4,1,0,0,7,3,3,3,2,7,1,7,0,4,0,0,0,6,0,0,0,0,0,0,0,0],"split_type":[0,0,0,0,0,0,0,0,0,0,0,0,0,0,0,0,0,0,0,0,0,0,0,0,0,0,0],"sum_hessian":[1.1395444E2,5.042223E0,1.0891222E2,3.5936046E0,1.4486185E0,4.5153694E1,6.375852E1,3.356472E1,1.1588976E1,3.938497E0,5.9820023E1,1.9724684E1,1.3840035E1,5.659738E0,5.9292383E0,2.6984627E0,1.2400342E0,4.7296615E0,5.509036E1,1.823856E1,1.4861234E0,9.6941395E0,4.1458964E0,2.4548984E0,3.4743397E0,4.8886322E1,6.2040377E0],"tree_param":{"num_deleted":"0","num_feature":"9","num_nodes":"27","size_leaf_vector":"1"}},{"base_weights":[-2.6051419E-2,1.2977721E-1,-4.2860463E-1,-1.0660821E-1,4.4903475E-1,-6.499811E-1,5.939905E-1,2.6186325E-2,-6.134776E-2,-3.0916128E-1,7.38353E-1,-1.9750218E-1,-1.094611E0,5.8935326E-2,-8.6521454E-2,-4.962512E-1,2.5689265E-1,8.233786E-2,-5.953473E-2,1.2705097E0,3.0542785E-1,3.9510585E-2,-3.797503E-1,-1.2248296E0,7.1801804E-3,-5.4850746E-2,3.8983203E-2,3.0736312E-2,-5.075871E-2,-5.6828756E-2,1.7326726E-2,-1.6522406E-2,4.4380736E-2,7.077913E-2,1.8720089E-2,-2.9974282E-2,2.2530874E-2,1.5983196E-2,-3.7765462E-2,-1.5721103E-2,-6.807599E-2],"categories":[],"categories_nodes":[],"categories_segments":[],"categories_sizes":[],"default_left":[0,0,0,0,0,0,0,0,0,0,0,0,0,0,0,0,0,0,0,0,0,0,0,0,0,0,0,0,0,0,0,0,0,0,0,0,0,0,0,0,0],"id":12,"left_children":[1,3,5,7,9,11,13,15,-1,17,19,21,23,-1,25,27,29,31,-1,33,35,-1,37,39,-1,-1,-1,-1,-1,-1,-1,-1,-1,-1,-1,-1,-1,-1,-1,-1,-1],"loss_changes":[7.6293845E0,6.674733E0,8.066372E0,7.6586304E0,8.464968E0,5.490779E0,2.7122848E0,5.769306E0,0E0,3.920462E0,5.9413214E0,3.0505123E0,2.4473E0,0E0,4.3242927E0,9.087079E0,4.532091E0,3.1536214E0,0E0,1.0310116E0,2.4334378E0,0E0,3.8071299E0,1.1712208E0,0E0,0E0,0E0,0E0,0E0,0E0,0E0,0E0,0E0,0E0,0E0,0E0,0E0,0E0,0E0,0E0,0E0],"parents":[2147483647,0,0,1,1,2,2,3,3,4,4,5,5,6,6,7,7,9,9,10,10,11,11,12,12,14,14,15,15,16,16,17,17,19,19,20,20,22,22,23,23],"right_children":[2,4,6,8,10,12,14,16,-1,18,20,22,24,-1,26,28,30,32,-1,34,36,-1,38,40,-1,-1,-1,-1,-1,-1,-1,-1,-1,-1,-1,-1,-1,-1,-1,-1,-1],"split_conditions":[2.1233022E0,8.53871E-1,2.3925E1,6.004327E-1,7.6921993E-1,8.726725E-1,4.7387E0,-9.259964E0,-6.134776E-2,7.0357543E-1,1.9741684E0,2.1526625E0,1.665E1,5.8935326E-2,7.2212124E-1,-2.6852894E-1,5E-2,-9.445678E-1,-5.953473E-2,9.9E0,1.4803572E1,3.9510585E-2,-7.4394207E0,-7.0084133E0,7.1801804E-3,-5.4850746E-2,3.8983203E-2,3.0736312E-2,-5.075871E-2,-5.6828756E-2,1.7326726E-2,-1.6522406E-2,4.4380736E-2,7.077913E-2,1.8720089E-2,-2.9974282E-2,2.2530874E-2,1.5983196E-2,-3.7765462E-2,-1.5721103E-2,-6.807599E-2],"split_indices":[7,7,3,7,8,8,2,0,0,8,7,7,4,0,8,7,5,0,0,4,3,0,2,0,0,0,0,0,0,0,0,0,0,0,0,0,0,0,0,0,0],"split_type":[0,0,0,0,0,0,0,0,0,0,0,0,0,0,0,0,0,0,0,0,0,0,0,0,0,0,0,0,0,0,0,0,0,0,0,0,0,0,0,0,0],"sum_hessian":[1.197372E2,8.681043E1,3.2926765E1,5.0261654E1,3.654878E1,2.7366673E1,5.5600915E0,4.5808594E1,4.4530587E0,1.0075649E1,2.647313E1,1.4279399E1,1.3087274E1,2.5967762E0,2.9633152E0,1.3679708E1,3.2128887E1,7.6048465E0,2.4708033E0,1.1007668E1,1.5465462E1,1.7046963E0,1.2574703E1,1.1851686E1,1.2355884E0,1.2447262E0,1.7185892E0,4.2965274E0,9.38318E0,1.2360239E0,3.0892862E1,5.4174833E0,2.1873627E0,8.974987E0,2.0326805E0,1.7056695E0,1.3759792E1,4.445169E0,8.129534E0,1.9779649E0,9.87372E0],"tree_param":{"num_deleted":"0","num_feature":"9","num_nodes":"41","size_leaf_vector":"1"}},{"base_weights":[4.8093405E-2,1.4847438E-1,-3.2494953E-1,-5.5002492E-2,3.7651828E-1,-6.7538184E-1,-2.2146306E-3,8.19016E-2,-1.0978144E0,-1.6496624E-1,6.416762E-1,-9.0416193E-1,2.3248581E-2,8.943046E-1,-2.9171866E-1,-3.4823E-1,2.6726562E-1,-6.370642E-2,-1.1932263E-2,-3.9845565E-1,5.437352E-2,1.0228988E0,1.9166911E-2,1.0638152E-1,-1.2703685E0,5.8300275E-2,9.603507E-3,6.431589E-1,-6.0770875E-1,-4.1184276E-2,4.2002913E-2,2.8388744E-2,-1.1898989E-2,4.0907208E-2,-3.3468895E-2,5.751918E-2,-2.30509E-2,-3.394652E-2,2.6104659E-2,-3.2088477E-2,3.6951486E-2,-7.1089536E-2,-2.3455005E-2,5.7063955E-3,4.4357207E-2,-5.0997566E-2,-1.05437795E-2],"categories":[],"categories_nodes":[],"categories_segments":[],"categories_sizes":[],"default_left":[0,0,0,0,0,0,0,0,0,0,0,0,0,0,0,0,0,0,0,0,0,0,0,0,0,0,0,0,0,0,0,0,0,0,0,0,0,0,0,0,0,0,0,0,0,0,0],"id":13,"left_children":[1,3,5,7,9,11,13,15,17,19,21,23,-1,25,27,29,31,-1,-1,33,-1,35,37,39,41,-1,-1,43,45,-1,-1,-1,-1,-1,-1,-1,-1,-1,-1,-1,-1,-1,-1,-1,-1,-1,-1],"loss_changes":[4.4937267E0,4.393166E0,2.8807921E0,7.323853E0,6.5037932E0,3.607181E0,3.9646463E0,3.7384124E0,5.972028E-1,4.949406E0,7.1276283E0,4.0258484E0,0E0,4.875791E-1,3.8001738E0,8.716631E0,5.0722094E0,0E0,0E0,5.0792027E0,0E0,4.060272E0,4.728271E0,2.2346697E0,2.7871323E-1,0E0,0E0,3.3777165E-1,1.2800853E0,0E0,0E0,0E0,0E0,0E0,0E0,0E0,0E0,0E0,0E0,0E0,0E0,0E0,0E0,0E0,0E0,0E0,0E0],"parents":[2147483647,0,0,1,1,2,2,3,3,4,4,5,5,6,6,7,7,8,8,9,9,10,10,11,11,13,13,14,14,15,15,16,16,19,19,21,21,22,22,23,23,24,24,27,27,28,28],"right_children":[2,4,6,8,10,12,14,16,18,20,22,24,-1,26,28,30,32,-1,-1,34,-1,36,38,40,42,-1,-1,44,46,-1,-1,-1,-1,-1,-1,-1,-1,-1,-1,-1,-1,-1,-1,-1,-1,-1,-1],"split_conditions":[2.1568017E0,9.0605956E-1,1.4373301E1,6.004327E-1,8.4478664E-1,1.8903572E1,1.6385714E1,4.3975533E1,1.0837644E0,5.8654343E1,2.062657E0,-7.874975E0,2.3248581E-2,2.3605297E0,5.16987E-1,2.7196428E1,5.8889103E1,-6.370642E-2,-1.1932263E-2,3.376976E1,5.437352E-2,1.555E1,1.5914286E1,-1.0982611E1,3.8221495E0,5.8300275E-2,9.603507E-3,4.0156123E-1,6.733125E-1,-4.1184276E-2,4.2002913E-2,2.8388744E-2,-1.1898989E-2,4.0907208E-2,-3.3468895E-2,5.751918E-2,-2.30509E-2,-3.394652E-2,2.6104659E-2,-3.2088477E-2,3.6951486E-2,-7.1089536E-2,-2.3455005E-2,5.7063955E-3,4.4357207E-2,-5.0997566E-2,-1.05437795E-2],"split_indices":[7,7,0,7,8,3,3,1,8,1,7,0,0,7,8,3,1,0,0,1,0,6,3,2,2,0,0,8,8,0,0,0,0,0,0,0,0,0,0,0,0,0,0,0,0,0,0],"split_type":[0,0,0,0,0,0,0,0,0,0,0,0,0,0,0,0,0,0,0,0,0,0,0,0,0,0,0,0,0,0,0,0,0,0,0,0,0,0,0,0,0,0,0,0,0,0,0],"sum_hessian":[1.1771577E2,9.323061E1,2.448515E1,4.9670177E1,4.3560436E1,1.1214993E1,1.3270158E1,4.4720562E1,4.9496155E0,1.4443308E1,2.9117128E1,9.513496E0,1.7014961E0,2.7292583E0,1.0540899E1,1.3203533E1,3.151703E1,3.7060943E0,1.2435215E0,1.2748487E1,1.6948209E0,1.765939E1,1.1457739E1,2.7192516E0,6.794245E0,1.4916883E0,1.2375699E0,2.401254E0,8.139646E0,9.6494465E0,3.5540872E0,1.968503E1,1.1832001E1,1.9540057E0,1.0794481E1,1.6469263E1,1.1901261E0,4.6513605E0,6.8063784E0,1.2392882E0,1.4799635E0,5.0630193E0,1.7312255E0,1.2211692E0,1.1800846E0,3.2221498E0,4.9174957E0],"tree_param":{"num_deleted":"0","num_feature":"9","num_nodes":"47","size_leaf_vector":"1"}},{"base_weights":[-3.2597575E-2,9.2995055E-2,-4.836422E-1,-1.19210415E-1,3.3829102E-1,-1.1463207E0,-1.256964E-1,1.5184788E-2,-1.088575E0,1.226332E-1,9.083871E-1,-3.5786636E-3,-6.925505E-2,1.6505808E-1,-7.033301E-1,-5.3693462E-2,9.619867E-2,-1.3735567E-2,-7.024023E-2,-3.7691927E-1,3.956098E-1,5.742305E-2,6.148934E-1,-9.985875E-2,5.864484E-2,-5.628826E-2,-4.4588454E-2,-7.3355E-4,3.450888E-2,3.1140117E-2,-4.0265318E-2,4.9972124E-2,-5.3915107E-3,-8.964077E-3,4.177877E-2,2.1596016E-2,-1.7332418E-2,1.0088473E-2,-1.3517034E-2],"categories":[],"categories_nodes":[],"categories_segments":[],"categories_sizes":[],"default_left":[0,0,0,0,0,0,0,0,0,0,0,0,0,0,0,0,0,0,0,0,0,0,0,0,0,0,0,0,0,0,0,0,0,0,0,0,0,0,0],"id":14,"left_children":[1,3,5,7,9,11,13,15,17,19,21,-1,-1,23,25,-1,27,-1,-1,29,31,-1,33,35,-1,-1,37,-1,-1,-1,-1,-1,-1,-1,-1,-1,-1,-1,-1],"loss_changes":[6.7229166E0,4.883782E0,5.9844913E0,6.612317E0,5.2268605E0,2.1946478E0,3.12217E0,4.1133094E0,1.2041941E0,4.6026635E0,1.2249279E-1,0E0,0E0,3.5121508E0,1.6703632E0,0E0,2.8564181E0,0E0,0E0,5.663126E0,6.6760235E0,0E0,1.4544604E0,1.5921034E0,0E0,0E0,2.4681178E-1,0E0,0E0,0E0,0E0,0E0,0E0,0E0,0E0,0E0,0E0,0E0,0E0],"parents":[2147483647,0,0,1,1,2,2,3,3,4,4,5,5,6,6,7,7,8,8,9,9,10,10,13,13,14,14,16,16,19,19,20,20,22,22,23,23,26,26],"right_children":[2,4,6,8,10,12,14,16,18,20,22,-1,-1,24,26,-1,28,-1,-1,30,32,-1,34,36,-1,-1,38,-1,-1,-1,-1,-1,-1,-1,-1,-1,-1,-1,-1],"split_conditions":[2.1568017E0,9.0605956E-1,6.1685123E1,6.055153E-1,5.8281094E1,1.25E0,4.899085E0,1E-1,2.75E0,8.025574E-1,7.5E-1,-3.5786636E-3,-6.925505E-2,3.8221495E0,9.2962354E-1,-5.3693462E-2,6.821103E0,-1.3735567E-2,-7.024023E-2,3.60768E1,2.01015E0,5.742305E-2,2.85E0,2.35E0,5.864484E-2,-5.628826E-2,3.3E0,-7.3355E-4,3.450888E-2,3.1140117E-2,-4.0265318E-2,4.9972124E-2,-5.3915107E-3,-8.964077E-3,4.177877E-2,2.1596016E-2,-1.7332418E-2,1.0088473E-2,-1.3517034E-2],"split_indices":[7,7,1,7,1,6,2,5,6,8,4,0,0,2,8,0,2,0,0,1,7,0,4,6,0,0,5,0,0,0,0,0,0,0,0,0,0,0,0],"split_type":[0,0,0,0,0,0,0,0,0,0,0,0,0,0,0,0,0,0,0,0,0,0,0,0,0,0,0,0,0,0,0,0,0,0,0,0,0,0,0],"sum_hessian":[1.1688509E2,9.204823E1,2.4836857E1,4.962858E1,4.2419655E1,7.938154E0,1.6898703E1,4.4450222E1,5.178358E0,3.165878E1,1.0760878E1,1.6793157E0,6.2588387E0,1.171577E1,5.1829333E0,2.229127E0,4.2221096E1,1.9719532E0,3.206405E0,1.1052222E1,2.0606556E1,4.3167586E0,6.444119E0,9.990596E0,1.7251738E0,2.7259097E0,2.4570234E0,3.6401787E1,5.8193083E0,3.17918E0,7.873042E0,8.9211645E0,1.1685391E1,1.4420764E0,5.0020423E0,2.9290216E0,7.0615745E0,1.2256913E0,1.2313321E0],"tree_param":{"num_deleted":"0","num_feature":"9","num_nodes":"39","size_leaf_vector":"1"}},{"base_weights":[-1.1599062E-2,1.296565E-1,-4.55975E-1,-3.2314932E-1,2.3539358E-1,-7.580667E-1,1.4604063E-1,3.8810012E-1,-7.929905E-1,3.020791E-1,-7.736647E-1,-8.6827916E-1,2.4806706E-2,5.0238486E-2,-3.0617625E-1,6.7118347E-1,-2.4639973E-2,2.8591746E-2,-1.0568919E0,3.636467E-1,-7.431705E-1,6.5780565E-4,-5.9661567E-2,-3.3267245E-1,-1.1982882E0,2.11355E-2,-6.8020177E-1,-1.3801708E-2,6.2433522E-2,-6.187883E-2,6.09781E-3,2.0375248E-2,-4.7535118E-2,-6.264821E-2,2.0148074E-2,2.6109576E-2,-3.1474214E-2,-6.399697E-2,-2.0257164E-2,9.730626E-3,-4.921676E-2],"categories":[],"categories_nodes":[],"categories_segments":[],"categories_sizes":[],"default_left":[0,0,0,0,0,0,0,0,0,0,0,0,0,0,0,0,0,0,0,0,0,0,0,0,0,0,0,0,0,0,0,0,0,0,0,0,0,0,0,0,0],"id":15,"left_children":[1,3,5,7,9,11,13,15,17,19,21,23,-1,-1,25,27,-1,-1,29,31,33,-1,-1,35,37,-1,39,-1,-1,-1,-1,-1,-1,-1,-1,-1,-1,-1,-1,-1,-1],"loss_changes":[7.539998E0,4.4430876E0,5.378836E0,6.2187786E0,5.2482815E0,3.1193256E0,4.391887E0,2.2528663E0,4.559323E0,4.815011E0,1.6334562E0,2.825817E0,0E0,0E0,2.3746777E0,3.767129E0,0E0,0E0,2.1856012E0,4.270665E0,2.992191E0,0E0,0E0,2.4446292E0,1.8755913E-1,0E0,1.6396804E0,0E0,0E0,0E0,0E0,0E0,0E0,0E0,0E0,0E0,0E0,0E0,0E0,0E0,0E0],"parents":[2147483647,0,0,1,1,2,2,3,3,4,4,5,5,6,6,7,7,8,8,9,9,10,10,11,11,14,14,15,15,18,18,19,19,20,20,23,23,24,24,26,26],"right_children":[2,4,6,8,10,12,14,16,18,20,22,24,-1,-1,26,28,-1,-1,30,32,34,-1,-1,36,38,-1,40,-1,-1,-1,-1,-1,-1,-1,-1,-1,-1,-1,-1,-1,-1],"split_conditions":[2.1412306E0,-1.3714478E1,2.025719E1,-1.8156125E-1,2.045E1,1.855E1,5.6087464E-1,1.14E1,-3.7303394E1,1.3001885E1,2.4454084E-1,2.1962707E0,2.4806706E-2,5.0238486E-2,-7.5E0,3.5E0,-2.4639973E-2,2.8591746E-2,1.4374114E0,2.4062657E0,6.5989804E-1,6.5780565E-4,-5.9661567E-2,-3.6230369E0,1.8684942E1,2.11355E-2,2.213558E1,-1.3801708E-2,6.2433522E-2,-6.187883E-2,6.09781E-3,2.0375248E-2,-4.7535118E-2,-6.264821E-2,2.0148074E-2,2.6109576E-2,-3.1474214E-2,-6.399697E-2,-2.0257164E-2,9.730626E-3,-4.921676E-2],"split_indices":[7,0,0,7,4,4,8,6,0,2,7,7,0,0,4,5,0,0,8,8,7,0,0,0,0,0,0,0,0,0,0,0,0,0,0,0,0,0,0,0,0],"split_type":[0,0,0,0,0,0,0,0,0,0,0,0,0,0,0,0,0,0,0,0,0,0,0,0,0,0,0,0,0,0,0,0,0,0,0,0,0,0,0,0,0],"sum_hessian":[1.18178116E2,9.02107E1,2.796741E1,1.6688433E1,7.352227E1,1.8449984E1,9.517426E0,6.707914E0,9.980518E0,6.962181E1,3.900457E0,1.7242508E1,1.2074758E0,2.8615885E0,6.655837E0,5.2567043E0,1.4512092E0,1.4280719E0,8.552447E0,6.636487E1,3.2569456E0,1.6934129E0,2.207044E0,7.339129E0,9.903379E0,2.2130222E0,4.442815E0,2.1887066E0,3.067998E0,7.3726115E0,1.1798356E0,6.488954E1,1.4753294E0,2.1897464E0,1.0671991E0,1.6957551E0,5.643374E0,8.422557E0,1.4808222E0,1.2390108E0,3.2038038E0],"tree_param":{"num_deleted":"0","num_feature":"9","num_nodes":"41","size_leaf_vector":"1"}},{"base_weights":[3.0084336E-2,1.5802148E-1,-4.070443E-1,-9.6549235E-2,4.5159984E-1,-5.8538926E-1,3.9731073E-1,3.38011E-2,-1.1378717E0,-4.8634287E-2,5.1917446E-1,-7.9551995E-1,3.051157E-1,-3.578571E-2,5.0128885E-2,1.1008851E-1,-5.8207806E-2,-6.888154E-2,-8.939268E-3,1.6110294E-1,8.3452255E-1,-3.425934E-2,-1.2543805E0,-1.9011337E-1,4.9026337E-2,-4.882405E-3,5.012585E-2,-5.97987E-3,3.6502615E-2,6.211391E-2,1.9595532E-2,-4.0206965E-2,3.234475E-2,-5.5805496E-3,-6.904789E-2,2.6716068E-2,-3.7816286E-2],"categories":[],"categories_nodes":[],"categories_segments":[],"categories_sizes":[],"default_left":[0,0,0,0,0,0,0,0,0,0,0,0,0,0,0,0,0,0,0,0,0,0,0,0,0,0,0,0,0,0,0,0,0,0,0,0,0],"id":16,"left_children":[1,3,5,7,9,11,13,15,17,-1,19,21,23,-1,-1,25,-1,-1,-1,27,29,31,33,35,-1,-1,-1,-1,-1,-1,-1,-1,-1,-1,-1,-1,-1],"loss_changes":[6.434264E0,6.6826887E0,3.9721375E0,6.6082993E0,4.4926395E0,4.311056E0,4.30602E0,4.1481595E0,9.985485E-1,0E0,4.405653E0,6.198512E0,1.8165568E0,0E0,0E0,7.9339375E0,0E0,0E0,0E0,3.2921712E0,3.3284035E0,4.583198E0,1.4543781E0,1.9010786E0,0E0,0E0,0E0,0E0,0E0,0E0,0E0,0E0,0E0,0E0,0E0,0E0,0E0],"parents":[2147483647,0,0,1,1,2,2,3,3,4,4,5,5,6,6,7,7,8,8,10,10,11,11,12,12,15,15,19,19,20,20,21,21,22,22,23,23],"right_children":[2,4,6,8,10,12,14,16,18,-1,20,22,24,-1,-1,26,-1,-1,-1,28,30,32,34,36,-1,-1,-1,-1,-1,-1,-1,-1,-1,-1,-1,-1,-1],"split_conditions":[2.1568017E0,8.53871E-1,6.949066E1,6.004327E-1,1.4267858E1,9.9E0,4.3E0,1.340629E1,1.0837644E0,-4.8634287E-2,9.834891E-1,2.35E0,3.8221495E0,-3.578571E-2,5.0128885E-2,6.821103E0,-5.8207806E-2,-6.888154E-2,-8.939268E-3,1.989643E1,2.01015E0,1.3524573E1,-6.402891E0,8.5926175E-1,4.9026337E-2,-4.882405E-3,5.012585E-2,-5.97987E-3,3.6502615E-2,6.211391E-2,1.9595532E-2,-4.0206965E-2,3.234475E-2,-5.5805496E-3,-6.904789E-2,2.6716068E-2,-3.7816286E-2],"split_indices":[7,7,0,7,3,4,6,2,8,0,8,6,2,0,0,2,0,0,0,3,7,0,0,8,0,0,0,0,0,0,0,0,0,0,0,0,0],"split_type":[0,0,0,0,0,0,0,0,0,0,0,0,0,0,0,0,0,0,0,0,0,0,0,0,0,0,0,0,0,0,0,0,0,0,0,0,0],"sum_hessian":[1.1290154E2,8.783332E1,2.506822E1,4.7401325E1,4.0432E1,2.0741543E1,4.3266764E0,4.2987755E1,4.4135675E0,1.2246897E0,3.920731E1,1.6867918E1,3.8736253E0,1.4597911E0,2.8668854E0,4.126787E1,1.7198864E0,3.1817677E0,1.2318E0,1.906746E1,2.0139849E1,6.747806E0,1.0120112E1,2.6494794E0,1.2241459E0,3.419796E1,7.069909E0,1.3296975E1,5.7704844E0,9.542311E0,1.0597539E1,3.0828443E0,3.664962E0,1.1968081E0,8.923304E0,1.1870471E0,1.4624323E0],"tree_param":{"num_deleted":"0","num_feature":"9","num_nodes":"37","size_leaf_vector":"1"}},{"base_weights":[-5.8759972E-3,-2.2411261E-1,2.1327515E-1,-3.281577E-1,5.13985E-1,6.2479448E-2,9.705351E-1,-1.4950338E-1,-1.0488414E0,8.832146E-1,-1.3472214E-1,1.488405E-1,-6.787125E-2,5.9381824E-2,4.9857086E-1,9.6960354E-1,-2.7470922E-1,7.7445544E-3,-1.2307265E0,5.7712328E-2,1.0607102E-3,-4.1505508E-2,2.8004033E-2,4.9791798E-1,-2.2603647E-1,-1.7596811E-2,4.4512536E-2,1.0504861E-2,5.8382746E-2,-2.1554315E-2,1.4649722E-2,-7.703556E-2,-2.5897939E-2,3.8491152E-2,-1.0020978E-2,-2.3438375E-2,3.0438501E-2],"categories":[],"categories_nodes":[],"categories_segments":[],"categories_sizes":[],"default_left":[0,0,0,0,0,0,0,0,0,0,0,0,0,0,0,0,0,0,0,0,0,0,0,0,0,0,0,0,0,0,0,0,0,0,0,0,0],"id":17,"left_children":[1,3,5,7,9,11,13,15,17,19,21,23,-1,-1,25,27,29,-1,31,-1,-1,-1,-1,33,35,-1,-1,-1,-1,-1,-1,-1,-1,-1,-1,-1,-1],"loss_changes":[5.5599647E0,4.640806E0,6.5645533E0,6.4933014E0,1.9356232E0,6.266097E0,3.8804626E-1,6.229242E0,2.4006376E0,1.135653E0,2.2133303E0,6.330824E0,0E0,0E0,1.8914838E0,4.3200445E-1,3.593275E0,0E0,1.164175E0,0E0,0E0,0E0,0E0,4.8857527E0,5.06755E0,0E0,0E0,0E0,0E0,0E0,0E0,0E0,0E0,0E0,0E0,0E0,0E0],"parents":[2147483647,0,0,1,1,2,2,3,3,4,4,5,5,6,6,7,7,8,8,9,9,10,10,11,11,14,14,15,15,16,16,18,18,23,23,24,24],"right_children":[2,4,6,8,10,12,14,16,18,20,22,24,-1,-1,26,28,30,-1,32,-1,-1,-1,-1,34,36,-1,-1,-1,-1,-1,-1,-1,-1,-1,-1,-1,-1],"split_conditions":[-3.6768225E-1,2.6867857E1,8.05E0,2.2292856E1,-6.2296557E0,7.65E0,4.35E0,-1.65E1,1.35E0,1.14E1,4.027945E1,1.2508021E1,-6.787125E-2,5.9381824E-2,5E0,1.5446428E1,1.8946428E1,7.7445544E-3,7.15E0,5.7712328E-2,1.0607102E-3,-4.1505508E-2,2.8004033E-2,6.15E0,7.536678E1,-1.7596811E-2,4.4512536E-2,1.0504861E-2,5.8382746E-2,-2.1554315E-2,1.4649722E-2,-7.703556E-2,-2.5897939E-2,3.8491152E-2,-1.0020978E-2,-2.3438375E-2,3.0438501E-2],"split_indices":[2,3,5,3,2,5,6,4,5,6,1,0,0,0,6,3,3,0,5,0,0,0,0,6,1,0,0,0,0,0,0,0,0,0,0,0,0],"split_type":[0,0,0,0,0,0,0,0,0,0,0,0,0,0,0,0,0,0,0,0,0,0,0,0,0,0,0,0,0,0,0,0,0,0,0,0,0],"sum_hessian":[1.1425267E2,5.7234436E1,5.7018234E1,5.0650017E1,6.5844197E0,4.845228E1,8.565956E0,4.155593E1,9.094086E0,3.9657204E0,2.618699E0,4.651814E1,1.9341382E0,4.8285E0,3.7374568E0,3.5028553E0,3.8053074E1,1.2132304E0,7.880855E0,2.7591503E0,1.20657E0,1.2114683E0,1.4072309E0,2.3917994E1,2.2600145E1,1.2104702E0,2.5269866E0,1.1507337E0,2.3521218E0,3.002357E1,8.029507E0,4.682732E0,3.1981227E0,1.7141432E1,6.776561E0,1.7848833E1,4.751312E0],"tree_param":{"num_deleted":"0","num_feature":"9","num_nodes":"37","size_leaf_vector":"1"}},{"base_weights":[-7.984825E-3,1.12559244E-1,-4.198278E-1,-1.8030162E-1,2.8789932E-1,-5.114672E-1,4.3643814E-2,3.001484E-2,-1.0914973E0,8.289031E-1,1.5058036E-1,-2.8935838E-1,-1.2176725E0,-2.4943674E-1,7.854697E-1,-1.0660371E-2,-6.266137E-2,-1.5246326E-2,9.928795E-1,-1.2261082E-1,4.6600255E-1,-4.6928215E-1,5.1483233E-2,-7.0395105E-2,-2.3795424E-2,1.5833704E-2,-2.9596558E-2,5.2540917E-2,-2.139205E-2,5.9628528E-2,-7.7229314E-3,-2.102986E-2,1.9798737E-2,3.601062E-2,-2.5566749E-3,-2.1553824E-4,-3.904774E-2],"categories":[],"categories_nodes":[],"categories_segments":[],"categories_sizes":[],"default_left":[0,0,0,0,0,0,0,0,0,0,0,0,0,0,0,0,0,0,0,0,0,0,0,0,0,0,0,0,0,0,0,0,0,0,0,0,0],"id":18,"left_children":[1,3,5,7,9,11,-1,13,15,17,19,21,23,25,27,-1,-1,-1,29,31,33,35,-1,-1,-1,-1,-1,-1,-1,-1,-1,-1,-1,-1,-1,-1,-1],"loss_changes":[5.9555807E0,4.819924E0,3.6636682E0,6.81451E0,4.2185364E0,3.7244363E0,0E0,6.4712596E0,6.7926407E-1,2.4619637E0,4.180504E0,5.4869275E0,1.6345978E-1,4.5417204E0,3.11132E0,0E0,0E0,0E0,2.5626621E0,4.2514114E0,2.983832E0,2.7848892E0,0E0,0E0,0E0,0E0,0E0,0E0,0E0,0E0,0E0,0E0,0E0,0E0,0E0,0E0,0E0],"parents":[2147483647,0,0,1,1,2,2,3,3,4,4,5,5,7,7,8,8,9,9,10,10,11,11,12,12,13,13,14,14,18,18,19,19,20,20,21,21],"right_children":[2,4,6,8,10,12,-1,14,16,18,20,22,24,26,28,-1,-1,-1,30,32,34,36,-1,-1,-1,-1,-1,-1,-1,-1,-1,-1,-1,-1,-1,-1,-1],"split_conditions":[2.1526625E0,-2.230083E0,1.06E1,2.01015E0,7.347243E-2,4.899085E0,4.3643814E-2,6.2886316E-1,-5.8955827E0,1.797857E1,1.4423844E0,2.4089285E1,6.05E0,2.1217857E1,-1.469998E0,-1.0660371E-2,-6.266137E-2,-1.5246326E-2,1.0738533E1,2.1982143E1,6E0,2.6E0,5.1483233E-2,-7.0395105E-2,-2.3795424E-2,1.5833704E-2,-2.9596558E-2,5.2540917E-2,-2.139205E-2,5.9628528E-2,-7.7229314E-3,-2.102986E-2,1.9798737E-2,3.601062E-2,-2.5566749E-3,-2.1553824E-4,-3.904774E-2],"split_indices":[7,2,6,7,7,2,0,7,2,3,7,3,6,3,0,0,0,0,2,3,6,6,0,0,0,0,0,0,0,0,0,0,0,0,0,0,0],"split_type":[0,0,0,0,0,0,0,0,0,0,0,0,0,0,0,0,0,0,0,0,0,0,0,0,0,0,0,0,0,0,0,0,0,0,0,0,0],"sum_hessian":[1.1801094E2,9.185284E1,2.6158104E1,3.4388058E1,5.746478E1,2.4990854E1,1.167251E0,2.8724995E1,5.6630626E0,1.061356E1,4.685122E1,2.0083975E1,4.906879E0,2.1457453E1,7.267543E0,1.2411542E0,4.4219084E0,1.2324059E0,9.381154E0,2.5433887E1,2.1417334E1,1.8240118E1,1.8438569E0,3.1905882E0,1.7162908E0,8.116703E0,1.334075E1,6.0732584E0,1.1942842E0,7.956861E0,1.4242932E0,1.627246E1,9.161427E0,1.4095622E1,7.321711E0,7.726743E0,1.0513374E1],"tree_param":{"num_deleted":"0","num_feature":"9","num_nodes":"37","size_leaf_vector":"1"}},{"base_weights":[-5.600434E-2,9.0420455E-1,-1.100777E-1,5.2854866E-2,1.4492228E-2,-7.4045384E-1,-4.222218E-2,-1.090494E0,1.7181475E-1,1.2806965E-1,-4.0602523E-1,-9.44156E-3,-1.3165754E0,-3.1199751E-2,3.8043253E-2,2.4033207E-1,-9.724149E-1,-8.590513E-1,-8.095953E-2,-2.2055626E-2,-7.1872234E-2,1.4457953E-2,-5.0345458E-2,-8.114974E-3,-5.834944E-2,-1.5028167E-2,-5.52305E-2,8.798848E-3,-5.108316E-2],"categories":[],"categories_nodes":[],"categories_segments":[],"categories_sizes":[],"default_left":[0,0,0,0,0,0,0,0,0,0,0,0,0,0,0,0,0,0,0,0,0,0,0,0,0,0,0,0,0],"id":19,"left_children":[1,3,5,-1,-1,7,9,11,13,15,17,-1,19,-1,-1,21,23,25,27,-1,-1,-1,-1,-1,-1,-1,-1,-1,-1],"loss_changes":[6.1124387E0,2.837224E-1,4.696376E0,0E0,0E0,3.5979857E0,6.2995663E0,1.3526077E0,2.2681184E0,8.813896E0,4.70077E0,0E0,1.2757301E-2,0E0,0E0,4.177968E0,8.552213E-1,1.5096579E0,5.00516E0,0E0,0E0,0E0,0E0,0E0,0E0,0E0,0E0,0E0,0E0],"parents":[2147483647,0,0,1,1,2,2,5,5,6,6,7,7,8,8,9,9,10,10,12,12,15,15,16,16,17,17,18,18],"right_children":[2,4,6,-1,-1,8,10,12,14,16,18,-1,20,-1,-1,22,24,26,28,-1,-1,-1,-1,-1,-1,-1,-1,-1,-1],"split_conditions":[-2.6852894E-1,2.85E0,-3.2459617E-2,5.2854866E-2,1.4492228E-2,3.75E0,2.116998E0,2.3035715E1,3.85E0,1.81E1,6.0412666E1,-9.44156E-3,-9.361036E0,-3.1199751E-2,3.8043253E-2,4.299643E1,1.7450863E-2,-5.8E0,6.6617265E0,-2.2055626E-2,-7.1872234E-2,1.4457953E-2,-5.0345458E-2,-8.114974E-3,-5.834944E-2,-1.5028167E-2,-5.52305E-2,8.798848E-3,-5.108316E-2],"split_indices":[7,4,7,0,0,4,7,3,6,4,1,0,2,0,0,3,0,4,2,0,0,0,0,0,0,0,0,0,0],"split_type":[0,0,0,0,0,0,0,0,0,0,0,0,0,0,0,0,0,0,0,0,0,0,0,0,0,0,0,0,0],"sum_hessian":[1.1480713E2,5.2824306E0,1.09524704E2,3.6527424E0,1.6296883E0,9.680536E0,9.984417E1,6.8549185E0,2.8256178E0,6.8451035E1,3.1393135E1,1.7421343E0,5.1127844E0,1.1766431E0,1.6489745E0,6.2823868E1,5.627164E0,1.2428927E1,1.8964207E1,1.1843041E0,3.9284801E0,6.1196316E1,1.6275516E0,1.444997E0,4.182167E0,4.475055E0,7.9538717E0,1.5534238E1,3.42997E0],"tree_param":{"num_deleted":"0","num_feature":"9","num_nodes":"29","size_leaf_vector":"1"}},{"base_weights":[-5.300849E-2,9.2474826E-2,-4.3892145E-1,1.4097442E-1,-5.7861727E-2,-5.3514224E-1,4.8984077E-2,4.9326926E-2,7.2835964E-1,-8.4556973E-1,-1.1730918E-1,-1.9104053E-1,3.9058343E-1,1.0279331E0,-2.5146045E-3,-2.6392892E-1,-9.861111E-1,2.1944895E-1,-6.268353E-2,-1.726718E-2,4.178917E-2,-4.25997E-2,2.5645245E-2,1.03549585E-2,6.010859E-2,-3.644798E-2,4.471094E-2,-3.313309E-2,1.9419724E-2,-1.526112E-4,-5.3907163E-2,-3.4196768E-2,3.649437E-2],"categories":[],"categories_nodes":[],"categories_segments":[],"categories_sizes":[],"default_left":[0,0,0,0,0,0,0,0,0,0,0,0,0,0,0,0,0,0,0,0,0,0,0,0,0,0,0,0,0,0,0,0,0],"id":20,"left_children":[1,3,5,7,-1,9,-1,11,13,15,17,19,21,23,25,27,29,31,-1,-1,-1,-1,-1,-1,-1,-1,-1,-1,-1,-1,-1,-1,-1],"loss_changes":[6.657925E0,5.4011865E0,4.952608E0,4.490535E0,0E0,3.9253893E0,0E0,6.1288924E0,2.4714785E0,1.1818037E0,5.780779E0,7.2564635E0,5.123145E0,8.9523983E-1,3.4371889E0,1.5054874E0,1.2490883E0,6.009262E0,0E0,0E0,0E0,0E0,0E0,0E0,0E0,0E0,0E0,0E0,0E0,0E0,0E0,0E0,0E0],"parents":[2147483647,0,0,1,1,2,2,3,3,5,5,7,7,8,8,9,9,10,10,11,11,12,12,13,13,14,14,15,15,16,16,17,17],"right_children":[2,4,6,8,-1,10,-1,12,14,16,18,20,22,24,26,28,30,32,-1,-1,-1,-1,-1,-1,-1,-1,-1,-1,-1,-1,-1,-1,-1],"split_conditions":[2.1233022E0,4.2025E1,1.165E1,6.920477E0,-5.7861727E-2,1.7657143E1,4.8984077E-2,1.3052964E0,2.802143E1,-8.5E0,6.6617265E0,2.6867857E1,1.4803572E1,2.1264286E1,3.1867857E1,-1.11E1,7E-1,6.1685123E1,-6.268353E-2,-1.726718E-2,4.178917E-2,-4.25997E-2,2.5645245E-2,1.03549585E-2,6.010859E-2,-3.644798E-2,4.471094E-2,-3.313309E-2,1.9419724E-2,-1.526112E-4,-5.3907163E-2,-3.4196768E-2,3.649437E-2],"split_indices":[7,3,6,2,0,3,0,7,3,4,2,3,3,3,3,4,5,1,0,0,0,0,0,0,0,0,0,0,0,0,0,0,0],"split_type":[0,0,0,0,0,0,0,0,0,0,0,0,0,0,0,0,0,0,0,0,0,0,0,0,0,0,0,0,0,0,0,0,0],"sum_hessian":[1.1686385E2,8.5421585E1,3.1442265E1,8.308439E1,2.3372025E0,3.002828E1,1.4139857E0,7.280835E1,1.0276034E1,1.664112E1,1.3387159E1,4.297715E1,2.9831202E1,7.0002866E0,3.2757475E0,3.7985387E0,1.2842582E1,1.0949256E1,2.437903E0,3.7939568E1,5.0375834E0,2.1388571E0,2.7692345E1,1.608986E0,5.3913007E0,1.9130653E0,1.3626823E0,2.3476737E0,1.4508649E0,1.1878201E0,1.1654762E1,3.830342E0,7.118914E0],"tree_param":{"num_deleted":"0","num_feature":"9","num_nodes":"33","size_leaf_vector":"1"}},{"base_weights":[-1.6768407E-2,-7.67153E-1,3.254054E-2,1.2514924E-2,-1.0966691E0,-8.094536E-1,7.039511E-2,-6.717809E-2,-4.9997573E-3,-5.8147516E-2,7.929036E-3,3.6629418E-1,-3.47014E-2,5.6727195E-1,-2.6994663E-1,-9.981954E-2,6.6449195E-1,4.144601E-2,1.3683145E-3,-2.722313E-2,3.7527315E-2,-9.548486E-3,1.3275074E-2,-3.1848364E-3,5.9364583E-2],"categories":[],"categories_nodes":[],"categories_segments":[],"categories_sizes":[],"default_left":[0,0,0,0,0,0,0,0,0,0,0,0,0,0,0,0,0,0,0,0,0,0,0,0,0],"id":21,"left_children":[1,3,5,-1,7,9,11,-1,-1,-1,-1,13,15,17,19,21,23,-1,-1,-1,-1,-1,-1,-1,-1],"loss_changes":[4.4100046E0,2.738083E0,3.6320317E0,0E0,1.2772055E0,1.8631577E0,3.3793314E0,0E0,0E0,0E0,0E0,3.792309E0,3.7451057E0,3.0781507E0,2.5123637E0,2.540945E0,2.746032E0,0E0,0E0,0E0,0E0,0E0,0E0,0E0,0E0],"parents":[2147483647,0,0,1,1,2,2,4,4,5,5,6,6,11,11,12,12,13,13,14,14,15,15,16,16],"right_children":[2,4,6,-1,8,10,12,-1,-1,-1,-1,14,16,18,20,22,24,-1,-1,-1,-1,-1,-1,-1,-1],"split_conditions":[1.4803572E1,2.006369E0,1.5E-1,1.2514924E-2,2.2960477E0,1.3357971E0,1.65E0,-6.717809E-2,-4.9997573E-3,-5.8147516E-2,7.929036E-3,1.724696E1,1.215E1,2.0491662E0,1.0183104E0,8.95E0,-3.335144E0,4.144601E-2,1.3683145E-3,-2.722313E-2,3.7527315E-2,-9.548486E-3,1.3275074E-2,-3.1848364E-3,5.9364583E-2],"split_indices":[3,7,5,0,2,7,5,0,0,0,0,0,5,7,8,4,2,0,0,0,0,0,0,0,0],"split_type":[0,0,0,0,0,0,0,0,0,0,0,0,0,0,0,0,0,0,0,0,0,0,0,0,0],"sum_hessian":[1.1751247E2,6.348147E0,1.1116432E2,1.6117938E0,4.7363534E0,3.9057608E0,1.0725856E2,3.51707E0,1.2192831E0,2.7135153E0,1.1922456E0,2.7459911E1,7.979865E1,2.0950426E1,6.5094852E0,7.3784134E1,6.014519E0,1.3751087E1,7.1993384E0,5.497193E0,1.0122923E0,5.9432545E1,1.4351585E1,2.880516E0,3.1340034E0],"tree_param":{"num_deleted":"0","num_feature":"9","num_nodes":"25","size_leaf_vector":"1"}},{"base_weights":[-3.54955E-2,1.261067E-1,-3.6421162E-1,-8.079603E-2,5.003858E-1,-6.358791E-1,1.6037466E-1,5.0817236E-2,-1.1088548E0,5.4652005E-2,9.406023E-1,1.2441645E-1,-8.1816787E-1,7.533467E-1,-7.107725E-1,1.1686943E-1,-5.3148735E-2,-6.672403E-2,-7.5790915E-3,-7.531841E-1,3.0937815E-1,1.0836366E0,8.404553E-4,5.155722E-2,-5.742252E-1,3.3925492E-3,-9.138086E-1,-2.6675705E-3,9.1862667E-1,-7.054057E-2,1.8864533E-2,-3.1823136E-3,4.734038E-2,-5.9675675E-2,1.7526615E-3,-1.5145509E-3,4.3604206E-2,1.7463421E-2,5.961172E-2,1.1763609E-3,-5.1272597E-2,-5.6521464E-2,-2.3873806E-2,5.801347E-2,3.5231442E-3],"categories":[],"categories_nodes":[],"categories_segments":[],"categories_sizes":[],"default_left":[0,0,0,0,0,0,0,0,0,0,0,0,0,0,0,0,0,0,0,0,0,0,0,0,0,0,0,0,0,0,0,0,0,0,0,0,0,0,0,0,0,0,0,0,0],"id":22,"left_children":[1,3,5,7,9,11,13,15,17,19,21,23,25,27,29,31,-1,-1,-1,33,35,37,-1,-1,39,-1,41,-1,43,-1,-1,-1,-1,-1,-1,-1,-1,-1,-1,-1,-1,-1,-1,-1,-1],"loss_changes":[6.1262712E0,6.040387E0,5.5149326E0,6.9241467E0,5.38818E0,3.5977736E0,7.642073E0,3.504924E0,1.0513787E0,3.285997E0,1.8165483E0,4.2322516E0,1.7973375E0,1.2051353E0,5.1681614E0,6.6943617E0,0E0,0E0,0E0,1.3773651E0,2.3178234E0,5.412493E-1,0E0,0E0,1.0727674E0,0E0,1.2137966E0,0E0,1.404459E0,0E0,0E0,0E0,0E0,0E0,0E0,0E0,0E0,0E0,0E0,0E0,0E0,0E0,0E0,0E0,0E0],"parents":[2147483647,0,0,1,1,2,2,3,3,4,4,5,5,6,6,7,7,8,8,9,9,10,10,11,11,12,12,13,13,14,14,15,15,19,19,20,20,21,21,24,24,26,26,28,28],"right_children":[2,4,6,8,10,12,14,16,18,20,22,24,26,28,30,32,-1,-1,-1,34,36,38,-1,-1,40,-1,42,-1,44,-1,-1,-1,-1,-1,-1,-1,-1,-1,-1,-1,-1,-1,-1,-1,-1],"split_conditions":[2.0670636E0,8.53871E-1,1.8982143E1,6.004327E-1,9.7971785E-1,1.65E0,4.899085E0,1.340629E1,1.1796789E0,1.2E0,1.9683384E0,2.1412306E0,-9.071039E0,9E-1,9.2962354E-1,6.821103E0,-5.3148735E-2,-6.672403E-2,-7.5790915E-3,7.308234E-1,1.989643E1,1.8E0,8.404553E-4,5.155722E-2,1.5914286E1,3.3925492E-3,1.0494924E1,-2.6675705E-3,3.3564165E0,-7.054057E-2,1.8864533E-2,-3.1823136E-3,4.734038E-2,-5.9675675E-2,1.7526615E-3,-1.5145509E-3,4.3604206E-2,1.7463421E-2,5.961172E-2,1.1763609E-3,-5.1272597E-2,-5.6521464E-2,-2.3873806E-2,5.801347E-2,3.5231442E-3],"split_indices":[7,7,3,7,8,6,2,2,8,5,8,7,0,5,8,2,0,0,0,8,3,6,0,0,3,0,0,0,2,0,0,0,0,0,0,0,0,0,0,0,0,0,0,0,0],"split_type":[0,0,0,0,0,0,0,0,0,0,0,0,0,0,0,0,0,0,0,0,0,0,0,0,0,0,0,0,0,0,0,0,0,0,0,0,0,0,0,0,0,0,0,0,0],"sum_hessian":[1.1346159E2,7.647942E1,3.6982166E1,4.9757465E1,2.672196E1,2.4224743E1,1.2757422E1,4.4953087E1,4.804377E0,1.3836347E1,1.2885613E1,4.7462816E0,1.9478462E1,7.671092E0,5.0863304E0,4.3281403E1,1.6716846E0,3.5691068E0,1.23527E0,2.8478534E0,1.0988493E1,1.1008151E1,1.8774618E0,1.8584176E0,2.8878639E0,1.9260488E0,1.7552414E1,1.4195863E0,6.251506E0,2.9145432E0,2.1717873E0,3.6307625E1,6.973778E0,1.4972799E0,1.3505735E0,7.4422545E0,3.5462387E0,1.9613211E0,9.04683E0,1.6499667E0,1.237897E0,1.0666294E1,6.8861194E0,4.578974E0,1.6725322E0],"tree_param":{"num_deleted":"0","num_feature":"9","num_nodes":"45","size_leaf_vector":"1"}},{"base_weights":[1.9007547E-2,-5.505805E-2,5.0817415E-2,1.4552063E-1,-2.2190954E-1,1.7859383E-1,-4.9067866E-2,-7.577478E-1,5.4659337E-2,-2.2542976E-2,3.9517713E-1,-5.9709866E-2,-3.773893E-1,2.496136E-1,-5.622556E-1,1.11901695E-2,-2.0777872E-2,4.6660587E-2,9.678533E-3,1.8446876E-2,-4.5265894E-2,-6.6559366E-3,3.1201152E-2,-4.31249E-2,1.2409593E-2],"categories":[],"categories_nodes":[],"categories_segments":[],"categories_sizes":[],"default_left":[0,0,0,0,0,0,0,0,0,0,0,0,0,0,0,0,0,0,0,0,0,0,0,0,0],"id":23,"left_children":[1,-1,3,5,7,9,-1,11,13,15,17,-1,19,21,23,-1,-1,-1,-1,-1,-1,-1,-1,-1,-1],"loss_changes":[4.234963E0,0E0,3.0024838E0,3.379025E0,4.4926805E0,3.683747E0,0E0,1.2579646E0,2.6351964E0,4.419231E0,4.2311926E0,0E0,3.076972E0,2.4410567E0,1.5009545E0,0E0,0E0,0E0,0E0,0E0,0E0,0E0,0E0,0E0,0E0],"parents":[2147483647,0,0,2,2,3,3,4,4,5,5,7,7,8,8,9,9,10,10,12,12,13,13,14,14],"right_children":[2,-1,4,6,8,10,-1,12,14,16,18,-1,20,22,24,-1,-1,-1,-1,-1,-1,-1,-1,-1,-1],"split_conditions":[1.4267858E1,-5.505805E-2,2.134679E0,4.299643E1,6.0412666E1,-5.143383E-1,-4.9067866E-2,1.5653571E1,6.6617265E0,1.8E0,4.1179258E-1,-5.9709866E-2,1.612143E1,1.8203571E1,2.6563105E1,1.11901695E-2,-2.0777872E-2,4.6660587E-2,9.678533E-3,1.8446876E-2,-4.5265894E-2,-6.6559366E-3,3.1201152E-2,-4.31249E-2,1.2409593E-2],"split_indices":[3,0,7,3,1,2,0,3,2,4,2,0,3,3,2,0,0,0,0,0,0,0,0,0,0],"split_type":[0,0,0,0,0,0,0,0,0,0,0,0,0,0,0,0,0,0,0,0,0,0,0,0,0],"sum_hessian":[1.1628098E2,2.2826226E0,1.1399836E2,8.496208E1,2.903628E1,8.335712E1,1.6049678E0,9.292572E0,1.9743708E1,4.3684273E1,3.9672844E1,3.3308566E0,5.961715E0,1.5455064E1,4.288645E0,2.7117336E1,1.6566938E1,9.824625E0,2.9848217E1,2.5947316E0,3.3669837E0,7.9612727E0,7.4937906E0,3.0824723E0,1.2061725E0],"tree_param":{"num_deleted":"0","num_feature":"9","num_nodes":"25","size_leaf_vector":"1"}},{"base_weights":[-1.8208636E-2,-8.7240463E-1,1.4214055E-2,-5.858319E-2,-6.5555535E-3,5.281846E-2,-1.2629127E-2,-4.892377E-2,1.1897988E-2,-5.660507E-1,4.9606647E-2,2.9698057E-2,-6.397676E-2,4.265753E-2,6.8129814E-4],"categories":[],"categories_nodes":[],"categories_segments":[],"categories_sizes":[],"default_left":[0,0,0,0,0,0,0,0,0,0,0,0,0,0,0],"id":24,"left_children":[1,3,5,-1,-1,-1,7,-1,9,11,13,-1,-1,-1,-1],"loss_changes":[3.242532E0,7.9609656E-1,3.184275E0,0E0,0E0,0E0,2.6528165E0,0E0,2.41925E0,6.3886566E0,2.9928524E0,0E0,0E0,0E0,0E0],"parents":[2147483647,0,0,1,1,2,2,6,6,8,8,9,9,10,10],"right_children":[2,4,6,-1,-1,-1,8,-1,10,12,14,-1,-1,-1,-1],"split_conditions":[5E-2,-9.182444E-1,-3.205E1,-5.858319E-2,-6.5555535E-3,5.281846E-2,1.4267858E1,-4.892377E-2,-1.835E1,1.85E0,-1.555E1,2.9698057E-2,-6.397676E-2,4.265753E-2,6.8129814E-4],"split_indices":[5,2,4,0,0,0,3,0,4,5,4,0,0,0,0],"split_type":[0,0,0,0,0,0,0,0,0,0,0,0,0,0,0],"sum_hessian":[1.1563092E2,3.2810988E0,1.12349815E2,1.923869E0,1.3572297E0,1.8580953E0,1.1049172E2,1.7731643E0,1.0871856E2,5.800774E0,1.02917786E2,2.2729084E0,3.527866E0,3.4375198E0,9.948026E1],"tree_param":{"num_deleted":"0","num_feature":"9","num_nodes":"15","size_leaf_vector":"1"}},{"base_weights":[5.662648E-3,-5.1204503E-2,3.2283317E-2,6.143255E-2,-4.697753E-1,-7.032323E-2,2.2049563E-1,3.454247E-2,-8.357581E-1,2.7854872E-1,-2.2353801E-1,2.8926075E-1,-6.3591427E-1,-6.035399E-2,6.9889105E-3,-4.062523E-2,2.8448755E-2,-2.955875E-3,-3.836718E-2,-4.9167264E-2,1.7219502E-2,-4.3989282E-2,-8.157635E-3],"categories":[],"categories_nodes":[],"categories_segments":[],"categories_sizes":[],"default_left":[0,0,0,0,0,0,0,0,0,0,0,0,0,0,0,0,0,0,0,0,0,0,0],"id":25,"left_children":[1,-1,3,5,7,9,11,-1,13,15,17,19,21,-1,-1,-1,-1,-1,-1,-1,-1,-1,-1],"loss_changes":[3.2644677E0,0E0,1.7247014E0,2.3293042E0,3.3274708E0,3.3305445E0,3.1438508E0,0E0,2.1156542E0,6.5156684E0,3.8029778E0,3.6509695E0,3.2320786E-1,0E0,0E0,0E0,0E0,0E0,0E0,0E0,0E0,0E0,0E0],"parents":[2147483647,0,0,2,2,3,3,4,4,5,5,6,6,8,8,9,9,10,10,11,11,12,12],"right_children":[2,-1,4,6,8,10,12,-1,14,16,18,20,22,-1,-1,-1,-1,-1,-1,-1,-1,-1,-1],"split_conditions":[1.4267858E1,-5.1204503E-2,1.340629E1,1.989643E1,2.7610714E1,-2.782719E0,1.84E1,3.454247E-2,2.9558094E1,-1.48516865E1,1.8835714E1,5E-2,2.4E1,-6.035399E-2,6.9889105E-3,-4.062523E-2,2.8448755E-2,-2.955875E-3,-3.836718E-2,-4.9167264E-2,1.7219502E-2,-4.3989282E-2,-8.157635E-3],"split_indices":[3,0,2,3,3,0,6,0,2,0,3,5,6,0,0,0,0,0,0,0,0,0,0],"split_type":[0,0,0,0,0,0,0,0,0,0,0,0,0,0,0,0,0,0,0,0,0,0,0],"sum_hessian":[1.1687989E2,2.0011404E0,1.14878746E2,1.0940443E2,5.4743195E0,6.014378E1,4.926065E1,1.0995884E0,4.374731E0,1.810361E1,4.204017E1,4.621229E1,3.0483577E0,2.9967265E0,1.3780044E0,3.4279823E0,1.4675628E1,3.313151E1,8.908658E0,1.2196977E0,4.499259E1,1.4430295E0,1.6053283E0],"tree_param":{"num_deleted":"0","num_feature":"9","num_nodes":"23","size_leaf_vector":"1"}},{"base_weights":[1.6698906E-2,-4.229969E-2,8.511514E-1,8.04623E-2,-3.680321E-1,5.7414092E-2,-6.150002E-4,-6.567015E-2,4.0456071E-1,-6.22279E-2,-6.4634967E-1,2.5280934E-2,-8.78046E-1,6.0085274E-2,1.3901931E-1,-6.028396E-1,2.867299E-1,1.4653358E-2,-7.849401E-1,-1.0921939E-2,1.532638E-2,2.1914085E-2,-6.994309E-2,-1.5288803E-2,3.10237E-2,3.1860669E-3,-4.2217713E-2,3.1430222E-2,-1.4649227E-2,-4.6235897E-2,2.0793876E-2],"categories":[],"categories_nodes":[],"categories_segments":[],"categories_sizes":[],"default_left":[0,0,0,0,0,0,0,0,0,0,0,0,0,0,0,0,0,0,0,0,0,0,0,0,0,0,0,0,0,0,0],"id":26,"left_children":[1,3,5,7,9,-1,-1,11,13,15,17,19,21,-1,23,25,27,-1,29,-1,-1,-1,-1,-1,-1,-1,-1,-1,-1,-1,-1],"loss_changes":[5.604492E0,4.2919583E0,1.9425101E0,3.7319283E0,2.4582653E0,0E0,0E0,4.0699334E0,5.009E0,3.0202909E0,2.2170672E0,3.5106335E0,4.4137325E0,0E0,4.3599463E0,1.058867E0,2.1364317E0,0E0,2.6625595E0,0E0,0E0,0E0,0E0,0E0,0E0,0E0,0E0,0E0,0E0,0E0,0E0],"parents":[2147483647,0,0,1,1,2,2,3,3,4,4,7,7,8,8,9,9,10,10,11,11,12,12,14,14,15,15,16,16,18,18],"right_children":[2,4,6,8,10,-1,-1,12,14,16,18,20,22,-1,24,26,28,-1,30,-1,-1,-1,-1,-1,-1,-1,-1,-1,-1,-1,-1],"split_conditions":[7.584849E1,2.116998E0,2.6692376E0,1.5225646E0,4.1E0,5.7414092E-2,-6.150002E-4,1.2582973E0,1.9741684E0,1.5875E1,7E-1,-3.6768225E-1,-8.845844E0,6.0085274E-2,-3.6768225E-1,-8.551697E0,2.6179914E0,1.4653358E-2,2.1531303E0,-1.0921939E-2,1.532638E-2,2.1914085E-2,-6.994309E-2,-1.5288803E-2,3.10237E-2,3.1860669E-3,-4.2217713E-2,3.1430222E-2,-1.4649227E-2,-4.6235897E-2,2.0793876E-2],"split_indices":[1,7,7,7,6,0,0,7,7,3,5,2,2,0,2,2,2,0,8,0,0,0,0,0,0,0,0,0,0,0,0],"split_type":[0,0,0,0,0,0,0,0,0,0,0,0,0,0,0,0,0,0,0,0,0,0,0,0,0,0,0,0,0,0,0],"sum_hessian":[1.1210818E2,1.055918E2,6.5163865E0,7.723606E1,2.8355734E1,4.6026506E0,1.9137359E0,5.3783184E1,2.3452875E1,1.4093712E1,1.4262023E1,4.9239376E1,4.5438075E0,4.979406E0,1.847347E1,5.2432427E0,8.850469E0,1.6902522E0,1.2571771E1,2.6499254E1,2.2740122E1,1.3330595E0,3.210748E0,9.791975E0,8.681496E0,1.5903008E0,3.652942E0,5.5142317E0,3.3362374E0,1.1466922E1,1.1048483E0],"tree_param":{"num_deleted":"0","num_feature":"9","num_nodes":"31","size_leaf_vector":"1"}},{"base_weights":[-4.3487456E-3,-9.4652005E-2,3.166125E-1,1.3527998E-2,-3.2037926E-1,-3.2287636E-1,7.2169E-1,-1.312995E-1,3.902824E-1,-6.891846E-2,-8.302938E-1,1.8666385E-1,-7.563792E-1,-5.9065694E-1,1.0356965E0,2.5969898E-2,-5.3677386E-1,-7.382366E-2,8.112198E-1,-5.136083E-1,3.3179447E-1,-1.0965173E0,-1.0720154E-1,-3.0054706E-1,6.2537163E-1,-1.8094836E-1,-6.4922884E-2,1.9985693E-2,-5.7582773E-2,1.1130816E0,4.5900708E-1,-5.836715E-3,3.0203808E-2,1.6997075E-2,-4.573105E-2,-5.698059E-2,1.2709345E-2,1.3122523E-2,5.395588E-2,-5.023843E-2,1.9825096E-3,3.0486599E-2,-4.3883037E-2,-6.984361E-2,-8.247993E-3,1.5829664E-2,-2.3613993E-2,-3.0451074E-2,7.233176E-3,4.192731E-2,7.0076534E-3,1.41562885E-2,-3.558116E-2,2.2424778E-2,5.9914418E-2,-2.3349952E-3,3.6043383E-2],"categories":[],"categories_nodes":[],"categories_segments":[],"categories_sizes":[],"default_left":[0,0,0,0,0,0,0,0,0,0,0,0,0,0,0,0,0,0,0,0,0,0,0,0,0,0,0,0,0,0,0,0,0,0,0,0,0,0,0,0,0,0,0,0,0,0,0,0,0,0,0,0,0,0,0,0,0],"id":27,"left_children":[1,3,5,7,9,11,13,15,17,19,21,23,25,27,29,31,33,35,37,39,41,43,45,47,49,51,-1,-1,-1,53,55,-1,-1,-1,-1,-1,-1,-1,-1,-1,-1,-1,-1,-1,-1,-1,-1,-1,-1,-1,-1,-1,-1,-1,-1,-1,-1],"loss_changes":[3.470437E0,2.285297E0,7.044361E0,3.5491168E0,3.8283677E0,2.5461407E0,7.3726683E0,3.0144837E0,3.586492E0,3.9811513E0,1.7916684E0,1.4291551E0,1.6617982E0,2.5741062E0,9.610939E-2,2.9461882E0,4.6823335E0,3.6115723E0,1.120709E0,2.9009686E0,4.5207314E0,1.7674885E0,7.339262E-1,5.587262E-1,2.32108E-1,1.2140386E0,0E0,0E0,0E0,1.0195446E-1,4.7213095E-1,0E0,0E0,0E0,0E0,0E0,0E0,0E0,0E0,0E0,0E0,0E0,0E0,0E0,0E0,0E0,0E0,0E0,0E0,0E0,0E0,0E0,0E0,0E0,0E0,0E0,0E0],"parents":[2147483647,0,0,1,1,2,2,3,3,4,4,5,5,6,6,7,7,8,8,9,9,10,10,11,11,12,12,13,13,14,14,15,15,16,16,17,17,18,18,19,19,20,20,21,21,22,22,23,23,24,24,25,25,29,29,30,30],"right_children":[2,4,6,8,10,12,14,16,18,20,22,24,26,28,30,32,34,36,38,40,42,44,46,48,50,52,-1,-1,-1,54,56,-1,-1,-1,-1,-1,-1,-1,-1,-1,-1,-1,-1,-1,-1,-1,-1,-1,-1,-1,-1,-1,-1,-1,-1,-1,-1],"split_conditions":[8.8E0,7.5E-1,-4.0182588E-1,-3.4E0,1.1084398E0,-2.9585772E0,1.3E0,6.35E0,8.894158E-1,7.6544434E-1,1.0939328E1,1.34E1,2.03E1,5.9036727E0,7.367177E1,1.1957574E0,-4.7879896E0,1.612143E1,5.3E0,1.935E1,2.3714285E1,1.6661091E0,1.6342894E0,-8.342977E0,-6.060391E0,1.0458629E0,-6.4922884E-2,1.9985693E-2,-5.7582773E-2,1.8982143E1,3.5270824E1,-5.836715E-3,3.0203808E-2,1.6997075E-2,-4.573105E-2,-5.698059E-2,1.2709345E-2,1.3122523E-2,5.395588E-2,-5.023843E-2,1.9825096E-3,3.0486599E-2,-4.3883037E-2,-6.984361E-2,-8.247993E-3,1.5829664E-2,-2.3613993E-2,-3.0451074E-2,7.233176E-3,4.192731E-2,7.0076534E-3,1.41562885E-2,-3.558116E-2,2.2424778E-2,5.9914418E-2,-2.3349952E-3,3.6043383E-2],"split_indices":[4,4,2,4,8,2,6,6,8,8,0,4,4,0,1,8,2,3,6,3,3,8,8,0,2,8,0,0,0,3,0,0,0,0,0,0,0,0,0,0,0,0,0,0,0,0,0,0,0,0,0,0,0,0,0,0,0],"split_type":[0,0,0,0,0,0,0,0,0,0,0,0,0,0,0,0,0,0,0,0,0,0,0,0,0,0,0,0,0,0,0,0,0,0,0,0,0,0,0,0,0,0,0,0,0,0,0,0,0,0,0,0,0,0,0,0,0],"sum_hessian":[1.1770298E2,9.240867E1,2.5294312E1,6.3105408E1,2.9303257E1,9.887698E0,1.5406613E1,4.6053547E1,1.7051865E1,2.0385464E1,8.917793E0,4.8069744E0,5.0807233E0,2.804511E0,1.2602102E1,3.385739E1,1.2196153E1,8.502274E0,8.549591E0,9.528977E0,1.0856486E1,6.140569E0,2.7772236E0,2.426798E0,2.3801763E0,3.1115422E0,1.969181E0,1.1181161E0,1.6863948E0,1.029104E1,2.3110628E0,2.7794466E1,6.062926E0,3.703432E0,8.49272E0,1.4185939E0,7.08368E0,3.4539943E0,5.0955963E0,4.615464E0,4.9135137E0,9.231024E0,1.6254629E0,4.2657075E0,1.8748618E0,1.3467175E0,1.4305062E0,1.2161915E0,1.2106066E0,1.1477461E0,1.2324303E0,1.9087894E0,1.2027528E0,1.8812773E0,8.409762E0,1.0687487E0,1.2423141E0],"tree_param":{"num_deleted":"0","num_feature":"9","num_nodes":"57","size_leaf_vector":"1"}},{"base_weights":[-4.51055E-2,6.416863E-1,-8.103029E-2,4.717824E-2,-3.7912943E-3,-9.3316805E-1,-1.7224541E-2,-1.7760026E-1,-6.703707E-2,-1.0712379E-1,2.8375858E-1,-4.831181E-2,4.303321E-2,2.8563267E-1,-2.0524377E-1,-3.491248E-1,6.377689E-1,2.9831132E-2,-5.853543E-3,-1.2752282E-3,-2.6441887E-2,4.208518E-3,-4.8235532E-2,5.7108104E-2,1.447277E-2],"categories":[],"categories_nodes":[],"categories_segments":[],"categories_sizes":[],"default_left":[0,0,0,0,0,0,0,0,0,0,0,0,0,0,0,0,0,0,0,0,0,0,0,0,0],"id":28,"left_children":[1,3,5,-1,-1,7,9,11,-1,13,15,-1,-1,17,19,21,23,-1,-1,-1,-1,-1,-1,-1,-1],"loss_changes":[2.8152819E0,1.3016839E0,5.818931E0,0E0,0E0,2.0582867E0,2.7595015E0,3.9150136E0,0E0,3.0795453E0,5.481287E0,0E0,0E0,2.084557E0,3.6683402E0,2.4992661E0,2.375936E0,0E0,0E0,0E0,0E0,0E0,0E0,0E0,0E0],"parents":[2147483647,0,0,1,1,2,2,5,5,6,6,7,7,9,9,10,10,13,13,14,14,15,15,16,16],"right_children":[2,4,6,-1,-1,8,10,12,-1,14,16,-1,-1,18,20,22,24,-1,-1,-1,-1,-1,-1,-1,-1],"split_conditions":[-2.6852894E-1,2.85E0,-1.826058E1,4.717824E-2,-3.7912943E-3,3.2929737E1,8.75E0,2.9401026E1,-6.703707E-2,1.65E0,2.65E0,-4.831181E-2,4.303321E-2,-1.035E1,2.0893629E0,6.065287E1,4.5E0,2.9831132E-2,-5.853543E-3,-1.2752282E-3,-2.6441887E-2,4.208518E-3,-4.8235532E-2,5.7108104E-2,1.447277E-2],"split_indices":[7,4,0,0,0,1,4,1,0,6,6,0,0,4,7,1,6,0,0,0,0,0,0,0,0],"split_type":[0,0,0,0,0,0,0,0,0,0,0,0,0,0,0,0,0,0,0,0,0,0,0,0,0],"sum_hessian":[1.10997025E2,4.6792655E0,1.0631776E2,3.071813E0,1.6074524E0,6.457081E0,9.986068E1,2.765707E0,3.6913736E0,7.738962E1,2.2471058E1,1.6112338E0,1.1544733E0,1.5087208E1,6.230241E1,8.065582E0,1.4405477E1,8.241287E0,6.845921E0,4.074793E1,2.1554483E1,5.2403216E0,2.8252609E0,4.953373E0,9.452104E0],"tree_param":{"num_deleted":"0","num_feature":"9","num_nodes":"25","size_leaf_vector":"1"}},{"base_weights":[-2.7958235E-2,-7.153886E-2,7.339569E-1,1.8472227E-1,-1.866654E-1,2.8906765E-3,4.9261775E-2,-8.445077E-1,3.212518E-1,7.271336E-1,-2.3117742E-1,-5.760118E-2,-5.2001965E-3,-4.2017076E-2,4.0453398E-1,2.546002E-3,5.000312E-2,-5.109779E-2,-1.8166809E-1,-3.7002183E-2,2.4516491E-2,-6.972484E-3,-4.5822524E-2],"categories":[],"categories_nodes":[],"categories_segments":[],"categories_sizes":[],"default_left":[0,0,0,0,0,0,0,0,0,0,0,0,0,0,0,0,0,0,0,0,0,0,0],"id":29,"left_children":[1,3,5,7,9,-1,-1,11,13,15,17,-1,-1,-1,19,-1,-1,-1,21,-1,-1,-1,-1],"loss_changes":[3.8469174E0,3.2503004E0,1.0085638E0,5.0900335E0,3.2475886E0,0E0,0E0,8.574853E-1,3.3389213E0,6.426141E-1,2.670474E0,0E0,0E0,0E0,3.2697277E0,0E0,0E0,0E0,2.0396545E0,0E0,0E0,0E0,0E0],"parents":[2147483647,0,0,1,1,2,2,3,3,4,4,7,7,8,8,9,9,10,10,14,14,18,18],"right_children":[2,4,6,8,10,-1,-1,12,14,16,18,-1,-1,-1,20,-1,-1,-1,22,-1,-1,-1,-1],"split_conditions":[1.215E1,1.85E0,1.7E0,5E-2,3E-1,2.8906765E-3,4.9261775E-2,-9.182444E-1,3.5E-1,4.9E0,-1.835E1,-5.760118E-2,-5.2001965E-3,-4.2017076E-2,4.2430723E-1,2.546002E-3,5.000312E-2,-5.109779E-2,2.108075E0,-3.7002183E-2,2.4516491E-2,-6.972484E-3,-4.5822524E-2],"split_indices":[5,5,6,5,6,0,0,2,6,5,4,0,0,0,8,0,0,0,8,0,0,0,0],"split_type":[0,0,0,0,0,0,0,0,0,0,0,0,0,0,0,0,0,0,0,0,0,0,0],"sum_hessian":[1.1327319E2,1.0800173E2,5.271462E0,3.3292088E1,7.470965E1,1.7615478E0,3.5099142E0,3.2917383E0,3.0000349E1,2.7578259E0,7.195182E1,1.9331934E0,1.3585447E0,1.3988826E0,2.8601465E1,1.1342229E0,1.623603E0,3.0820873E0,6.886973E1,1.4626762E0,2.713879E1,6.625282E1,2.6169074E0],"tree_param":{"num_deleted":"0","num_feature":"9","num_nodes":"23","size_leaf_vector":"1"}},{"base_weights":[-1.089856E-2,6.383052E-2,-2.8935555E-1,-1.1772332E-1,2.6635712E-1,-4.284331E-1,5.0967354E-1,-5.041025E-1,5.2554727E-2,-2.3367226E-2,5.6085974E-1,-6.1837906E-1,2.641087E-1,4.9073815E-2,-1.2493054E-2,1.966415E-2,-6.816173E-1,4.0584472E-1,-3.9499676E-1,6.3798934E-1,-1.7731686E-1,6.617832E-1,-2.2305591E-2,-2.9208729E-2,-8.763914E-1,-2.9712131E-2,6.3895965E-1,-5.6156587E-2,-5.9432415E-3,3.0372752E-2,-2.9057387E-2,-4.655138E-2,-9.0720376E-4,4.4021457E-2,-2.7842452E-3,-6.0569685E-2,4.6992847E-3,5.8745604E-2,1.5546788E-2,-2.4053922E-2,3.8353253E-2,-5.4402005E-2,5.330331E-3,7.4036554E-3,4.777629E-2],"categories":[],"categories_nodes":[],"categories_segments":[],"categories_sizes":[],"default_left":[0,0,0,0,0,0,0,0,0,0,0,0,0,0,0,0,0,0,0,0,0,0,0,0,0,0,0,0,0,0,0,0,0,0,0,0,0,0,0,0,0,0,0,0,0],"id":30,"left_children":[1,3,5,7,9,11,13,15,17,19,21,23,25,-1,-1,-1,27,29,31,33,35,37,-1,39,41,-1,43,-1,-1,-1,-1,-1,-1,-1,-1,-1,-1,-1,-1,-1,-1,-1,-1,-1,-1],"loss_changes":[2.4545794E0,3.4553194E0,2.991119E0,3.3026497E0,3.7950282E0,3.0304122E0,1.7344693E0,2.7095878E0,5.768523E0,2.485759E0,2.5331292E0,2.6199617E0,2.1145797E0,0E0,0E0,0E0,3.1366205E0,4.395499E0,3.2462752E0,8.256053E-1,5.6365833E0,3.3104239E0,0E0,2.648344E0,2.626892E0,0E0,5.1660085E-1,0E0,0E0,0E0,0E0,0E0,0E0,0E0,0E0,0E0,0E0,0E0,0E0,0E0,0E0,0E0,0E0,0E0,0E0],"parents":[2147483647,0,0,1,1,2,2,3,3,4,4,5,5,6,6,7,7,8,8,9,9,10,10,11,11,12,12,16,16,17,17,18,18,19,19,20,20,21,21,23,23,24,24,26,26],"right_children":[2,4,6,8,10,12,14,16,18,20,22,24,26,-1,-1,-1,28,30,32,34,36,38,-1,40,42,-1,44,-1,-1,-1,-1,-1,-1,-1,-1,-1,-1,-1,-1,-1,-1,-1,-1,-1,-1],"split_conditions":[2.1568017E0,9.0605956E-1,6.949066E1,4.58812E1,9.7971785E-1,9.95E0,1.0740789E2,6.39765E-1,5.8889103E1,3.666737E1,2.2191584E0,1.9E0,1.9E0,4.9073815E-2,-1.2493054E-2,1.966415E-2,4.95E0,4.888014E-1,-8E-1,1.45E0,4.027945E1,1.9839257E0,-2.2305591E-2,1.4373301E1,6.05E0,-2.9712131E-2,2.283265E0,-5.6156587E-2,-5.9432415E-3,3.0372752E-2,-2.9057387E-2,-4.655138E-2,-9.0720376E-4,4.4021457E-2,-2.7842452E-3,-6.0569685E-2,4.6992847E-3,5.8745604E-2,1.5546788E-2,-2.4053922E-2,3.8353253E-2,-5.4402005E-2,5.330331E-3,7.4036554E-3,4.777629E-2],"split_indices":[7,7,0,1,8,4,0,8,1,1,8,6,6,0,0,0,6,7,4,4,1,7,0,0,5,0,7,0,0,0,0,0,0,0,0,0,0,0,0,0,0,0,0,0,0],"split_type":[0,0,0,0,0,0,0,0,0,0,0,0,0,0,0,0,0,0,0,0,0,0,0,0,0,0,0,0,0,0,0,0,0,0,0,0,0,0,0,0,0,0,0,0,0],"sum_hessian":[1.16070946E2,9.211969E1,2.3951252E1,4.8795746E1,4.3323948E1,2.0795443E1,3.1558094E0,1.4326626E1,3.446912E1,2.2303234E1,2.1020712E1,1.6403486E1,4.3919563E0,1.766376E0,1.3894335E0,2.1652424E0,1.2161384E1,1.93152E1,1.5153921E1,3.617702E0,1.8685532E1,1.9417406E1,1.6033065E0,5.334768E0,1.1068718E1,1.157099E0,3.234857E0,6.2567725E0,5.9046116E0,1.6358278E1,2.9569223E0,5.6487174E0,9.505203E0,2.48127E0,1.1364318E0,3.1633267E0,1.5522205E1,6.931304E0,1.2486101E1,3.6559348E0,1.6788331E0,9.01981E0,2.0489085E0,1.8436813E0,1.3911757E0],"tree_param":{"num_deleted":"0","num_feature":"9","num_nodes":"45","size_leaf_vector":"1"}},{"base_weights":[1.8535364E-2,-4.9329E-2,4.4428263E-2,6.1441994E-1,8.678846E-3,4.948754E-2,-7.5935344E-3,-6.544774E-1,6.284407E-2,1.9995041E-2,-9.085577E-1,1.5728983E-1,-2.2024502E-1,3.716724E-3,-5.6547035E-2,1.4749549E-2,-9.390472E-3,-4.2997614E-2,9.3347405E-4],"categories":[],"categories_nodes":[],"categories_segments":[],"categories_sizes":[],"default_left":[0,0,0,0,0,0,0,0,0,0,0,0,0,0,0,0,0,0,0],"id":31,"left_children":[1,-1,3,5,7,-1,-1,9,11,-1,13,15,17,-1,-1,-1,-1,-1,-1],"loss_changes":[3.0474515E0,0E0,2.306826E0,2.0722525E0,3.912853E0,0E0,0E0,2.5672324E0,2.7232897E0,0E0,1.5998716E0,3.6663644E0,3.9245622E0,0E0,0E0,0E0,0E0,0E0,0E0],"parents":[2147483647,0,0,2,2,3,3,4,4,7,7,8,8,10,10,11,11,12,12],"right_children":[2,-1,4,6,8,-1,-1,10,12,-1,14,16,18,-1,-1,-1,-1,-1,-1],"split_conditions":[1.4342857E1,-4.9329E-2,-2.6852894E-1,2.85E0,-1.826058E1,4.948754E-2,-7.5935344E-3,-1.0982611E1,4.1087546E0,1.9995041E-2,1.8717857E1,2.1233022E0,2.0314285E1,3.716724E-3,-5.6547035E-2,1.4749549E-2,-9.390472E-3,-4.2997614E-2,9.3347405E-4],"split_indices":[3,0,7,4,0,0,0,2,2,0,3,7,3,0,0,0,0,0,0],"split_type":[0,0,0,0,0,0,0,0,0,0,0,0,0,0,0,0,0,0,0],"sum_hessian":[1.1441131E2,1.9415488E0,1.1246976E2,5.6823907E0,1.0678737E2,3.6184523E0,2.0639384E0,7.226675E0,9.956069E1,1.2918522E0,5.934823E0,7.4987366E1,2.4573324E1,1.2178566E0,4.716966E0,5.3703754E1,2.1283613E1,5.9751377E0,1.8598186E1],"tree_param":{"num_deleted":"0","num_feature":"9","num_nodes":"19","size_leaf_vector":"1"}},{"base_weights":[-5.663049E-4,7.702039E-2,-2.6471326E-1,1.0985291E-1,-4.9693216E-2,-6.5797096E-1,1.3638875E-1,-6.3938424E-2,3.219567E-1,3.0281618E-2,-8.291855E-1,-2.4290343E-1,4.8686993E-1,1.4707746E-2,-5.707143E-2,5.679353E-2,7.9088753E-1,1.3915806E-2,-9.810387E-1,3.2206175E-1,-5.465269E-2,4.722543E-3,4.7734376E-2,-8.251436E-3,2.289581E-2,2.5105292E-2,-1.6527355E-2,4.9564403E-2,2.2268372E-3,-5.494939E-2,-6.648407E-4,-3.5402324E-2,3.757438E-2,-3.4950905E-2,3.403769E-2],"categories":[],"categories_nodes":[],"categories_segments":[],"categories_sizes":[],"default_left":[0,0,0,0,0,0,0,0,0,0,0,0,0,0,0,0,0,0,0,0,0,0,0,0,0,0,0,0,0,0,0,0,0,0,0],"id":32,"left_children":[1,3,5,7,-1,9,11,13,15,-1,17,19,21,23,-1,25,27,-1,29,31,-1,33,-1,-1,-1,-1,-1,-1,-1,-1,-1,-1,-1,-1,-1],"loss_changes":[2.3164067E0,3.1811335E0,4.1374125E0,3.1786299E0,0E0,3.3425803E0,1.9171481E0,4.0778446E0,4.7732673E0,0E0,2.288537E0,3.7939374E0,1.6569476E0,3.7121403E0,0E0,4.6212955E0,2.0377407E0,0E0,1.2136097E0,2.7781622E0,0E0,2.6797369E0,0E0,0E0,0E0,0E0,0E0,0E0,0E0,0E0,0E0,0E0,0E0,0E0,0E0],"parents":[2147483647,0,0,1,1,2,2,3,3,5,5,6,6,7,7,8,8,10,10,11,11,12,12,13,13,15,15,16,16,18,18,19,19,21,21],"right_children":[2,4,6,8,-1,10,12,14,16,-1,18,20,22,24,-1,26,28,-1,30,32,-1,34,-1,-1,-1,-1,-1,-1,-1,-1,-1,-1,-1,-1,-1],"split_conditions":[2.1526625E0,2.4062657E0,2.2895555E0,6.953944E-1,-4.9693216E-2,-1.395E1,4.95E0,3.8009644E1,5.4114433E1,3.0281618E-2,-1.0201878E1,7.058607E1,2.3035715E1,1.4558511E1,-5.707143E-2,1.9839257E0,8.9E0,1.3915806E-2,1.2332772E0,1.6092274E1,-5.465269E-2,3.2E0,4.7734376E-2,-8.251436E-3,2.289581E-2,2.5105292E-2,-1.6527355E-2,4.9564403E-2,2.2268372E-3,-5.494939E-2,-6.648407E-4,-3.5402324E-2,3.757438E-2,-3.4950905E-2,3.403769E-2],"split_indices":[7,8,7,7,0,4,6,0,1,0,0,1,3,0,0,7,6,0,8,0,0,4,0,0,0,0,0,0,0,0,0,0,0,0,0],"split_type":[0,0,0,0,0,0,0,0,0,0,0,0,0,0,0,0,0,0,0,0,0,0,0,0,0,0,0,0,0,0,0,0,0,0,0],"sum_hessian":[1.1103211E2,8.6371124E1,2.4660984E1,8.467255E1,1.698578E0,1.2128889E1,1.2532094E1,4.692346E1,3.774909E1,1.144552E0,1.0984337E1,6.16608E0,6.3660145E0,4.4650745E1,2.2727141E0,2.482984E1,1.291925E1,1.2240744E0,9.7602625E0,4.0775356E0,2.0885444E0,3.632422E0,2.7335925E0,3.221435E1,1.2436392E1,1.1412726E1,1.3417113E1,9.925896E0,2.9933536E0,8.579023E0,1.1812391E0,1.0088004E0,3.0687351E0,1.7630768E0,1.8693451E0],"tree_param":{"num_deleted":"0","num_feature":"9","num_nodes":"35","size_leaf_vector":"1"}},{"base_weights":[1.3665797E-3,8.153413E-1,-4.2457916E-2,4.8603456E-2,8.464001E-3,-2.4997978E-1,7.971537E-2,1.0775511E-1,-4.1247472E-1,2.147598E-1,-2.3972718E-1,-9.306025E-1,4.3877396E-1,-5.8095115E-1,2.3466773E-1,3.0526292E-1,-5.5530544E-2,5.417686E-1,-4.4448313E-1,-1.3669292E-2,-5.6906026E-2,3.282288E-2,-2.4827564E-2,2.4774691E-2,-3.3637743E-2,3.904062E-2,-3.6547463E-2,1.958873E-3,3.252149E-2,-2.120839E-2,4.675719E-2,-3.854793E-2,1.8626079E-2],"categories":[],"categories_nodes":[],"categories_segments":[],"categories_sizes":[],"default_left":[0,0,0,0,0,0,0,0,0,0,0,0,0,0,0,0,0,0,0,0,0,0,0,0,0,0,0,0,0,0,0,0,0],"id":33,"left_children":[1,3,5,-1,-1,7,9,11,13,15,17,19,21,23,25,27,-1,29,31,-1,-1,-1,-1,-1,-1,-1,-1,-1,-1,-1,-1,-1,-1],"loss_changes":[4.156766E0,4.3824744E-1,2.8241308E0,0E0,0E0,2.441009E0,3.087433E0,5.107054E0,3.2498684E0,6.3356133E0,3.6625547E0,1.8324089E-1,2.5748699E0,2.6009092E0,4.0572224E0,4.3445582E0,0E0,2.2548041E0,4.953307E0,0E0,0E0,0E0,0E0,0E0,0E0,0E0,0E0,0E0,0E0,0E0,0E0,0E0,0E0],"parents":[2147483647,0,0,1,1,2,2,5,5,6,6,7,7,8,8,9,9,10,10,11,11,12,12,13,13,14,14,15,15,17,17,18,18],"right_children":[2,4,6,-1,-1,8,10,12,14,16,18,20,22,24,26,28,-1,30,32,-1,-1,-1,-1,-1,-1,-1,-1,-1,-1,-1,-1,-1,-1],"split_conditions":[-2.6852894E-1,2.85E0,8.025574E-1,4.8603456E-2,8.464001E-3,2.6E0,2.0942607E0,5.5E-1,7.9E0,2.2191584E0,-7.65E0,6.8251246E-1,7.436858E-1,3.2929737E1,1.755E1,8.53871E-1,-5.5530544E-2,1.5635715E1,8.8E0,-1.3669292E-2,-5.6906026E-2,3.282288E-2,-2.4827564E-2,2.4774691E-2,-3.3637743E-2,3.904062E-2,-3.6547463E-2,1.958873E-3,3.252149E-2,-2.120839E-2,4.675719E-2,-3.854793E-2,1.8626079E-2],"split_indices":[7,4,8,0,0,6,7,6,4,8,4,8,8,1,4,7,0,3,4,0,0,0,0,0,0,0,0,0,0,0,0,0,0],"split_type":[0,0,0,0,0,0,0,0,0,0,0,0,0,0,0,0,0,0,0,0,0,0,0,0,0,0,0,0,0,0,0,0,0],"sum_hessian":[1.1455688E2,4.953234E0,1.0960364E2,3.5801249E0,1.3731093E0,4.022756E1,6.937608E1,1.2670388E1,2.7557169E1,4.8992287E1,2.0383797E1,2.6249566E0,1.0045432E1,2.1946041E1,5.611128E0,4.6581165E1,2.4111242E0,3.8901742E0,1.6493622E1,1.1860629E0,1.4388937E0,8.390754E0,1.654678E0,1.3790188E0,2.0567022E1,3.7062752E0,1.9048525E0,2.6932608E1,1.9648556E1,1.1031361E0,2.787038E0,1.1824791E1,4.6688323E0],"tree_param":{"num_deleted":"0","num_feature":"9","num_nodes":"33","size_leaf_vector":"1"}},{"base_weights":[-3.3323515E-2,-6.7781545E-2,5.739844E-1,-1.6267106E-3,-3.8753018E-1,4.6163183E-2,-1.9227406E-2,-7.423705E-1,4.3514628E-2,-7.3104095E-1,-4.9076393E-2,-2.1959385E-2,2.1267204E-2,-5.953681E-2,-9.302529E-4,3.2641786E-1,-5.5373643E-2,-3.3647606E-1,-5.4236036E-2,3.7890914E-1,-5.3805196E-1,4.9979515E-2,-3.429912E-3,-4.4307876E-2,-6.286057E-4,-4.0572632E-2,8.454384E-3,3.764775E-2,-1.9171076E-2,-5.2143157E-2,2.5247333E-3],"categories":[],"categories_nodes":[],"categories_segments":[],"categories_sizes":[],"default_left":[0,0,0,0,0,0,0,0,0,0,0,0,0,0,0,0,0,0,0,0,0,0,0,0,0,0,0,0,0,0,0],"id":34,"left_children":[1,3,5,7,9,-1,11,13,15,17,19,-1,-1,-1,-1,21,23,25,-1,27,29,-1,-1,-1,-1,-1,-1,-1,-1,-1,-1],"loss_changes":[2.3506472E0,2.229562E0,1.2685919E0,2.9869702E0,2.0649652E0,0E0,7.8739935E-1,1.6428826E0,2.3745112E0,8.7644386E-1,2.3330035E0,0E0,0E0,0E0,0E0,5.908536E0,2.238642E0,1.495055E0,0E0,2.0030172E0,1.5862572E0,0E0,0E0,0E0,0E0,0E0,0E0,0E0,0E0,0E0,0E0],"parents":[2147483647,0,0,1,1,2,2,3,3,4,4,6,6,7,7,8,8,9,9,10,10,15,15,16,16,17,17,19,19,20,20],"right_children":[2,4,6,8,10,-1,12,14,16,18,20,-1,-1,-1,-1,22,24,26,-1,28,30,-1,-1,-1,-1,-1,-1,-1,-1,-1,-1],"split_conditions":[1.19E1,2.1962707E0,1.495E1,1.5E-1,6.5303665E1,4.6163183E-2,1.211255E0,-9.182444E-1,1.65E0,8.6583143E-1,4.7387E0,-2.1959385E-2,2.1267204E-2,-5.953681E-2,-9.302529E-4,-9.05E0,1.8E0,2.2394538E0,-5.4236036E-2,2.5960991E0,9.2962354E-1,4.9979515E-2,-3.429912E-3,-4.4307876E-2,-6.286057E-4,-4.0572632E-2,8.454384E-3,3.764775E-2,-1.9171076E-2,-5.2143157E-2,2.5247333E-3],"split_indices":[5,7,5,5,1,0,8,2,5,8,2,0,0,0,0,4,5,7,0,7,8,0,0,0,0,0,0,0,0,0,0],"split_type":[0,0,0,0,0,0,0,0,0,0,0,0,0,0,0,0,0,0,0,0,0,0,0,0,0,0,0,0,0,0,0],"sum_hessian":[1.0946888E2,1.04431915E2,5.0369697E0,8.73621E1,1.7069815E1,2.8201199E0,2.2168498E0,4.1309E0,8.32312E1,7.8959465E0,9.173868E0,1.1462066E0,1.0706432E0,2.1523461E0,1.9785539E0,2.0961859E1,6.226934E1,4.6546173E0,3.2413292E0,5.0120597E0,4.1618085E0,7.1857142E0,1.3776144E1,2.0855052E0,6.0183834E1,2.0879476E0,2.5666697E0,3.3705575E0,1.6415019E0,1.8247474E0,2.337061E0],"tree_param":{"num_deleted":"0","num_feature":"9","num_nodes":"31","size_leaf_vector":"1"}},{"base_weights":[3.4818552E-3,8.7725437E-1,-3.7711274E-2,5.2946746E-2,1.3910572E-2,-7.941953E-1,3.8460365E-3,-5.685219E-2,1.846231E-2,4.538179E-2,-2.2300845E-2,-5.7230186E-2,1.4220533E-2,4.5520596E-2,-1.8357439E-3],"categories":[],"categories_nodes":[],"categories_segments":[],"categories_sizes":[],"default_left":[0,0,0,0,0,0,0,0,0,0,0,0,0,0,0],"id":35,"left_children":[1,3,5,-1,-1,7,9,-1,-1,-1,11,-1,13,-1,-1],"loss_changes":[4.2174444E0,2.7950716E-1,3.5233688E0,0E0,0E0,2.747736E0,2.5521536E0,0E0,0E0,0E0,4.3243628E0,0E0,4.7251663E0,0E0,0E0],"parents":[2147483647,0,0,1,1,2,2,5,5,6,6,10,10,12,12],"right_children":[2,4,6,-1,-1,8,10,-1,-1,-1,12,-1,14,-1,-1],"split_conditions":[-2.6852894E-1,8.95E0,-1.3785267E-1,5.2946746E-2,1.3910572E-2,7.05E0,-8.6225435E-2,-5.685219E-2,1.846231E-2,4.538179E-2,-3.2459617E-2,-5.7230186E-2,7.347243E-2,4.5520596E-2,-1.8357439E-3],"split_indices":[7,6,7,0,0,5,7,0,0,0,7,0,7,0,0],"split_type":[0,0,0,0,0,0,0,0,0,0,0,0,0,0,0],"sum_hessian":[1.15253525E2,4.2751245E0,1.109784E2,2.6912105E0,1.583914E0,4.8359976E0,1.061424E2,3.7527952E0,1.0832022E0,2.036487E0,1.0410591E2,2.324778E0,1.01781136E2,4.566218E0,9.721492E1],"tree_param":{"num_deleted":"0","num_feature":"9","num_nodes":"15","size_leaf_vector":"1"}},{"base_weights":[-5.3765632E-2,4.9079083E-2,-3.7988412E-1,-1.3722898E-1,2.3145847E-1,-6.190978E-1,-1.0978783E-1,-6.432663E-1,6.2142864E-2,3.013018E-1,-4.66336E-2,1.4393546E-2,-7.279529E-1,6.397818E-1,-5.1269615E-1,1.8348204E-1,-9.9073064E-1,3.4489164E-1,-5.6199294E-1,1.4943957E-1,8.221649E-1,4.969086E-3,-8.9555585E-1,-1.2445887E-2,5.5192053E-2,4.6283256E-2,-9.0830475E-1,3.579506E-2,-2.788427E-2,-5.933561E-3,-5.562645E-2,2.3049025E-2,-2.5205731E-2,-4.091511E-2,3.0736864E-2,1.7294543E-2,-2.8813327E-2,5.8575984E-2,-1.3632474E-2,3.0064347E-4,-5.0786424E-2,-3.589895E-2,4.9733147E-2,-5.455491E-2,-9.3829725E-3],"categories":[],"categories_nodes":[],"categories_segments":[],"categories_sizes":[],"default_left":[0,0,0,0,0,0,0,0,0,0,0,0,0,0,0,0,0,0,0,0,0,0,0,0,0,0,0,0,0,0,0,0,0,0,0,0,0,0,0,0,0,0,0,0,0],"id":36,"left_children":[1,3,5,7,9,11,13,15,17,19,-1,-1,21,23,25,27,29,31,33,35,37,-1,39,-1,-1,41,43,-1,-1,-1,-1,-1,-1,-1,-1,-1,-1,-1,-1,-1,-1,-1,-1,-1,-1],"loss_changes":[3.724947E0,2.9164605E0,1.651211E0,4.3402944E0,3.7994108E0,1.5814128E0,4.4694443E0,3.6677613E0,5.750799E0,3.1660628E0,0E0,0E0,1.8485985E0,2.4353576E0,2.137101E0,2.1492136E0,7.9208946E-1,2.4293947E0,3.578811E0,4.9632387E0,3.8244944E0,0E0,1.1601772E0,0E0,0E0,4.24965E0,5.324297E-1,0E0,0E0,0E0,0E0,0E0,0E0,0E0,0E0,0E0,0E0,0E0,0E0,0E0,0E0,0E0,0E0,0E0,0E0],"parents":[2147483647,0,0,1,1,2,2,3,3,4,4,5,5,6,6,7,7,8,8,9,9,12,12,13,13,14,14,15,15,16,16,17,17,18,18,19,19,20,20,22,22,25,25,26,26],"right_children":[2,4,6,8,10,12,14,16,18,20,-1,-1,22,24,26,28,30,32,34,36,38,-1,40,-1,-1,42,44,-1,-1,-1,-1,-1,-1,-1,-1,-1,-1,-1,-1,-1,-1,-1,-1,-1,-1],"split_conditions":[2.1412306E0,-9.182444E-1,1.8203571E1,2.1837844E-1,4.299643E1,-1.6196232E1,2.4569404E0,-2.6852894E-1,1.9784663E0,6.920477E0,-4.66336E-2,1.4393546E-2,7E-1,6.065287E1,3.45E0,-6.2296557E0,1.45E0,-1.742285E0,1.8946428E1,4.0089493E0,2.9382143E1,4.969086E-3,1.4467857E1,-1.2445887E-2,5.5192053E-2,1.75E0,6.85E0,3.579506E-2,-2.788427E-2,-5.933561E-3,-5.562645E-2,2.3049025E-2,-2.5205731E-2,-4.091511E-2,3.0736864E-2,1.7294543E-2,-2.8813327E-2,5.8575984E-2,-1.3632474E-2,3.0064347E-4,-5.0786424E-2,-3.589895E-2,4.9733147E-2,-5.455491E-2,-9.3829725E-3],"split_indices":[7,2,3,7,3,2,2,7,7,2,0,0,5,1,5,2,5,2,3,2,3,0,3,0,0,5,6,0,0,0,0,0,0,0,0,0,0,0,0,0,0,0,0,0,0],"split_type":[0,0,0,0,0,0,0,0,0,0,0,0,0,0,0,0,0,0,0,0,0,0,0,0,0,0,0,0,0,0,0,0,0,0,0,0,0,0,0,0,0,0,0,0,0],"sum_hessian":[1.0950539E2,8.38971E1,2.5608282E1,4.1624016E1,4.2273087E1,1.289529E1,1.2712993E1,1.1135044E1,3.0488972E1,4.0579643E1,1.6934439E0,1.2056245E0,1.1689666E1,4.2389507E0,8.474042E0,3.4346533E0,7.7003913E0,2.1291027E1,9.197946E0,3.241552E1,8.164124E0,2.0377595E0,9.651907E0,1.6131967E0,2.6257539E0,3.8778288E0,4.596213E0,2.0186453E0,1.416008E0,1.185646E0,6.514745E0,1.9132042E1,2.158985E0,7.8029456E0,1.3950002E0,2.5921774E1,6.493745E0,6.136051E0,2.0280728E0,1.2469449E0,8.404962E0,2.2818868E0,1.5959421E0,3.2562103E0,1.3400025E0],"tree_param":{"num_deleted":"0","num_feature":"9","num_nodes":"45","size_leaf_vector":"1"}},{"base_weights":[4.796028E-3,-4.5975484E-2,2.853739E-2,-6.142668E-1,5.7872362E-2,-5.0867278E-2,7.6265605E-3,1.2998576E-1,-2.585494E-1,1.932719E-1,-2.9797426E-1,-4.0819412E-1,4.3705925E-1,1.3113833E-2,-1.7054683E-2,-3.441388E-2,8.5841044E-4,-2.1087432E-3,-3.231954E-2,4.216329E-2,-5.7057613E-3],"categories":[],"categories_nodes":[],"categories_segments":[],"categories_sizes":[],"default_left":[0,0,0,0,0,0,0,0,0,0,0,0,0,0,0,0,0,0,0,0,0],"id":37,"left_children":[1,-1,3,5,7,-1,-1,9,11,13,15,17,19,-1,-1,-1,-1,-1,-1,-1,-1],"loss_changes":[2.4712746E0,0E0,2.1022332E0,1.6602403E0,2.446188E0,0E0,0E0,2.4077137E0,2.2559624E0,2.899234E0,1.4351928E0,1.4498234E0,9.954623E-1,0E0,0E0,0E0,0E0,0E0,0E0,0E0,0E0],"parents":[2147483647,0,0,2,2,3,3,4,4,7,7,8,8,9,9,10,10,11,11,12,12],"right_children":[2,-1,4,6,8,-1,-1,10,12,14,16,18,20,-1,-1,-1,-1,-1,-1,-1,-1],"split_conditions":[1.4267858E1,-4.5975484E-2,1.5E-1,1.3357971E0,2.1946542E0,-5.0867278E-2,7.6265605E-3,1.245E1,2.4089285E1,1.81E1,4.0126225E-1,1.6385714E1,9.995289E1,1.3113833E-2,-1.7054683E-2,-3.441388E-2,8.5841044E-4,-2.1087432E-3,-3.231954E-2,4.216329E-2,-5.7057613E-3],"split_indices":[3,0,5,7,7,0,0,6,3,4,7,3,0,0,0,0,0,0,0,0,0],"split_type":[0,0,0,0,0,0,0,0,0,0,0,0,0,0,0,0,0,0,0,0,0],"sum_hessian":[1.1042012E2,1.8203273E0,1.0859979E2,3.869496E0,1.0473029E2,2.3221033E0,1.547393E0,8.577185E1,1.895844E1,7.51998E1,1.0572056E1,1.5942049E1,3.0163927E0,6.705048E1,8.149316E0,4.1938987E0,6.3781567E0,6.748769E0,9.19328E0,1.4314754E0,1.5849173E0],"tree_param":{"num_deleted":"0","num_feature":"9","num_nodes":"21","size_leaf_vector":"1"}},{"base_weights":[-5.196192E-3,-5.488914E-1,4.434553E-2,8.997441E-2,-8.836605E-1,7.931337E-2,-6.905037E-1,-2.9184645E-2,4.1196447E-2,-5.5599626E-2,5.214283E-3,-2.9090163E-1,1.2939808E-1,-1.1230627E-2,-4.848845E-2,-9.772637E-1,4.9735436E-1,7.266405E-1,6.014874E-2,-6.6930847E-3,-5.619969E-2,4.5146324E-2,-2.0469505E-2,8.913223E-3,6.584915E-2,-2.9196104E-2,6.6529005E-3],"categories":[],"categories_nodes":[],"categories_segments":[],"categories_sizes":[],"default_left":[0,0,0,0,0,0,0,0,0,0,0,0,0,0,0,0,0,0,0,0,0,0,0,0,0,0,0],"id":38,"left_children":[1,3,5,7,9,11,13,-1,-1,-1,-1,15,17,-1,-1,19,21,23,25,-1,-1,-1,-1,-1,-1,-1,-1],"loss_changes":[3.0020986E0,2.0700107E0,2.6820383E0,2.5119088E0,1.5144057E0,1.8639793E0,3.9983797E-1,0E0,0E0,0E0,0E0,7.0028276E0,3.5731716E0,0E0,0E0,6.8808794E-1,2.6751313E0,2.677527E0,3.8088253E0,0E0,0E0,0E0,0E0,0E0,0E0,0E0,0E0],"parents":[2147483647,0,0,1,1,2,2,3,3,4,4,5,5,6,6,11,11,12,12,15,15,16,16,17,17,18,18],"right_children":[2,4,6,8,10,12,14,-1,-1,-1,-1,16,18,-1,-1,20,22,24,26,-1,-1,-1,-1,-1,-1,-1,-1],"split_conditions":[1.5007143E1,2.0026767E0,1.72E1,8.894158E-1,1.4094104E1,-1.6089888E1,1.5E-1,-2.9184645E-2,4.1196447E-2,-5.5599626E-2,5.214283E-3,2.6242857E1,4.263174E1,-1.1230627E-2,-4.848845E-2,-1.49E1,1.363725E0,4.65E0,4.552344E1,-6.6930847E-3,-5.619969E-2,4.5146324E-2,-2.0469505E-2,8.913223E-3,6.584915E-2,-2.9196104E-2,6.6529005E-3],"split_indices":[3,7,6,8,0,0,4,0,0,0,0,3,1,0,0,4,7,6,1,0,0,0,0,0,0,0,0],"split_type":[0,0,0,0,0,0,0,0,0,0,0,0,0,0,0,0,0,0,0,0,0,0,0,0,0,0,0],"sum_hessian":[1.0955101E2,8.306961E0,1.0124405E2,3.1076417E0,5.1993194E0,9.7496735E1,3.7473178E0,1.7271181E0,1.3805236E0,4.121262E0,1.0780573E0,1.1045161E1,8.645157E1,2.0806012E0,1.6667167E0,5.776009E0,5.2691526E0,7.996082E0,7.845549E1,1.1393493E0,4.6366596E0,3.6436276E0,1.6255248E0,4.82036E0,3.1757216E0,7.265363E0,7.1190125E1],"tree_param":{"num_deleted":"0","num_feature":"9","num_nodes":"27","size_leaf_vector":"1"}},{"base_weights":[1.4339569E-3,-4.8362102E-2,3.17041E-2,4.624166E-2,5.705419E-3,-7.438629E-2,2.831317E-1,4.5939326E-2,-1.060392E-1,-3.2077605E-1,4.7268164E-1,-2.176494E-3,-2.7809506E-2,2.1177756E-2,-4.958486E-2,-5.835166E-3,3.7913304E-2],"categories":[],"categories_nodes":[],"categories_segments":[],"categories_sizes":[],"default_left":[0,0,0,0,0,0,0,0,0,0,0,0,0,0,0,0,0],"id":39,"left_children":[1,-1,3,-1,5,7,9,-1,11,13,15,-1,-1,-1,-1,-1,-1],"loss_changes":[3.0907643E0,0E0,2.3670797E0,0E0,2.2493289E0,2.5686836E0,2.7471175E0,0E0,2.144682E0,3.4225101E0,3.0612707E0,0E0,0E0,0E0,0E0,0E0,0E0],"parents":[2147483647,0,0,2,2,4,4,5,5,6,6,8,8,9,9,10,10],"right_children":[2,-1,4,-1,6,8,10,-1,12,14,16,-1,-1,-1,-1,-1,-1],"split_conditions":[1.4342857E1,-4.8362102E-2,1.4521428E1,4.624166E-2,8.75E0,-3.205E1,1.75E0,4.5939326E-2,1.4778568E0,1.1590286E0,-1.258574E0,-2.176494E-3,-2.7809506E-2,2.1177756E-2,-4.958486E-2,-5.835166E-3,3.7913304E-2],"split_indices":[3,0,3,0,4,4,6,0,8,2,2,0,0,0,0,0,0],"split_type":[0,0,0,0,0,0,0,0,0,0,0,0,0,0,0,0,0],"sum_hessian":[1.0336199E2,2.194123E0,1.0116787E2,1.8837392E0,9.9284134E1,7.761027E1,2.1673864E1,1.5314384E0,7.607883E1,5.012307E0,1.6661556E1,6.776542E1,8.31341E0,2.5509439E0,2.4613636E0,5.6312394E0,1.1030317E1],"tree_param":{"num_deleted":"0","num_feature":"9","num_nodes":"17","size_leaf_vector":"1"}},{"base_weights":[-4.510122E-2,-2.4507323E-1,6.684846E-2,-5.491587E-1,1.02391824E-1,-4.5187593E-1,1.808543E-1,-2.0864625E-1,-8.855122E-1,4.4347206E-1,-2.3390508E-1,5.9312217E-2,-8.688663E-1,4.015649E-1,-1.2928143E-1,4.7012266E-2,-4.0970907E-1,-1.0540906E-1,-1.2194248E0,8.050931E-1,-1.05498075E-1,-4.374329E-2,4.3136384E-2,3.6436325E-1,-4.0544417E-2,-6.209701E-2,-2.6351348E-1,6.5186125E-1,-1.0607894E-2,-3.9799112E-1,2.5017837E-1,2.1396471E-2,-3.517564E-2,-4.0641125E-2,4.703744E-2,-1.7541314E-2,-7.327842E-2,5.3649914E-2,-1.7363587E-3,1.6388131E-2,-4.200927E-2,3.3926245E-2,-1.174642E-2,-4.0948144E-3,4.54719E-2,-3.244247E-2,1.3377093E-2,-1.5488862E-2,4.274128E-2,-1.6764184E-2,2.3117991E-2,4.810862E-3,-3.743258E-2,-3.285488E-2,2.1419266E-2],"categories":[],"categories_nodes":[],"categories_segments":[],"categories_sizes":[],"default_left":[0,0,0,0,0,0,0,0,0,0,0,0,0,0,0,0,0,0,0,0,0,0,0,0,0,0,0,0,0,0,0,0,0,0,0,0,0,0,0,0,0,0,0,0,0,0,0,0,0,0,0,0,0,0,0],"id":40,"left_children":[1,3,5,7,9,11,13,15,17,19,21,23,25,27,29,-1,31,33,35,37,39,-1,41,43,-1,-1,45,47,49,51,53,-1,-1,-1,-1,-1,-1,-1,-1,-1,-1,-1,-1,-1,-1,-1,-1,-1,-1,-1,-1,-1,-1,-1,-1],"loss_changes":[2.4780774E0,4.248778E0,4.2971644E0,2.2568536E0,2.3246229E0,2.8502173E0,4.1009126E0,3.1345334E0,2.5847578E0,2.06177E0,1.8852061E0,2.1097395E0,1.3202133E0,3.5972867E0,2.6844034E0,0E0,2.965257E0,3.8853514E0,1.025094E0,1.4140344E0,1.8155941E0,0E0,1.6112162E0,1.4732738E0,0E0,0E0,1.0025396E0,4.494136E0,2.3253074E0,2.7108452E0,2.0799603E0,0E0,0E0,0E0,0E0,0E0,0E0,0E0,0E0,0E0,0E0,0E0,0E0,0E0,0E0,0E0,0E0,0E0,0E0,0E0,0E0,0E0,0E0,0E0,0E0],"parents":[2147483647,0,0,1,1,2,2,3,3,4,4,5,5,6,6,7,7,8,8,9,9,10,10,11,11,12,12,13,13,14,14,16,16,17,17,18,18,19,19,20,20,22,22,23,23,26,26,27,27,28,28,29,29,30,30],"right_children":[2,4,6,8,10,12,14,16,18,20,22,24,26,28,30,-1,32,34,36,38,40,-1,42,44,-1,-1,46,48,50,52,54,-1,-1,-1,-1,-1,-1,-1,-1,-1,-1,-1,-1,-1,-1,-1,-1,-1,-1,-1,-1,-1,-1,-1,-1],"split_conditions":[-2.3825629E0,4.8E0,6.2423646E-1,1.747857E1,8.45E0,3.45E0,1.0928912E0,-1.0784182E1,1.65E0,8.754644E-1,9.7E0,3.8009644E1,3E0,1.280511E1,2.0314285E1,4.7012266E-2,5.148268E-1,1.35E0,6.582987E-1,-3.7147436E0,2.01015E0,-4.374329E-2,1.65E0,2.1392832E1,-4.0544417E-2,-6.209701E-2,1.4159971E0,-1.3758318E1,2.1264286E1,4.05E0,-8.3665633E-1,2.1396471E-2,-3.517564E-2,-4.0641125E-2,4.703744E-2,-1.7541314E-2,-7.327842E-2,5.3649914E-2,-1.7363587E-3,1.6388131E-2,-4.200927E-2,3.3926245E-2,-1.174642E-2,-4.0948144E-3,4.54719E-2,-3.244247E-2,1.3377093E-2,-1.5488862E-2,4.274128E-2,-1.6764184E-2,2.3117991E-2,4.810862E-3,-3.743258E-2,-3.285488E-2,2.1419266E-2],"split_indices":[2,6,8,3,6,6,8,0,6,8,6,0,5,0,3,0,7,6,8,2,7,0,5,0,0,0,7,0,3,6,2,0,0,0,0,0,0,0,0,0,0,0,0,0,0,0,0,0,0,0,0,0,0,0,0],"split_type":[0,0,0,0,0,0,0,0,0,0,0,0,0,0,0,0,0,0,0,0,0,0,0,0,0,0,0,0,0,0,0,0,0,0,0,0,0,0,0,0,0,0,0,0,0,0,0,0,0,0,0,0,0,0,0],"sum_hessian":[1.0896187E2,3.8679974E1,7.028189E1,2.0318066E1,1.8361908E1,1.2129461E1,5.815243E1,1.0901793E1,9.416272E0,8.957901E0,9.404006E0,5.834596E0,6.2948647E0,3.3802097E1,2.4350336E1,1.0761567E0,9.825636E0,3.2167718E0,6.1995006E0,5.119199E0,3.8387022E0,2.1867871E0,7.2172194E0,4.750562E0,1.0840337E0,3.2440112E0,3.0508535E0,2.066906E1,1.3133035E1,1.42269E1,1.0123437E1,2.432897E0,7.392739E0,2.0521474E0,1.1646245E0,1.9044201E0,4.29508E0,3.6706104E0,1.4485884E0,2.7631116E0,1.0755906E0,1.7585948E0,5.4586244E0,3.079274E0,1.6712884E0,1.6394503E0,1.4114032E0,3.5104406E0,1.7158619E1,7.9599285E0,5.173106E0,6.205999E0,8.020901E0,1.2208171E0,8.902619E0],"tree_param":{"num_deleted":"0","num_feature":"9","num_nodes":"55","size_leaf_vector":"1"}},{"base_weights":[1.2501155E-3,6.594594E-1,-2.9147388E-2,4.148286E-2,2.5471044E-3,-6.2865543E-1,2.160684E-2,-2.1459714E-1,-6.2085874E-2,6.038595E-2,-6.534809E-1,-4.8988555E-2,4.7301412E-1,-5.4437142E-2,5.8783317E-1,-5.252124E-2,4.2295847E-3,3.469643E-2,-1.765435E-3,3.1971864E-3,-1.9501077E-2,1.3347971E-2,5.4700106E-2],"categories":[],"categories_nodes":[],"categories_segments":[],"categories_sizes":[],"default_left":[0,0,0,0,0,0,0,0,0,0,0,0,0,0,0,0,0,0,0,0,0,0,0],"id":41,"left_children":[1,3,5,-1,-1,7,9,11,-1,13,15,-1,17,19,21,-1,-1,-1,-1,-1,-1,-1,-1],"loss_changes":[2.2328978E0,4.679501E-1,3.2606196E0,0E0,0E0,1.8562794E0,2.640406E0,3.725661E0,0E0,5.7775984E0,1.6948221E0,0E0,4.6695286E-1,3.1563761E0,2.4763732E0,0E0,0E0,0E0,0E0,0E0,0E0,0E0,0E0],"parents":[2147483647,0,0,1,1,2,2,5,5,6,6,7,7,9,9,10,10,12,12,13,13,14,14],"right_children":[2,4,6,-1,-1,8,10,12,-1,14,16,-1,18,20,22,-1,-1,-1,-1,-1,-1,-1,-1],"split_conditions":[-2.6852894E-1,8.95E0,-1.826058E1,4.148286E-2,2.5471044E-3,3.60768E1,2.03E1,1.9314755E-1,-6.2085874E-2,8.8E0,2.35E0,-4.8988555E-2,-2.35E0,6.4E0,5.1E0,-5.252124E-2,4.2295847E-3,3.469643E-2,-1.765435E-3,3.1971864E-3,-1.9501077E-2,1.3347971E-2,5.4700106E-2],"split_indices":[7,6,0,0,0,1,4,7,0,4,6,0,4,5,5,0,0,0,0,0,0,0,0],"split_type":[0,0,0,0,0,0,0,0,0,0,0,0,0,0,0,0,0,0,0,0,0,0,0],"sum_hessian":[1.0963999E2,3.9263625E0,1.0571363E2,2.7842278E0,1.1421348E0,7.362433E0,9.83512E1,5.2002544E0,2.1621783E0,9.386959E1,4.481606E0,2.260206E0,2.9400487E0,7.782434E1,1.6045248E1,2.639079E0,1.8425269E0,1.7948725E0,1.1451762E0,5.81284E1,1.969594E1,1.0754868E1,5.29038E0],"tree_param":{"num_deleted":"0","num_feature":"9","num_nodes":"23","size_leaf_vector":"1"}},{"base_weights":[6.414033E-2,3.3555976E-1,-3.174078E-2,-9.20944E-2,7.926239E-1,1.3266362E-1,-1.8067811E-1,-3.6481613E-1,2.1661693E-1,5.2698493E-2,-1.4622718E-1,-6.079459E-1,2.0405845E-1,-3.479257E-1,3.701777E-1,-7.7786003E-3,-4.6716742E-2,5.879959E-1,-4.122313E-1,2.6051918E-2,-3.71958E-2,-3.674271E-2,-1.0310476E-2,-1.8284E-1,3.8260287E-1,1.04337536E-1,-6.0567236E-1,-2.4640837E-1,6.587121E-1,2.0034393E-2,-4.422795E-2,5.4615494E-2,-1.6277099E-2,-4.8418283E-2,1.4462105E-2,2.713876E-3,-4.47151E-2,2.285072E-2,-3.5486776E-2,1.6024707E-2,-4.4261474E-2,-2.059154E-2,-6.438466E-2,-3.852112E-2,2.5123158E-2,5.2165814E-2,-4.026041E-3],"categories":[],"categories_nodes":[],"categories_segments":[],"categories_sizes":[],"default_left":[0,0,0,0,0,0,0,0,0,0,0,0,0,0,0,0,0,0,0,0,0,0,0,0,0,0,0,0,0,0,0,0,0,0,0,0,0,0,0,0,0,0,0,0,0,0,0],"id":42,"left_children":[1,3,5,7,9,11,13,15,17,-1,19,21,23,25,27,29,-1,31,33,-1,-1,-1,-1,35,37,39,41,43,45,-1,-1,-1,-1,-1,-1,-1,-1,-1,-1,-1,-1,-1,-1,-1,-1,-1,-1],"loss_changes":[2.8507044E0,5.658331E0,2.020984E0,1.3973184E0,3.5687237E0,2.2043176E0,4.110168E0,1.7589848E0,2.1041555E0,0E0,1.9463868E0,3.7638903E-2,2.6004426E0,3.9875827E0,2.0391119E0,2.6276906E0,0E0,2.854536E0,1.6641312E0,0E0,0E0,0E0,0E0,2.1140342E0,2.3879974E0,3.0803263E0,2.3241544E0,1.9923744E0,2.204602E0,0E0,0E0,0E0,0E0,0E0,0E0,