{"learner":{"attributes":{"scikit_learn":"{\"_estimator_type\": \"classifier\"}"},"feature_names":["ema_diff","rsi","macd_hist","atr","candle_body","upper_wick","lower_wick","vwap_dist","rel_volume"],"feature_types":["float","float","float","float","float","float","float","float","float"],"gradient_booster":{"model":{"cats":{"enc":[],"feature_segments":[],"sorted_idx":[]},"gbtree_model_param":{"num_parallel_tree":"1","num_trees":"100"},"iteration_indptr":[0,1,2,3,4,5,6,7,8,9,10,11,12,13,14,15,16,17,18,19,20,21,22,23,24,25,26,27,28,29,30,31,32,33,34,35,36,37,38,39,40,41,42,43,44,45,46,47,48,49,50,51,52,53,54,55,56,57,58,59,60,61,62,63,64,65,66,67,68,69,70,71,72,73,74,75,76,77,78,79,80,81,82,83,84,85,86,87,88,89,90,91,92,93,94,95,96,97,98,99,100],"tree_info":[0,0,0,0,0,0,0,0,0,0,0,0,0,0,0,0,0,0,0,0,0,0,0,0,0,0,0,0,0,0,0,0,0,0,0,0,0,0,0,0,0,0,0,0,0,0,0,0,0,0,0,0,0,0,0,0,0,0,0,0,0,0,0,0,0,0,0,0,0,0,0,0,0,0,0,0,0,0,0,0,0,0,0,0,0,0,0,0,0,0,0,0,0,0,0,0,0,0,0,0],"trees":[{"base_weights":[-4.6578017E-3,4.1757405E-1,-1.158959E-2,9.2307925E-1,7.118045E-2,-7.7374363E-3,-7.330173E-1,-1.1754051E-1,1.5205983E0,-1.9872658E-1,5.996743E-1,-4.9676653E-2,5.759512E-2,-8.317847E-2,-2.9846382E-1,-1.0693508E0,5.4850006E-1,3.287716E-2,8.013966E-2,5.33731E-2,-3.7674603E-1,-2.9552153E-1,8.5952175E-1,-3.5759196E-2,-3.304275E-1,1.931414E-1,-4.685716E-3,8.460715E-1,-8.841416E-1,-1.1492418E-2,-6.7125976E-2,6.418375E-2,-3.3791598E-2,-4.0632706E-2,8.9036925E-3,1.0730385E-2,-3.3715222E-2,-4.1149821E-4,5.0914574E-2,-9.3987276E-4,-1.0839761E-2,2.4607328E-3,-2.4962885E-2,1.3536418E-2,-1.8134619E-3,1.427891E-2,-1.6751898E-3,-1.1492418E-2,6.198783E-2,-6.407027E-3,-6.212124E-2],"categories":[],"categories_nodes":[],"categories_segments":[],"categories_sizes":[],"default_left":[0,0,0,0,0,0,0,0,0,0,0,0,0,0,0,0,0,0,0,0,0,0,0,0,0,0,0,0,0,0,0,0,0,0,0,0,0,0,0,0,0,0,0,0,0,0,0,0,0,0,0],"id":0,"left_children":[1,3,5,7,9,11,13,15,17,19,21,23,25,-1,27,29,31,-1,-1,-1,33,35,37,39,41,43,45,47,49,-1,-1,-1,-1,-1,-1,-1,-1,-1,-1,-1,-1,-1,-1,-1,-1,-1,-1,-1,-1,-1,-1],"loss_changes":[1.050944E1,1.0089843E1,9.810168E0,1.479014E1,5.1828084E0,9.632125E0,7.0851717E0,6.6087565E0,1.0128021E-2,5.868016E0,3.1034093E0,8.353399E0,1.16038E1,0E0,1.0132242E1,6.6602373E-1,6.4929404E0,0E0,0E0,0E0,5.4651837E0,8.20987E-1,1.3516092E0,6.2629013E0,6.4978695E0,7.7120953E0,7.8951583E0,2.508633E0,2.4815907E0,0E0,0E0,0E0,0E0,0E0,0E0,0E0,0E0,0E0,0E0,0E0,0E0,0E0,0E0,0E0,0E0,0E0,0E0,0E0,0E0,0E0,0E0],"parents":[2147483647,0,0,1,1,2,2,3,3,4,4,5,5,6,6,7,7,8,8,9,9,10,10,11,11,12,12,14,14,15,15,16,16,20,20,21,21,22,22,23,23,24,24,25,25,26,26,27,27,28,28],"right_children":[2,4,6,8,10,12,14,16,18,20,22,24,26,-1,28,30,32,-1,-1,-1,34,36,38,40,42,44,46,48,50,-1,-1,-1,-1,-1,-1,-1,-1,-1,-1,-1,-1,-1,-1,-1,-1,-1,-1,-1,-1,-1,-1],"split_conditions":[-1.8554352E1,3.8842857E1,6.915714E1,3.1828571E1,1.375E1,5.4288452E1,4.3766597E-1,7.256472E-1,1.95E0,-4.465E1,5.557855E-1,2.1E1,5.8833546E1,-8.317847E-2,1.0340868E1,5.982769E1,1.0474954E0,3.287716E-2,8.013966E-2,5.33731E-2,2.3672644E1,1.72E1,-5.075E1,5.2479987E0,7.7369773E-1,7.1E0,1.2067857E1,2.5059536E1,4E0,-1.1492418E-2,-6.7125976E-2,6.418375E-2,-3.3791598E-2,-4.0632706E-2,8.9036925E-3,1.0730385E-2,-3.3715222E-2,-4.1149821E-4,5.0914574E-2,-9.3987276E-4,-1.0839761E-2,2.4607328E-3,-2.4962885E-2,1.3536418E-2,-1.8134619E-3,1.427891E-2,-1.6751898E-3,-1.1492418E-2,6.198783E-2,-6.407027E-3,-6.212124E-2],"split_indices":[2,3,3,3,5,1,8,8,6,4,8,4,1,0,2,1,8,0,0,0,1,5,4,2,8,6,3,1,6,0,0,0,0,0,0,0,0,0,0,0,0,0,0,0,0,0,0,0,0,0,0],"split_type":[0,0,0,0,0,0,0,0,0,0,0,0,0,0,0,0,0,0,0,0,0,0,0,0,0,0,0,0,0,0,0,0,0,0,0,0,0,0,0,0,0,0,0,0,0,0,0,0,0,0,0],"sum_hessian":[3.5880813E3,5.699732E1,3.531084E3,2.2498941E1,3.449838E1,3.5133347E3,1.7749165E1,8.4996E0,1.3999342E1,2.3248907E1,1.1249471E1,2.1398994E3,1.3734354E3,4.749777E0,1.2999389E1,3.2498472E0,5.249753E0,1.999906E0,1.1999435E1,2.2498941E0,2.0999012E1,2.4998825E0,8.749589E0,2.039904E3,9.99953E1,4.317297E2,9.417057E2,4.2498E0,8.749589E0,1.2499412E0,1.999906E0,3.2498472E0,1.999906E0,1.1499459E1,9.499554E0,1.2499412E0,1.2499412E0,1.4999294E0,7.249659E0,1.8661622E3,1.7374182E2,3.0998543E1,6.899676E1,3.2248483E2,1.09244865E2,8.424604E1,8.5745966E2,1.2499412E0,2.9998589E0,3.2498472E0,5.4997416E0],"tree_param":{"num_deleted":"0","num_feature":"9","num_nodes":"51","size_leaf_vector":"1"}},{"base_weights":[-2.03773E-3,-3.1343784E-2,1.1349849E-1,-6.180985E-1,-2.4053605E-2,1.4145197E-1,-3.503624E-1,6.91313E-2,-7.9641485E-1,-3.8423047E-3,-1.662909E-1,-4.249145E-2,2.452025E-1,-4.692272E-1,3.998907E-1,1.2640198E-1,-1.0275365E0,-3.798372E-2,1.2962049E-1,3.646488E-1,-2.9230174E-1,6.936389E-2,-3.1347555E-1,3.6725348E-1,1.2008765E-1,-7.158512E-1,4.017782E-3,7.94598E-1,-3.2756932E-2,3.0016486E-2,-4.552386E-2,2.2888333E-2,-5.9211433E-2,-1.6486177E-2,-1.1013508E-3,-2.7583481E-3,1.34118525E-2,8.9336885E-4,3.9984465E-2,-1.0389398E-2,-2.6065424E-2,-4.8001847E-4,3.0641485E-2,-2.971734E-2,9.720054E-3,2.3224747E-2,-2.3240878E-3,7.077263E-2,3.84775E-3,-4.977667E-2,2.3633977E-2,1.5634583E-2,-5.328864E-2,-1.0981339E-2,5.956008E-2],"categories":[],"categories_nodes":[],"categories_segments":[],"categories_sizes":[],"default_left":[0,0,0,0,0,0,0,0,0,0,0,0,0,0,0,0,0,0,0,0,0,0,0,0,0,0,0,0,0,0,0,0,0,0,0,0,0,0,0,0,0,0,0,0,0,0,0,0,0,0,0,0,0,0,0],"id":1,"left_children":[1,3,5,7,9,11,13,-1,15,17,19,21,23,25,27,29,31,33,35,37,39,41,43,45,47,49,51,53,-1,-1,-1,-1,-1,-1,-1,-1,-1,-1,-1,-1,-1,-1,-1,-1,-1,-1,-1,-1,-1,-1,-1,-1,-1,-1,-1],"loss_changes":[1.2206367E1,1.228556E1,9.507553E0,1.3676613E1,8.1676235E0,1.3153154E1,3.9104738E0,0E0,7.167988E0,1.1345624E1,2.3756218E1,7.5754337E0,6.6819572E0,4.262516E0,3.122931E0,4.2320275E0,6.7093887E0,9.222314E0,1.3006809E1,1.0281808E1,5.4315853E0,7.6108947E0,1.0527767E1,8.972298E0,1.2126483E1,8.447949E0,4.7905097E0,2.272732E0,0E0,0E0,0E0,0E0,0E0,0E0,0E0,0E0,0E0,0E0,0E0,0E0,0E0,0E0,0E0,0E0,0E0,0E0,0E0,0E0,0E0,0E0,0E0,0E0,0E0,0E0,0E0],"parents":[2147483647,0,0,1,1,2,2,3,3,4,4,5,5,6,6,8,8,9,9,10,10,11,11,12,12,13,13,14,14,15,15,16,16,17,17,18,18,19,19,20,20,21,21,22,22,23,23,24,24,25,25,26,26,27,27],"right_children":[2,4,6,8,10,12,14,-1,16,18,20,22,24,26,28,30,32,34,36,38,40,42,44,46,48,50,52,54,-1,-1,-1,-1,-1,-1,-1,-1,-1,-1,-1,-1,-1,-1,-1,-1,-1,-1,-1,-1,-1,-1,-1,-1,-1,-1,-1],"split_conditions":[2.9189285E1,-7.5301785E0,1.9902695E1,2.3507143E1,5.138248E0,-1.9376438E1,3.34E1,6.91313E-2,-9.223864E0,1.0572665E1,-3.7960367E0,-3.1241E1,2.8401787E0,3.0403418E1,9.25E0,1.7054377E1,-3.8709538E1,5.0738084E-1,-3.1673717E-1,8.886412E0,2.167624E0,-4.594622E-3,8.55E0,1.2264572E0,-4.465E1,1.6E1,1.0362344E-1,3.45E0,-3.2756932E-2,3.0016486E-2,-4.552386E-2,2.2888333E-2,-5.9211433E-2,-1.6486177E-2,-1.1013508E-3,-2.7583481E-3,1.34118525E-2,8.9336885E-4,3.9984465E-2,-1.0389398E-2,-2.6065424E-2,-4.8001847E-4,3.0641485E-2,-2.971734E-2,9.720054E-3,2.3224747E-2,-2.3240878E-3,7.077263E-2,3.84775E-3,-4.977667E-2,2.3633977E-2,1.5634583E-2,-5.328864E-2,-1.0981339E-2,5.956008E-2],"split_indices":[3,7,2,3,2,0,4,0,7,0,7,0,2,2,5,2,0,8,2,2,7,7,5,8,4,5,7,5,0,0,0,0,0,0,0,0,0,0,0,0,0,0,0,0,0,0,0,0,0,0,0,0,0,0,0],"split_type":[0,0,0,0,0,0,0,0,0,0,0,0,0,0,0,0,0,0,0,0,0,0,0,0,0,0,0,0,0,0,0,0,0,0,0,0,0,0,0,0,0,0,0,0,0,0,0,0,0,0,0,0,0,0,0],"sum_hessian":[3.6029966E3,2.8745806E3,7.284159E2,3.4248913E1,2.8403318E3,6.876701E2,4.0745777E1,2.2499952E0,3.1998917E1,2.4878464E3,3.5248517E2,2.482061E2,4.3946405E2,3.5496532E1,5.249245E0,6.4997926E0,2.5499125E1,1.9816354E3,5.0621115E2,6.724756E1,2.852376E2,1.7621362E2,7.199248E1,2.2147614E2,2.179879E2,2.299856E1,1.2497973E1,3.999719E0,1.2495263E0,4.749812E0,1.7499804E0,2.2499697E0,2.3249155E1,1.0174507E2,1.8798903E3,2.1722891E2,2.8898227E2,3.7998833E1,2.9248728E1,2.0974104E2,7.549657E1,1.5471608E2,2.1497538E1,4.62465E1,2.5745975E1,1.7922876E2,4.224737E1,5.9993215E0,2.1198857E2,1.874898E1,4.24958E0,1.0248588E1,2.2493863E0,1.2498186E0,2.7499003E0],"tree_param":{"num_deleted":"0","num_feature":"9","num_nodes":"55","size_leaf_vector":"1"}},{"base_weights":[1.4247964E-2,-4.5111112E-2,7.7313304E-2,4.7533232E-1,-5.7614464E-2,3.0290607E-1,5.88279E-2,1.1349579E0,1.6526704E-1,-2.4812552E-1,-3.9985925E-2,2.0857967E-1,7.7580273E-1,-4.201976E-2,1.02350235E-1,-1.0790435E-2,1.3500985E0,-1.1659142E0,3.9339253E-1,-1.5491898E-1,-8.962352E-1,-4.5345217E-2,6.53598E-1,1.0900063E-1,6.240413E-1,9.9610305E-1,-3.5267594E-1,-2.1455406E-1,1.0014577E-1,1.9085284E-1,-1.7918555E-2,8.553757E-3,7.6746866E-2,-1.1565253E-2,-7.167906E-2,8.542246E-3,6.162405E-2,-3.143738E-2,-1.1659538E-3,8.862736E-3,-6.207887E-2,-1.2181551E-3,-1.0025268E-2,5.021682E-2,-2.8020358E-2,2.3138773E-2,-8.026987E-3,-4.0260937E-2,3.866839E-2,6.042233E-2,-7.358597E-3,-6.0027655E-2,2.732174E-2,-6.692844E-3,-3.397793E-2,1.796556E-2,-1.9067976E-3,2.0451982E-2,5.0114477E-3,2.8363683E-3,-1.5473828E-2],"categories":[],"categories_nodes":[],"categories_segments":[],"categories_sizes":[],"default_left":[0,0,0,0,0,0,0,0,0,0,0,0,0,0,0,0,0,0,0,0,0,0,0,0,0,0,0,0,0,0,0,0,0,0,0,0,0,0,0,0,0,0,0,0,0,0,0,0,0,0,0,0,0,0,0,0,0,0,0,0,0],"id":2,"left_children":[1,3,5,7,9,11,13,15,17,19,21,23,25,27,29,-1,31,33,35,37,39,41,43,45,47,49,51,53,55,57,59,-1,-1,-1,-1,-1,-1,-1,-1,-1,-1,-1,-1,-1,-1,-1,-1,-1,-1,-1,-1,-1,-1,-1,-1,-1,-1,-1,-1,-1,-1],"loss_changes":[1.3428975E1,1.2053445E1,7.235178E0,8.7023535E0,6.0541472E0,5.7031736E0,7.065407E0,4.280798E0,9.792985E0,9.08768E0,6.1773367E0,4.5235844E0,5.6955853E0,1.1934844E1,1.1968208E1,0E0,2.3481503E0,8.56483E-1,4.8291993E0,8.387278E0,7.261842E0,5.3412533E0,5.9902344E0,8.726839E0,5.1572933E0,4.607731E0,3.8957376E0,8.154347E0,9.581141E0,1.2764803E1,1.0408249E1,0E0,0E0,0E0,0E0,0E0,0E0,0E0,0E0,0E0,0E0,0E0,0E0,0E0,0E0,0E0,0E0,0E0,0E0,0E0,0E0,0E0,0E0,0E0,0E0,0E0,0E0,0E0,0E0,0E0,0E0],"parents":[2147483647,0,0,1,1,2,2,3,3,4,4,5,5,6,6,7,7,8,8,9,9,10,10,11,11,12,12,13,13,14,14,16,16,17,17,18,18,19,19,20,20,21,21,22,22,23,23,24,24,25,25,26,26,27,27,28,28,29,29,30,30],"right_children":[2,4,6,8,10,12,14,16,18,20,22,24,26,28,30,-1,32,34,36,38,40,42,44,46,48,50,52,54,56,58,60,-1,-1,-1,-1,-1,-1,-1,-1,-1,-1,-1,-1,-1,-1,-1,-1,-1,-1,-1,-1,-1,-1,-1,-1,-1,-1,-1,-1,-1,-1],"split_conditions":[7.799339E-1,-1.8554352E1,3E-1,3.9785713E1,5.009628E-1,2E-1,1.6239286E1,1.6E0,4.574643E1,4.461786E1,5.3025E1,7.9325395E0,8.151948E0,7.732867E0,3.3574536E0,-1.0790435E-2,3.1828571E1,4.1739285E1,-6.585679E1,2.0928572E1,-6.2717395E0,4.5218134E0,6.9673934E0,1.8385714E1,-2.095E1,1.2264572E0,1.8847065E1,1.5292857E1,1.2546429E1,6.592689E0,3.6228573E1,8.553757E-3,7.6746866E-2,-1.1565253E-2,-7.167906E-2,8.542246E-3,6.162405E-2,-3.143738E-2,-1.1659538E-3,8.862736E-3,-6.207887E-2,-1.2181551E-3,-1.0025268E-2,5.021682E-2,-2.8020358E-2,2.3138773E-2,-8.026987E-3,-4.0260937E-2,3.866839E-2,6.042233E-2,-7.358597E-3,-6.0027655E-2,2.732174E-2,-6.692844E-3,-3.397793E-2,1.796556E-2,-1.9067976E-3,2.0451982E-2,5.0114477E-3,2.8363683E-3,-1.5473828E-2],"split_indices":[0,2,6,3,8,6,3,6,3,3,3,2,2,0,2,0,3,3,0,3,2,2,2,3,4,8,0,3,3,0,3,0,0,0,0,0,0,0,0,0,0,0,0,0,0,0,0,0,0,0,0,0,0,0,0,0,0,0,0,0,0],"split_type":[0,0,0,0,0,0,0,0,0,0,0,0,0,0,0,0,0,0,0,0,0,0,0,0,0,0,0,0,0,0,0,0,0,0,0,0,0,0,0,0,0,0,0,0,0,0,0,0,0,0,0,0,0,0,0,0,0,0,0,0,0],"sum_hessian":[3.5853462E3,1.847091E3,1.7382554E3,4.2465775E1,1.8046251E3,1.3048248E2,1.6077728E3,1.2728046E1,2.973773E1,1.5173666E2,1.6528885E3,1.0998532E2,2.049717E1,4.8469586E2,1.123077E3,1.7482845E0,1.0979762E1,3.749195E0,2.5988535E1,1.337419E2,1.7994776E1,1.6411421E3,1.1746409E1,8.9738815E1,2.0246498E1,1.7247448E1,3.249722E0,2.1873114E2,2.6596472E2,6.466429E2,4.7643414E2,1.7490036E0,9.230759E0,1.2497194E0,2.4994757E0,2.1491934E1,4.4965997E0,2.8249865E1,1.0549203E2,4.4983764E0,1.3496399E1,1.446668E3,1.944741E2,9.247439E0,2.49897E0,3.8495773E1,5.1243046E1,1.4997252E0,1.8746773E1,1.4497739E1,2.7497087E0,1.4999633E0,1.7497587E0,1.8748306E2,3.124807E1,9.19796E1,1.739851E2,1.8873335E2,4.5790952E2,3.7996048E2,9.647367E1],"tree_param":{"num_deleted":"0","num_feature":"9","num_nodes":"61","size_leaf_vector":"1"}},{"base_weights":[1.5962256E-2,8.797879E-2,-1.3878504E-2,4.8722826E-2,2.9204148E-1,9.9877703E-1,-1.8860752E-2,-5.6002736E-1,6.271346E-2,2.4845064E-1,1.2714235E0,-3.2314092E-2,1.3277903E0,1.4505829E-2,-1.383056E-1,-7.322749E-1,1.9094843E-2,8.002836E-1,4.657117E-2,6.068757E-1,1.5523699E-1,7.319664E-2,1.072259E-2,-2.7873132E-2,3.1204259E-2,7.904168E-2,-6.065319E-4,-4.064004E-3,1.5309417E-1,-2.411039E-1,2.7814273E-2,-1.6818026E-2,-6.0107794E-2,5.241539E-2,-6.0314704E-2,-1.8911399E-3,7.946623E-3,3.5011422E-2,-4.156758E-2,-3.7437936E-3,1.5215573E-2,-1.0871676E-2,4.333444E-4,2.6809676E-2,4.656296E-3,-1.8286692E-2,-1.2952251E-3,5.0776447E-3,-3.8154628E-2],"categories":[],"categories_nodes":[],"categories_segments":[],"categories_sizes":[],"default_left":[0,0,0,0,0,0,0,0,0,0,0,0,0,0,0,0,0,0,0,0,0,0,0,0,0,0,0,0,0,0,0,0,0,0,0,0,0,0,0,0,0,0,0,0,0,0,0,0,0],"id":3,"left_children":[1,3,5,7,9,11,13,15,17,19,21,23,25,27,29,31,-1,33,35,37,39,-1,-1,-1,-1,-1,-1,41,43,45,47,-1,-1,-1,-1,-1,-1,-1,-1,-1,-1,-1,-1,-1,-1,-1,-1,-1,-1],"loss_changes":[7.735795E0,8.433449E0,1.2861909E1,7.5777335E0,6.939064E0,4.277088E0,1.0101455E1,3.5240726E0,1.0280749E1,5.3829803E0,1.1100826E0,1.7251817E0,3.2354088E0,5.10054E0,9.45724E0,2.804409E0,0E0,1.0470957E1,8.057887E0,5.0787773E0,4.5319266E0,0E0,0E0,0E0,0E0,0E0,0E0,4.751423E0,5.3300414E0,9.162125E0,1.24675045E1,0E0,0E0,0E0,0E0,0E0,0E0,0E0,0E0,0E0,0E0,0E0,0E0,0E0,0E0,0E0,0E0,0E0,0E0],"parents":[2147483647,0,0,1,1,2,2,3,3,4,4,5,5,6,6,7,7,8,8,9,9,10,10,11,11,12,12,13,13,14,14,15,15,17,17,18,18,19,19,20,20,27,27,28,28,29,29,30,30],"right_children":[2,4,6,8,10,12,14,16,18,20,22,24,26,28,30,32,-1,34,36,38,40,-1,-1,-1,-1,-1,-1,42,44,46,48,-1,-1,-1,-1,-1,-1,-1,-1,-1,-1,-1,-1,-1,-1,-1,-1,-1,-1],"split_conditions":[2E0,2.937143E1,1.6853863E1,-1.0792251E1,5.955E1,-3.745E1,3.8748415E0,2.822857E1,-3.16E1,3.13E1,9.1E0,5.25E0,6.915714E1,1.6029137E1,8.646922E0,1.15E0,1.9094843E-2,1.56E1,5.4288452E1,1.86E1,5.4E0,7.319664E-2,1.072259E-2,-2.7873132E-2,3.1204259E-2,7.904168E-2,-6.065319E-4,2.3E0,5.7412785E1,6.0292416E1,5.099286E1,-1.6818026E-2,-6.0107794E-2,5.241539E-2,-6.0314704E-2,-1.8911399E-3,7.946623E-3,3.5011422E-2,-4.156758E-2,-3.7437936E-3,1.5215573E-2,-1.0871676E-2,4.333444E-4,2.6809676E-2,4.656296E-3,-1.8286692E-2,-1.2952251E-3,5.0776447E-3,-3.8154628E-2],"split_indices":[6,3,1,2,4,4,2,3,4,3,5,6,3,0,2,6,0,5,1,5,5,0,0,0,0,0,0,6,1,1,3,0,0,0,0,0,0,0,0,0,0,0,0,0,0,0,0,0,0],"split_type":[0,0,0,0,0,0,0,0,0,0,0,0,0,0,0,0,0,0,0,0,0,0,0,0,0,0,0,0,0,0,0,0,0,0,0,0,0,0,0,0,0,0,0,0,0,0,0,0,0],"sum_hessian":[3.598103E3,1.0535524E3,2.5445508E3,8.846158E2,1.689366E2,1.1481285E1,2.5330693E3,1.8997143E1,8.656186E2,1.6293814E2,5.998456E0,2.995501E0,8.485785E0,1.9806571E3,5.524124E2,1.624841E1,2.748734E0,1.7498615E1,8.4812E2,3.2491447E1,1.304467E2,4.7485604E0,1.2498952E0,1.747861E0,1.24764E0,6.986577E0,1.4992074E0,1.7474783E3,2.3317874E2,3.4096503E2,2.1144736E2,9.749486E0,6.4989233E0,1.5998655E1,1.499959E0,4.8471582E2,3.6340417E2,3.0992887E1,1.49856E0,5.147975E1,7.896694E1,9.748879E1,1.6499895E3,3.0485409E1,2.0269333E2,2.1547562E2,1.2548942E2,1.9421199E2,1.7235369E1],"tree_param":{"num_deleted":"0","num_feature":"9","num_nodes":"49","size_leaf_vector":"1"}},{"base_weights":[-1.1729667E-3,-5.7056867E-2,5.9805483E-2,-6.7756765E-2,4.3807843E-1,1.1905304E-1,-5.51101E-2,-3.5792757E-2,-2.436913E-1,-6.90193E-1,5.9261394E-1,4.4421297E-1,9.309372E-2,1.02139995E-1,-2.178927E-1,-4.787427E-2,3.5890424E-1,1.6160923E-1,-3.5349226E-1,-7.472365E-2,3.9600395E-2,1.351005E0,2.9408035E-1,1.7989549E-1,8.332498E-1,-8.726135E-1,1.050963E-1,4.952725E-2,7.144805E-1,-5.7730895E-1,-1.0924341E-1,-1.0664801E-2,-9.404518E-4,2.5374383E-2,-4.8459437E-2,-3.5417886E-3,3.2847967E-2,-1.4238399E-2,-4.7515374E-2,-1.057032E-3,8.0154486E-2,7.847838E-2,4.389959E-5,2.819019E-2,-1.1298831E-2,-1.2113393E-2,4.4122536E-2,-7.058017E-2,2.8455084E-2,3.355435E-2,4.4516935E-3,-2.0045742E-2,4.681043E-3,-3.32858E-2,4.3691564E-2,-3.179279E-2,3.789037E-2,8.407551E-3,-1.5387947E-2],"categories":[],"categories_nodes":[],"categories_segments":[],"categories_sizes":[],"default_left":[0,0,0,0,0,0,0,0,0,0,0,0,0,0,0,0,0,0,0,0,0,0,0,0,0,0,0,0,0,0,0,0,0,0,0,0,0,0,0,0,0,0,0,0,0,0,0,0,0,0,0,0,0,0,0,0,0,0,0],"id":4,"left_children":[1,3,5,7,9,11,13,15,17,19,21,23,25,27,29,31,33,35,37,-1,-1,39,41,43,45,47,49,51,53,55,57,-1,-1,-1,-1,-1,-1,-1,-1,-1,-1,-1,-1,-1,-1,-1,-1,-1,-1,-1,-1,-1,-1,-1,-1,-1,-1,-1,-1],"loss_changes":[1.22266E1,9.948169E0,1.1688271E1,1.0301644E1,7.3372254E0,9.517183E0,1.4980426E1,7.421322E0,1.2594015E1,7.4407225E0,7.6370783E0,8.43191E0,1.2261609E1,9.562395E0,1.1161852E1,7.2439528E0,9.615286E0,7.0399146E0,8.8338585E0,0E0,0E0,3.4047165E0,9.999328E0,8.069334E0,1.9858284E0,1.090281E1,9.376446E0,5.5077047E0,5.749544E0,5.679178E0,1.2274303E1,0E0,0E0,0E0,0E0,0E0,0E0,0E0,0E0,0E0,0E0,0E0,0E0,0E0,0E0,0E0,0E0,0E0,0E0,0E0,0E0,0E0,0E0,0E0,0E0,0E0,0E0,0E0,0E0],"parents":[2147483647,0,0,1,1,2,2,3,3,4,4,5,5,6,6,7,7,8,8,9,9,10,10,11,11,12,12,13,13,14,14,15,15,16,16,17,17,18,18,21,21,22,22,23,23,24,24,25,25,26,26,27,27,28,28,29,29,30,30],"right_children":[2,4,6,8,10,12,14,16,18,20,22,24,26,28,30,32,34,36,38,-1,-1,40,42,44,46,48,50,52,54,56,58,-1,-1,-1,-1,-1,-1,-1,-1,-1,-1,-1,-1,-1,-1,-1,-1,-1,-1,-1,-1,-1,-1,-1,-1,-1,-1,-1,-1],"split_conditions":[5.0957466E1,7.732867E0,3.793306E0,4.759575E1,5.7150555E-1,-5.615306E0,-6.856568E-1,9.407833E0,-3.189643E0,5.000918E1,7.677158E-1,-6.5695605E0,-5.483477E0,-1.0508713E0,3.2080713E-1,5.914609E-1,-1.2675875E0,8E0,4.729627E0,-7.472365E-2,3.9600395E-2,4.8035954E1,4.540801E1,9.2996585E-1,-7.368194E0,1.3018029E0,-4.60053E0,4.345408E0,-1.39E1,3.2820733E0,1.6376847E0,-1.0664801E-2,-9.404518E-4,2.5374383E-2,-4.8459437E-2,-3.5417886E-3,3.2847967E-2,-1.4238399E-2,-4.7515374E-2,-1.057032E-3,8.0154486E-2,7.847838E-2,4.389959E-5,2.819019E-2,-1.1298831E-2,-1.2113393E-2,4.4122536E-2,-7.058017E-2,2.8455084E-2,3.355435E-2,4.4516935E-3,-2.0045742E-2,4.681043E-3,-3.32858E-2,4.3691564E-2,-3.179279E-2,3.789037E-2,8.407551E-3,-1.5387947E-2],"split_indices":[1,0,2,1,8,7,7,2,7,1,8,7,7,7,7,8,7,4,2,0,0,1,1,8,2,8,7,2,4,8,7,0,0,0,0,0,0,0,0,0,0,0,0,0,0,0,0,0,0,0,0,0,0,0,0,0,0,0,0],"split_type":[0,0,0,0,0,0,0,0,0,0,0,0,0,0,0,0,0,0,0,0,0,0,0,0,0,0,0,0,0,0,0,0,0,0,0,0,0,0,0,0,0,0,0,0,0,0,0,0,0,0,0,0,0,0,0,0,0,0,0],"sum_hessian":[3.5859172E3,1.8711553E3,1.714762E3,1.8324197E3,3.8735527E1,1.1314032E3,5.8335876E2,1.5517072E3,2.8071265E2,4.248774E0,3.448675E1,8.245689E1,1.0489463E3,2.9691122E2,2.8644754E2,1.5064733E3,4.5233807E1,5.9737186E1,2.2097545E2,2.7488809E0,1.4998932E0,8.745168E0,2.5741585E1,4.9969364E1,3.2487526E1,1.1996859E1,1.0369495E3,2.744142E2,2.249699E1,6.5490105E1,2.2095744E2,2.241886E2,1.2822847E3,4.1238087E1,3.9957209E0,4.1241463E1,1.8495724E1,1.9948192E2,2.1493538E1,1.4994594E0,7.245708E0,3.9976857E0,2.1743898E1,2.5479536E1,2.4489828E1,1.249511E0,3.1238014E1,8.747475E0,3.2493846E0,2.7490467E1,1.009459E3,2.3745687E1,2.5066855E2,1.9996451E0,2.0497345E1,6.3240654E1,2.2494524E0,9.223141E1,1.2872603E2],"tree_param":{"num_deleted":"0","num_feature":"9","num_nodes":"59","size_leaf_vector":"1"}},{"base_weights":[-7.7140587E-3,-3.956728E-2,6.981218E-2,-3.407407E-2,-8.717448E-1,5.171175E-1,3.9251707E-2,6.9066614E-1,-3.820104E-2,-1.0065214E-1,-1.1258326E0,-2.7152255E-1,5.952647E-1,2.4465631E-1,-2.8023371E-2,8.2340345E-2,1.2481608E0,6.7070216E-2,-5.7940893E-2,2.8316319E-2,-4.565565E-2,-1.3542439E0,8.825547E-3,-6.20701E-2,2.4200428E-1,7.614291E-1,2.1918285E-1,3.0735874E-1,-2.3902132E-1,-4.3642312E-1,-3.5848636E-3,-1.513834E-2,3.6885507E-2,7.84971E-2,-1.0429736E-3,6.584333E-3,-7.357472E-3,-4.240963E-3,2.6092303E-3,-3.6750766E-4,-7.859346E-2,4.3614432E-2,-1.6117616E-2,4.959634E-2,3.937333E-3,-3.1466354E-2,2.092236E-2,7.15559E-2,1.4241922E-2,2.205131E-2,-3.6239143E-2,-3.189189E-2,3.316016E-2,3.8337156E-2,-6.7794265E-4],"categories":[],"categories_nodes":[],"categories_segments":[],"categories_sizes":[],"default_left":[0,0,0,0,0,0,0,0,0,0,0,0,0,0,0,0,0,0,0,0,0,0,0,0,0,0,0,0,0,0,0,0,0,0,0,0,0,0,0,0,0,0,0,0,0,0,0,0,0,0,0,0,0,0,0],"id":5,"left_children":[1,3,5,7,9,11,13,15,17,19,21,23,25,27,29,31,33,35,37,-1,-1,39,-1,-1,41,43,45,47,49,51,53,-1,-1,-1,-1,-1,-1,-1,-1,-1,-1,-1,-1,-1,-1,-1,-1,-1,-1,-1,-1,-1,-1,-1,-1],"loss_changes":[8.920338E0,1.1673588E1,1.436026E1,7.636651E0,3.1680546E0,4.302843E0,1.362918E1,4.800917E0,5.2632895E0,3.361598E0,3.9571E0,3.6597564E0,3.673195E0,7.452712E0,7.41886E0,2.2386792E0,3.0848217E0,5.557771E0,6.3146405E0,0E0,0E0,3.139244E0,0E0,0E0,2.1474864E0,6.564726E0,3.6845849E0,5.0544834E0,9.729567E0,9.718418E0,5.407947E0,0E0,0E0,0E0,0E0,0E0,0E0,0E0,0E0,0E0,0E0,0E0,0E0,0E0,0E0,0E0,0E0,0E0,0E0,0E0,0E0,0E0,0E0,0E0,0E0],"parents":[2147483647,0,0,1,1,2,2,3,3,4,4,5,5,6,6,7,7,8,8,9,9,10,10,11,11,12,12,13,13,14,14,15,15,16,16,17,17,18,18,21,21,24,24,25,25,26,26,27,27,28,28,29,29,30,30],"right_children":[2,4,6,8,10,12,14,16,18,20,22,24,26,28,30,32,34,36,38,-1,-1,40,-1,-1,42,44,46,48,50,52,54,-1,-1,-1,-1,-1,-1,-1,-1,-1,-1,-1,-1,-1,-1,-1,-1,-1,-1,-1,-1,-1,-1,-1,-1],"split_conditions":[9.311795E0,3.9996932E0,1.23E1,1.6853863E1,1.35E0,6E-1,5.8833546E1,5.8E0,-6.13915E0,4.9223164E1,1.035E1,8E-1,3.3E0,2.2010098E0,-5.6524773E0,-1.4709604E0,8.38E1,9.6E0,5.4288452E1,2.8316319E-2,-4.565565E-2,-7.8517013E0,8.825547E-3,-6.20701E-2,2.9E0,4.1E0,1.3E0,4.525935E1,5.6463005E1,7.5769104E1,-9.661471E0,-1.513834E-2,3.6885507E-2,7.84971E-2,-1.0429736E-3,6.584333E-3,-7.357472E-3,-4.240963E-3,2.6092303E-3,-3.6750766E-4,-7.859346E-2,4.3614432E-2,-1.6117616E-2,4.959634E-2,3.937333E-3,-3.1466354E-2,2.092236E-2,7.15559E-2,1.4241922E-2,2.205131E-2,-3.6239143E-2,-3.189189E-2,3.316016E-2,3.8337156E-2,-6.7794265E-4],"split_indices":[0,7,3,1,6,5,1,6,2,1,6,6,6,7,2,7,3,5,1,0,0,2,0,0,6,5,5,1,1,0,7,0,0,0,0,0,0,0,0,0,0,0,0,0,0,0,0,0,0,0,0,0,0,0,0],"split_type":[0,0,0,0,0,0,0,0,0,0,0,0,0,0,0,0,0,0,0,0,0,0,0,0,0,0,0,0,0,0,0,0,0,0,0,0,0,0,0,0,0,0,0,0,0,0,0,0,0,0,0,0,0,0,0],"sum_hessian":[3.610143E3,2.5591528E3,1.0509901E3,2.5434048E3,1.5748088E1,6.619473E1,9.847954E2,1.3459262E1,2.5299456E3,4.249141E0,1.1498946E1,5.744845E0,6.0449886E1,2.4231657E2,7.424788E2,6.9850397E0,6.4742227E0,3.991119E2,2.1308337E3,2.4998627E0,1.7492785E0,9.749228E0,1.7497187E0,1.4980769E0,4.246768E0,4.1215145E1,1.9234741E1,2.1483109E2,2.748548E1,4.0969322E1,7.015095E2,4.7385836E0,2.2464561E0,4.9754786E0,1.4987439E0,3.069192E2,9.219272E1,1.7129767E3,4.1785696E2,1.499921E0,8.249307E0,1.7484412E0,2.498327E0,3.0473299E1,1.0741845E1,3.2475846E0,1.5987157E1,2.9918215E0,2.1183926E2,1.1490839E1,1.5994641E1,3.498178E1,5.9875383E0,7.9970055E0,6.935125E2],"tree_param":{"num_deleted":"0","num_feature":"9","num_nodes":"55","size_leaf_vector":"1"}},{"base_weights":[5.064324E-3,8.593264E-3,-8.4715676E-1,4.10635E-1,2.1778508E-3,1.923458E-2,-1.0156556E0,-2.1804903E-1,8.8971186E-1,-4.8355523E-2,5.6568593E-2,-2.0972751E-1,-1.2834096E0,3.604445E-2,-8.154857E-1,4.053036E-1,1.2788877E0,-5.9486754E-2,4.2434123E-1,2.6841938E-1,3.655012E-2,-5.4443546E-2,2.3169179E-2,-7.808071E-2,-4.9294013E-1,-1.8716116E-2,4.026479E-2,2.554324E-2,-6.5372646E-2,4.2868253E-2,-1.8505124E-2,7.9835646E-2,3.2652054E-2,-2.6794195E-3,-4.708188E-2,-2.5174676E-2,2.8172756E-2,1.8398639E-2,-8.403935E-3,3.9653763E-2,1.4742183E-3,-4.0316563E-2,8.8844774E-4],"categories":[],"categories_nodes":[],"categories_segments":[],"categories_sizes":[],"default_left":[0,0,0,0,0,0,0,0,0,0,0,0,0,0,0,0,0,0,0,0,0,0,0,0,0,0,0,0,0,0,0,0,0,0,0,0,0,0,0,0,0,0,0],"id":6,"left_children":[1,3,5,7,9,-1,11,13,15,17,19,21,23,25,27,29,31,33,35,37,39,-1,-1,-1,41,-1,-1,-1,-1,-1,-1,-1,-1,-1,-1,-1,-1,-1,-1,-1,-1,-1,-1],"loss_changes":[1.0754194E1,9.1805105E0,3.4515104E0,1.7031893E1,9.635832E0,0E0,2.5893154E0,3.8215594E0,5.5000477E0,9.587643E0,7.150719E0,3.1667516E0,1.3738785E0,6.1364155E0,5.55951E0,5.8157654E0,2.3861542E0,9.192726E0,5.696343E0,6.38947E0,8.228988E0,0E0,0E0,0E0,6.543549E-1,0E0,0E0,0E0,0E0,0E0,0E0,0E0,0E0,0E0,0E0,0E0,0E0,0E0,0E0,0E0,0E0,0E0,0E0],"parents":[2147483647,0,0,1,1,2,2,3,3,4,4,6,6,7,7,8,8,9,9,10,10,11,11,12,12,13,13,14,14,15,15,16,16,17,17,18,18,19,19,20,20,24,24],"right_children":[2,4,6,8,10,-1,12,14,16,18,20,22,24,26,28,30,32,34,36,38,40,-1,-1,-1,42,-1,-1,-1,-1,-1,-1,-1,-1,-1,-1,-1,-1,-1,-1,-1,-1,-1,-1],"split_conditions":[4.1957054E0,2.1650194E1,5.557855E-1,8.846055E-1,5.0957466E1,1.923458E-2,1.252073E1,-4.3802715E1,-1.4497858E1,7.3898644E0,-5.7225614E0,5.715059E1,3.746191E1,-1.3720834E1,-1.3720834E1,-5.8454056E1,-2.9658897E1,3.9996932E0,5.7150555E-1,1.2259969E1,5.1080772E1,-5.4443546E-2,2.3169179E-2,-7.808071E-2,9.407833E0,-1.8716116E-2,4.026479E-2,2.554324E-2,-6.5372646E-2,4.2868253E-2,-1.8505124E-2,7.9835646E-2,3.2652054E-2,-2.6794195E-3,-4.708188E-2,-2.5174676E-2,2.8172756E-2,1.8398639E-2,-8.403935E-3,3.9653763E-2,1.4742183E-3,-4.0316563E-2,8.8844774E-4],"split_indices":[7,1,8,8,1,0,0,0,2,0,7,1,0,2,2,0,0,7,8,2,1,0,0,0,2,0,0,0,0,0,0,0,0,0,0,0,0,0,0,0,0,0,0],"split_type":[0,0,0,0,0,0,0,0,0,0,0,0,0,0,0,0,0,0,0,0,0,0,0,0,0,0,0,0,0,0,0,0,0,0,0,0,0,0,0,0,0,0,0],"sum_hessian":[3.572446E3,3.5587E3,1.3746209E1,5.4904926E1,3.503795E3,1.4996474E0,1.2246562E1,2.3980543E1,3.0924385E1,1.8163607E3,1.6874342E3,3.4987524E0,8.747809E0,1.7484112E1,6.496432E0,1.4686056E1,1.6238329E1,1.7754265E3,4.0934216E1,1.4461365E2,1.5428206E3,1.2493372E0,2.2494154E0,5.7489305E0,2.9988785E0,1.1736515E1,5.7475967E0,1.7472931E0,4.749139E0,9.210588E0,5.4754677E0,9.740504E0,6.4978247E0,1.764688E3,1.0738567E1,4.9956837E0,3.593853E1,1.1788439E2,2.6729252E1,1.3246861E1,1.5295737E3,1.4997356E0,1.4991429E0],"tree_param":{"num_deleted":"0","num_feature":"9","num_nodes":"43","size_leaf_vector":"1"}},{"base_weights":[-2.0442647E-3,3.9169735E-1,-8.256763E-3,-2.4350592E-1,7.521427E-1,-4.1899078E-2,6.943647E-2,8.03929E-2,-6.844564E-2,8.230435E-1,-3.3677503E-2,-3.7722383E-2,-6.619337E-1,4.6074787E-1,4.2888124E-2,-5.1120955E-2,3.1391156E-1,4.7428867E-1,1.2619588E0,-2.6445238E-2,-2.1364883E-1,-1.1478229E0,-6.97392E-2,6.105688E-1,-6.4649093E-3,5.359067E-2,-8.6517835E-1,-3.3219337E-2,2.9392635E-2,2.9328926E-2,-1.9675152E-2,7.0991464E-2,2.414819E-2,-1.8492754E-3,8.980568E-3,-2.970532E-2,-4.2346065E-4,1.2699005E-2,-7.034768E-2,-4.8524264E-2,1.7851997E-2,5.079933E-2,1.4282535E-2,7.54916E-3,-5.6954343E-2,1.7976815E-2,1.306933E-3,3.2171085E-2,-5.5308234E-2],"categories":[],"categories_nodes":[],"categories_segments":[],"categories_sizes":[],"default_left":[0,0,0,0,0,0,0,0,0,0,0,0,0,0,0,0,0,0,0,0,0,0,0,0,0,0,0,0,0,0,0,0,0,0,0,0,0,0,0,0,0,0,0,0,0,0,0,0,0],"id":7,"left_children":[1,3,5,7,9,11,13,15,-1,17,-1,19,21,23,25,-1,27,29,31,33,35,37,39,41,43,45,47,-1,-1,-1,-1,-1,-1,-1,-1,-1,-1,-1,-1,-1,-1,-1,-1,-1,-1,-1,-1,-1,-1],"loss_changes":[8.793853E0,1.2968446E1,9.252708E0,7.7544575E0,4.1802387E0,6.3719535E0,1.1093156E1,4.757892E0,0E0,4.7010574E0,0E0,4.8642993E0,4.6583796E0,4.754081E0,9.792728E0,0E0,4.4060597E0,2.2668333E0,1.1254005E0,5.019257E0,1.1526962E1,3.6197119E0,3.6089287E0,6.4797935E0,3.2868016E0,8.32319E0,4.979966E0,0E0,0E0,0E0,0E0,0E0,0E0,0E0,0E0,0E0,0E0,0E0,0E0,0E0,0E0,0E0,0E0,0E0,0E0,0E0,0E0,0E0,0E0],"parents":[2147483647,0,0,1,1,2,2,3,3,4,4,5,5,6,6,7,7,9,9,11,11,12,12,13,13,14,14,16,16,17,17,18,18,19,19,20,20,21,21,22,22,23,23,24,24,25,25,26,26],"right_children":[2,4,6,8,10,12,14,16,-1,18,-1,20,22,24,26,-1,28,30,32,34,36,38,40,42,44,46,48,-1,-1,-1,-1,-1,-1,-1,-1,-1,-1,-1,-1,-1,-1,-1,-1,-1,-1,-1,-1,-1,-1],"split_conditions":[2.1650194E1,7.4250776E-1,8.941263E0,3.3E0,-1.9376438E1,3.9996932E0,5.3531883E1,2.0432142E1,-6.844564E-2,1.9033533E1,-3.3677503E-2,2.0269938E0,1.4212333E0,4.0158185E-1,4.1957054E0,-5.1120955E-2,-2.91E1,1.605E1,3.930357E1,1.6839321E0,-6.5E0,6.2912005E-1,1.5292857E1,2.7142857E1,2.3832774E0,1.2546429E1,5.557855E-1,-3.3219337E-2,2.9392635E-2,2.9328926E-2,-1.9675152E-2,7.0991464E-2,2.414819E-2,-1.8492754E-3,8.980568E-3,-2.970532E-2,-4.2346065E-4,1.2699005E-2,-7.034768E-2,-4.8524264E-2,1.7851997E-2,5.079933E-2,1.4282535E-2,7.54916E-3,-5.6954343E-2,1.7976815E-2,1.306933E-3,3.2171085E-2,-5.5308234E-2],"split_indices":[1,8,0,4,0,7,1,3,0,1,0,8,0,7,7,0,4,4,3,8,4,8,3,3,8,3,8,0,0,0,0,0,0,0,0,0,0,0,0,0,0,0,0,0,0,0,0,0,0],"split_type":[0,0,0,0,0,0,0,0,0,0,0,0,0,0,0,0,0,0,0,0,0,0,0,0,0,0,0,0,0,0,0,0,0,0,0,0,0,0,0,0,0,0,0,0,0,0,0,0,0],"sum_hessian":[3.5927004E3,5.4841694E1,3.5378586E3,1.9971275E1,3.487042E1,2.4691436E3,1.068715E3,1.6229029E1,3.7422466E0,3.362112E1,1.2492975E0,2.453676E3,1.5467692E1,6.686074E1,1.00185425E3,2.2456124E0,1.39834175E1,1.989415E1,1.372697E1,2.3069475E3,1.4672841E2,7.9810634E0,7.4866295E0,5.0394066E1,1.6466679E1,9.911139E2,1.0740367E1,2.7472284E0,1.1236189E1,1.7901768E1,1.9923825E0,1.0729829E1,2.997141E0,2.1954648E3,1.114826E2,5.07426E1,9.598581E1,1.2482675E0,6.732796E0,1.9972736E0,5.4893556E0,2.1473513E1,2.8920553E1,1.5217902E1,1.2487762E0,8.0612404E1,9.1050146E2,1.2493507E0,9.491015E0],"tree_param":{"num_deleted":"0","num_feature":"9","num_nodes":"49","size_leaf_vector":"1"}},{"base_weights":[5.4278104E-3,-6.6598944E-2,5.5606026E-2,4.8490033E-1,-8.323485E-2,1.11161314E-1,-1.0936901E-2,-3.5707965E-2,9.5166296E-1,3.6963215E-1,-9.521315E-2,5.3824812E-2,2.6718542E-1,4.7999952E-2,-2.2917399E-1,-5.865017E-1,1.0187505E0,1.2246437E0,2.575727E-1,-1.07413776E-1,8.599028E-1,2.1987654E-2,-1.3802741E-1,1.2494369E-1,-1.1347021E-1,3.186517E-1,-5.3891206E-1,9.50693E-2,-1.8804854E-1,-4.16202E-1,2.4822718E-2,2.2312386E-3,-5.272947E-2,7.182703E-2,-3.1851675E-2,-1.3773597E-2,6.840217E-2,5.8025874E-2,-2.7747268E-2,-5.4877907E-2,1.3925164E-2,-1.660419E-2,5.3376436E-2,9.097259E-3,-1.2249975E-2,-1.0727083E-2,-9.51745E-4,-3.523916E-4,1.4603573E-2,-2.9913548E-3,-4.9520764E-2,2.797844E-2,6.5248916E-3,8.393283E-3,-4.1977424E-2,2.7100947E-3,2.3007073E-2,-2.6469438E-3,-2.7035972E-2,-2.3243604E-2,5.967728E-2,2.0658074E-2,-1.1363724E-2],"categories":[],"categories_nodes":[],"categories_segments":[],"categories_sizes":[],"default_left":[0,0,0,0,0,0,0,0,0,0,0,0,0,0,0,0,0,0,0,0,0,0,0,0,0,0,0,0,0,0,0,0,0,0,0,0,0,0,0,0,0,0,0,0,0,0,0,0,0,0,0,0,0,0,0,0,0,0,0,0,0,0,0],"id":8,"left_children":[1,3,5,7,9,11,13,15,17,19,21,23,25,27,29,31,33,35,37,39,41,43,45,47,49,51,53,55,57,59,61,-1,-1,-1,-1,-1,-1,-1,-1,-1,-1,-1,-1,-1,-1,-1,-1,-1,-1,-1,-1,-1,-1,-1,-1,-1,-1,-1,-1,-1,-1,-1,-1],"loss_changes":[1.2980045E1,1.3570273E1,7.8262706E0,1.0562723E1,7.8052063E0,1.030632E1,1.2410439E1,1.3053354E1,4.0200233E0,8.772814E0,7.009264E0,1.0066718E1,1.3023418E1,8.460451E0,9.756244E0,4.396382E0,6.258398E0,3.852354E0,6.3117404E0,7.833319E0,4.911912E0,1.6036085E1,9.308182E0,1.30909395E1,1.1821657E1,1.3154793E1,4.1701927E0,9.437002E0,6.0069027E0,9.816313E0,8.7037525E0,0E0,0E0,0E0,0E0,0E0,0E0,0E0,0E0,0E0,0E0,0E0,0E0,0E0,0E0,0E0,0E0,0E0,0E0,0E0,0E0,0E0,0E0,0E0,0E0,0E0,0E0,0E0,0E0,0E0,0E0,0E0,0E0],"parents":[2147483647,0,0,1,1,2,2,3,3,4,4,5,5,6,6,7,7,8,8,9,9,10,10,11,11,12,12,13,13,14,14,15,15,16,16,17,17,18,18,19,19,20,20,21,21,22,22,23,23,24,24,25,25,26,26,27,27,28,28,29,29,30,30],"right_children":[2,4,6,8,10,12,14,16,18,20,22,24,26,28,30,32,34,36,38,40,42,44,46,48,50,52,54,56,58,60,62,-1,-1,-1,-1,-1,-1,-1,-1,-1,-1,-1,-1,-1,-1,-1,-1,-1,-1,-1,-1,-1,-1,-1,-1,-1,-1,-1,-1,-1,-1,-1,-1],"split_conditions":[-3.9580412E0,-1.8554352E1,1.5273585E0,-5.990876E0,2.1650194E1,1.8918037E0,2.0994208E0,-6.585679E1,-1.4709604E0,9.4737977E-1,1.7642857E1,5.8993996E1,4.0834217E0,3.541786E1,1.3654055E1,1.9033533E1,-6.321527E0,3.291786E1,3.7964287E1,2.0675E1,-1.4497858E1,2.0994208E0,2.6414286E1,-1.6017255E0,1.6376847E0,-1.7543441E0,7.9644144E-1,3.1060715E1,-2.2610292E0,3.0864286E1,3.1E0,2.2312386E-3,-5.272947E-2,7.182703E-2,-3.1851675E-2,-1.3773597E-2,6.840217E-2,5.8025874E-2,-2.7747268E-2,-5.4877907E-2,1.3925164E-2,-1.660419E-2,5.3376436E-2,9.097259E-3,-1.2249975E-2,-1.0727083E-2,-9.51745E-4,-3.523916E-4,1.4603573E-2,-2.9913548E-3,-4.9520764E-2,2.797844E-2,6.5248916E-3,8.393283E-3,-4.1977424E-2,2.7100947E-3,2.3007073E-2,-2.6469438E-3,-2.7035972E-2,-2.3243604E-2,5.967728E-2,2.0658074E-2,-1.1363724E-2],"split_indices":[0,2,2,7,1,7,7,0,7,8,3,1,7,3,0,1,7,3,3,3,2,7,3,2,7,2,8,3,7,3,5,0,0,0,0,0,0,0,0,0,0,0,0,0,0,0,0,0,0,0,0,0,0,0,0,0,0,0,0,0,0,0,0],"split_type":[0,0,0,0,0,0,0,0,0,0,0,0,0,0,0,0,0,0,0,0,0,0,0,0,0,0,0,0,0,0,0,0,0,0,0,0,0,0,0,0,0,0,0,0,0,0,0,0,0,0,0,0,0,0,0,0,0,0,0,0,0,0,0],"sum_hessian":[3.5894033E3,1.4736997E3,2.1157036E3,4.2328068E1,1.4313716E3,1.1526826E3,9.63021E2,2.0446434E1,2.1881634E1,3.611471E1,1.395257E3,8.439051E2,3.0877744E2,7.5886334E2,2.0415768E2,1.3722375E1,6.7240596E0,1.515636E1,6.725274E0,1.870002E1,1.741469E1,3.7345053E2,1.0218064E3,5.923458E2,2.5155931E2,2.9081473E2,1.7962732E1,6.331976E2,1.2566576E2,1.1721151E2,8.6946175E1,6.2287574E0,7.493618E0,5.4750075E0,1.2490522E0,1.2420613E0,1.3914298E1,2.982523E0,3.7427514E0,4.727271E0,1.3972749E1,2.4944644E0,1.4920226E1,2.3373412E2,1.397164E2,6.2141974E2,4.003867E2,3.3149823E2,2.608476E2,2.3806499E2,1.3494318E1,1.26660866E2,1.6415385E2,5.4923015E0,1.2470431E1,5.7048413E2,6.2713432E1,9.1689316E1,3.3976444E1,1.1446201E2,2.7495005E0,3.3973457E1,5.2972717E1],"tree_param":{"num_deleted":"0","num_feature":"9","num_nodes":"63","size_leaf_vector":"1"}},{"base_weights":[-5.9297844E-3,3.6452565E-1,-1.1721054E-2,7.065201E-1,-7.2006844E-2,-4.5278206E-2,3.940137E-2,1.2467623E0,4.5825183E-1,-3.3811298E-1,7.1156675E-1,-3.730071E-2,-6.275829E-1,1.2404246E-1,-3.5859033E-2,4.997548E-3,1.4107039E0,-4.561582E-1,7.227912E-1,-5.1525474E-1,3.6743778E-1,-3.205694E-2,1.1379654E0,-5.1065926E-2,2.4482983E-1,-8.5713583E-1,7.536112E-2,4.081764E-1,9.1075726E-2,-9.528839E-2,1.4070152E-1,7.9493284E-2,1.9109335E-2,-4.461618E-2,-2.0989284E-3,4.9488764E-2,-4.0417347E-2,-1.3332945E-2,-6.282363E-2,5.0359048E-2,-3.592983E-2,6.5832995E-2,2.4081966E-2,3.0869087E-2,-2.807879E-3,3.8329564E-2,5.913917E-3,-5.5476435E-2,-1.5482992E-2,-4.6669334E-2,2.5372898E-2,-3.4073118E-2,2.3882536E-2,-1.5484844E-2,6.3102306E-3,-6.4210794E-3,1.0737666E-2,1.7854493E-2,-2.8426142E-3],"categories":[],"categories_nodes":[],"categories_segments":[],"categories_sizes":[],"default_left":[0,0,0,0,0,0,0,0,0,0,0,0,0,0,0,0,0,0,0,0,0,0,0,0,0,0,0,0,0,0,0,0,0,0,0,0,0,0,0,0,0,0,0,0,0,0,0,0,0,0,0,0,0,0,0,0,0,0,0],"id":9,"left_children":[1,3,5,7,9,11,13,15,17,19,21,23,25,27,29,-1,31,33,35,37,39,-1,41,43,45,47,49,51,53,55,57,-1,-1,-1,-1,-1,-1,-1,-1,-1,-1,-1,-1,-1,-1,-1,-1,-1,-1,-1,-1,-1,-1,-1,-1,-1,-1,-1,-1],"loss_changes":[7.69119E0,8.288923E0,6.055493E0,3.591011E0,5.4842086E0,9.875093E0,8.9158325E0,1.586791E0,5.8554697E0,2.6202676E0,4.592555E0,8.180129E0,4.701297E0,6.1324453E0,7.791542E0,0E0,8.5995007E-1,9.992629E-1,8.201047E0,2.6063871E0,3.841303E0,0E0,5.3277016E-3,6.8624516E0,6.380928E0,2.6606894E0,3.9575267E0,5.487523E0,8.366186E0,5.7309475E0,8.017651E0,0E0,0E0,0E0,0E0,0E0,0E0,0E0,0E0,0E0,0E0,0E0,0E0,0E0,0E0,0E0,0E0,0E0,0E0,0E0,0E0,0E0,0E0,0E0,0E0,0E0,0E0,0E0,0E0],"parents":[2147483647,0,0,1,1,2,2,3,3,4,4,5,5,6,6,7,7,8,8,9,9,10,10,11,11,12,12,13,13,14,14,16,16,17,17,18,18,19,19,20,20,22,22,23,23,24,24,25,25,26,26,27,27,28,28,29,29,30,30],"right_children":[2,4,6,8,10,12,14,16,18,20,22,24,26,28,30,-1,32,34,36,38,40,-1,42,44,46,48,50,52,54,56,58,-1,-1,-1,-1,-1,-1,-1,-1,-1,-1,-1,-1,-1,-1,-1,-1,-1,-1,-1,-1,-1,-1,-1,-1,-1,-1,-1,-1],"split_conditions":[-1.8554352E1,4.9478573E1,5.4288452E1,1.45E0,1.615E1,5.399594E1,3.3E0,1.9033533E1,3.1828571E1,8.38E1,6.8083763E-1,7.885479E0,9.64228E0,8E-1,2.9682142E1,4.997548E-3,6.0630527E1,4.6E0,1.695E1,1.1744107E0,2.3672644E1,-3.205694E-2,8.38E1,1.0082143E1,9E-1,4.4E0,1.5E0,5.009628E-1,1.35E0,1.325E1,3.6607143E1,7.9493284E-2,1.9109335E-2,-4.461618E-2,-2.0989284E-3,4.9488764E-2,-4.0417347E-2,-1.3332945E-2,-6.282363E-2,5.0359048E-2,-3.592983E-2,6.5832995E-2,2.4081966E-2,3.0869087E-2,-2.807879E-3,3.8329564E-2,5.913917E-3,-5.5476435E-2,-1.5482992E-2,-4.6669334E-2,2.5372898E-2,-3.4073118E-2,2.3882536E-2,-1.5484844E-2,6.3102306E-3,-6.4210794E-3,1.0737666E-2,1.7854493E-2,-2.8426142E-3],"split_indices":[2,3,1,5,6,1,6,1,3,3,8,0,0,5,3,0,1,6,6,8,1,0,3,3,6,5,6,8,5,6,3,0,0,0,0,0,0,0,0,0,0,0,0,0,0,0,0,0,0,0,0,0,0,0,0,0,0,0,0],"split_type":[0,0,0,0,0,0,0,0,0,0,0,0,0,0,0,0,0,0,0,0,0,0,0,0,0,0,0,0,0,0,0,0,0,0,0,0,0,0,0,0,0,0,0,0,0,0,0,0,0,0,0,0,0,0,0,0,0,0,0],"sum_hessian":[3.5819639E3,5.4180897E1,3.527783E3,3.0033304E1,2.4147594E1,2.1298484E3,1.3979346E3,8.1898985E0,2.1843407E1,1.8450274E1,5.697321E0,2.1021138E3,2.7734627E1,6.5765704E2,7.402775E2,1.2256751E0,6.9642234E0,4.738814E0,1.7104591E1,1.4963194E1,3.4870784E0,1.2447785E0,4.4525423E0,2.0051034E3,9.701045E1,2.0741835E1,6.992792E0,6.718875E1,5.9046826E2,5.5419775E2,1.8607974E2,5.4662495E0,1.4979738E0,1.7458515E0,2.9929626E0,1.4865984E1,2.2386076E0,1.2223374E1,2.73982E0,2.2401152E0,1.2469634E0,2.7088995E0,1.743643E0,1.4248613E1,1.9908547E3,1.7949324E1,7.9061134E1,1.3494219E1,7.2476153E0,1.7491641E0,5.243628E0,3.4991467E0,6.36896E1,4.6955387E1,5.435129E2,5.0121973E2,5.297803E1,8.842111E1,9.765863E1],"tree_param":{"num_deleted":"0","num_feature":"9","num_nodes":"59","size_leaf_vector":"1"}},{"base_weights":[-1.1706476E-2,4.050057E-1,-1.8399723E-2,9.1541904E-1,6.0636103E-2,-3.6415178E-1,-1.2527397E-2,-2.6133138E-1,1.1422819E0,8.884262E-1,-1.9804229E-1,-4.1771296E-1,4.396027E-2,-1.5287283E-2,6.940082E-1,2.897721E-2,-3.8113296E-2,1.3946816E0,2.0003432E-1,6.6446565E-2,-1.8050194E-2,-6.8087393E-1,2.2164282E-1,-2.2794162E-1,-8.082386E-1,1.900313E-1,-2.3877477E-2,1.1102524E0,-1.0444544E-2,1.3439396E-2,7.4905746E-2,5.201738E-2,-1.6163236E-2,-4.6424966E-2,3.668913E-2,2.1719886E-2,-3.156251E-2,-1.624013E-2,3.600016E-2,-6.083349E-3,-4.886427E-2,-7.3045766E-4,2.771693E-2,-7.41343E-5,-5.8770194E-3,1.1402814E-2,7.197724E-2,4.2420357E-2,-4.331353E-2],"categories":[],"categories_nodes":[],"categories_segments":[],"categories_sizes":[],"default_left":[0,0,0,0,0,0,0,0,0,0,0,0,0,0,0,0,0,0,0,0,0,0,0,0,0,0,0,0,0,0,0,0,0,0,0,0,0,0,0,0,0,0,0,0,0,0,0,0,0],"id":10,"left_children":[1,3,5,7,9,11,13,15,17,19,21,23,-1,25,27,-1,-1,29,31,-1,-1,33,35,37,39,41,43,45,47,-1,-1,-1,-1,-1,-1,-1,-1,-1,-1,-1,-1,-1,-1,-1,-1,-1,-1,-1,-1],"loss_changes":[9.972081E0,9.879068E0,7.1364703E0,6.3583984E0,7.6321187E0,4.2765636E0,6.7563114E0,2.3299801E0,4.291216E0,5.142979E0,5.6925945E0,4.036789E0,0E0,6.0839725E0,3.9649057E0,0E0,0E0,1.342907E0,2.6350164E0,0E0,0E0,5.2222347E0,3.06594E0,3.8811414E0,1.9972811E0,1.0336087E1,6.9414787E0,2.1363153E0,5.143777E0,0E0,0E0,0E0,0E0,0E0,0E0,0E0,0E0,0E0,0E0,0E0,0E0,0E0,0E0,0E0,0E0,0E0,0E0,0E0,0E0],"parents":[2147483647,0,0,1,1,2,2,3,3,4,4,5,5,6,6,7,7,8,8,9,9,10,10,11,11,13,13,14,14,17,17,18,18,21,21,22,22,23,23,24,24,25,25,26,26,27,27,28,28],"right_children":[2,4,6,8,10,12,14,16,18,20,22,24,-1,26,28,-1,-1,30,32,-1,-1,34,36,38,40,42,44,46,48,-1,-1,-1,-1,-1,-1,-1,-1,-1,-1,-1,-1,-1,-1,-1,-1,-1,-1,-1,-1],"split_conditions":[-1.8554352E1,3.9785713E1,-1.3720834E1,1.65E0,3.25E0,3.105E1,5.955E1,-4.576527E1,3.746191E1,9.1404563E-1,7.7369773E-1,9.535401E-1,4.396027E-2,-2.8E1,2.9E0,2.897721E-2,-3.8113296E-2,6.0816896E-1,4.9E0,6.6446565E-2,-1.8050194E-2,-5.8454056E1,-5.238267E1,9.043637E-1,1.95E0,6.266292E0,4.613474E0,7.1132654E-1,4.008603E0,1.3439396E-2,7.4905746E-2,5.201738E-2,-1.6163236E-2,-4.6424966E-2,3.668913E-2,2.1719886E-2,-3.156251E-2,-1.624013E-2,3.600016E-2,-6.083349E-3,-4.886427E-2,-7.3045766E-4,2.771693E-2,-7.41343E-5,-5.8770194E-3,1.1402814E-2,7.197724E-2,4.2420357E-2,-4.331353E-2],"split_indices":[2,3,2,6,6,6,4,0,0,8,8,8,0,4,6,0,0,8,6,0,0,0,0,8,6,0,2,2,2,0,0,0,0,0,0,0,0,0,0,0,0,0,0,0,0,0,0,0,0],"split_type":[0,0,0,0,0,0,0,0,0,0,0,0,0,0,0,0,0,0,0,0,0,0,0,0,0,0,0,0,0,0,0,0,0,0,0,0,0,0,0,0,0,0,0,0,0,0,0,0,0],"sum_hessian":[3.5716309E3,5.5520054E1,3.5161106E3,2.1699509E1,3.3820545E1,5.7702114E1,3.4584087E3,3.4826865E0,1.8216822E1,7.47274E0,2.6347807E1,5.5955708E1,1.7464086E0,3.4459263E3,1.24822E1,1.2415977E0,2.2410889E0,1.3989337E1,4.2274857E0,5.4778223E0,1.9949178E0,1.1962762E1,1.4385045E1,3.87226E1,1.7233109E1,1.3753401E2,3.3083923E3,7.4840217E0,4.998178E0,1.4798203E0,1.2509517E1,1.2431616E0,2.984324E0,1.0473167E1,1.4895945E0,1.1905808E1,2.4792364E0,3.5729156E1,2.9934428E0,3.7445602E0,1.3488549E1,8.868009E1,4.8853916E1,2.6708164E3,6.3757605E2,2.494271E0,4.9897504E0,2.499006E0,2.4991722E0],"tree_param":{"num_deleted":"0","num_feature":"9","num_nodes":"49","size_leaf_vector":"1"}},{"base_weights":[-6.401936E-3,-8.461814E-4,-4.9780092E-1,2.1908468E-1,-9.449811E-3,4.640297E-2,-5.973038E-1,2.6689044E-1,-5.1471955E-1,-4.8260473E-2,3.4639113E-2,2.0160206E-1,-7.922837E-1,-1.2266082E-1,3.3409217E-1,2.6977885E-1,-7.3044434E-2,1.3780865E-1,-6.9800176E-2,8.04616E-2,-5.3077057E-2,-6.379194E-1,9.536081E-1,-8.8597345E-1,1.8431565E-2,-2.5013322E-2,2.5215222E-2,2.7667064E-2,7.404486E-3,5.143885E-2,-3.5064418E-2,-6.616364E-4,2.393428E-2,-2.5205428E-2,-3.0228787E-3,8.181107E-3,-9.948695E-4,3.4783115E-3,-8.83676E-3,2.1046863E-3,-5.983752E-2,6.966621E-2,-7.812637E-3,-3.4270197E-2,-7.843337E-2],"categories":[],"categories_nodes":[],"categories_segments":[],"categories_sizes":[],"default_left":[0,0,0,0,0,0,0,0,0,0,0,0,0,0,0,0,0,0,0,0,0,0,0,0,0,0,0,0,0,0,0,0,0,0,0,0,0,0,0,0,0,0,0,0,0],"id":11,"left_children":[1,3,5,7,9,-1,11,13,15,17,19,21,23,25,27,29,-1,31,33,35,37,39,41,43,-1,-1,-1,-1,-1,-1,-1,-1,-1,-1,-1,-1,-1,-1,-1,-1,-1,-1,-1,-1,-1],"loss_changes":[9.738184E0,6.6782503E0,6.2120295E0,4.7984433E0,5.8132987E0,0E0,6.0610237E0,3.323802E0,6.679779E0,7.2507915E0,6.397691E0,5.8037057E0,3.660841E0,4.793458E0,4.2905664E0,4.7558246E0,0E0,9.674868E0,6.5425825E0,8.7266655E0,8.299197E0,1.7557126E0,2.531793E0,2.849146E0,0E0,0E0,0E0,0E0,0E0,0E0,0E0,0E0,0E0,0E0,0E0,0E0,0E0,0E0,0E0,0E0,0E0,0E0,0E0,0E0,0E0],"parents":[2147483647,0,0,1,1,2,2,3,3,4,4,6,6,7,7,8,8,9,9,10,10,11,11,12,12,13,13,14,14,15,15,17,17,18,18,19,19,20,20,21,21,22,22,23,23],"right_children":[2,4,6,8,10,-1,12,14,16,18,20,22,24,26,28,30,-1,32,34,36,38,40,42,44,-1,-1,-1,-1,-1,-1,-1,-1,-1,-1,-1,-1,-1,-1,-1,-1,-1,-1,-1,-1,-1],"split_conditions":[3.9996932E0,-2.91E1,1.2546429E1,1.72E1,5.1534775E1,4.640297E-2,-9.15E0,-7.5301785E0,-1.6472039E0,2.899386E1,3.8748415E0,5.4139095E1,2.952143E1,6.4E0,-2.0729098E0,-1.7543441E0,-7.3044434E-2,3.2080713E-1,-2.52E1,5.982769E1,-6.624594E-1,-4.3416743E0,4.1957054E0,6.4750275E1,1.8431565E-2,-2.5013322E-2,2.5215222E-2,2.7667064E-2,7.404486E-3,5.143885E-2,-3.5064418E-2,-6.616364E-4,2.393428E-2,-2.5205428E-2,-3.0228787E-3,8.181107E-3,-9.948695E-4,3.4783115E-3,-8.83676E-3,2.1046863E-3,-5.983752E-2,6.966621E-2,-7.812637E-3,-3.4270197E-2,-7.843337E-2],"split_indices":[7,4,3,5,1,0,4,7,7,1,2,1,3,6,7,2,0,7,4,1,7,2,7,1,0,0,0,0,0,0,0,0,0,0,0,0,0,0,0,0,0,0,0,0,0],"split_type":[0,0,0,0,0,0,0,0,0,0,0,0,0,0,0,0,0,0,0,0,0,0,0,0,0,0,0,0,0,0,0,0,0,0,0,0,0,0,0,0,0,0,0,0,0],"sum_hessian":[3.566134E3,3.5272566E3,3.8877422E1,1.3186949E2,3.3953872E3,1.9928755E0,3.688455E1,1.24401306E2,7.468184E0,1.8057363E3,1.5896509E3,7.2293253E0,2.9655224E1,1.8181652E1,1.0621965E2,4.473739E0,2.9944448E0,1.8678764E2,1.6189487E3,1.0442319E3,5.454189E2,3.4875822E0,3.7417433E0,2.7659813E1,1.9954093E0,1.1473519E1,6.708133E0,4.784627E1,5.837338E1,2.477705E0,1.9960343E0,1.3010136E2,5.6686275E1,3.2977356E1,1.5859713E3,5.707011E2,4.7353085E2,2.7405273E2,2.7136612E2,1.9903281E0,1.4972541E0,2.4970372E0,1.244706E0,2.2927797E1,4.732017E0],"tree_param":{"num_deleted":"0","num_feature":"9","num_nodes":"45","size_leaf_vector":"1"}},{"base_weights":[-7.921444E-4,-2.9585822E-2,4.1452073E-2,-6.0338218E-2,5.3725634E-2,3.7675756E-1,2.987078E-2,-6.806191E-2,8.4681547E-1,7.9612784E-2,-7.206E-1,-4.4630928E-5,7.4955595E-1,5.333117E-2,-1.7549081E-1,-4.166204E-2,-3.4155002E-1,1.2992032E0,-9.0140715E-2,6.259918E-2,9.2075795E-1,5.860705E-2,-1.118771E0,7.536097E-1,-2.3513994E-1,8.7524533E-1,4.3283824E-2,-2.1576823E-1,8.1099816E-2,-2.746286E-3,-6.240639E-1,-1.0521858E-3,-1.9248642E-2,2.3918824E-4,-2.2839671E-2,1.0392665E-2,7.242069E-2,1.4723546E-2,-2.7329111E-2,-1.658828E-3,8.189971E-3,5.864982E-2,-2.02954E-2,-7.67967E-2,3.2712486E-2,-1.4122619E-2,5.3512763E-2,-3.8069103E-2,4.5505776E-3,6.0208637E-2,1.9083934E-2,-4.4205923E-2,3.7096556E-2,-4.1033715E-2,-4.7020246E-3,-2.7450782E-5,8.56214E-3,2.2934109E-2,-1.1408425E-2,-4.9656224E-2,6.991374E-3],"categories":[],"categories_nodes":[],"categories_segments":[],"categories_sizes":[],"default_left":[0,0,0,0,0,0,0,0,0,0,0,0,0,0,0,0,0,0,0,0,0,0,0,0,0,0,0,0,0,0,0,0,0,0,0,0,0,0,0,0,0,0,0,0,0,0,0,0,0,0,0,0,0,0,0,0,0,0,0,0,0],"id":12,"left_children":[1,3,5,7,9,11,13,15,17,19,21,23,25,27,29,31,33,35,37,39,41,-1,43,45,47,49,51,53,55,57,59,-1,-1,-1,-1,-1,-1,-1,-1,-1,-1,-1,-1,-1,-1,-1,-1,-1,-1,-1,-1,-1,-1,-1,-1,-1,-1,-1,-1,-1,-1],"loss_changes":[4.3670917E0,5.4732184E0,5.6398716E0,1.0987019E1,1.160624E1,6.812801E0,6.791703E0,1.1159748E1,5.730543E0,7.93367E0,1.5432929E1,4.627999E0,2.1262875E0,9.4641485E0,1.1200428E1,9.990471E0,5.434411E0,1.1638651E0,1.0821347E0,5.320903E0,4.15641E0,0E0,1.2833832E1,2.3397832E0,3.4864497E0,2.8919163E0,3.723986E0,8.650151E0,8.439601E0,1.1065494E1,1.146902E1,0E0,0E0,0E0,0E0,0E0,0E0,0E0,0E0,0E0,0E0,0E0,0E0,0E0,0E0,0E0,0E0,0E0,0E0,0E0,0E0,0E0,0E0,0E0,0E0,0E0,0E0,0E0,0E0,0E0,0E0],"parents":[2147483647,0,0,1,1,2,2,3,3,4,4,5,5,6,6,7,7,8,8,9,9,10,10,11,11,12,12,13,13,14,14,15,15,16,16,17,17,18,18,19,19,20,20,22,22,23,23,24,24,25,25,26,26,27,27,28,28,29,29,30,30],"right_children":[2,4,6,8,10,12,14,16,18,20,22,24,26,28,30,32,34,36,38,40,42,-1,44,46,48,50,52,54,56,58,60,-1,-1,-1,-1,-1,-1,-1,-1,-1,-1,-1,-1,-1,-1,-1,-1,-1,-1,-1,-1,-1,-1,-1,-1,-1,-1,-1,-1,-1,-1],"split_conditions":[4.015631E0,2.6414286E1,-2.91E1,1.1705012E1,3.1540866E0,-3.745E1,3.6228573E1,4.613474E0,2.3507143E1,2.882901E0,-3.1241E1,-3.660154E0,9E0,-4.4800467E0,-1.9617163E0,2.505E1,-3.0864074E0,1.9207144E1,-4.978976E0,-2.1562326E1,1.1620016E0,5.860705E-2,1.605E1,2.5885714E1,1.0148425E0,1.8612603E0,-5.036554E0,5.8710086E-1,2.012143E1,2.4706173E0,1.3714304E0,-1.0521858E-3,-1.9248642E-2,2.3918824E-4,-2.2839671E-2,1.0392665E-2,7.242069E-2,1.4723546E-2,-2.7329111E-2,-1.658828E-3,8.189971E-3,5.864982E-2,-2.02954E-2,-7.67967E-2,3.2712486E-2,-1.4122619E-2,5.3512763E-2,-3.8069103E-2,4.5505776E-3,6.0208637E-2,1.9083934E-2,-4.4205923E-2,3.7096556E-2,-4.1033715E-2,-4.7020246E-3,-2.7450782E-5,8.56214E-3,2.2934109E-2,-1.1408425E-2,-4.9656224E-2,6.991374E-3],"split_indices":[0,3,4,2,7,4,3,2,3,7,0,2,5,2,7,3,7,3,7,0,8,0,4,3,8,2,2,8,3,2,7,0,0,0,0,0,0,0,0,0,0,0,0,0,0,0,0,0,0,0,0,0,0,0,0,0,0,0,0,0,0],"split_type":[0,0,0,0,0,0,0,0,0,0,0,0,0,0,0,0,0,0,0,0,0,0,0,0,0,0,0,0,0,0,0,0,0,0,0,0,0,0,0,0,0,0,0,0,0,0,0,0,0,0,0,0,0,0,0,0,0,0,0,0,0],"sum_hessian":[3.5882683E3,2.1340193E3,1.4542489E3,1.5588745E3,5.7514484E2,4.7499374E1,1.4067496E3,1.5466311E3,1.2243366E1,5.5740686E2,1.7737965E1,2.4120104E1,2.337927E1,1.2631844E3,1.4356516E2,1.4115283E3,1.3510283E2,7.996041E0,4.247326E0,5.47409E2,9.997862E0,2.7450953E0,1.4992869E1,5.2106304E0,1.8909473E1,1.9644121E1,3.7351487E0,1.17523315E2,1.1456611E3,1.0437622E2,3.9188934E1,1.3325597E3,7.8968666E1,3.3970844E1,1.0113199E2,1.2495618E0,6.746479E0,2.4976146E0,1.7497113E0,2.815873E2,2.6582166E2,8.497976E0,1.4998853E0,1.2245436E1,2.7474341E0,1.2449965E0,3.9656336E0,6.7247367E0,1.2184737E1,1.0924186E1,8.719936E0,1.4907789E0,2.2443697E0,1.872594E1,9.879738E1,6.016754E2,5.4398566E2,3.3916336E1,7.0459885E1,2.6220755E1,1.296818E1],"tree_param":{"num_deleted":"0","num_feature":"9","num_nodes":"61","size_leaf_vector":"1"}},{"base_weights":[2.476606E-3,4.014433E-1,-4.074063E-3,3.7311066E-2,7.1529466E-1,-4.5711562E-2,4.5692544E-2,-5.785863E-1,3.7980437E-1,7.0462056E-2,4.977908E-1,4.1827142E-1,-5.431162E-2,1.4293814E-1,-3.6987467E-3,-1.2435873E0,8.255503E-1,1.0113502E0,-5.011306E-1,6.0532427E-1,-3.0598596E-2,-1.5755458E-1,8.878787E-1,-4.644848E-2,-5.195846E-1,4.902454E-2,2.5480238E-1,6.471832E-2,-1.1276026E-1,-3.760881E-4,-7.764534E-2,5.673904E-2,3.7927392E-3,6.607788E-2,-2.6246042E-3,-4.1246235E-2,2.3986476E-2,-1.9230848E-2,3.57061E-2,-4.8614733E-2,2.0933315E-2,-1.4040001E-2,5.5775654E-2,-2.7885453E-3,1.3397652E-2,-1.1518111E-2,-7.075256E-2,5.398237E-3,-1.9288903E-2,6.941105E-3,2.0358315E-2,8.633559E-3,-1.9144843E-3,-1.4255859E-2,1.355317E-3],"categories":[],"categories_nodes":[],"categories_segments":[],"categories_sizes":[],"default_left":[0,0,0,0,0,0,0,0,0,0,0,0,0,0,0,0,0,0,0,0,0,0,0,0,0,0,0,0,0,0,0,0,0,0,0,0,0,0,0,0,0,0,0,0,0,0,0,0,0,0,0,0,0,0,0],"id":13,"left_children":[1,3,5,7,9,11,13,15,17,-1,19,21,23,25,27,29,31,33,35,37,-1,39,41,43,45,47,49,51,53,-1,-1,-1,-1,-1,-1,-1,-1,-1,-1,-1,-1,-1,-1,-1,-1,-1,-1,-1,-1,-1,-1,-1,-1,-1,-1],"loss_changes":[9.426663E0,6.6320906E0,7.3562193E0,6.1318326E0,4.0134745E0,7.7352433E0,7.768045E0,1.0749045E1,1.0863311E1,0E0,3.3932242E0,9.682326E0,6.921685E0,5.710312E0,8.017051E0,2.8424025E0,8.290405E-1,3.7567692E0,3.0767322E0,2.8159266E0,0E0,8.247615E0,5.524168E0,5.4902744E0,7.8202686E0,7.6624007E0,4.33251E0,7.3489084E0,9.992243E0,0E0,0E0,0E0,0E0,0E0,0E0,0E0,0E0,0E0,0E0,0E0,0E0,0E0,0E0,0E0,0E0,0E0,0E0,0E0,0E0,0E0,0E0,0E0,0E0,0E0,0E0],"parents":[2147483647,0,0,1,1,2,2,3,3,4,4,5,5,6,6,7,7,8,8,10,10,11,11,12,12,13,13,14,14,15,15,16,16,17,17,18,18,19,19,21,21,22,22,23,23,24,24,25,25,26,26,27,27,28,28],"right_children":[2,4,6,8,10,12,14,16,18,-1,20,22,24,26,28,30,32,34,36,38,-1,40,42,44,46,48,50,52,54,-1,-1,-1,-1,-1,-1,-1,-1,-1,-1,-1,-1,-1,-1,-1,-1,-1,-1,-1,-1,-1,-1,-1,-1,-1,-1],"split_conditions":[-1.8554352E1,7.465472E-1,5.1864906E1,-7.1136136E0,8.531513E-1,2.1650194E1,2.1E0,-7.560342E1,6.5621555E-1,7.0462056E-2,3.6266938E-1,8.644396E-1,4.9478573E1,2.012143E1,3.3574536E0,2.3E0,2.2572386E0,-2.0813457E1,7.188056E-1,1.6E0,-3.0598596E-2,2.5310715E1,-1.4497858E1,7.3898644E0,-1.9617163E0,1.89E1,9.012011E-1,5.8833546E1,5.75E0,-3.760881E-4,-7.764534E-2,5.673904E-2,3.7927392E-3,6.607788E-2,-2.6246042E-3,-4.1246235E-2,2.3986476E-2,-1.9230848E-2,3.57061E-2,-4.8614733E-2,2.0933315E-2,-1.4040001E-2,5.5775654E-2,-2.7885453E-3,1.3397652E-2,-1.1518111E-2,-7.075256E-2,5.398237E-3,-1.9288903E-2,6.941105E-3,2.0358315E-2,8.633559E-3,-1.9144843E-3,-1.4255859E-2,1.355317E-3],"split_indices":[2,8,1,7,8,1,6,0,8,0,7,8,3,3,2,6,0,2,8,6,0,3,2,0,7,3,8,1,6,0,0,0,0,0,0,0,0,0,0,0,0,0,0,0,0,0,0,0,0,0,0,0,0,0,0],"split_type":[0,0,0,0,0,0,0,0,0,0,0,0,0,0,0,0,0,0,0,0,0,0,0,0,0,0,0,0,0,0,0,0,0,0,0,0,0,0,0,0,0,0,0,0,0,0,0,0,0,0,0,0,0,0,0],"sum_hessian":[3.6052874E3,5.7265495E1,3.548022E3,2.7027224E1,3.023827E1,1.9318286E3,1.6161932E3,9.412186E0,1.7615038E1,5.908388E0,2.4329882E1,3.4288498E1,1.8975402E3,5.437399E2,1.0724534E3,6.464792E0,2.9473937E0,1.0173543E1,7.441496E0,2.2595022E1,1.7348597E0,1.5700841E1,1.8587658E1,1.867086E3,3.0454014E1,2.9636786E2,2.4737204E2,6.592781E2,4.1317532E2,1.4989971E0,4.9657946E0,1.7230314E0,1.2243624E0,7.689191E0,2.4843519E0,5.714159E0,1.7273371E0,1.9863385E0,2.0608683E1,6.219498E0,9.481342E0,2.9921825E0,1.5595475E1,1.8141177E3,5.2968388E1,2.3969482E1,6.484532E0,2.6165112E2,3.4716747E1,1.415412E2,1.0583084E2,3.2158218E2,3.3769586E2,1.8462471E2,2.285506E2],"tree_param":{"num_deleted":"0","num_feature":"9","num_nodes":"55","size_leaf_vector":"1"}},{"base_weights":[-1.4852354E-2,2.4459806E-1,-2.5198895E-2,3.0029503E-1,-8.0392003E-1,9.390942E-1,-2.813758E-2,-8.9278215E-1,3.421781E-1,-2.8509647E-1,-6.051732E-2,-2.2300379E-1,6.8798706E-2,-4.0990928E-1,-2.3332544E-2,2.258244E-3,-6.6867895E-2,1.4841945E-1,5.20166E-1,1.5507832E-2,-3.414346E-2,-3.702771E-2,1.661798E-2,4.4288933E-1,-5.475735E-1,-2.6816778E-2,4.632534E-1,1.4776397E-2,-1.9764245E-2,3.6121435E-2,9.628727E-3,-1.7471874E-2,4.3563362E-2,-1.4015143E-2,-5.60628E-2,-2.8619822E-3,9.412286E-4,-1.8454868E-2,3.0468388E-2],"categories":[],"categories_nodes":[],"categories_segments":[],"categories_sizes":[],"default_left":[0,0,0,0,0,0,0,0,0,0,0,0,0,0,0,0,0,0,0,0,0,0,0,0,0,0,0,0,0,0,0,0,0,0,0,0,0,0,0],"id":14,"left_children":[1,3,5,7,9,11,13,15,17,19,-1,21,-1,23,25,-1,-1,27,29,-1,-1,-1,-1,31,33,35,37,-1,-1,-1,-1,-1,-1,-1,-1,-1,-1,-1,-1],"loss_changes":[9.632514E0,8.278014E0,9.80117E0,6.8715935E0,1.1759529E0,5.6423397E0,6.300663E0,2.0342152E0,4.3256445E0,1.2717563E0,0E0,1.3187859E0,0E0,5.2550735E0,5.7736526E0,0E0,0E0,5.117801E0,4.243469E0,0E0,0E0,0E0,0E0,2.506315E0,5.3909464E0,4.6873746E0,3.1698737E0,0E0,0E0,0E0,0E0,0E0,0E0,0E0,0E0,0E0,0E0,0E0,0E0],"parents":[2147483647,0,0,1,1,2,2,3,3,4,4,5,5,6,6,7,7,8,8,9,9,11,11,13,13,14,14,17,17,18,18,23,23,24,24,25,25,26,26],"right_children":[2,4,6,8,10,12,14,16,18,20,-1,22,-1,24,26,-1,-1,28,30,-1,-1,-1,-1,32,34,36,38,-1,-1,-1,-1,-1,-1,-1,-1,-1,-1,-1,-1],"split_conditions":[-2.91E1,3.2820733E0,1.6853863E1,4.167133E-1,2.5E0,3.35E0,-2.6E1,2.6315983E1,3.8162945E1,-7.1903553E0,-6.051732E-2,4.45E0,6.8798706E-2,2.6315983E1,3.105E1,2.258244E-3,-6.6867895E-2,3.5070194E1,3.75E0,1.5507832E-2,-3.414346E-2,-3.702771E-2,1.661798E-2,-2.8E1,3.2080713E-1,5.4288452E1,3.389708E1,1.4776397E-2,-1.9764245E-2,3.6121435E-2,9.628727E-3,-1.7471874E-2,4.3563362E-2,-1.4015143E-2,-5.60628E-2,-2.8619822E-3,9.412286E-4,-1.8454868E-2,3.0468388E-2],"split_indices":[4,8,1,8,5,6,4,1,1,2,0,5,0,1,6,0,0,1,5,0,0,0,0,4,7,1,1,0,0,0,0,0,0,0,0,0,0,0,0],"split_type":[0,0,0,0,0,0,0,0,0,0,0,0,0,0,0,0,0,0,0,0,0,0,0,0,0,0,0,0,0,0,0,0,0,0,0,0,0,0,0],"sum_hessian":[3.585015E3,1.3661478E2,3.4484001E3,1.3040149E2,6.213286E0,9.509201E0,3.438891E3,3.7334967E0,1.26668E2,3.4766455E0,2.7366405E0,2.7319043E0,6.777297E0,4.1696472E1,3.3971946E3,1.4894749E0,2.244022E0,6.152518E1,6.5142815E1,1.4808587E0,1.9957869E0,1.2414874E0,1.490417E0,5.48722E0,3.6209255E1,3.3739797E3,2.3214743E1,4.8782658E1,1.2742525E1,3.9530483E1,2.5612333E1,1.99028E0,3.49694E0,2.5716772E1,1.0492482E1,2.0243605E3,1.3496193E3,3.2387702E0,1.9975971E1],"tree_param":{"num_deleted":"0","num_feature":"9","num_nodes":"39","size_leaf_vector":"1"}},{"base_weights":[-6.0720947E-3,-4.8088394E-2,2.3440307E-2,1.4101056E-3,-1.5594476E-1,6.669864E-1,1.6511552E-2,2.4939047E-1,-3.1887107E-2,-1.9289072E-1,2.3453183E-1,9.072308E-1,-6.270178E-2,5.6576643E-2,-8.39164E-2,1.8359159E-1,1.1863763E0,-9.187047E-2,1.2913911E-1,-2.1584193E-1,3.4849322E-1,1.0980161E0,1.3043562E-1,1.2866836E0,3.500814E-1,-6.5383565E-1,5.7250064E-2,2.6498199E-1,3.9367016E-2,3.8075656E-2,-2.0469832E-1,1.9546343E-2,-3.505107E-3,8.66554E-3,6.761754E-2,4.693397E-4,-1.5388717E-2,5.8230013E-2,4.228368E-3,-9.561137E-3,-4.1446455E-2,5.2850433E-2,5.26959E-4,1.2020598E-2,6.8722576E-2,2.9903565E-2,-2.4789774E-3,1.5225807E-2,7.5085014E-2,-2.5628386E-2,5.46637E-2,-6.59673E-2,5.513217E-3,4.6800864E-3,3.21802E-2,1.0519618E-2,9.552026E-4,-1.7435239E-4,4.1023385E-2,-4.4668242E-2,-7.0392075E-3],"categories":[],"categories_nodes":[],"categories_segments":[],"categories_sizes":[],"default_left":[0,0,0,0,0,0,0,0,0,0,0,0,0,0,0,0,0,0,0,0,0,0,0,0,0,0,0,0,0,0,0,0,0,0,0,0,0,0,0,0,0,0,0,0,0,0,0,0,0,0,0,0,0,0,0,0,0,0,0,0,0],"id":15,"left_children":[1,3,5,7,9,11,13,15,17,19,21,23,25,27,29,31,33,35,37,39,41,43,45,47,49,51,-1,53,55,57,59,-1,-1,-1,-1,-1,-1,-1,-1,-1,-1,-1,-1,-1,-1,-1,-1,-1,-1,-1,-1,-1,-1,-1,-1,-1,-1,-1,-1,-1,-1],"loss_changes":[4.447211E0,7.8999734E0,9.383327E0,8.390781E0,6.7604218E0,3.9865465E0,8.395769E0,7.1986947E0,8.665628E0,5.365815E0,3.5138981E0,3.1284704E0,5.3803015E0,5.3382673E0,8.776447E0,6.0019283E0,1.0620413E0,1.4286512E1,1.1143232E1,6.016165E0,4.226821E0,6.753206E-1,3.1817462E0,1.5904255E0,5.8381624E0,2.6841087E0,0E0,7.3098245E0,4.773938E0,9.658087E0,1.304353E1,0E0,0E0,0E0,0E0,0E0,0E0,0E0,0E0,0E0,0E0,0E0,0E0,0E0,0E0,0E0,0E0,0E0,0E0,0E0,0E0,0E0,0E0,0E0,0E0,0E0,0E0,0E0,0E0,0E0,0E0],"parents":[2147483647,0,0,1,1,2,2,3,3,4,4,5,5,6,6,7,7,8,8,9,9,10,10,11,11,12,12,13,13,14,14,15,15,16,16,17,17,18,18,19,19,20,20,21,21,22,22,23,23,24,24,25,25,27,27,28,28,29,29,30,30],"right_children":[2,4,6,8,10,12,14,16,18,20,22,24,26,28,30,32,34,36,38,40,42,44,46,48,50,52,-1,54,56,58,60,-1,-1,-1,-1,-1,-1,-1,-1,-1,-1,-1,-1,-1,-1,-1,-1,-1,-1,-1,-1,-1,-1,-1,-1,-1,-1,-1,-1,-1,-1],"split_conditions":[-3.9580412E0,5.05E0,-9.661471E0,-9.239274E0,6.6795354E0,1.695E1,3.8748415E0,3.3E0,1.6376847E0,2.3832774E0,7.55E0,9.6E0,2.75E1,5.1773924E-1,-6.856568E-1,6.75E0,-2.0813457E1,7.3E0,-3.0429636E1,1.9596502E0,-7.524762E0,-3.212597E1,6.3710433E-1,3.3902678E0,1.56E1,-1.5E-1,5.7250064E-2,1.7356977E0,6E-1,-8.9984655E-1,-3.440808E-1,1.9546343E-2,-3.505107E-3,8.66554E-3,6.761754E-2,4.693397E-4,-1.5388717E-2,5.8230013E-2,4.228368E-3,-9.561137E-3,-4.1446455E-2,5.2850433E-2,5.26959E-4,1.2020598E-2,6.8722576E-2,2.9903565E-2,-2.4789774E-3,1.5225807E-2,7.5085014E-2,-2.5628386E-2,5.46637E-2,-6.59673E-2,5.513217E-3,4.6800864E-3,3.21802E-2,1.0519618E-2,9.552026E-4,-1.7435239E-4,4.1023385E-2,-4.4668242E-2,-7.0392075E-3],"split_indices":[0,4,7,2,2,6,2,4,7,8,4,5,6,8,7,5,2,6,0,8,2,0,8,0,5,4,0,7,6,7,7,0,0,0,0,0,0,0,0,0,0,0,0,0,0,0,0,0,0,0,0,0,0,0,0,0,0,0,0,0,0],"split_type":[0,0,0,0,0,0,0,0,0,0,0,0,0,0,0,0,0,0,0,0,0,0,0,0,0,0,0,0,0,0,0,0,0,0,0,0,0,0,0,0,0,0,0,0,0,0,0,0,0,0,0,0,0,0,0,0,0,0,0,0,0],"sum_hessian":[3.584546E3,1.4787069E3,2.105839E3,1.0142324E3,4.6447452E2,2.1416332E1,2.0844226E3,1.1929503E2,8.949374E2,4.2478812E2,3.9686424E1,1.5928636E1,5.487697E0,1.4903097E3,5.941129E2,1.12584816E2,6.710215E0,6.5235876E2,2.4257861E2,4.0808905E2,1.669905E1,3.2424042E0,3.644402E1,8.696431E0,7.2322044E0,3.9922328E0,1.4954641E0,1.12580765E2,1.377729E3,2.959164E2,2.981965E2,6.1655186E1,5.092963E1,1.2323667E0,5.4778485E0,4.4473703E2,2.0762173E2,8.97392E0,2.3360469E2,3.9359567E2,1.4493371E1,4.7057824E0,1.1993269E1,1.2461313E0,1.9962729E0,9.484154E0,2.6959867E1,1.9958599E0,6.700571E0,3.4907212E0,3.7414832E0,1.7453841E0,2.2468488E0,7.8359276E1,3.422149E1,1.449474E2,1.2327816E3,2.8193484E2,1.3981569E1,2.4222698E1,2.739738E2],"tree_param":{"num_deleted":"0","num_feature":"9","num_nodes":"61","size_leaf_vector":"1"}},{"base_weights":[1.2552056E-2,3.1966603E-1,7.648464E-3,-7.0622645E-2,6.119013E-1,-3.1418133E-1,1.3042293E-2,-5.1871145E-1,6.7498237E-1,-2.9993707E-1,9.2338973E-1,-5.364919E-1,4.1649483E-2,2.198717E-1,4.2568636E-3,-6.4574564E-1,1.28635885E-2,9.392086E-1,-3.1459715E-2,3.324248E-2,-7.1861356E-1,3.2032248E-1,1.0608144E0,3.8553942E-2,-7.3869276E-1,2.1022782E-1,-7.084159E-1,5.9235585E-1,9.481751E-2,1.1819823E-1,-1.0404256E-2,5.2225846E-3,-4.1801285E-2,6.5077454E-2,-9.353639E-3,-1.4056115E-2,-5.50248E-2,3.6534317E-2,-2.7467174E-2,7.029221E-2,3.320599E-2,2.0439615E-2,-4.9595293E-2,-6.8408027E-3,-4.5410343E-2,4.1073855E-2,-2.6523315E-3,1.0014336E-2,-5.6014854E-2,-2.7929753E-2,3.346389E-2,-2.2561364E-2,1.4267861E-2,2.4153331E-2,-1.8293735E-3,4.3190088E-2,-6.1313575E-4],"categories":[],"categories_nodes":[],"categories_segments":[],"categories_sizes":[],"default_left":[0,0,0,0,0,0,0,0,0,0,0,0,0,0,0,0,0,0,0,0,0,0,0,0,0,0,0,0,0,0,0,0,0,0,0,0,0,0,0,0,0,0,0,0,0,0,0,0,0,0,0,0,0,0,0,0,0],"id":16,"left_children":[1,3,5,7,9,11,13,15,17,19,21,23,25,27,29,31,-1,33,-1,-1,35,37,39,41,43,45,47,49,51,53,55,-1,-1,-1,-1,-1,-1,-1,-1,-1,-1,-1,-1,-1,-1,-1,-1,-1,-1,-1,-1,-1,-1,-1,-1,-1,-1],"loss_changes":[5.366883E0,6.4312863E0,6.0977364E0,8.661611E0,9.402951E0,4.6027985E0,6.2743125E0,1.7536469E0,3.9587126E0,4.087348E0,1.6653576E0,4.180665E0,3.08161E0,6.4975104E0,5.5369167E0,2.1034608E0,0E0,3.7236419E0,0E0,0E0,8.120551E-1,2.5151079E0,1.7041206E0,4.3123546E0,2.5763607E0,3.2151709E0,1.9030201E0,3.4878035E0,1.121171E1,2.1357986E1,4.782124E0,0E0,0E0,0E0,0E0,0E0,0E0,0E0,0E0,0E0,0E0,0E0,0E0,0E0,0E0,0E0,0E0,0E0,0E0,0E0,0E0,0E0,0E0,0E0,0E0,0E0,0E0],"parents":[2147483647,0,0,1,1,2,2,3,3,4,4,5,5,6,6,7,7,8,8,9,9,10,10,11,11,12,12,13,13,14,14,15,15,17,17,20,20,21,21,22,22,23,23,24,24,25,25,26,26,27,27,28,28,29,29,30,30],"right_children":[2,4,6,8,10,12,14,16,18,20,22,24,26,28,30,32,-1,34,-1,-1,36,38,40,42,44,46,48,50,52,54,56,-1,-1,-1,-1,-1,-1,-1,-1,-1,-1,-1,-1,-1,-1,-1,-1,-1,-1,-1,-1,-1,-1,-1,-1,-1,-1],"split_conditions":[-1.8554352E1,-5.990876E0,-1.3720834E1,-6.585679E1,3.1828571E1,6.8E0,-8.951608E0,8.38E1,-6.5695605E0,-1.23E1,1.95E0,1.35E0,1.0230295E1,-4.6570177E0,1.3325E1,2.3E0,1.28635885E-2,1.0997211E1,-3.1459715E-2,3.324248E-2,-2.0813457E1,1.65E0,3.9785713E1,-1.4497858E1,-4.472478E0,9.35E0,7.7069706E-1,2.4164286E1,-1.1867845E1,-1.8087475E0,-9.034588E1,5.2225846E-3,-4.1801285E-2,6.5077454E-2,-9.353639E-3,-1.4056115E-2,-5.50248E-2,3.6534317E-2,-2.7467174E-2,7.029221E-2,3.320599E-2,2.0439615E-2,-4.9595293E-2,-6.8408027E-3,-4.5410343E-2,4.1073855E-2,-2.6523315E-3,1.0014336E-2,-5.6014854E-2,-2.7929753E-2,3.346389E-2,-2.2561364E-2,1.4267861E-2,2.4153331E-2,-1.8293735E-3,4.3190088E-2,-6.1313575E-4],"split_indices":[2,7,2,0,3,6,2,3,7,4,6,6,0,7,3,6,0,0,0,0,2,6,3,2,7,6,8,3,2,2,0,0,0,0,0,0,0,0,0,0,0,0,0,0,0,0,0,0,0,0,0,0,0,0,0,0,0],"split_type":[0,0,0,0,0,0,0,0,0,0,0,0,0,0,0,0,0,0,0,0,0,0,0,0,0,0,0,0,0,0,0,0,0,0,0,0,0,0,0,0,0,0,0,0,0,0,0,0,0,0,0,0,0,0,0,0,0],"sum_hessian":[3.564381E3,5.5008156E1,3.509373E3,2.3877455E1,3.1130701E1,5.6903503E1,3.4524695E3,1.5104412E1,8.773043E0,7.9360695E0,2.3194632E1,3.4710125E1,2.2193377E1,1.3969511E2,3.3127744E3,1.3123787E1,1.9806252E0,7.527763E0,1.24528E0,2.2237475E0,5.7123218E0,4.922756E0,1.8271875E1,9.240393E0,2.5469732E1,1.8708364E1,3.4850125E0,3.417256E1,1.0552255E2,3.7686243E2,2.9359119E3,2.7465029E0,1.0377284E1,5.5777173E0,1.9500456E0,3.4714806E0,2.2408414E0,3.4531486E0,1.4696077E0,8.4117565E0,9.860118E0,7.2417603E0,1.9986323E0,5.9941196E0,1.9475613E1,4.99384E0,1.3714524E1,1.2471799E0,2.2378325E0,1.7485098E0,3.242405E1,2.6942665E1,7.857989E1,1.1162163E2,2.652408E2,5.2442827E0,2.9306677E3],"tree_param":{"num_deleted":"0","num_feature":"9","num_nodes":"57","size_leaf_vector":"1"}},{"base_weights":[1.7226962E-2,-1.3072871E-2,1.0104719E-1,-3.6595777E-2,9.182138E-2,4.949678E-1,7.7243105E-2,-4.4759363E-2,2.5784194E-1,-1.5116116E-2,1.886784E-1,-2.874844E-1,7.3160416E-1,-3.2787588E-1,9.4472766E-2,-2.4480494E-2,-3.0712098E-1,3.738135E-2,9.9937654E-1,2.7305853E-1,-2.131775E-1,5.978183E-1,1.2084228E-1,-9.7402734E-1,2.8485438E-1,1.124185E0,4.7540691E-1,-6.33382E-2,-8.6830086E-1,2.9042974E-1,5.5110592E-2,-8.5191416E-5,-7.582941E-3,5.4824825E-2,-1.6914638E-2,1.1439665E-2,-3.3484202E-2,5.970466E-2,1.2537934E-2,-3.963205E-2,1.5845964E-2,2.427185E-2,-1.3771415E-2,-2.29688E-3,4.0750947E-2,-1.4439358E-2,8.467117E-3,-1.2467786E-2,-6.589723E-2,3.444116E-2,-2.5810888E-2,6.6365056E-2,-2.4167368E-2,-4.756464E-2,3.2996643E-2,-4.1003123E-2,1.618112E-2,1.3527836E-2,-5.6141865E-2,2.6095862E-2,1.4485341E-3,2.4049926E-4,1.223722E-2],"categories":[],"categories_nodes":[],"categories_segments":[],"categories_sizes":[],"default_left":[0,0,0,0,0,0,0,0,0,0,0,0,0,0,0,0,0,0,0,0,0,0,0,0,0,0,0,0,0,0,0,0,0,0,0,0,0,0,0,0,0,0,0,0,0,0,0,0,0,0,0,0,0,0,0,0,0,0,0,0,0,0,0],"id":17,"left_children":[1,3,5,7,9,11,13,15,17,19,21,23,25,27,29,31,33,35,37,39,41,43,45,47,49,51,53,55,57,59,61,-1,-1,-1,-1,-1,-1,-1,-1,-1,-1,-1,-1,-1,-1,-1,-1,-1,-1,-1,-1,-1,-1,-1,-1,-1,-1,-1,-1,-1,-1,-1,-1],"loss_changes":[9.059481E0,6.4692326E0,8.842358E0,5.158285E0,4.977601E0,1.0168772E1,6.2731442E0,1.10817375E1,9.430275E0,1.3139851E1,6.9247007E0,5.466847E0,3.6473083E0,5.1925864E0,6.606468E0,5.6072702E0,6.910163E0,6.3356156E0,1.6295481E0,4.635547E0,6.065543E0,5.015297E0,4.370002E0,1.2241955E0,2.9367275E0,5.7631855E0,7.707319E0,7.79732E0,3.7777557E0,8.662979E0,6.830415E0,0E0,0E0,0E0,0E0,0E0,0E0,0E0,0E0,0E0,0E0,0E0,0E0,0E0,0E0,0E0,0E0,0E0,0E0,0E0,0E0,0E0,0E0,0E0,0E0,0E0,0E0,0E0,0E0,0E0,0E0,0E0,0E0],"parents":[2147483647,0,0,1,1,2,2,3,3,4,4,5,5,6,6,7,7,8,8,9,9,10,10,11,11,12,12,13,13,14,14,15,15,16,16,17,17,18,18,19,19,20,20,21,21,22,22,23,23,24,24,25,25,26,26,27,27,28,28,29,29,30,30],"right_children":[2,4,6,8,10,12,14,16,18,20,22,24,26,28,30,32,34,36,38,40,42,44,46,48,50,52,54,56,58,60,62,-1,-1,-1,-1,-1,-1,-1,-1,-1,-1,-1,-1,-1,-1,-1,-1,-1,-1,-1,-1,-1,-1,-1,-1,-1,-1,-1,-1,-1,-1,-1,-1],"split_conditions":[1.0572665E1,2.8557142E1,1.23E1,8.886412E0,5.7E0,1.25E0,1.3785714E1,4.931288E0,5.7599926E1,1.7E0,7.2E0,-4.5112023E-1,6.718676E1,6.932812E1,1E0,8E0,-2.91E1,1.02E1,6.3959095E1,-5.075E1,-1.8554352E1,-4.171744E1,4.5E-1,2.15E0,7.5E-1,1.714804E1,1.2093912E1,6.2576626E1,1.2546429E1,6.496924E1,9.95E0,-8.5191416E-5,-7.582941E-3,5.4824825E-2,-1.6914638E-2,1.1439665E-2,-3.3484202E-2,5.970466E-2,1.2537934E-2,-3.963205E-2,1.5845964E-2,2.427185E-2,-1.3771415E-2,-2.29688E-3,4.0750947E-2,-1.4439358E-2,8.467117E-3,-1.2467786E-2,-6.589723E-2,3.444116E-2,-2.5810888E-2,6.6365056E-2,-2.4167368E-2,-4.756464E-2,3.2996643E-2,-4.1003123E-2,1.618112E-2,1.3527836E-2,-5.6141865E-2,2.6095862E-2,1.4485341E-3,2.4049926E-4,1.223722E-2],"split_indices":[0,3,3,2,6,5,3,2,1,6,6,2,1,1,6,5,4,6,1,4,2,0,5,6,5,0,0,1,3,1,6,0,0,0,0,0,0,0,0,0,0,0,0,0,0,0,0,0,0,0,0,0,0,0,0,0,0,0,0,0,0,0,0],"split_type":[0,0,0,0,0,0,0,0,0,0,0,0,0,0,0,0,0,0,0,0,0,0,0,0,0,0,0,0,0,0,0,0,0,0,0,0,0,0,0,0,0,0,0,0,0,0,0,0,0,0,0,0,0,0,0,0,0,0,0,0,0,0,0],"sum_hessian":[3.565571E3,2.619502E3,9.4606915E2,2.1402046E3,4.792973E2,5.2783913E1,8.932852E2,2.0832913E3,5.6913395E1,2.2819577E2,2.5110153E2,1.2206737E1,4.057718E1,3.5705948E1,8.575793E2,1.9348344E3,1.4845695E2,4.468023E1,1.2233164E1,9.279809E1,1.3539769E2,3.4600838E1,2.165007E2,5.2305946E0,6.9761415E0,1.4685722E1,2.5891455E1,2.4721827E1,1.0984119E1,1.423816E2,7.151977E2,1.6418118E3,2.9302252E2,2.4828327E0,1.4597412E2,3.569385E1,8.98638E0,9.235842E0,2.9973218E0,2.9934494E0,8.980464E1,1.0521478E1,1.24876205E2,8.927959E0,2.5672876E1,2.2395435E1,1.9410526E2,2.2386198E0,2.9919748E0,4.7306623E0,2.2454793E0,1.3193065E1,1.4926571E0,2.489334E0,2.340212E1,7.985829E0,1.6735998E1,1.9950123E0,8.989107E0,7.49909E1,6.739072E1,5.660718E2,1.4912589E2],"tree_param":{"num_deleted":"0","num_feature":"9","num_nodes":"63","size_leaf_vector":"1"}},{"base_weights":[-1.7688172E-2,4.6517055E-2,-4.48235E-2,1.9942367E-1,-5.6955977E-3,-2.4192471E-2,-1.4971414E-1,-7.6516545E-1,2.1930315E-1,-7.892944E-2,1.7422256E-1,-1.1835185E-1,9.502468E-3,-1.0647056E-1,-5.884647E-1,1.241166E-2,-1.1021552E0,3.5396853E-1,7.9152614E-2,-3.4340328E-1,-4.7884762E-2,2.1866317E-1,-4.2036936E-1,-3.6144564E-1,1.3724728E-2,-3.2726433E-2,1.280975E-1,-2.6604927E-1,2.1096261E-2,-2.5196114E-1,-1.1797645E0,-1.8637402E-2,-6.705463E-2,3.9420277E-2,1.1420822E-2,-6.463113E-2,6.039226E-3,-5.529368E-2,-1.3068256E-2,1.07332645E-2,-5.173671E-3,1.8519841E-2,4.773258E-3,4.4404622E-2,-6.0103662E-2,-2.3885625E-3,-2.7242571E-2,-2.3735133E-3,2.0708887E-2,-1.2410218E-3,-4.3636266E-2,3.6484044E-2,4.913957E-3,1.708672E-2,-1.5416113E-2,1.1052155E-2,-6.4720414E-3,-3.481256E-2,1.1491407E-2,-6.395673E-3,-6.9180004E-2],"categories":[],"categories_nodes":[],"categories_segments":[],"categories_sizes":[],"default_left":[0,0,0,0,0,0,0,0,0,0,0,0,0,0,0,0,0,0,0,0,0,0,0,0,0,0,0,0,0,0,0,0,0,0,0,0,0,0,0,0,0,0,0,0,0,0,0,0,0,0,0,0,0,0,0,0,0,0,0,0,0],"id":18,"left_children":[1,3,5,7,9,11,13,15,17,19,21,23,25,27,29,-1,31,33,35,37,39,41,43,45,47,49,51,53,55,57,59,-1,-1,-1,-1,-1,-1,-1,-1,-1,-1,-1,-1,-1,-1,-1,-1,-1,-1,-1,-1,-1,-1,-1,-1,-1,-1,-1,-1,-1,-1],"loss_changes":[6.289748E0,8.564729E0,5.4871745E0,5.403988E0,1.0562193E1,6.7319474E0,7.8462887E0,2.2327414E0,5.036271E0,4.6608E0,6.219871E0,1.7958357E1,7.833469E0,7.75492E0,7.1002216E0,0E0,2.824669E-1,7.2682E0,7.738842E0,3.4441862E0,7.4799166E0,4.010584E0,1.7913467E1,1.1301027E1,8.922183E0,7.6395316E0,7.295433E0,4.4523315E0,6.424179E0,5.5039988E0,2.655836E0,0E0,0E0,0E0,0E0,0E0,0E0,0E0,0E0,0E0,0E0,0E0,0E0,0E0,0E0,0E0,0E0,0E0,0E0,0E0,0E0,0E0,0E0,0E0,0E0,0E0,0E0,0E0,0E0,0E0,0E0],"parents":[2147483647,0,0,1,1,2,2,3,3,4,4,5,5,6,6,7,7,8,8,9,9,10,10,11,11,12,12,13,13,14,14,16,16,17,17,18,18,19,19,20,20,21,21,22,22,23,23,24,24,25,25,26,26,27,27,28,28,29,29,30,30],"right_children":[2,4,6,8,10,12,14,16,18,20,22,24,26,28,30,-1,32,34,36,38,40,42,44,46,48,50,52,54,56,58,60,-1,-1,-1,-1,-1,-1,-1,-1,-1,-1,-1,-1,-1,-1,-1,-1,-1,-1,-1,-1,-1,-1,-1,-1,-1,-1,-1,-1,-1,-1],"split_conditions":[2.05E0,-2.2610292E0,5.2479987E0,3.6831963E-1,9.499111E0,-2.7946427E0,4.574643E1,-2.04E1,2.0855873E0,5.618182E-1,1.7689664E0,-1.30863495E1,8.15E0,7.9325395E0,-3.0864074E0,1.241166E-2,3.541786E1,7.2159255E-1,2.9214811E0,-1.7751826E0,-1.5741568E1,1.5273585E0,-1.8984167E-1,-7.368194E0,3.8842857E1,4.1092857E1,1.3325E1,-2.04E1,-3.7315452E0,6.518628E1,7.9325395E0,-1.8637402E-2,-6.705463E-2,3.9420277E-2,1.1420822E-2,-6.463113E-2,6.039226E-3,-5.529368E-2,-1.3068256E-2,1.07332645E-2,-5.173671E-3,1.8519841E-2,4.773258E-3,4.4404622E-2,-6.0103662E-2,-2.3885625E-3,-2.7242571E-2,-2.3735133E-3,2.0708887E-2,-1.2410218E-3,-4.3636266E-2,3.6484044E-2,4.913957E-3,1.708672E-2,-1.5416113E-2,1.1052155E-2,-6.4720414E-3,-3.481256E-2,1.1491407E-2,-6.395673E-3,-6.9180004E-2],"split_indices":[6,7,2,8,0,7,3,4,0,8,8,0,6,2,7,0,3,8,0,7,0,2,7,2,3,3,3,4,7,0,2,0,0,0,0,0,0,0,0,0,0,0,0,0,0,0,0,0,0,0,0,0,0,0,0,0,0,0,0,0,0],"split_type":[0,0,0,0,0,0,0,0,0,0,0,0,0,0,0,0,0,0,0,0,0,0,0,0,0,0,0,0,0,0,0,0,0,0,0,0,0,0,0,0,0,0,0,0,0,0,0,0,0,0,0,0,0,0,0,0,0,0,0,0,0],"sum_hessian":[3.6079744E3,1.07164E3,2.5363342E3,2.720659E2,7.995741E2,2.1204849E3,4.1584937E2,4.7368116E0,2.6732907E2,5.6866583E2,2.309083E2,5.58174E2,1.5623109E3,3.7967136E2,3.617803E1,1.2477993E0,3.4890122E0,1.3555435E2,1.3177473E2,5.868223E1,5.0998358E2,2.1543837E2,1.5469915E1,1.9589058E2,3.6228342E2,1.1526157E3,4.0969525E2,1.6818993E2,2.1148141E2,2.3965553E1,1.2212473E1,1.4925895E0,1.9964229E0,2.9208214E1,1.0634614E2,2.9963362E0,1.287784E2,4.488228E0,5.4194004E1,8.8609856E1,4.2137372E2,9.56397E1,1.19798676E2,5.7347145E0,9.735201E0,7.274207E1,1.23148506E2,3.1502457E2,4.725884E1,1.1428884E3,9.727217E0,1.8239706E1,3.9145554E2,1.0476665E1,1.5771326E2,9.063266E1,1.20848755E2,1.2236409E1,1.1729145E1,2.2466476E0,9.965825E0],"tree_param":{"num_deleted":"0","num_feature":"9","num_nodes":"61","size_leaf_vector":"1"}},{"base_weights":[-1.346121E-2,-3.9451145E-2,7.743233E-2,-5.838871E-1,-3.34343E-2,1.0555246E-1,-4.324235E-1,7.253102E-2,-8.5838264E-1,-3.9180595E-2,5.195606E-1,-3.8193416E-2,2.0367903E-1,-5.6244016E-1,4.0163085E-1,-3.8752964E-1,-7.780906E-2,-2.9783238E-2,-2.643612E-1,9.382194E-1,3.586166E-2,4.0569684E-1,-9.9753305E-2,4.1620246E-1,7.9711385E-2,-8.366339E-1,-2.795011E-2,7.757959E-1,-3.0419905E-2,3.909194E-2,-3.7842583E-2,-2.7660101E-3,2.747996E-3,-3.7623312E-2,-6.199595E-3,2.177356E-2,6.560593E-2,2.3669533E-2,-1.4660028E-2,4.5873355E-2,-6.2326714E-4,1.9678758E-3,-1.573157E-2,2.4070486E-2,-1.3626446E-2,-1.8617837E-2,6.5118545E-3,1.0867014E-2,-4.5173034E-2,-2.9791048E-2,1.3729622E-2,1.3758023E-2,5.825743E-2],"categories":[],"categories_nodes":[],"categories_segments":[],"categories_sizes":[],"default_left":[0,0,0,0,0,0,0,0,0,0,0,0,0,0,0,0,0,0,0,0,0,0,0,0,0,0,0,0,0,0,0,0,0,0,0,0,0,0,0,0,0,0,0,0,0,0,0,0,0,0,0,0,0],"id":19,"left_children":[1,3,5,7,9,11,13,-1,15,17,19,21,23,25,27,29,-1,31,33,35,37,39,41,43,45,47,49,51,-1,-1,-1,-1,-1,-1,-1,-1,-1,-1,-1,-1,-1,-1,-1,-1,-1,-1,-1,-1,-1,-1,-1,-1,-1],"loss_changes":[8.475341E0,9.118685E0,1.1483982E1,1.824025E1,8.791337E0,1.0684213E1,4.7693315E0,0E0,8.413397E0,5.7748723E0,5.7290177E0,8.45456E0,1.182235E1,5.34986E0,2.8278656E0,8.243386E0,0E0,5.6824284E0,7.3986945E0,2.2885456E0,2.1893723E0,8.079187E0,8.119589E0,7.5659294E0,6.5683966E0,1.9007168E0,2.4771202E0,6.51731E-1,0E0,0E0,0E0,0E0,0E0,0E0,0E0,0E0,0E0,0E0,0E0,0E0,0E0,0E0,0E0,0E0,0E0,0E0,0E0,0E0,0E0,0E0,0E0,0E0,0E0],"parents":[2147483647,0,0,1,1,2,2,3,3,4,4,5,5,6,6,8,8,9,9,10,10,11,11,12,12,13,13,14,14,15,15,17,17,18,18,19,19,20,20,21,21,22,22,23,23,24,24,25,25,26,26,27,27],"right_children":[2,4,6,8,10,12,14,-1,16,18,20,22,24,26,28,30,-1,32,34,36,38,40,42,44,46,48,50,52,-1,-1,-1,-1,-1,-1,-1,-1,-1,-1,-1,-1,-1,-1,-1,-1,-1,-1,-1,-1,-1,-1,-1,-1,-1],"split_conditions":[2.8557142E1,-7.5301785E0,1.9902695E1,2.3592857E1,1.2914624E1,4.46466E1,3.34E1,7.253102E-2,7.1E0,2.1E1,-1.4051466E0,2.9682142E1,7.697251E-1,3.0403418E1,1.22E1,3.24056E1,-7.780906E-2,1.0572665E1,4.759575E1,7.799339E-1,1.45E0,3.389708E1,-3.1241E1,3.34E1,2.937143E1,2.5E-1,6.518628E1,7.676452E1,-3.0419905E-2,3.909194E-2,-3.7842583E-2,-2.7660101E-3,2.747996E-3,-3.7623312E-2,-6.199595E-3,2.177356E-2,6.560593E-2,2.3669533E-2,-1.4660028E-2,4.5873355E-2,-6.2326714E-4,1.9678758E-3,-1.573157E-2,2.4070486E-2,-1.3626446E-2,-1.8617837E-2,6.5118545E-3,1.0867014E-2,-4.5173034E-2,-2.9791048E-2,1.3729622E-2,1.3758023E-2,5.825743E-2],"split_indices":[3,7,2,3,2,1,4,0,6,4,7,3,2,2,6,1,0,0,1,0,4,1,0,4,3,6,0,1,0,0,0,0,0,0,0,0,0,0,0,0,0,0,0,0,0,0,0,0,0,0,0,0,0],"split_type":[0,0,0,0,0,0,0,0,0,0,0,0,0,0,0,0,0,0,0,0,0,0,0,0,0,0,0,0,0,0,0,0,0,0,0,0,0,0,0,0,0,0,0,0,0,0,0,0,0,0,0,0,0],"sum_hessian":[3.5854302E3,2.7886226E3,7.9680774E2,2.9431835E1,2.7591907E3,7.559099E2,4.08978E1,2.9895077E0,2.6442327E1,2.731734E3,2.7456919E1,3.0691708E2,4.4899286E2,3.566397E1,5.233828E0,1.6717342E1,9.724987E0,2.6233855E3,1.0834828E2,1.4214275E1,1.3242643E1,3.6699253E1,2.7021783E2,1.6454628E2,2.844466E2,2.319806E1,1.2465914E1,3.9882784E0,1.2455498E0,3.74446E0,1.2972881E1,2.0161693E3,6.072162E2,2.3225569E1,8.512271E1,6.985792E0,7.228483E0,5.4961824E0,7.746461E0,1.5965608E1,2.0733646E1,1.6452325E2,1.05694565E2,1.5058984E2,1.3956427E1,2.7955046E1,2.5649155E2,1.2488717E0,2.1949186E1,3.9960217E0,8.4698925E0,2.491449E0,1.4968293E0],"tree_param":{"num_deleted":"0","num_feature":"9","num_nodes":"53","size_leaf_vector":"1"}},{"base_weights":[-3.475159E-3,-3.8425926E-2,5.11821E-2,-1.8172587E-1,-1.5565087E-2,5.808253E-2,-6.2556726E-1,-7.3118293E-1,-1.4330138E-1,-6.602984E-3,-4.8238668E-1,4.8922177E-2,6.2443805E-1,-5.830219E-2,-9.757664E-1,-1.0807973E0,-2.6711738E-2,-3.6477652E-1,-6.817397E-2,2.7428836E-2,-1.0591152E-1,-7.2090083E-1,-9.802537E-2,2.542569E-1,2.6617346E-2,-5.871497E-1,8.663311E-1,-5.8720507E-2,5.9881276E-1,-1.1965915E0,2.6363926E-3,8.032341E-3,-6.1264303E-2,-5.6482334E-2,2.1883855E-2,7.7464855E-3,-3.038454E-2,6.571196E-3,-1.0293166E-2,4.125786E-3,-3.8908129E-3,-7.5725154E-3,1.3887062E-2,1.794384E-2,-4.0930595E-2,1.9228695E-2,-3.4381907E-2,3.1056752E-2,5.233863E-3,2.799637E-3,-5.587474E-3,1.8585794E-2,-6.2233876E-2,6.460956E-2,1.71084E-2,3.1785727E-3,5.8167942E-2,-6.866648E-2,-1.54309375E-2],"categories":[],"categories_nodes":[],"categories_segments":[],"categories_sizes":[],"default_left":[0,0,0,0,0,0,0,0,0,0,0,0,0,0,0,0,0,0,0,0,0,0,0,0,0,0,0,0,0,0,0,0,0,0,0,0,0,0,0,0,0,0,0,0,0,0,0,0,0,0,0,0,0,0,0,0,0,0,0],"id":20,"left_children":[1,3,5,7,9,11,13,15,17,19,21,23,25,27,29,31,33,35,37,39,41,43,45,47,49,51,53,-1,55,57,-1,-1,-1,-1,-1,-1,-1,-1,-1,-1,-1,-1,-1,-1,-1,-1,-1,-1,-1,-1,-1,-1,-1,-1,-1,-1,-1,-1,-1],"loss_changes":[6.833085E0,7.1444407E0,6.5516376E0,6.230587E0,7.8733025E0,7.1393604E0,2.757515E0,4.7416916E0,4.662393E0,6.24921E0,3.1791296E0,6.227019E0,6.9305716E0,5.449325E0,2.0381098E0,2.5143108E0,4.3100915E0,9.073169E0,5.841841E0,7.9914584E0,8.286941E0,2.585084E0,4.456277E0,7.247299E0,5.0010304E0,3.137631E0,3.7252493E0,0E0,1.3569462E0,7.0630074E-1,0E0,0E0,0E0,0E0,0E0,0E0,0E0,0E0,0E0,0E0,0E0,0E0,0E0,0E0,0E0,0E0,0E0,0E0,0E0,0E0,0E0,0E0,0E0,0E0,0E0,0E0,0E0,0E0,0E0],"parents":[2147483647,0,0,1,1,2,2,3,3,4,4,5,5,6,6,7,7,8,8,9,9,10,10,11,11,12,12,13,13,14,14,15,15,16,16,17,17,18,18,19,19,20,20,21,21,22,22,23,23,24,24,25,25,26,26,28,28,29,29],"right_children":[2,4,6,8,10,12,14,16,18,20,22,24,26,28,30,32,34,36,38,40,42,44,46,48,50,52,54,-1,56,58,-1,-1,-1,-1,-1,-1,-1,-1,-1,-1,-1,-1,-1,-1,-1,-1,-1,-1,-1,-1,-1,-1,-1,-1,-1,-1,-1,-1,-1],"split_conditions":[5.4288452E1,7.5E-1,4.1957054E0,-6.801064E0,5.382065E1,3.9377239E0,6.454543E1,3.8392857E1,2.25E0,5.6E0,3.6266938E-1,6.5E-1,1.15E0,5.9678665E1,3.6228573E1,-4.465E1,-1.8554352E1,-1.3002388E0,3.921643E1,6.35E0,5.1864906E1,1E-1,2.167624E0,2.2E0,6.967076E1,1.685357E1,3.6E0,-5.8720507E-2,5.5E0,7.583305E1,2.6363926E-3,8.032341E-3,-6.1264303E-2,-5.6482334E-2,2.1883855E-2,7.7464855E-3,-3.038454E-2,6.571196E-3,-1.0293166E-2,4.125786E-3,-3.8908129E-3,-7.5725154E-3,1.3887062E-2,1.794384E-2,-4.0930595E-2,1.9228695E-2,-3.4381907E-2,3.1056752E-2,5.233863E-3,2.799637E-3,-5.587474E-3,1.8585794E-2,-6.2233876E-2,6.460956E-2,1.71084E-2,3.1785727E-3,5.8167942E-2,-6.866648E-2,-1.54309375E-2],"split_indices":[1,5,7,7,1,7,1,3,6,4,7,5,5,1,3,4,2,7,1,5,1,6,7,6,1,3,5,0,5,1,0,0,0,0,0,0,0,0,0,0,0,0,0,0,0,0,0,0,0,0,0,0,0,0,0,0,0,0,0],"split_type":[0,0,0,0,0,0,0,0,0,0,0,0,0,0,0,0,0,0,0,0,0,0,0,0,0,0,0,0,0,0,0,0,0,0,0,0,0,0,0,0,0,0,0,0,0,0,0,0,0,0,0,0,0,0,0,0,0,0,0],"sum_hessian":[3.5749155E3,2.1807344E3,1.3941812E3,2.990751E2,1.8816594E3,1.3810139E3,1.3167243E1,1.8369434E1,2.807057E2,1.8472106E3,3.444885E1,1.3601017E3,2.0912184E1,5.471231E0,7.696012E0,1.1919725E1,6.449708E0,7.012429E1,2.1058139E2,1.3762949E3,4.7091562E2,2.0717247E1,1.3731603E1,1.3224803E2,1.2278536E3,3.2427363E0,1.7669447E1,1.7357843E0,3.7354467E0,6.201142E0,1.4948697E0,1.2310178E0,1.0688707E1,1.4865558E0,4.963152E0,2.2451763E1,4.7672527E1,8.598333E1,1.2459806E2,9.035691E2,4.7272583E2,4.2149075E2,4.9424843E1,1.4973714E0,1.9219875E1,7.7422814E0,5.989321E0,3.7389423E1,9.485861E1,1.01332025E3,2.1453339E2,1.495924E0,1.7468123E0,8.940461E0,8.728987E0,2.488617E0,1.2468299E0,4.7159176E0,1.4852242E0],"tree_param":{"num_deleted":"0","num_feature":"9","num_nodes":"59","size_leaf_vector":"1"}},{"base_weights":[2.2634708E-3,5.4739923E-3,-3.7692064E-1,1.4370759E-2,-1.3549529E-1,-4.8239085E-1,5.7020642E-2,-1.7947719E-2,5.7122804E-2,8.9025235E-1,-2.0837004E-1,3.0323839E-2,-5.96059E-1,-9.993295E-2,6.0460363E-2,7.518652E-1,3.3543672E-2,-6.949338E-1,1.3277842E0,-3.6259145E-1,-5.16027E-2,3.251466E-1,-7.843246E-1,-2.7299194E-2,-3.7156765E-3,5.358457E-3,-5.346651E-3,4.336798E-2,-3.096315E-2,-3.007076E-3,5.1178867E-3,7.2728097E-3,-5.8211196E-2,8.3439045E-2,2.4526617E-2,-3.5488617E-2,-9.83282E-3,1.452954E-2,-1.7512137E-2,-1.7909756E-2,4.7820743E-2,-5.30728E-2,-7.464549E-3],"categories":[],"categories_nodes":[],"categories_segments":[],"categories_sizes":[],"default_left":[0,0,0,0,0,0,0,0,0,0,0,0,0,0,0,0,0,0,0,0,0,0,0,0,0,0,0,0,0,0,0,0,0,0,0,0,0,0,0,0,0,0,0],"id":21,"left_children":[1,3,5,7,9,11,-1,13,15,17,19,-1,21,23,25,27,29,31,33,35,37,39,41,-1,-1,-1,-1,-1,-1,-1,-1,-1,-1,-1,-1,-1,-1,-1,-1,-1,-1,-1,-1],"loss_changes":[4.3509145E0,4.445852E0,5.35222E0,4.6073537E0,1.5916367E1,3.9210272E0,0E0,1.2215743E1,2.3490183E1,1.0736015E1,4.7512503E0,0E0,4.8587933E0,1.0574261E1,7.6072574E0,7.991621E0,8.96354E0,1.6352724E0,2.445242E0,5.580394E0,1.0219412E1,2.5906265E0,3.7720213E0,0E0,0E0,0E0,0E0,0E0,0E0,0E0,0E0,0E0,0E0,0E0,0E0,0E0,0E0,0E0,0E0,0E0,0E0,0E0,0E0],"parents":[2147483647,0,0,1,1,2,2,3,3,4,4,5,5,7,7,8,8,9,9,10,10,12,12,13,13,14,14,15,15,16,16,17,17,18,18,19,19,20,20,21,21,22,22],"right_children":[2,4,6,8,10,12,-1,14,16,18,20,-1,22,24,26,28,30,32,34,36,38,40,42,-1,-1,-1,-1,-1,-1,-1,-1,-1,-1,-1,-1,-1,-1,-1,-1,-1,-1,-1,-1],"split_conditions":[4.0834217E0,2.0269938E0,3.6607143E1,1.421066E-1,-6.801064E0,1.2546429E1,5.7020642E-2,-7.661238E-2,-3.0429636E1,3.3E0,4.35E0,3.0323839E-2,-8.1E0,4.47133E-1,-7.365042E-1,3.8842857E1,-1.5245925E0,4.5E-1,1.665E1,1.6239286E1,1E1,1.3187971E1,5.15E0,-2.7299194E-2,-3.7156765E-3,5.358457E-3,-5.346651E-3,4.336798E-2,-3.096315E-2,-3.007076E-3,5.1178867E-3,7.2728097E-3,-5.8211196E-2,8.3439045E-2,2.4526617E-2,-3.5488617E-2,-9.83282E-3,1.452954E-2,-1.7512137E-2,-1.7909756E-2,4.7820743E-2,-5.30728E-2,-7.464549E-3],"split_indices":[7,8,3,7,7,3,0,2,0,5,5,0,4,8,7,3,0,5,5,3,5,0,5,0,0,0,0,0,0,0,0,0,0,0,0,0,0,0,0,0,0,0,0],"split_type":[0,0,0,0,0,0,0,0,0,0,0,0,0,0,0,0,0,0,0,0,0,0,0,0,0,0,0,0,0,0,0,0,0,0,0,0,0,0,0,0,0,0,0],"sum_hessian":[3.571308E3,3.5423013E3,2.9006817E1,3.332858E3,2.0944324E2,2.7759338E1,1.2474785E0,1.8983656E3,1.4344923E3,1.3148967E1,1.9629427E2,2.214108E0,2.5545229E1,9.278796E2,9.70486E2,4.607379E1,1.3884186E3,2.716983E0,1.0431983E1,9.828879E1,9.800548E1,4.211381E0,2.1333849E1,4.9295826E1,8.7858374E2,7.590449E2,2.1144109E2,4.2833225E1,3.2405643E0,5.880112E2,8.0040735E2,1.2208227E0,1.4961603E0,6.7071323E0,3.724851E0,3.0725452E1,6.756334E1,4.568489E1,5.232059E1,2.2300029E0,1.9813781E0,1.4384774E1,6.9490743E0],"tree_param":{"num_deleted":"0","num_feature":"9","num_nodes":"43","size_leaf_vector":"1"}},{"base_weights":[-1.0081584E-2,-1.338507E-2,4.2592636E-1,-1.0085885E-2,-4.3486524E-1,-4.3604848E-1,6.3027227E-1,-3.8422074E-2,3.2013115E-2,4.168543E-2,-5.651802E-1,2.2279099E-2,-5.65799E-2,1.2701422E0,1.8118575E-1,-6.461117E-2,6.4045034E-2,5.6572802E-2,-1.7064103E-1,-6.873581E-1,4.1957792E-2,8.088327E-2,3.52502E-1,-3.725711E-1,6.9178236E-1,-1.6612279E-3,-1.0148149E-2,-2.4838E-3,1.2283308E-2,1.202749E-3,1.955116E-2,-1.6286861E-2,1.6174791E-2,-4.660036E-2,-5.0927433E-3,-2.9945178E-3,3.2662727E-2,-3.204048E-2,2.7363157E-2,4.819056E-2,7.1603903E-3],"categories":[],"categories_nodes":[],"categories_segments":[],"categories_sizes":[],"default_left":[0,0,0,0,0,0,0,0,0,0,0,0,0,0,0,0,0,0,0,0,0,0,0,0,0,0,0,0,0,0,0,0,0,0,0,0,0,0,0,0,0],"id":22,"left_children":[1,3,5,7,9,11,13,15,17,-1,19,-1,-1,21,23,25,27,29,31,33,-1,-1,35,37,39,-1,-1,-1,-1,-1,-1,-1,-1,-1,-1,-1,-1,-1,-1,-1,-1],"loss_changes":[5.1419373E0,4.9183083E0,5.0034204E0,4.1927595E0,5.012672E0,4.0214186E0,6.1232853E0,5.641039E0,7.047777E0,0E0,4.953538E0,0E0,0E0,2.2844887E0,4.260893E0,7.2601314E0,8.854034E0,1.3715553E1,1.183872E1,3.3452892E0,0E0,0E0,5.026835E-1,2.186881E0,1.013442E0,0E0,0E0,0E0,0E0,0E0,0E0,0E0,0E0,0E0,0E0,0E0,0E0,0E0,0E0,0E0,0E0],"parents":[2147483647,0,0,1,1,2,2,3,3,4,4,5,5,6,6,7,7,8,8,10,10,13,13,14,14,15,15,16,16,17,17,18,18,19,19,22,22,23,23,24,24],"right_children":[2,4,6,8,10,12,14,16,18,-1,20,-1,-1,22,24,26,28,30,32,34,-1,-1,36,38,40,-1,-1,-1,-1,-1,-1,-1,-1,-1,-1,-1,-1,-1,-1,-1,-1],"split_conditions":[3.105E1,4.0834217E0,1E0,4.015631E0,1.2546429E1,2.81E1,1.7689664E0,2.8389286E1,3.6228573E1,4.168543E-2,9.698114E0,2.2279099E-2,-5.65799E-2,3.755E1,-2.470795E0,2.3860714E1,-1.9017376E1,3.0864286E1,1.0823561E0,5.15E0,4.1957792E-2,8.088327E-2,4.5218134E0,2.62E1,2.1867359E0,-1.6612279E-3,-1.0148149E-2,-2.4838E-3,1.2283308E-2,1.202749E-3,1.955116E-2,-1.6286861E-2,1.6174791E-2,-4.660036E-2,-5.0927433E-3,-2.9945178E-3,3.2662727E-2,-3.204048E-2,2.7363157E-2,4.819056E-2,7.1603903E-3],"split_indices":[6,7,5,0,3,3,8,3,3,0,2,0,0,6,7,3,0,3,8,5,0,0,2,5,2,0,0,0,0,0,0,0,0,0,0,0,0,0,0,0,0],"split_type":[0,0,0,0,0,0,0,0,0,0,0,0,0,0,0,0,0,0,0,0,0,0,0,0,0,0,0,0,0,0,0,0,0,0,0,0,0,0,0,0,0],"sum_hessian":[3.5649739E3,3.5391284E3,2.5845486E1,3.5126565E3,2.6471796E1,4.7356453E0,2.1109842E1,2.0995615E3,1.4130951E3,1.9631848E0,2.4508612E1,2.2469492E0,2.4886959E0,7.9517317E0,1.315811E1,1.6724716E3,4.2708984E2,1.2609957E3,1.5209941E2,2.3016695E1,1.4919171E0,5.214191E0,2.737541E0,6.44195E0,6.71616E0,1.3642229E3,3.0824866E2,2.6308633E2,1.6400352E2,1.1502332E3,1.10762535E2,1.1602355E2,3.607585E1,1.5816187E1,7.200508E0,1.4922416E0,1.2452992E0,5.222366E0,1.2195837E0,3.9837487E0,2.7324111E0],"tree_param":{"num_deleted":"0","num_feature":"9","num_nodes":"41","size_leaf_vector":"1"}},{"base_weights":[2.4759462E-3,8.508125E-3,-2.4642254E-1,-2.9736275E-3,2.1494438E-1,-1.377387E-1,-1.3573065E0,6.1585075E-1,-6.722438E-3,5.980508E-1,1.4276946E-1,-6.950899E-1,-1.9413296E-2,-1.1071968E-2,-7.7483445E-2,-4.9729366E-2,8.4849435E-1,4.904305E-3,-1.8219657E-1,7.53793E-1,-4.1618022E-1,-3.797901E-1,2.3186071E-1,1.6666507E-2,-1.1017815E0,1.8419488E-1,-4.354414E-1,6.2255442E-2,1.380647E-2,-1.1044502E-2,6.5463205E-4,9.956393E-3,-1.9459395E-2,8.346219E-3,6.6331536E-2,-5.2207846E-2,3.375859E-2,-4.532377E-2,8.367296E-3,2.1703633E-2,3.188143E-3,-2.7963687E-2,2.9352952E-2,-8.031391E-2,-2.0076979E-2,-3.7456937E-3,4.4376608E-2,4.8621343E-3,-5.429166E-2],"categories":[],"categories_nodes":[],"categories_segments":[],"categories_sizes":[],"default_left":[0,0,0,0,0,0,0,0,0,0,0,0,0,0,0,0,0,0,0,0,0,0,0,0,0,0,0,0,0,0,0,0,0,0,0,0,0,0,0,0,0,0,0,0,0,0,0,0,0],"id":23,"left_children":[1,3,5,7,9,11,13,15,17,19,21,23,25,-1,-1,-1,27,29,31,33,35,37,39,41,43,45,47,-1,-1,-1,-1,-1,-1,-1,-1,-1,-1,-1,-1,-1,-1,-1,-1,-1,-1,-1,-1,-1,-1],"loss_changes":[5.385991E0,8.301331E0,1.00614605E1,7.7025847E0,5.0169992E0,5.158992E0,1.2850008E0,8.334471E0,6.732527E0,4.8849792E0,7.3782053E0,3.98588E0,5.6475964E0,0E0,0E0,0E0,3.744398E0,5.726E0,1.6263287E1,8.332E0,3.7867105E0,6.833626E0,4.540864E0,2.2892227E0,2.4416523E0,8.236579E0,7.690909E0,0E0,0E0,0E0,0E0,0E0,0E0,0E0,0E0,0E0,0E0,0E0,0E0,0E0,0E0,0E0,0E0,0E0,0E0,0E0,0E0,0E0,0E0],"parents":[2147483647,0,0,1,1,2,2,3,3,4,4,5,5,6,6,7,7,8,8,9,9,10,10,11,11,12,12,16,16,17,17,18,18,19,19,20,20,21,21,22,22,23,23,24,24,25,25,26,26],"right_children":[2,4,6,8,10,12,14,16,18,20,22,24,26,-1,-1,-1,28,30,32,34,36,38,40,42,44,46,48,-1,-1,-1,-1,-1,-1,-1,-1,-1,-1,-1,-1,-1,-1,-1,-1,-1,-1,-1,-1,-1,-1],"split_conditions":[5.099286E1,1.0340868E1,-1.0508713E0,-2.0813457E1,4.671809E1,5.3025E1,-2.3010566E0,2.6017857E1,6.81098E0,-3.943859E0,5.443112E1,3.4116493E1,6.6795354E0,-1.1071968E-2,-7.7483445E-2,-4.9729366E-2,3.9785713E1,-1.1867845E1,-3.261611E0,-7.5301785E0,4.297502E1,-5.8440037E0,1.3636246E1,-7.1136136E0,5.1E0,4.3590828E1,8.25E0,6.2255442E-2,1.380647E-2,-1.1044502E-2,6.5463205E-4,9.956393E-3,-1.9459395E-2,8.346219E-3,6.6331536E-2,-5.2207846E-2,3.375859E-2,-4.532377E-2,8.367296E-3,2.1703633E-2,3.188143E-3,-2.7963687E-2,2.9352952E-2,-8.031391E-2,-2.0076979E-2,-3.7456937E-3,4.4376608E-2,4.8621343E-3,-5.429166E-2],"split_indices":[3,2,7,2,1,3,2,3,2,7,1,1,2,0,0,0,3,2,7,7,1,7,2,7,6,1,6,0,0,0,0,0,0,0,0,0,0,0,0,0,0,0,0,0,0,0,0,0,0],"split_type":[0,0,0,0,0,0,0,0,0,0,0,0,0,0,0,0,0,0,0,0,0,0,0,0,0,0,0,0,0,0,0,0,0,0,0,0,0,0,0,0,0,0,0,0,0,0,0,0,0],"sum_hessian":[3.5849153E3,3.501032E3,8.388344E1,3.3175017E3,1.8353014E2,7.743185E1,6.451591E0,1.8993082E1,3.2985088E3,2.7939642E1,1.555905E2,1.270636E1,6.472549E1,1.2459034E0,5.2056875E0,1.9840006E0,1.7009083E1,3.0944458E3,2.040629E2,2.4443027E1,3.4966135E0,2.2187582E1,1.3340291E2,4.9690237E0,7.7373357E0,4.3831287E1,2.0894201E1,9.352787E0,7.656295E0,1.0738256E2,2.9870632E3,7.181027E1,1.3225262E2,1.2711537E1,1.1731491E1,2.2469418E0,1.2496717E0,1.0970434E1,1.1217148E1,5.9838463E1,7.3564445E1,2.4821875E0,2.4868364E0,3.7451859E0,3.9921498E0,3.2684017E1,1.1147271E1,1.1954064E1,8.940136E0],"tree_param":{"num_deleted":"0","num_feature":"9","num_nodes":"49","size_leaf_vector":"1"}},{"base_weights":[6.9653005E-3,1.594569E-2,-1.1398592E-1,1.3947112E-2,6.243645E-1,1.5232092E-1,-2.2521167E-1,-8.089047E-3,6.296156E-2,1.0497493E0,-4.971599E-2,-6.216182E-3,1.1642047E0,-5.1413447E-1,7.28968E-3,-2.2929157E-1,3.9883927E-3,2.671188E-1,2.1473616E-2,2.2736494E-1,7.378477E-2,5.6485033E-1,-5.5052914E-2,2.5491798E-1,-4.1876793E-1,1.387204E0,-1.1045139E-2,-4.6558598E-1,-7.079307E-2,-1.578018E-1,6.73784E-1,4.870356E-2,-1.7592793E-2,-5.3738365E-3,1.2490716E-3,-3.5455232E-3,2.0856224E-2,1.6160045E-2,-5.796281E-4,2.9523525E-2,-1.1729488E-2,5.9833266E-3,3.626172E-2,-1.3658069E-2,2.3124088E-2,-4.53328E-2,-2.3848475E-5,7.804382E-2,9.620304E-3,6.067069E-3,-2.7084712E-2,-2.987066E-2,4.478911E-3,5.0149884E-2,-2.9094864E-2],"categories":[],"categories_nodes":[],"categories_segments":[],"categories_sizes":[],"default_left":[0,0,0,0,0,0,0,0,0,0,0,0,0,0,0,0,0,0,0,0,0,0,0,0,0,0,0,0,0,0,0,0,0,0,0,0,0,0,0,0,0,0,0,0,0,0,0,0,0,0,0,0,0,0,0],"id":24,"left_children":[1,3,5,7,9,11,13,15,17,19,21,23,25,27,29,31,33,35,37,39,-1,41,-1,43,45,47,-1,49,-1,51,53,-1,-1,-1,-1,-1,-1,-1,-1,-1,-1,-1,-1,-1,-1,-1,-1,-1,-1,-1,-1,-1,-1,-1,-1],"loss_changes":[3.8874838E0,4.041653E0,7.361599E0,3.5875769E0,3.1728535E0,1.1794386E1,1.1752564E1,6.123976E0,8.719602E0,2.0176115E0,3.9594488E0,7.0574045E0,3.3822126E0,2.7554722E0,1.087829E1,1.7846207E1,5.0904493E0,8.847228E0,8.556418E0,7.212881E-1,0E0,1.9316232E-1,0E0,4.5251374E0,5.1805263E0,1.507946E0,0E0,3.438572E0,0E0,8.674533E0,8.6964E0,0E0,0E0,0E0,0E0,0E0,0E0,0E0,0E0,0E0,0E0,0E0,0E0,0E0,0E0,0E0,0E0,0E0,0E0,0E0,0E0,0E0,0E0,0E0,0E0],"parents":[2147483647,0,0,1,1,2,2,3,3,4,4,5,5,6,6,7,7,8,8,9,9,10,10,11,11,12,12,13,13,14,14,15,15,16,16,17,17,18,18,19,19,21,21,23,23,24,24,25,25,27,27,29,29,30,30],"right_children":[2,4,6,8,10,12,14,16,18,20,22,24,26,28,30,32,34,36,38,40,-1,42,-1,44,46,48,-1,50,-1,52,54,-1,-1,-1,-1,-1,-1,-1,-1,-1,-1,-1,-1,-1,-1,-1,-1,-1,-1,-1,-1,-1,-1,-1,-1],"split_conditions":[2.1E1,3.71E1,7.7369773E-1,8.219175E0,3.6607143E1,7.2159255E-1,1.1822064E0,1.1678572E1,5.658141E1,4.525935E1,5.6320255E1,3.8392857E1,5.099286E1,2.035E1,3.6228573E1,-3.5969527E0,9.5E-1,-3.383307E0,1.2546429E1,1.7689664E0,7.378477E-2,-5.8454056E1,-5.5052914E-2,-1.3349792E0,2.75E0,7.7069706E-1,-1.1045139E-2,-2.6552324E1,-7.079307E-2,9.2498916E-1,5.099286E1,4.870356E-2,-1.7592793E-2,-5.3738365E-3,1.2490716E-3,-3.5455232E-3,2.0856224E-2,1.6160045E-2,-5.796281E-4,2.9523525E-2,-1.1729488E-2,5.9833266E-3,3.626172E-2,-1.3658069E-2,2.3124088E-2,-4.53328E-2,-2.3848475E-5,7.804382E-2,9.620304E-3,6.067069E-3,-2.7084712E-2,-2.987066E-2,4.478911E-3,5.0149884E-2,-2.9094864E-2],"split_indices":[4,5,8,0,3,8,8,3,1,1,1,3,3,5,3,2,5,2,3,8,0,0,0,2,5,8,0,0,0,2,3,0,0,0,0,0,0,0,0,0,0,0,0,0,0,0,0,0,0,0,0,0,0,0,0],"split_type":[0,0,0,0,0,0,0,0,0,0,0,0,0,0,0,0,0,0,0,0,0,0,0,0,0,0,0,0,0,0,0,0,0,0,0,0,0,0,0,0,0,0,0,0,0,0,0,0,0,0,0,0,0,0,0],"sum_hessian":[3.5763389E3,3.3299639E3,2.4637509E2,3.3200808E3,9.88312E0,7.247629E1,1.738988E2,2.2909424E3,1.0291382E3,5.717643E0,4.165477E0,6.3518383E1,8.9579E0,7.700079E1,9.689801E1,1.1767622E2,2.1732664E3,1.7289653E2,8.562417E2,2.4742796E0,3.243363E0,2.9208288E0,1.2446481E0,3.9131374E1,2.438701E1,7.714387E0,1.2435135E0,7.4505775E1,2.4950233E0,7.827294E1,1.862507E1,1.0235403E1,1.0744083E2,3.4378384E2,1.8294824E3,5.33047E1,1.19591835E2,8.370088E1,7.7254083E2,1.2295942E0,1.2446853E0,1.2360379E0,1.684791E0,1.0951857E1,2.8179518E1,1.0718082E1,1.3668929E1,6.4678454E0,1.246541E0,8.484115E0,6.602166E1,2.7675934E1,5.0597004E1,1.4915711E1,3.709359E0],"tree_param":{"num_deleted":"0","num_feature":"9","num_nodes":"55","size_leaf_vector":"1"}},{"base_weights":[4.53586E-3,-1.15367025E-2,6.62528E-2,8.719124E-3,-1.5849085E-1,2.2116978E-1,2.013022E-2,3.1685352E-3,7.079748E-1,1.0592617E-1,-2.2150135E-1,7.619789E-2,3.7995982E-1,-2.668018E-1,1.0796033E-1,1.5921308E-2,-1.8146278E-1,1.3905561E0,3.8881507E-2,2.5730684E-1,-5.292454E-1,2.0029344E-2,-3.180622E-1,-2.1991024E-2,1.2038572E0,1.0638454E0,2.8762627E-1,-4.8194408E-1,-9.1247E-2,1.461191E-1,-4.4208658E-1,1.1335707E-2,1.6088942E-4,-1.7252957E-2,6.493721E-3,1.2164252E-2,7.65736E-2,2.0485135E-2,-4.3536946E-2,3.4877069E-3,4.511903E-2,-2.336568E-3,-6.273925E-2,1.1186822E-2,-2.495455E-2,9.19659E-3,-1.792559E-2,4.6614497E-3,-4.1824598E-2,6.972922E-2,7.986101E-3,-1.1177894E-2,6.469121E-2,9.64066E-4,2.2177836E-2,-1.6664622E-2,-6.194802E-2,1.8510116E-3,-2.6671499E-2,4.1525614E-2,6.240848E-3,-7.1373336E-2,-6.7792493E-3],"categories":[],"categories_nodes":[],"categories_segments":[],"categories_sizes":[],"default_left":[0,0,0,0,0,0,0,0,0,0,0,0,0,0,0,0,0,0,0,0,0,0,0,0,0,0,0,0,0,0,0,0,0,0,0,0,0,0,0,0,0,0,0,0,0,0,0,0,0,0,0,0,0,0,0,0,0,0,0,0,0,0,0],"id":25,"left_children":[1,3,5,7,9,11,13,15,17,19,21,23,25,27,29,31,33,35,37,39,41,43,45,47,49,51,53,55,57,59,61,-1,-1,-1,-1,-1,-1,-1,-1,-1,-1,-1,-1,-1,-1,-1,-1,-1,-1,-1,-1,-1,-1,-1,-1,-1,-1,-1,-1,-1,-1,-1,-1],"loss_changes":[3.5471425E0,8.447188E0,5.2746425E0,9.679847E0,5.750966E0,3.8707314E0,1.4404378E1,5.8325934E0,8.916193E0,6.562177E0,6.4884796E0,9.970084E0,4.7834053E0,5.016178E0,9.246391E0,6.203417E0,8.196596E0,1.1945934E0,4.0493293E0,6.5478935E0,4.558795E0,8.605437E0,4.0989E0,7.923053E0,1.2133389E0,3.0181131E0,3.0200968E0,6.3352156E0,4.2740684E0,5.87123E0,8.452555E0,0E0,0E0,0E0,0E0,0E0,0E0,0E0,0E0,0E0,0E0,0E0,0E0,0E0,0E0,0E0,0E0,0E0,0E0,0E0,0E0,0E0,0E0,0E0,0E0,0E0,0E0,0E0,0E0,0E0,0E0,0E0,0E0],"parents":[2147483647,0,0,1,1,2,2,3,3,4,4,5,5,6,6,7,7,8,8,9,9,10,10,11,11,12,12,13,13,14,14,15,15,16,16,17,17,18,18,19,19,20,20,21,21,22,22,23,23,24,24,25,25,26,26,27,27,28,28,29,29,30,30],"right_children":[2,4,6,8,10,12,14,16,18,20,22,24,26,28,30,32,34,36,38,40,42,44,46,48,50,52,54,56,58,60,62,-1,-1,-1,-1,-1,-1,-1,-1,-1,-1,-1,-1,-1,-1,-1,-1,-1,-1,-1,-1,-1,-1,-1,-1,-1,-1,-1,-1,-1,-1,-1,-1],"split_conditions":[2.902143E1,2.5632143E1,1.95E0,1.2914624E1,-6.13915E0,7.5E-1,4.5E0,6.4123173E0,8.846055E-1,3.6870477E0,2.3E0,1.7348182E0,2.9682142E1,-5.8E0,6.1767857E1,-2.389171E1,5.6E0,6.182033E-1,2E1,2.822857E1,9.535401E-1,1.0148425E0,-2.762462E1,1.2264572E0,3.615E1,1.25E0,3.3835712E1,1.56E1,4.1092857E1,3.4962952E-1,4.3766597E-1,1.1335707E-2,1.6088942E-4,-1.7252957E-2,6.493721E-3,1.2164252E-2,7.65736E-2,2.0485135E-2,-4.3536946E-2,3.4877069E-3,4.511903E-2,-2.336568E-3,-6.273925E-2,1.1186822E-2,-2.495455E-2,9.19659E-3,-1.792559E-2,4.6614497E-3,-4.1824598E-2,6.972922E-2,7.986101E-3,-1.1177894E-2,6.469121E-2,9.64066E-4,2.2177836E-2,-1.6664622E-2,-6.194802E-2,1.8510116E-3,-2.6671499E-2,4.1525614E-2,6.240848E-3,-7.1373336E-2,-6.7792493E-3],"split_indices":[3,3,6,2,2,6,6,2,8,0,5,8,3,4,3,0,5,8,4,3,8,8,0,8,4,5,3,5,3,8,8,0,0,0,0,0,0,0,0,0,0,0,0,0,0,0,0,0,0,0,0,0,0,0,0,0,0,0,0,0,0,0,0],"split_type":[0,0,0,0,0,0,0,0,0,0,0,0,0,0,0,0,0,0,0,0,0,0,0,0,0,0,0,0,0,0,0,0,0,0,0,0,0,0,0,0,0,0,0,0,0,0,0,0,0,0,0,0,0,0,0,0,0,0,0,0,0,0,0],"sum_hessian":[3.5741604E3,2.8363264E3,7.37834E2,2.4935605E3,3.4276605E2,1.6840346E2,5.6943054E2,2.4749194E3,1.8641014E1,6.583119E1,2.7693484E2,8.8805664E1,7.959779E1,1.3297548E2,4.3645505E2,2.3158723E3,1.5904713E2,8.693746E0,9.9472685E0,5.364166E1,1.2189535E1,7.93205E1,1.9761435E2,8.2594406E1,6.2112613E0,8.216798E0,7.1381E1,5.8966644E1,7.4008835E1,4.0882755E2,2.7627514E1,1.3067648E2,2.1851958E3,1.0419051E2,5.4856625E1,1.2492669E0,7.444479E0,7.4569244E0,2.490344E0,4.2417164E1,1.1224494E1,7.960128E0,4.229407E0,5.737506E1,2.1945438E1,1.4471454E1,1.831429E2,7.31343E1,9.460103E0,4.968123E0,1.2431382E0,1.2495931E0,6.9672046E0,2.6647038E1,4.473396E1,5.0492035E1,8.4746065E0,5.8078007E1,1.593083E1,1.1194197E1,3.9763336E2,5.6869845E0,2.1940529E1],"tree_param":{"num_deleted":"0","num_feature":"9","num_nodes":"63","size_leaf_vector":"1"}},{"base_weights":[-6.358509E-3,-3.7397004E-3,-5.8796525E-1,-3.523132E-2,4.5964856E-2,-7.35404E-1,3.214679E-2,-1.7171746E-1,-1.2287991E-2,1.3304599E-1,-4.8307303E-2,-2.0662975E-1,-1.1728711E0,-1.1395062E-2,-2.885435E-1,-4.8463345E-3,-3.886591E-1,2.9891306E-1,5.464084E-2,-8.1108147E-1,-3.1845674E-2,-5.0300337E-2,3.984307E-1,-7.309168E-2,-1.0227508E-2,1.242213E-2,-1.5417382E-2,-4.4883348E-2,-1.0693549E-2,-6.4498642E-3,8.185531E-4,-6.1431513E-3,-4.9383808E-2,2.1097003E-2,1.6907407E-3,4.7213472E-3,-1.1404194E-2,-9.186449E-3,-5.693639E-2,-2.2093286E-3,2.6718384E-2,-2.8568033E-2,4.220747E-2],"categories":[],"categories_nodes":[],"categories_segments":[],"categories_sizes":[],"default_left":[0,0,0,0,0,0,0,0,0,0,0,0,0,0,0,0,0,0,0,0,0,0,0,0,0,0,0,0,0,0,0,0,0,0,0,0,0,0,0,0,0,0,0],"id":26,"left_children":[1,3,5,7,9,11,-1,13,15,17,19,21,23,25,27,29,31,33,35,37,39,-1,41,-1,-1,-1,-1,-1,-1,-1,-1,-1,-1,-1,-1,-1,-1,-1,-1,-1,-1,-1,-1],"loss_changes":[5.4418683E0,5.572874E0,3.379346E0,6.8225393E0,1.134257E1,3.173985E0,0E0,5.8695793E0,5.2267933E0,9.322265E0,8.309168E0,4.2220387E0,1.9026117E0,1.0355356E1,8.05634E0,4.8269763E0,5.6395783E0,7.4956093E0,5.5200696E0,2.6648026E0,4.571248E0,0E0,2.7356856E0,0E0,0E0,0E0,0E0,0E0,0E0,0E0,0E0,0E0,0E0,0E0,0E0,0E0,0E0,0E0,0E0,0E0,0E0,0E0,0E0],"parents":[2147483647,0,0,1,1,2,2,3,3,4,4,5,5,7,7,8,8,9,9,10,10,11,11,12,12,13,13,14,14,15,15,16,16,17,17,18,18,19,19,20,20,22,22],"right_children":[2,4,6,8,10,12,-1,14,16,18,20,22,24,26,28,30,32,34,36,38,40,-1,42,-1,-1,-1,-1,-1,-1,-1,-1,-1,-1,-1,-1,-1,-1,-1,-1,-1,-1,-1,-1],"split_conditions":[4.1957054E0,5.4288452E1,3.6607143E1,8E-1,3.8E0,6.4750275E1,3.214679E-2,-2.8842738E0,5.382065E1,5.8833546E1,3.9E0,5.9678665E1,1.0823561E0,2.3407143E1,1.3064285E1,5.914609E-1,1.1494468E0,1.4407855E0,1.095E1,3.85E0,2.035E1,-5.0300337E-2,-2.6932166E0,-7.309168E-2,-1.0227508E-2,1.242213E-2,-1.5417382E-2,-4.4883348E-2,-1.0693549E-2,-6.4498642E-3,8.185531E-4,-6.1431513E-3,-4.9383808E-2,2.1097003E-2,1.6907407E-3,4.7213472E-3,-1.1404194E-2,-9.186449E-3,-5.693639E-2,-2.2093286E-3,2.6718384E-2,-2.8568033E-2,4.220747E-2],"split_indices":[7,1,3,5,6,1,0,2,1,1,6,1,8,3,3,8,8,7,5,6,5,0,2,0,0,0,0,0,0,0,0,0,0,0,0,0,0,0,0,0,0,0,0],"split_type":[0,0,0,0,0,0,0,0,0,0,0,0,0,0,0,0,0,0,0,0,0,0,0,0,0,0,0,0,0,0,0,0,0,0,0,0,0,0,0,0,0,0,0],"sum_hessian":[3.5732932E3,3.5582778E3,1.5015477E1,2.1783918E3,1.3798859E3,1.37687845E1,1.2466925E0,3.1255692E2,1.865835E3,7.170868E2,6.627991E2,6.9004364E0,6.8683476E0,1.3221437E2,1.8034256E2,1.830652E3,3.5183006E1,2.2926382E2,4.8782297E2,1.298212E1,6.4981696E2,2.6873643E0,4.213072E0,4.8972664E0,1.9710813E0,7.060093E1,6.161344E1,1.8490368E1,1.6185219E2,2.664534E2,1.5641986E3,2.5204405E1,9.9786E0,1.5618825E2,7.307558E1,4.282272E2,5.959576E1,4.98945E0,7.99267E0,6.368583E2,1.2958677E1,1.2378597E0,2.9752123E0],"tree_param":{"num_deleted":"0","num_feature":"9","num_nodes":"43","size_leaf_vector":"1"}},{"base_weights":[5.5692648E-3,-1.6695237E-2,8.690634E-2,1.7082583E-3,-1.5780064E-1,1.0602608E-1,-4.1839352E-1,2.1576005E-1,-1.3120078E-2,-1.2384814E-1,-7.9834807E-1,4.913204E-1,8.533778E-2,-7.354788E-2,-1.362636E-1,2.537572E-1,-7.3348E-1,-6.518541E-2,5.25721E-2,-6.076799E-2,-5.2666104E-1,-9.472388E-1,1.9960934E-2,1.0507475E0,1.3000806E-1,-5.0604943E-2,1.5661871E-1,2.1654493E-1,-6.877596E-1,6.256645E-3,4.3708723E-2,-5.5947144E-2,9.968839E-3,3.79367E-2,-3.6949327E-3,-1.1925161E-3,1.057309E-2,-1.8072298E-2,1.2215994E-3,-3.651992E-2,4.777742E-3,-4.9793586E-2,-1.1691838E-2,-1.9106572E-2,6.0452808E-2,-3.1876326E-2,1.8689156E-2,2.8684635E-2,-7.103485E-3,1.6897028E-2,3.225891E-3,-3.2901422E-3,4.2519014E-2,-3.0256272E-3,-6.881432E-2],"categories":[],"categories_nodes":[],"categories_segments":[],"categories_sizes":[],"default_left":[0,0,0,0,0,0,0,0,0,0,0,0,0,0,0,0,0,0,0,0,0,0,0,0,0,0,0,0,0,0,0,0,0,0,0,0,0,0,0,0,0,0,0,0,0,0,0,0,0,0,0,0,0,0,0],"id":27,"left_children":[1,3,5,7,9,11,13,15,17,19,21,23,25,-1,27,29,31,33,35,37,39,41,-1,43,45,47,49,51,53,-1,-1,-1,-1,-1,-1,-1,-1,-1,-1,-1,-1,-1,-1,-1,-1,-1,-1,-1,-1,-1,-1,-1,-1,-1,-1],"loss_changes":[6.5108676E0,7.3308063E0,7.5090046E0,7.932113E0,6.9845724E0,5.898676E0,8.224846E0,6.02579E0,7.9975514E0,7.857427E0,3.268752E0,7.4972973E0,6.873395E0,0E0,4.716833E0,1.2372777E1,2.5562375E0,9.419753E0,1.2560073E1,6.914929E0,5.3825293E0,2.7767086E-1,0E0,3.7918549E0,4.7453485E0,1.404085E1,7.744235E0,2.754329E0,3.9757967E0,0E0,0E0,0E0,0E0,0E0,0E0,0E0,0E0,0E0,0E0,0E0,0E0,0E0,0E0,0E0,0E0,0E0,0E0,0E0,0E0,0E0,0E0,0E0,0E0,0E0,0E0],"parents":[2147483647,0,0,1,1,2,2,3,3,4,4,5,5,6,6,7,7,8,8,9,9,10,10,11,11,12,12,14,14,15,15,16,16,17,17,18,18,19,19,20,20,21,21,23,23,24,24,25,25,26,26,27,27,28,28],"right_children":[2,4,6,8,10,12,14,16,18,20,22,24,26,-1,28,30,32,34,36,38,40,42,-1,44,46,48,50,52,54,-1,-1,-1,-1,-1,-1,-1,-1,-1,-1,-1,-1,-1,-1,-1,-1,-1,-1,-1,-1,-1,-1,-1,-1,-1,-1],"split_conditions":[2.8717857E1,2.5632143E1,6.915714E1,3.1435116E1,2.450189E0,-1.8554352E1,4.2796725E-1,2.5167856E1,3.3902678E0,2.2183943E1,6.4123173E0,3.930357E1,4.415744E1,-7.354788E-2,1.0340868E1,2.3321428E1,-2.829706E1,-3.16E1,2.012143E1,2.6275E1,8.75E0,2.63E1,1.9960934E-2,1.3E0,4.574643E1,2.9682142E1,7.697251E-1,3.074704E1,9.1E0,6.256645E-3,4.3708723E-2,-5.5947144E-2,9.968839E-3,3.79367E-2,-3.6949327E-3,-1.1925161E-3,1.057309E-2,-1.8072298E-2,1.2215994E-3,-3.651992E-2,4.777742E-3,-4.9793586E-2,-1.1691838E-2,-1.9106572E-2,6.0452808E-2,-3.1876326E-2,1.8689156E-2,2.8684635E-2,-7.103485E-3,1.6897028E-2,3.225891E-3,-3.2901422E-3,4.2519014E-2,-3.0256272E-3,-6.881432E-2],"split_indices":[3,3,3,1,8,2,8,3,0,0,2,3,1,0,2,3,0,4,3,3,6,4,0,6,3,3,2,1,6,0,0,0,0,0,0,0,0,0,0,0,0,0,0,0,0,0,0,0,0,0,0,0,0,0,0],"split_type":[0,0,0,0,0,0,0,0,0,0,0,0,0,0,0,0,0,0,0,0,0,0,0,0,0,0,0,0,0,0,0,0,0,0,0,0,0,0,0,0,0,0,0,0,0,0,0,0,0,0,0,0,0,0,0],"sum_hessian":[3.5935173E3,2.8218762E3,7.7164105E2,2.4971733E3,3.2470282E2,7.442692E2,2.7371796E1,1.6090517E2,2.3362683E3,3.0949142E2,1.5211385E1,3.676767E1,7.075016E2,4.895186E0,2.247661E1,1.5541666E2,5.4885044E0,1.3033145E3,1.0329539E3,2.685825E2,4.0908928E1,1.3715232E1,1.4961529E0,1.3679415E1,2.3088255E1,2.4346664E2,4.6403494E2,1.4077903E1,8.398706E0,1.2972409E2,2.5692577E1,3.7425692E0,1.7459352E0,1.2737997E1,1.2905764E3,6.980548E2,3.3489902E2,5.8585827E1,2.0999667E2,3.068697E1,1.0221956E1,1.246925E1,1.245982E0,1.2203125E0,1.2459103E1,5.17605E0,1.7912205E1,3.0438017E1,2.1302863E2,1.5540843E2,3.086265E2,1.0359398E1,3.7185054E0,4.9642076E0,3.4344993E0],"tree_param":{"num_deleted":"0","num_feature":"9","num_nodes":"55","size_leaf_vector":"1"}},{"base_weights":[1.8553216E-3,3.5269243E-1,-3.8801585E-3,-3.7777323E-1,4.6440518E-1,-5.31358E-2,2.9348282E-2,2.4688117E-1,-5.9537467E-2,8.235735E-1,1.8712212E-1,-5.9050675E-2,6.3142854E-1,3.19495E-1,2.0903904E-2,6.3624454E-1,-2.3743717E-2,-1.0615259E-2,9.222513E-1,-9.016352E-1,3.5254055E-1,-1.3491982E-2,-1.5451846E-1,8.5763115E-1,-4.895345E-2,1.2537503E-1,7.164982E-1,6.0640015E-2,1.9149605E-2,-5.107911E-3,5.571909E-2,1.301482E-2,5.3965803E-2,-1.7071027E-2,-5.738079E-2,4.889954E-2,7.1591013E-3,-5.319378E-5,-3.490004E-2,-1.10028135E-2,1.1196196E-2,5.3264666E-2,-1.3074792E-2,1.1662907E-2,-1.3120015E-2,2.0131266E-2,-2.9991398E-2,-1.9926589E-2,4.1653868E-2,2.403043E-3,-2.7817101E-3],"categories":[],"categories_nodes":[],"categories_segments":[],"categories_sizes":[],"default_left":[0,0,0,0,0,0,0,0,0,0,0,0,0,0,0,0,0,0,0,0,0,0,0,0,0,0,0,0,0,0,0,0,0,0,0,0,0,0,