{"learner":{"attributes":{"scikit_learn":"{\"_estimator_type\": \"classifier\"}"},"feature_names":["ema_diff","rsi","macd_hist","atr","candle_body","upper_wick","lower_wick","vwap_dist","rel_volume"],"feature_types":["float","float","float","float","float","float","float","float","float"],"gradient_booster":{"model":{"cats":{"enc":[],"feature_segments":[],"sorted_idx":[]},"gbtree_model_param":{"num_parallel_tree":"1","num_trees":"100"},"iteration_indptr":[0,1,2,3,4,5,6,7,8,9,10,11,12,13,14,15,16,17,18,19,20,21,22,23,24,25,26,27,28,29,30,31,32,33,34,35,36,37,38,39,40,41,42,43,44,45,46,47,48,49,50,51,52,53,54,55,56,57,58,59,60,61,62,63,64,65,66,67,68,69,70,71,72,73,74,75,76,77,78,79,80,81,82,83,84,85,86,87,88,89,90,91,92,93,94,95,96,97,98,99,100],"tree_info":[0,0,0,0,0,0,0,0,0,0,0,0,0,0,0,0,0,0,0,0,0,0,0,0,0,0,0,0,0,0,0,0,0,0,0,0,0,0,0,0,0,0,0,0,0,0,0,0,0,0,0,0,0,0,0,0,0,0,0,0,0,0,0,0,0,0,0,0,0,0,0,0,0,0,0,0,0,0,0,0,0,0,0,0,0,0,0,0,0,0,0,0,0,0,0,0,0,0,0,0],"trees":[{"base_weights":[-1.7226191E-2,6.499141E-1,-1.3238212E-1,-2.4549773E-2,8.70301E-1,-5.7634145E-1,3.798305E-2,1.1474357E0,-1.3878769E-2,-3.155503E-1,-1.1734544E0,7.329672E-1,-7.6117486E-2,4.3674405E-3,7.0954874E-2,-9.335649E-1,3.234565E-1,-7.467294E-2,-2.1711476E-2,6.97048E-2,-1.1216873E-1,-6.021002E-1,1.4697948E-1,1.5583764E-2,-6.483865E-2,-3.2124978E-2,3.5625625E-2,2.9286442E-2,-3.2124978E-2,3.5650533E-2,-4.1793488E-2,2.6438702E-2,-1.7720435E-2],"categories":[],"categories_nodes":[],"categories_segments":[],"categories_sizes":[],"default_left":[0,0,0,0,0,0,0,0,0,0,0,0,0,0,0,0,0,0,0,0,0,0,0,0,0,0,0,0,0,0,0,0,0],"id":0,"left_children":[1,3,5,-1,7,9,11,13,-1,15,17,19,21,-1,-1,23,25,-1,-1,-1,27,29,31,-1,-1,-1,-1,-1,-1,-1,-1,-1,-1],"loss_changes":[5.9691954E0,3.3042502E0,5.024159E0,0E0,3.4837875E0,2.4954567E0,3.9202886E0,2.2403421E0,0E0,5.900496E0,5.8783627E-1,4.0489893E0,5.107007E0,0E0,0E0,3.7799792E0,3.3562565E0,0E0,0E0,0E0,1.8506393E0,4.572152E0,6.0898004E0,0E0,0E0,0E0,0E0,0E0,0E0,0E0,0E0,0E0,0E0],"parents":[2147483647,0,0,1,1,2,2,4,4,5,5,6,6,7,7,9,9,10,10,11,11,12,12,15,15,16,16,20,20,21,21,22,22],"right_children":[2,4,6,-1,8,10,12,14,-1,16,18,20,22,-1,-1,24,26,-1,-1,-1,28,30,32,-1,-1,-1,-1,-1,-1,-1,-1,-1,-1],"split_conditions":[6.278801E-1,3.621241E1,8.088717E-1,-2.4549773E-2,6.920441E1,2.3904579E0,1.4146428E1,-1.17E1,-1.3878769E-2,-3.0503597E0,4.6E0,2.7E0,1.7696428E1,4.3674405E-3,7.0954874E-2,-9.15E0,-4.9E0,-7.467294E-2,-2.1711476E-2,6.97048E-2,-2.6453414E0,8.3601147E-1,2.1625E1,1.5583764E-2,-6.483865E-2,-3.2124978E-2,3.5625625E-2,2.9286442E-2,-3.2124978E-2,3.5650533E-2,-4.1793488E-2,2.6438702E-2,-1.7720435E-2],"split_indices":[8,1,8,0,1,2,3,4,0,2,6,4,3,0,0,4,4,0,0,0,2,8,3,0,0,0,0,0,0,0,0,0,0],"split_type":[0,0,0,0,0,0,0,0,0,0,0,0,0,0,0,0,0,0,0,0,0,0,0,0,0,0,0,0,0,0,0,0,0],"sum_hessian":[7.5578545E1,1.0441772E1,6.513677E1,1.4916818E0,8.95009E0,1.7402954E1,4.7733818E1,7.209795E0,1.7402954E0,1.3176522E1,4.226432E0,5.9667273E0,4.176709E1,1.7402954E0,5.4694996E0,6.4639544E0,6.712568E0,2.2375226E0,1.988909E0,2.9833636E0,2.9833636E0,1.19334545E1,2.9833635E1,1.4916818E0,4.9722724E0,1.7402954E0,4.9722724E0,1.2430681E0,1.7402954E0,1.4916818E0,1.0441772E1,1.6905727E1,1.2927909E1],"tree_param":{"num_deleted":"0","num_feature":"9","num_nodes":"33","size_leaf_vector":"1"}},{"base_weights":[-3.2986924E-2,3.2840293E-2,-7.439356E-2,-1.4588252E-1,6.2493294E-1,-1.9090071E-1,5.1134557E-2,-3.8016665E-1,8.248648E-1,-4.4144142E-2,-7.155096E-1,-3.7145104E-2,7.5914436E-3,-2.4583109E-1,1.0964084E0,-1.9479841E-2,1.5785249E-2,-6.7432396E-2,1.4463605E-3,1.5798286E-2,-3.8044676E-2,2.9402137E-2,7.0773296E-2],"categories":[],"categories_nodes":[],"categories_segments":[],"categories_sizes":[],"default_left":[0,0,0,0,0,0,0,0,0,0,0,0,0,0,0,0,0,0,0,0,0,0,0],"id":1,"left_children":[1,3,-1,5,7,9,-1,11,13,15,17,-1,-1,19,21,-1,-1,-1,-1,-1,-1,-1,-1],"loss_changes":[7.1658397E0,7.718081E0,0E0,3.1503608E0,3.7097645E0,4.197659E0,0E0,7.8599215E-1,4.459671E0,5.591475E0,5.6677375E0,0E0,0E0,1.3204482E0,1.0620317E0,0E0,0E0,0E0,0E0,0E0,0E0,0E0,0E0],"parents":[2147483647,0,0,1,1,3,3,4,4,5,5,7,7,8,8,9,9,10,10,13,13,14,14],"right_children":[2,4,-1,6,8,10,-1,12,14,16,18,-1,-1,20,22,-1,-1,-1,-1,-1,-1,-1,-1],"split_conditions":[2.5678718E-1,7.6E0,-7.439356E-2,1.325E1,-1.261296E1,2.4764286E1,5.1134557E-2,1.985E1,9.5E-1,1.774643E1,2.8817858E1,-3.7145104E-2,7.5914436E-3,1.27E1,1.5493667E-2,-1.9479841E-2,1.5785249E-2,-6.7432396E-2,1.4463605E-3,1.5798286E-2,-3.8044676E-2,2.9402137E-2,7.0773296E-2],"split_indices":[7,4,0,5,0,3,0,3,5,3,3,0,0,4,2,0,0,0,0,0,0,0,0],"split_type":[0,0,0,0,0,0,0,0,0,0,0,0,0,0,0,0,0,0,0,0,0,0,0],"sum_hessian":[7.331246E1,7.107409E1,2.2383676E0,5.517359E1,1.5900499E1,5.393253E1,1.2410619E0,2.48855E0,1.341195E1,4.2990353E1,1.0942178E1,1.2439392E0,1.2446108E0,2.7324796E0,1.067947E1,2.1891752E1,2.10986E1,5.4745097E0,5.467668E0,1.4918332E0,1.2406465E0,5.2143393E0,5.465131E0],"tree_param":{"num_deleted":"0","num_feature":"9","num_nodes":"23","size_leaf_vector":"1"}},{"base_weights":[-2.8064128E-2,-1.2648036E-1,7.147457E-1,-5.597894E-2,-7.295908E-2,1.1457043E0,-3.19771E-2,-5.786627E-1,8.367922E-2,7.263499E-2,1.7140491E-2,-7.443826E-1,2.9061908E-2,1.9442621E-1,-7.771343E-1,9.515322E-3,-5.0186276E-2,1.4414842E-2,-2.9399443E-2,-6.241141E-2,2.8338915E-2],"categories":[],"categories_nodes":[],"categories_segments":[],"categories_sizes":[],"default_left":[0,0,0,0,0,0,0,0,0,0,0,0,0,0,0,0,0,0,0,0,0],"id":2,"left_children":[1,3,5,7,-1,9,-1,11,13,-1,-1,15,-1,17,19,-1,-1,-1,-1,-1,-1],"loss_changes":[5.428202E0,6.0559278E0,5.80609E0,4.6531663E0,0E0,1.2156715E0,0E0,3.013648E0,4.980058E0,0E0,0E0,3.145255E0,0E0,3.5245059E0,4.489721E0,0E0,0E0,0E0,0E0,0E0,0E0],"parents":[2147483647,0,0,1,1,2,2,3,3,5,5,7,7,8,8,11,11,13,13,14,14],"right_children":[2,4,6,8,-1,10,-1,12,14,-1,-1,16,-1,18,20,-1,-1,-1,-1,-1,-1],"split_conditions":[2.9242857E1,2.8233446E1,7.1013103E0,1.75E0,-7.295908E-2,5.2E0,-3.19771E-2,2.3542856E1,1.005E1,7.263499E-2,1.7140491E-2,1.4960714E1,2.9061908E-2,2.5257143E1,4.35E0,9.515322E-3,-5.0186276E-2,1.4414842E-2,-2.9399443E-2,-6.241141E-2,2.8338915E-2],"split_indices":[3,0,2,6,0,6,0,3,6,0,0,3,0,3,5,0,0,0,0,0,0],"split_type":[0,0,0,0,0,0,0,0,0,0,0,0,0,0,0,0,0,0,0,0,0],"sum_hessian":[7.2016E1,6.43234E1,7.6925974E0,6.2081234E1,2.2421644E0,5.952441E0,1.7401562E0,1.2427337E1,4.9653896E1,3.7205286E0,2.2319124E0,1.1187209E1,1.2401273E0,4.4679806E1,4.974093E0,2.487672E0,8.699537E0,4.045743E1,4.2223716E0,3.735761E0,1.2383322E0],"tree_param":{"num_deleted":"0","num_feature":"9","num_nodes":"21","size_leaf_vector":"1"}},{"base_weights":[-2.543757E-2,3.1608935E-2,-9.562892E-1,-1.1040112E-1,3.863999E-1,-6.524168E-2,-1.2924137E-2,3.2078475E-2,-7.548634E-1,-4.820931E-2,5.562594E-1,-4.0582877E-1,2.3288018E-1,-1.3297623E0,6.2198132E-2,-3.5567918E-1,7.418824E-1,3.5304394E-2,-2.942108E-2,4.6916906E-2,2.3797038E-3,-1.2025371E-2,-7.892534E-2,-3.753028E-2,2.6741594E-2,2.261706E-2,-5.916672E-2,1.1210586E-2,5.810937E-2],"categories":[],"categories_nodes":[],"categories_segments":[],"categories_sizes":[],"default_left":[0,0,0,0,0,0,0,0,0,0,0,0,0,0,0,0,0,0,0,0,0,0,0,0,0,0,0,0,0],"id":3,"left_children":[1,3,5,7,9,-1,-1,11,13,-1,15,17,19,21,23,25,27,-1,-1,-1,-1,-1,-1,-1,-1,-1,-1,-1,-1],"loss_changes":[4.130543E0,3.7572234E0,7.549763E-1,4.930186E0,5.421966E0,0E0,0E0,4.0263634E0,4.645783E0,0E0,3.5734825E0,3.3435962E0,4.045593E0,1.1774416E0,2.309737E0,3.1986446E0,3.3444843E0,0E0,0E0,0E0,0E0,0E0,0E0,0E0,0E0,0E0,0E0,0E0,0E0],"parents":[2147483647,0,0,1,1,2,2,3,3,4,4,7,7,8,8,10,10,11,11,12,12,13,13,14,14,15,15,16,16],"right_children":[2,4,6,8,10,-1,-1,12,14,-1,16,18,20,22,24,26,28,-1,-1,-1,-1,-1,-1,-1,-1,-1,-1,-1,-1],"split_conditions":[7.213903E1,6.25E0,7.532817E1,2.4764286E1,4.5E-1,-6.524168E-2,-1.2924137E-2,-3.0886471E0,2.8817858E1,-4.820931E-2,1.4821428E1,1.2785714E1,4.180812E1,2.45E0,3.55E0,-4.155981E-1,1.8329663E0,3.5304394E-2,-2.942108E-2,4.6916906E-2,2.3797038E-3,-1.2025371E-2,-7.892534E-2,-3.753028E-2,2.6741594E-2,2.261706E-2,-5.916672E-2,1.1210586E-2,5.810937E-2],"split_indices":[1,4,1,3,6,0,0,2,3,0,3,3,1,6,5,2,0,0,0,0,0,0,0,0,0,0,0,0,0],"split_type":[0,0,0,0,0,0,0,0,0,0,0,0,0,0,0,0,0,0,0,0,0,0,0,0,0,0,0,0,0],"sum_hessian":[7.621611E1,7.272524E1,3.490866E0,5.2428734E1,2.0296507E1,1.7479048E0,1.7429612E0,4.3714443E1,8.714293E0,1.7450331E0,1.8551474E1,1.3422244E1,3.0292198E1,4.7468386E0,3.9674535E0,2.982542E0,1.5568932E1,1.4888341E0,1.193341E1,5.455744E0,2.4836454E1,1.2481335E0,3.498705E0,1.242519E0,2.7249346E0,1.7386274E0,1.2439146E0,7.6635423E0,7.90539E0],"tree_param":{"num_deleted":"0","num_feature":"9","num_nodes":"29","size_leaf_vector":"1"}},{"base_weights":[-1.0606361E-2,1.5483776E-1,-6.39062E-1,4.7711533E-2,8.0539733E-1,-1.9219667E-2,-9.807678E-1,6.0488492E-2,-1.803873E-2,4.4677496E-2,7.034443E-2,4.3545347E-1,-5.819425E-2,-4.963688E-1,-1.2479669E0,-7.2503597E-1,1.4059784E-1,3.9583635E-2,-3.0135086E-2,-1.64733E-2,7.217811E-1,-7.0633054E-2,4.3618703E-1,-1.4870465E-2,-7.12608E-2,7.2072605E-3,-7.684686E-2,1.2072294E-2,-4.360755E-2,5.3453136E-2,9.47633E-3,5.0350476E-2,-1.6510375E-2],"categories":[],"categories_nodes":[],"categories_segments":[],"categories_sizes":[],"default_left":[0,0,0,0,0,0,0,0,0,0,0,0,0,0,0,0,0,0,0,0,0,0,0,0,0,0,0,0,0,0,0,0,0],"id":4,"left_children":[1,3,5,7,9,11,13,-1,15,17,-1,19,-1,21,23,25,27,-1,-1,-1,29,-1,31,-1,-1,-1,-1,-1,-1,-1,-1,-1,-1],"loss_changes":[8.29857E0,4.368378E0,3.5033226E0,4.2512827E0,3.9990678E0,4.1133146E0,7.654371E-1,0E0,6.0883923E0,2.87216E0,0E0,1.4834254E0,0E0,5.285387E0,6.267252E-1,7.239056E0,4.7485957E0,0E0,0E0,0E0,6.2024117E-1,0E0,1.8515186E0,0E0,0E0,0E0,0E0,0E0,0E0,0E0,0E0,0E0,0E0],"parents":[2147483647,0,0,1,1,2,2,3,3,4,4,5,5,6,6,8,8,9,9,11,11,13,13,14,14,15,15,16,16,20,20,22,22],"right_children":[2,4,6,8,10,12,14,-1,16,18,-1,20,-1,22,24,26,28,-1,-1,-1,30,-1,32,-1,-1,-1,-1,-1,-1,-1,-1,-1,-1],"split_conditions":[1.3178195E-1,1.215E1,8.707807E-1,-3.784074E-1,5.400591E-1,2.432083E1,3.9954248E-1,6.0488492E-2,3.757082E1,-1.8888642E0,7.034443E-2,1.3E0,-5.819425E-2,5.6379304E0,1.1972059E1,3.397688E1,2.8396475E1,3.9583635E-2,-3.0135086E-2,-1.64733E-2,4.1E0,-7.0633054E-2,7.6E0,-1.4870465E-2,-7.12608E-2,7.2072605E-3,-7.684686E-2,1.2072294E-2,-4.360755E-2,5.3453136E-2,9.47633E-3,5.0350476E-2,-1.6510375E-2],"split_indices":[7,4,8,7,0,0,2,0,1,2,0,6,0,0,0,1,0,0,0,0,6,0,4,0,0,0,0,0,0,0,0,0,0],"split_type":[0,0,0,0,0,0,0,0,0,0,0,0,0,0,0,0,0,0,0,0,0,0,0,0,0,0,0,0,0,0,0,0,0],"sum_hessian":[7.7862E1,6.223258E1,1.5629418E1,5.435534E1,7.877237E0,5.9295926E0,9.699826E0,1.9790204E0,5.237632E1,3.9525871E0,3.9246495E0,4.6873198E0,1.2422727E0,4.4642906E0,5.2355356E0,8.944198E0,4.343212E1,1.731622E0,2.2209651E0,1.2356472E0,3.4516726E0,1.9921025E0,2.4721882E0,1.2436992E0,3.9918363E0,4.7169375E0,4.22726E0,4.0191505E1,3.2406175E0,1.478461E0,1.9732114E0,1.2369394E0,1.2352488E0],"tree_param":{"num_deleted":"0","num_feature":"9","num_nodes":"33","size_leaf_vector":"1"}},{"base_weights":[-5.1325925E-2,1.085606E0,-1.2670873E-1,7.74583E-3,6.772258E-2,-9.648405E-1,-3.944634E-2,-7.899977E-2,-1.0530882E-1,9.664639E-2,-5.925921E-1,2.9756477E-2,-3.2059416E-2,5.8512695E-2,3.5657883E-2,-7.257253E-2,-2.6995534E-1,-1.7186102E-3,3.874366E-2,2.8528958E-3,-6.457754E-2],"categories":[],"categories_nodes":[],"categories_segments":[],"categories_sizes":[],"default_left":[0,0,0,0,0,0,0,0,0,0,0,0,0,0,0,0,0,0,0,0,0],"id":5,"left_children":[1,3,5,-1,-1,7,9,-1,11,13,15,-1,-1,-1,17,-1,19,-1,-1,-1,-1],"loss_changes":[6.846623E0,1.0342474E0,5.3966866E0,0E0,0E0,3.5160604E0,5.202164E0,0E0,1.8742105E0,3.6059813E0,3.386435E0,0E0,0E0,0E0,2.808922E0,0E0,3.7953382E0,0E0,0E0,0E0,0E0],"parents":[2147483647,0,0,1,1,2,2,5,5,6,6,8,8,9,9,10,10,14,14,16,16],"right_children":[2,4,6,-1,-1,8,10,-1,12,14,16,-1,-1,-1,18,-1,20,-1,-1,-1,-1],"split_conditions":[-7.271198E0,1.5132143E1,-5.630377E0,7.74583E-3,6.772258E-2,-1.5890497E-1,1.4712198E-1,-7.899977E-2,-1.0761265E-1,-3.5412157E-1,1.2E0,2.9756477E-2,-3.2059416E-2,5.8512695E-2,1.165E1,-7.257253E-2,7.55E0,-1.7186102E-3,3.874366E-2,2.8528958E-3,-6.457754E-2],"split_indices":[2,3,2,0,0,7,7,0,7,7,6,0,0,0,5,0,5,0,0,0,0],"split_type":[0,0,0,0,0,0,0,0,0,0,0,0,0,0,0,0,0,0,0,0,0],"sum_hessian":[7.7280815E1,3.9720888E0,7.330872E1,1.2435155E0,2.7285733E0,5.9645042E0,6.7344215E1,2.9879003E0,2.9766037E0,5.4709175E1,1.2635044E1,1.2422783E0,1.7343253E0,1.9631351E0,5.274604E1,2.4949033E0,1.0140141E1,4.9052517E1,3.6935232E0,8.396549E0,1.7435915E0],"tree_param":{"num_deleted":"0","num_feature":"9","num_nodes":"21","size_leaf_vector":"1"}},{"base_weights":[8.808319E-3,1.21186994E-1,-7.4483454E-1,2.1894747E-2,1.0586772E0,-7.014915E-2,-3.2099086E-1,1.7769706E-1,-4.5901445E-1,6.1334234E-2,1.5702767E-2,2.2213367E-1,-8.133637E-1,-5.025276E-1,3.1772646E-1,2.4994789E-1,-9.265036E-1,-2.4272796E-2,3.9296385E-2,-4.9001154E-2,-1.2359977E-2,5.0589528E-2,-4.5813944E-2,-7.4337455E-3,2.6546305E-2,4.0614925E-2,-5.45375E-3,-1.5677433E-2,-7.188853E-2],"categories":[],"categories_nodes":[],"categories_segments":[],"categories_sizes":[],"default_left":[0,0,0,0,0,0,0,0,0,0,0,0,0,0,0,0,0,0,0,0,0,0,0,0,0,0,0,0,0],"id":6,"left_children":[1,3,5,7,9,-1,11,13,15,-1,-1,17,19,21,23,25,27,-1,-1,-1,-1,-1,-1,-1,-1,-1,-1,-1,-1],"loss_changes":[6.320588E0,6.015973E0,2.2515364E0,4.5535913E0,3.8940668E-1,0E0,2.102971E0,4.5223074E0,5.164609E0,0E0,0E0,2.0584474E0,1.3373375E-1,6.0687523E0,3.916691E0,1.4417179E0,2.4266648E0,0E0,0E0,0E0,0E0,0E0,0E0,0E0,0E0,0E0,0E0,0E0,0E0],"parents":[2147483647,0,0,1,1,2,2,3,3,4,4,6,6,7,7,8,8,11,11,12,12,13,13,14,14,15,15,16,16],"right_children":[2,4,6,8,10,-1,12,14,16,-1,-1,18,20,22,24,26,28,-1,-1,-1,-1,-1,-1,-1,-1,-1,-1,-1,-1],"split_conditions":[1.6255195E-1,1.8810292E0,1.2E0,6.5E0,1.3136579E0,-7.014915E-2,1.003812E0,3.757082E1,-1.1380336E0,6.1334234E-2,1.5702767E-2,6.799228E-1,3.35E0,2.5E-1,2.6E0,-5.0694823E0,8.694707E-1,-2.4272796E-2,3.9296385E-2,-4.9001154E-2,-1.2359977E-2,5.0589528E-2,-4.5813944E-2,-7.4337455E-3,2.6546305E-2,4.0614925E-2,-5.45375E-3,-1.5677433E-2,-7.188853E-2],"split_indices":[7,8,6,6,2,0,8,1,2,0,0,8,5,5,5,2,8,0,0,0,0,0,0,0,0,0,0,0,0],"split_type":[0,0,0,0,0,0,0,0,0,0,0,0,0,0,0,0,0,0,0,0,0,0,0,0,0,0,0,0,0],"sum_hessian":[7.2563286E1,6.3877464E1,8.685824E0,5.868529E1,5.192171E0,2.497515E0,6.1883087E0,4.4801308E1,1.3883985E1,3.7081223E0,1.4840488E0,3.2034793E0,2.9848297E0,7.206306E0,3.7595E1,5.702023E0,8.181961E0,1.4821968E0,1.7212825E0,1.7412713E0,1.2435584E0,1.2362518E0,5.970054E0,1.1888984E1,2.5706018E1,1.7298968E0,3.972126E0,4.454621E0,3.7273405E0],"tree_param":{"num_deleted":"0","num_feature":"9","num_nodes":"29","size_leaf_vector":"1"}},{"base_weights":[1.1495827E-2,1.4329253E-1,-7.1775407E-1,3.2659594E-2,9.877203E-1,4.2454074E-3,-9.8424536E-1,9.5113695E-2,-5.372237E-2,2.303489E-1,6.802625E-2,3.7229445E-2,-4.01769E-2,-1.0938925E0,-8.92951E-3,-2.5106764E-1,3.3418044E-1,-2.507709E-2,4.737776E-2,-6.0643416E-2,-1.3713862E-2,4.942687E-2,-1.8117996E-2,7.5151413E-3,4.4011272E-2],"categories":[],"categories_nodes":[],"categories_segments":[],"categories_sizes":[],"default_left":[0,0,0,0,0,0,0,0,0,0,0,0,0,0,0,0,0,0,0,0,0,0,0,0,0],"id":7,"left_children":[1,3,5,7,9,11,13,15,-1,17,-1,-1,-1,19,-1,21,23,-1,-1,-1,-1,-1,-1,-1,-1],"loss_changes":[7.4748383E0,6.1143837E0,2.2951221E0,4.1959896E0,1.8289113E0,3.1134734E0,5.7327557E-1,4.7982984E0,0E0,2.4209054E0,0E0,0E0,0E0,3.9514923E-1,0E0,3.6471717E0,3.2939453E0,0E0,0E0,0E0,0E0,0E0,0E0,0E0,0E0],"parents":[2147483647,0,0,1,1,2,2,3,3,4,4,5,5,6,6,7,7,9,9,13,13,15,15,16,16],"right_children":[2,4,6,8,10,12,14,16,-1,18,-1,-1,-1,20,-1,22,24,-1,-1,-1,-1,-1,-1,-1,-1],"split_conditions":[1.5485483E-1,1.355E1,8.3361644E-1,7.213903E1,-3.0845207E-1,2.0801033E1,6.841464E1,1.7457144E1,-5.372237E-2,2.7167856E1,6.802625E-2,3.7229445E-2,-4.01769E-2,1.5039252E0,-8.92951E-3,-2.3538636E-1,8.806219E-2,-2.507709E-2,4.737776E-2,-6.0643416E-2,-1.3713862E-2,4.942687E-2,-1.8117996E-2,7.5151413E-3,4.4011272E-2],"split_indices":[7,4,8,1,0,0,1,3,0,3,0,0,0,8,0,7,7,0,0,0,0,0,0,0,0],"split_type":[0,0,0,0,0,0,0,0,0,0,0,0,0,0,0,0,0,0,0,0,0,0,0,0,0],"sum_hessian":[7.570149E1,6.479471E1,1.0906785E1,5.8207333E1,6.5873733E0,3.2057047E0,7.7010803E0,5.596436E1,2.2429726E0,2.70662E0,3.880753E0,1.7134961E0,1.4922085E0,6.4636335E0,1.2374469E0,2.2840258E1,3.3124104E1,1.4884232E0,1.2181969E0,5.2253203E0,1.2383132E0,1.2322912E0,2.1607965E1,2.5733685E1,7.3904185E0],"tree_param":{"num_deleted":"0","num_feature":"9","num_nodes":"25","size_leaf_vector":"1"}},{"base_weights":[2.3954228E-2,1.7192721E-1,-5.519945E-1,-1.3208011E-1,4.3704492E-1,2.7582113E-2,-6.850244E-1,5.266527E-2,-2.943793E-1,2.4986523E-1,6.4212576E-2,-8.971381E-2,-9.885075E-1,-4.4157255E-1,5.2515817E-1,5.672385E-2,8.9274295E-2,-8.666956E-1,5.7256263E-2,-1.5195727E-1,-1.3458438E0,-3.4116372E-2,2.597124E-3,4.6671994E-2,-1.4762925E-2,1.8551152E-2,-2.1637684E-2,6.3195745E-3,-6.5957434E-2,1.911278E-2,-3.6597874E-2,-7.954612E-2,-8.512514E-3],"categories":[],"categories_nodes":[],"categories_segments":[],"categories_sizes":[],"default_left":[0,0,0,0,0,0,0,0,0,0,0,0,0,0,0,0,0,0,0,0,0,0,0,0,0,0,0,0,0,0,0,0,0],"id":8,"left_children":[1,3,5,7,9,-1,11,-1,13,15,-1,17,19,21,23,-1,25,27,-1,29,31,-1,-1,-1,-1,-1,-1,-1,-1,-1,-1,-1,-1],"loss_changes":[6.4980106E0,4.9368777E0,2.6674647E0,5.883172E0,4.8438897E0,0E0,2.5062923E0,0E0,3.3997872E0,3.864616E0,0E0,6.700881E0,2.6095095E0,2.74515E0,1.7679446E0,0E0,3.7953699E0,2.0633597E0,0E0,1.5020754E0,1.5928926E0,0E0,0E0,0E0,0E0,0E0,0E0,0E0,0E0,0E0,0E0,0E0,0E0],"parents":[2147483647,0,0,1,1,2,2,3,3,4,4,6,6,8,8,9,9,11,11,12,12,13,13,14,14,16,16,17,17,19,19,20,20],"right_children":[2,4,6,8,10,-1,12,-1,14,16,-1,18,20,22,24,-1,26,28,-1,30,32,-1,-1,-1,-1,-1,-1,-1,-1,-1,-1,-1,-1],"split_conditions":[1.3178195E-1,4.970599E1,3.541913E0,-7.271198E0,6.85E0,2.7582113E-2,3.9954248E-1,5.266527E-2,1.8810292E0,5.2011066E1,6.4212576E-2,1.2342361E1,7.758994E-1,-7.978982E-2,4.4049095E1,5.672385E-2,8.191454E-2,1.5485483E-1,5.7256263E-2,2.4239382E1,6.841464E1,-3.4116372E-2,2.597124E-3,4.6671994E-2,-1.4762925E-2,1.8551152E-2,-2.1637684E-2,6.3195745E-3,-6.5957434E-2,1.911278E-2,-3.6597874E-2,-7.954612E-2,-8.512514E-3],"split_indices":[7,1,0,2,5,0,2,0,8,1,0,0,8,2,1,0,7,7,0,0,1,0,0,0,0,0,0,0,0,0,0,0,0],"split_type":[0,0,0,0,0,0,0,0,0,0,0,0,0,0,0,0,0,0,0,0,0,0,0,0,0,0,0,0,0,0,0,0,0],"sum_hessian":[7.413192E1,5.953711E1,1.4594809E1,2.796816E1,3.1568949E1,1.2314818E0,1.3363327E1,2.7070158E0,2.5261145E1,2.691692E1,4.6520286E0,4.9496803E0,8.413647E0,2.1805885E1,3.4552593E0,3.2039022E0,2.3713018E1,3.2210634E0,1.7286171E0,2.9448314E0,5.4688153E0,1.4398955E1,7.40693E0,2.2151322E0,1.2401273E0,1.5588737E1,8.124281E0,1.2337545E0,1.987309E0,1.7103976E0,1.2344338E0,4.2330494E0,1.2357659E0],"tree_param":{"num_deleted":"0","num_feature":"9","num_nodes":"33","size_leaf_vector":"1"}},{"base_weights":[-8.049761E-2,4.9737749E-1,-1.9372745E-1,9.7441435E-1,-4.0485907E-1,7.36716E-1,-2.5730237E-1,-4.6140975E-3,1.2037718E0,-9.841953E-1,3.1849664E-2,-4.5483145E-3,5.9171785E-2,-1.117219E0,-1.6669694E-1,1.1934485E-2,7.029432E-2,-6.1651807E-2,-1.3369486E-2,-1.1141906E-2,-6.579466E-2,1.1037919E-1,-4.1123015E-1,-3.818917E-2,1.1826054E-2,-6.548322E-2,-7.664194E-3],"categories":[],"categories_nodes":[],"categories_segments":[],"categories_sizes":[],"default_left":[0,0,0,0,0,0,0,0,0,0,0,0,0,0,0,0,0,0,0,0,0,0,0,0,0,0,0],"id":9,"left_children":[1,3,5,7,9,11,13,-1,15,17,-1,-1,-1,19,21,-1,-1,-1,-1,-1,-1,23,25,-1,-1,-1,-1],"loss_changes":[5.1657753E0,5.9784184E0,4.064162E0,2.259202E0,3.7616901E0,1.7523255E0,4.648533E0,0E0,1.0878773E0,3.357222E-1,0E0,0E0,0E0,7.266512E-1,3.9286423E0,0E0,0E0,0E0,0E0,0E0,0E0,3.2303867E0,6.90379E0,0E0,0E0,0E0,0E0],"parents":[2147483647,0,0,1,1,2,2,3,3,4,4,5,5,6,6,8,8,9,9,13,13,14,14,21,21,22,22],"right_children":[2,4,6,8,10,12,14,-1,16,18,-1,-1,-1,20,22,-1,-1,-1,-1,-1,-1,24,26,-1,-1,-1,-1],"split_conditions":[6.278801E-1,2.1665829E1,-7.271198E0,3.621241E1,5.1220226E-1,3.15E0,-5.630377E0,-4.6140975E-3,1.6E0,2.4285715E1,3.1849664E-2,-4.5483145E-3,5.9171785E-2,7.601834E-1,5.3249E1,1.1934485E-2,7.029432E-2,-6.1651807E-2,-1.3369486E-2,-1.1141906E-2,-6.579466E-2,7.601834E-1,5.5808205E1,-3.818917E-2,1.1826054E-2,-6.548322E-2,-7.664194E-3],"split_indices":[8,0,2,1,8,6,2,0,5,3,0,0,0,8,1,0,0,0,0,0,0,8,1,0,0,0,0],"split_type":[0,0,0,0,0,0,0,0,0,0,0,0,0,0,0,0,0,0,0,0,0,0,0,0,0,0,0],"sum_hessian":[7.647531E1,1.1973782E1,6.450153E1,7.7801876E0,4.193594E0,3.448164E0,6.1053368E1,1.4825926E0,6.297595E0,2.7305663E0,1.4630278E0,1.4878478E0,1.9603161E0,4.739661E0,5.6313705E1,1.4681678E0,4.8294272E0,1.492321E0,1.2382454E0,1.2471106E0,3.4925506E0,2.6657354E1,2.965635E1,2.7241385E0,2.3933216E1,5.705758E0,2.3950592E1],"tree_param":{"num_deleted":"0","num_feature":"9","num_nodes":"27","size_leaf_vector":"1"}},{"base_weights":[-5.3194232E-2,-1.3946848E-1,9.086782E-1,8.2360184E-1,-2.0592725E-1,5.8910813E-2,4.5326245E-3,-4.411401E-3,6.218463E-2,-1.0028864E0,-1.11476965E-1,-1.0441206E-2,-1.1313537E0,4.6080813E-2,-5.647731E-1,-2.304851E-2,-7.054617E-2,-1.9206665E-2,1.7146027E-2,-5.243958E-2,1.0053228E-2],"categories":[],"categories_nodes":[],"categories_segments":[],"categories_sizes":[],"default_left":[0,0,0,0,0,0,0,0,0,0,0,0,0,0,0,0,0,0,0,0,0],"id":10,"left_children":[1,3,5,7,9,-1,-1,-1,-1,11,13,-1,15,17,19,-1,-1,-1,-1,-1,-1],"loss_changes":[6.6727686E0,4.8583393E0,1.3541446E0,1.9977548E0,5.1066895E0,0E0,0E0,0E0,0E0,5.0032806E-1,4.5331388E0,0E0,4.7200966E-1,6.2301664E0,6.272456E0,0E0,0E0,0E0,0E0,0E0,0E0],"parents":[2147483647,0,0,1,1,2,2,3,3,4,4,9,9,10,10,12,12,13,13,14,14],"right_children":[2,4,6,8,10,-1,-1,-1,-1,12,14,-1,16,18,20,-1,-1,-1,-1,-1,-1],"split_conditions":[1.9213853E0,-7.271198E0,1.3136579E0,3.15E0,-5.630377E0,5.8910813E-2,4.5326245E-3,-4.411401E-3,6.218463E-2,7.5E-1,6.5E0,-1.0441206E-2,2.75E0,2.45E0,1.05E0,-2.304851E-2,-7.054617E-2,-1.9206665E-2,1.7146027E-2,-5.243958E-2,1.0053228E-2],"split_indices":[8,2,2,6,2,0,0,0,0,6,6,0,5,6,4,0,0,0,0,0,0],"split_type":[0,0,0,0,0,0,0,0,0,0,0,0,0,0,0,0,0,0,0,0,0],"sum_hessian":[7.7882355E1,7.225639E1,5.6259656E0,3.9289112E0,6.832748E1,3.9004552E0,1.7255101E0,1.4883487E0,2.4405625E0,6.220613E0,6.2106865E1,1.2318705E0,4.988743E0,4.675425E1,1.5352614E1,2.2477326E0,2.7410102E0,1.8968643E1,2.7785608E1,9.18078E0,6.1718335E0],"tree_param":{"num_deleted":"0","num_feature":"9","num_nodes":"21","size_leaf_vector":"1"}},{"base_weights":[1.9178512E-2,7.952842E-2,-9.812517E-1,-1.4084384E-2,8.5304767E-1,-1.1137992E-2,-6.123079E-2,-4.527077E-1,1.7834361E-1,-1.3479705E-2,6.1627727E-2,-6.287337E-1,3.2087915E-2,3.333673E-1,-7.957477E-1,-1.7547747E-2,-7.04151E-2,9.197319E-3,4.2324144E-2,-5.9067268E-2,1.5435481E-2],"categories":[],"categories_nodes":[],"categories_segments":[],"categories_sizes":[],"default_left":[0,0,0,0,0,0,0,0,0,0,0,0,0,0,0,0,0,0,0,0,0],"id":11,"left_children":[1,3,5,7,9,-1,-1,11,13,-1,-1,15,-1,17,19,-1,-1,-1,-1,-1,-1],"loss_changes":[4.4752603E0,5.0527353E0,5.058899E-1,5.4049864E0,3.5410318E0,0E0,0E0,4.1637344E0,6.9946012E0,0E0,0E0,3.2561269E0,0E0,2.8458805E0,3.0960855E0,0E0,0E0,0E0,0E0,0E0,0E0],"parents":[2147483647,0,0,1,1,2,2,3,3,4,4,7,7,8,8,11,11,13,13,14,14],"right_children":[2,4,6,8,10,-1,-1,12,14,-1,-1,16,-1,18,20,-1,-1,-1,-1,-1,-1],"split_conditions":[7.213903E1,2.9242857E1,1.9518516E-3,2.35E0,-2.175E1,-1.1137992E-2,-6.123079E-2,5.2878456E0,2.5032143E1,-1.3479705E-2,6.1627727E-2,1.3556066E-1,3.2087915E-2,7.55E0,2.8142857E1,-1.7547747E-2,-7.04151E-2,9.197319E-3,4.2324144E-2,-5.9067268E-2,1.5435481E-2],"split_indices":[1,3,7,6,4,0,0,2,3,0,0,7,0,4,3,0,0,0,0,0,0],"split_type":[0,0,0,0,0,0,0,0,0,0,0,0,0,0,0,0,0,0,0,0,0],"sum_hessian":[7.18308E1,6.861234E1,3.2184622E0,6.2080975E1,6.5313683E0,1.2470675E0,1.9713947E0,1.8518047E1,4.3562927E1,1.7232728E0,4.8080955E0,1.6318956E1,2.1990895E0,3.814934E1,5.413586E0,1.3100964E1,3.2179937E0,3.0597687E1,7.551656E0,3.9610534E0,1.452533E0],"tree_param":{"num_deleted":"0","num_feature":"9","num_nodes":"21","size_leaf_vector":"1"}},{"base_weights":[5.6789983E-2,1.1236788E-1,-6.0893912E-2,6.6671526E-1,5.8647497E-3,-1.4996297E-2,8.0903506E-1,-1.3622804E-1,6.2325644E-1,-5.2390243E-3,1.0350723E0,8.172104E-2,-7.9269147E-1,7.9889065E-1,-1.2658953E-2,2.521475E-2,6.1072767E-2,5.9101474E-2,-7.320653E-4,-4.9398437E-2,1.0166104E-2,9.010031E-4,5.0928343E-2],"categories":[],"categories_nodes":[],"categories_segments":[],"categories_sizes":[],"default_left":[0,0,0,0,0,0,0,0,0,0,0,0,0,0,0,0,0,0,0,0,0,0,0],"id":12,"left_children":[1,3,-1,5,7,-1,9,11,13,-1,15,17,19,21,-1,-1,-1,-1,-1,-1,-1,-1,-1],"loss_changes":[5.4256887E0,4.273624E0,0E0,1.847775E0,5.5050488E0,0E0,2.2650275E0,7.368163E0,2.0092182E0,0E0,2.211647E-1,4.1766844E0,2.6937056E0,1.7003994E0,0E0,0E0,0E0,0E0,0E0,0E0,0E0,0E0,0E0],"parents":[2147483647,0,0,1,1,3,3,4,4,6,6,7,7,8,8,10,10,11,11,12,12,13,13],"right_children":[2,4,-1,6,8,-1,10,12,14,-1,16,18,20,22,-1,-1,-1,-1,-1,-1,-1,-1,-1],"split_conditions":[2.5678718E-1,6.278801E-1,-6.0893912E-2,-1.8746485E-1,1.3895487E0,-1.4996297E-2,2.2075E1,2.1589285E1,1.2037618E-1,-5.2390243E-3,2.6592857E1,-3.784074E-1,1.2E1,-1.475E1,-1.2658953E-2,2.521475E-2,6.1072767E-2,5.9101474E-2,-7.320653E-4,-4.9398437E-2,1.0166104E-2,9.010031E-4,5.0928343E-2],"split_indices":[7,8,0,7,8,0,3,3,7,0,3,7,4,4,0,0,0,0,0,0,0,0,0],"split_type":[0,0,0,0,0,0,0,0,0,0,0,0,0,0,0,0,0,0,0,0,0,0,0],"sum_hessian":[7.365537E1,7.145178E1,2.2035851E0,1.0667505E1,6.078428E1,1.2269062E0,9.440599E0,5.004562E1,1.0738657E1,1.9784873E0,7.462112E0,3.822894E1,1.1816682E1,9.019635E0,1.7190218E0,2.9024034E0,4.5597086E0,2.1711595E0,3.605778E1,9.8864355E0,1.9302465E0,2.2178824E0,6.801753E0],"tree_param":{"num_deleted":"0","num_feature":"9","num_nodes":"23","size_leaf_vector":"1"}},{"base_weights":[3.5152514E-2,5.9217174E-2,-2.0386744E-2,5.8735037E-1,-1.3159473E-1,8.2223815E-1,-3.5411358E-2,9.771223E-2,-6.6949326E-1,-1.623691E-2,1.0226537E0,-5.613793E-2,1.6787726E-1,-6.446811E-2,-4.368156E-1,-2.0865544E-3,6.429434E-2,5.9690308E-2,4.062316E-3,-9.251288E-3,-6.3918844E-2],"categories":[],"categories_nodes":[],"categories_segments":[],"categories_sizes":[],"default_left":[0,0,0,0,0,0,0,0,0,0,0,0,0,0,0,0,0,0,0,0,0],"id":13,"left_children":[1,-1,3,5,7,9,-1,11,13,-1,15,-1,17,-1,19,-1,-1,-1,-1,-1,-1],"loss_changes":[4.6886663E0,0E0,4.855341E0,3.9658763E0,7.537355E0,2.6020522E0,0E0,3.9002895E0,2.0665684E0,0E0,2.47641E0,0E0,3.6232548E0,0E0,2.8930569E0,0E0,0E0,0E0,0E0,0E0,0E0],"parents":[2147483647,0,0,2,2,3,3,4,4,5,5,7,7,8,8,10,10,12,12,14,14],"right_children":[2,-1,4,6,8,10,-1,12,14,-1,16,-1,18,-1,20,-1,-1,-1,-1,-1,-1],"split_conditions":[-3.6834925E-1,5.9217174E-2,6.278801E-1,6.920441E1,1.5327066E0,-1.818584E-1,-3.5411358E-2,-1.817151E1,2.4620018E0,-1.623691E-2,3.317938E-1,-5.613793E-2,-2.2930378E-1,-6.446811E-2,2.8396475E1,-2.0865544E-3,6.429434E-2,5.9690308E-2,4.062316E-3,-9.251288E-3,-6.3918844E-2],"split_indices":[7,0,8,1,2,7,0,0,2,0,8,0,7,0,0,0,0,0,0,0,0],"split_type":[0,0,0,0,0,0,0,0,0,0,0,0,0,0,0,0,0,0,0,0,0],"sum_hessian":[7.208275E1,2.3861098E0,6.969664E1,1.0118548E1,5.957809E1,8.874885E0,1.2436639E0,4.2344788E1,1.7233303E1,1.2278106E0,7.647074E0,1.4864994E0,4.0858288E1,3.4638817E0,1.3769423E1,1.6830633E0,5.964011E0,2.1863244E0,3.8671963E1,1.1537373E1,2.2320492E0],"tree_param":{"num_deleted":"0","num_feature":"9","num_nodes":"21","size_leaf_vector":"1"}},{"base_weights":[-6.0655344E-2,5.6846486E-3,-6.4497605E-2,5.044893E-2,-5.3105433E-2,-1.905303E-1,3.958812E-1,-2.9885888E-1,4.7988603E-1,6.3756615E-1,-3.315183E-2,-4.7885915E-3,-4.2870652E-2,5.4380644E-2,-1.351015E-2,4.2316925E-2,-1.448556E-3],"categories":[],"categories_nodes":[],"categories_segments":[],"categories_sizes":[],"default_left":[0,0,0,0,0,0,0,0,0,0,0,0,0,0,0,0,0],"id":14,"left_children":[1,3,-1,-1,5,7,9,11,13,15,-1,-1,-1,-1,-1,-1,-1],"loss_changes":[5.869043E0,4.1348243E0,0E0,0E0,4.1670437E0,3.8797998E0,4.4830217E0,5.0119114E0,3.7311828E0,1.8929243E0,0E0,0E0,0E0,0E0,0E0,0E0,0E0],"parents":[2147483647,0,0,1,1,4,4,5,5,6,6,7,7,8,8,9,9],"right_children":[2,4,-1,-1,6,8,10,12,14,16,-1,-1,-1,-1,-1,-1,-1],"split_conditions":[7.213903E1,-7.628286E0,-6.4497605E-2,5.044893E-2,6.85E0,1.662717E0,1.2522889E0,1.0325098E0,-1.756218E-1,4.5E0,-3.315183E-2,-4.7885915E-3,-4.2870652E-2,5.4380644E-2,-1.351015E-2,4.2316925E-2,-1.448556E-3],"split_indices":[1,2,0,0,5,8,8,8,2,6,0,0,0,0,0,0,0],"split_type":[0,0,0,0,0,0,0,0,0,0,0,0,0,0,0,0,0],"sum_hessian":[7.087737E1,6.819267E1,2.6846972E0,2.8800588E0,6.5312614E1,5.0447422E1,1.4865194E1,4.3906975E1,6.5404477E0,1.2426831E1,2.438363E0,3.305854E1,1.0848433E1,3.364517E0,3.1759307E0,9.257462E0,3.1693692E0],"tree_param":{"num_deleted":"0","num_feature":"9","num_nodes":"17","size_leaf_vector":"1"}},{"base_weights":[1.1210297E-1,1.664063E-1,-5.7601508E-2,2.1268953E-1,-5.4693203E-2,-1.189278E-2,5.4724E-1,8.725662E-2,-5.7576645E-2,6.943422E-2,3.743805E-1,4.3271136E-2,-1.5146282E-3,-1.6354034E-2,2.6620546E-2],"categories":[],"categories_nodes":[],"categories_segments":[],"categories_sizes":[],"default_left":[0,0,0,0,0,0,0,0,0,0,0,0,0,0,0],"id":15,"left_children":[1,3,-1,5,-1,7,9,11,-1,-1,13,-1,-1,-1,-1],"loss_changes":[5.253127E0,4.4072E0,0E0,5.2561636E0,0E0,4.9349413E0,3.565196E0,3.7116606E0,0E0,0E0,2.908674E0,0E0,0E0,0E0,0E0],"parents":[2147483647,0,0,1,1,3,3,5,5,6,6,7,7,10,10],"right_children":[2,4,-1,6,-1,8,10,12,-1,-1,14,-1,-1,-1,-1],"split_conditions":[2.5678718E-1,1.411465E1,-5.7601508E-2,6.7904844E0,-5.4693203E-2,5.291477E0,8.709549E0,-3.3164018E-1,-5.7576645E-2,6.943422E-2,1.75E0,4.3271136E-2,-1.5146282E-3,-1.6354034E-2,2.6620546E-2],"split_indices":[7,2,0,0,0,0,0,7,0,0,6,0,0,0,0],"split_type":[0,0,0,0,0,0,0,0,0,0,0,0,0,0,0],"sum_hessian":[7.273153E1,7.056848E1,2.1630452E0,6.887046E1,1.6980217E0,4.1784893E1,2.7085567E1,3.9290066E1,2.4948254E0,3.4172928E0,2.3668276E1,4.3212852E0,3.496878E1,4.155081E0,1.9513195E1],"tree_param":{"num_deleted":"0","num_feature":"9","num_nodes":"15","size_leaf_vector":"1"}},{"base_weights":[5.5872247E-2,1.2010483E-1,-5.330024E-2,1.6690397E-1,-5.3286146E-2,-1.9611886E-1,3.8121954E-1,-9.824304E-3,-9.0205663E-1,1.2841561E-2,7.127206E-1,2.056905E-2,-4.092242E-2,-7.294398E-2,6.903554E-3,-1.598882E-2,2.654922E-2,2.920234E-3,4.4210173E-2],"categories":[],"categories_nodes":[],"categories_segments":[],"categories_sizes":[],"default_left":[0,0,0,0,0,0,0,0,0,0,0,0,0,0,0,0,0,0,0],"id":16,"left_children":[1,3,-1,5,-1,7,9,11,13,15,17,-1,-1,-1,-1,-1,-1,-1,-1],"loss_changes":[5.1707363E0,3.9009345E0,0E0,5.163355E0,0E0,3.2709825E0,5.054506E0,7.4017577E0,3.2109218E0,3.7301795E0,2.3951645E0,0E0,0E0,0E0,0E0,0E0,0E0,0E0,0E0],"parents":[2147483647,0,0,1,1,3,3,5,5,6,6,7,7,8,8,9,9,10,10],"right_children":[2,4,-1,6,-1,8,10,12,14,16,18,-1,-1,-1,-1,-1,-1,-1,-1],"split_conditions":[2.2456868E-1,1.411465E1,-5.330024E-2,1.7457144E1,-5.3286146E-2,1.0995538E1,9.0238583E-1,1.5014286E1,1.6060715E1,2.3825E1,1.9518516E-3,2.056905E-2,-4.092242E-2,-7.294398E-2,6.903554E-3,-1.598882E-2,2.654922E-2,2.920234E-3,4.4210173E-2],"split_indices":[7,2,0,3,0,0,0,3,3,3,7,0,0,0,0,0,0,0,0],"split_type":[0,0,0,0,0,0,0,0,0,0,0,0,0,0,0,0,0,0,0],"sum_hessian":[6.897821E1,6.608735E1,2.8908598E0,6.440484E1,1.6825103E0,2.3939436E1,4.0465405E1,1.9743193E1,4.1962442E0,1.9658636E1,2.0806768E1,1.3304336E1,6.438856E0,2.4708831E0,1.7253612E0,1.2205955E1,7.452681E0,4.599052E0,1.6207716E1],"tree_param":{"num_deleted":"0","num_feature":"9","num_nodes":"19","size_leaf_vector":"1"}},{"base_weights":[-4.4294156E-2,1.25157405E-2,-5.086294E-2,-6.460336E-2,5.8911115E-1,3.9029635E-2,-8.0497116E-1,-1.2082487E-2,7.75353E-1,-4.440763E-2,5.2893557E-2,1.620309E-2,-1.1390092E0,-1.8594166E-3,4.756696E-2,-5.8412254E-2,9.489908E-4,-7.219206E-2,-1.752094E-2],"categories":[],"categories_nodes":[],"categories_segments":[],"categories_sizes":[],"default_left":[0,0,0,0,0,0,0,0,0,0,0,0,0,0,0,0,0,0,0],"id":17,"left_children":[1,3,-1,5,7,9,11,-1,13,15,-1,-1,17,-1,-1,-1,-1,-1,-1],"loss_changes":[3.869985E0,3.0138583E0,0E0,4.6295295E0,1.4241662E0,4.5970035E0,3.1617332E0,0E0,1.0030937E0,3.61481E0,0E0,0E0,9.209032E-1,0E0,0E0,0E0,0E0,0E0,0E0],"parents":[2147483647,0,0,1,1,3,3,4,4,5,5,6,6,8,8,9,9,12,12],"right_children":[2,4,-1,6,8,10,12,-1,14,16,-1,-1,18,-1,-1,-1,-1,-1,-1],"split_conditions":[7.213903E1,2.8142857E1,-5.086294E-2,2.4764286E1,-1.355E1,2.3707144E1,2.35E0,-1.2082487E-2,-1.7064247E1,1.5E-1,5.2893557E-2,1.620309E-2,6.7E0,-1.8594166E-3,4.756696E-2,-5.8412254E-2,9.489908E-4,-7.219206E-2,-1.752094E-2],"split_indices":[1,3,0,3,4,3,6,0,0,6,0,0,5,0,0,0,0,0,0],"split_type":[0,0,0,0,0,0,0,0,0,0,0,0,0,0,0,0,0,0,0],"sum_hessian":[6.878421E1,6.592225E1,2.8619616E0,5.8928566E1,6.993684E0,5.2523827E1,6.4047403E0,1.2262588E0,5.767425E0,4.943204E1,3.0917866E0,1.469104E0,4.935636E0,1.1671755E0,4.6002493E0,1.7086173E0,4.7723423E1,2.9603798E0,1.9752563E0],"tree_param":{"num_deleted":"0","num_feature":"9","num_nodes":"19","size_leaf_vector":"1"}},{"base_weights":[4.207704E-2,1.8034486E-1,-6.5975773E-1,5.81947E-2,6.533923E-1,-4.6353646E-2,-9.5012E-1,1.9241324E-1,-4.7793067E-1,2.276859E-1,5.927756E-2,6.148505E-1,-4.2909723E-2,-5.544394E-2,-5.5487896E-3,3.681799E-1,-2.4262835E-1,-6.596931E-1,2.6590625E-2,-5.3339183E-2,5.996425E-1,3.563052E-3,4.4231392E-2,3.3291464E-3,3.7737828E-2,-3.2775212E-2,1.3967459E-2,-4.7230013E-2,1.9540599E-2,-9.218182E-3,4.6486925E-2],"categories":[],"categories_nodes":[],"categories_segments":[],"categories_sizes":[],"default_left":[0,0,0,0,0,0,0,0,0,0,0,0,0,0,0,0,0,0,0,0,0,0,0,0,0,0,0,0,0,0,0],"id":18,"left_children":[1,3,5,7,9,11,13,15,17,19,-1,21,-1,-1,-1,23,25,27,-1,-1,29,-1,-1,-1,-1,-1,-1,-1,-1,-1,-1],"loss_changes":[7.3744006E0,3.6165278E0,2.1858969E0,3.7880306E0,2.648407E0,3.251204E0,1.0021739E0,3.2850604E0,2.2910333E0,4.6815467E0,0E0,4.3246853E-1,0E0,0E0,0E0,3.4665532E0,2.9048448E0,3.1840615E0,0E0,0E0,2.0246542E0,0E0,0E0,0E0,0E0,0E0,0E0,0E0,0E0,0E0,0E0],"parents":[2147483647,0,0,1,1,2,2,3,3,4,4,5,5,6,6,7,7,8,8,9,9,11,11,15,15,16,16,17,17,20,20],"right_children":[2,4,6,8,10,12,14,16,18,20,-1,22,-1,-1,-1,24,26,28,-1,-1,30,-1,-1,-1,-1,-1,-1,-1,-1,-1,-1],"split_conditions":[1.4712198E-1,7.6E0,8.707807E-1,3.7E0,4E0,2.0801033E1,1.5039252E0,2.2860714E1,4.1101108E0,-1.6998303E-1,5.927756E-2,1.1256763E1,-4.2909723E-2,-5.544394E-2,-5.5487896E-3,1.774643E1,2.8142857E1,1.1063966E-1,2.6590625E-2,-5.3339183E-2,1.215E1,3.563052E-3,4.4231392E-2,3.3291464E-3,3.7737828E-2,-3.2775212E-2,1.3967459E-2,-4.7230013E-2,1.9540599E-2,-9.218182E-3,4.6486925E-2],"split_indices":[7,4,8,4,6,0,8,3,2,7,0,0,0,0,0,3,3,7,0,0,4,0,0,0,0,0,0,0,0,0,0],"split_type":[0,0,0,0,0,0,0,0,0,0,0,0,0,0,0,0,0,0,0,0,0,0,0,0,0,0,0,0,0,0,0],"sum_hessian":[7.376639E1,6.224633E1,1.1520054E1,5.03643E1,1.1882031E1,4.0737348E0,7.446319E0,4.0792927E1,9.571371E0,7.39454E0,4.4874916E0,2.3788915E0,1.6948432E0,5.991365E0,1.4549541E0,2.9163788E1,1.162914E1,8.40506E0,1.166311E0,1.2335505E0,6.1609893E0,1.2083223E0,1.1705692E0,1.7041048E1,1.212274E1,6.350325E0,5.278815E0,6.6911654E0,1.7138948E0,1.9562387E0,4.2047505E0],"tree_param":{"num_deleted":"0","num_feature":"9","num_nodes":"31","size_leaf_vector":"1"}},{"base_weights":[7.323091E-2,1.8953846E-1,-4.5659018E-1,-2.3639467E-1,2.8779465E-1,-5.3099204E-2,-1.7679483E-1,4.584496E-1,-1.0874482E0,3.8522255E-1,-4.708357E-1,4.476195E-1,-7.0527077E-1,4.5231346E-2,2.1539368E-2,-4.851478E-3,-7.040243E-2,9.8110014E-1,2.6600823E-1,-9.7272485E-1,4.431074E-2,-2.5345435E-2,5.104513E-2,-9.438748E-1,1.7561589E-3,-3.2840505E-2,3.8162466E-2,7.4147517E-3,5.659033E-2,-3.8578104E-2,1.870459E-2,-5.775853E-2,-1.13480305E-2,2.546522E-2,-2.2430416E-2,-6.2460143E-2,-8.174418E-3],"categories":[],"categories_nodes":[],"categories_segments":[],"categories_sizes":[],"default_left":[0,0,0,0,0,0,0,0,0,0,0,0,0,0,0,0,0,0,0,0,0,0,0,0,0,0,0,0,0,0,0,0,0,0,0,0,0],"id":19,"left_children":[1,3,5,7,9,-1,11,13,15,17,19,21,23,-1,25,-1,-1,27,29,31,-1,33,-1,35,-1,-1,-1,-1,-1,-1,-1,-1,-1,-1,-1,-1,-1],"loss_changes":[4.589004E0,2.6050122E0,2.0897574E0,7.5426254E0,3.8553877E0,0E0,3.7460508E0,1.3960114E0,1.6576242E0,2.9073339E0,5.021635E0,1.4837867E0,1.0963833E0,0E0,2.862588E0,0E0,0E0,7.1869135E-1,4.6103745E0,4.0930128E-1,0E0,1.1160191E0,0E0,8.8885784E-1,0E0,0E0,0E0,0E0,0E0,0E0,0E0,0E0,0E0,0E0,0E0,0E0,0E0],"parents":[2147483647,0,0,1,1,2,2,3,3,4,4,6,6,7,7,8,8,9,9,10,10,11,11,12,12,14,14,17,17,18,18,19,19,21,21,23,23],"right_children":[2,4,6,8,10,-1,12,14,16,18,20,22,24,-1,26,-1,-1,28,30,32,-1,34,-1,36,-1,-1,-1,-1,-1,-1,-1,-1,-1,-1,-1,-1,-1],"split_conditions":[1.446047E-1,3.757082E1,1.6E0,3.397688E1,1.005E1,-5.3099204E-2,4.1E0,-7.271198E0,-1.09E1,-1.13E1,6.55E0,5.75E0,8.55E0,4.5231346E-2,-5.9701066E0,-4.851478E-3,-7.040243E-2,1.8485714E1,-7.9E0,6.40021E-2,4.431074E-2,1.6422148E-1,5.104513E-2,4.05E0,1.7561589E-3,-3.2840505E-2,3.8162466E-2,7.4147517E-3,5.659033E-2,-3.8578104E-2,1.870459E-2,-5.775853E-2,-1.13480305E-2,2.546522E-2,-2.2430416E-2,-6.2460143E-2,-8.174418E-3],"split_indices":[7,1,6,1,6,0,6,2,4,4,4,4,6,0,2,0,0,3,4,7,0,7,0,4,0,0,0,0,0,0,0,0,0,0,0,0,0],"split_type":[0,0,0,0,0,0,0,0,0,0,0,0,0,0,0,0,0,0,0,0,0,0,0,0,0,0,0,0,0,0,0,0,0,0,0,0,0],"sum_hessian":[7.20656E1,5.9619946E1,1.2445651E1,1.0911878E1,4.870807E1,3.0502477E0,9.395403E0,6.2612133E0,4.650664E0,4.3600803E1,5.107267E0,4.3769135E0,5.0184894E0,2.5681164E0,3.693097E0,1.4558398E0,3.194824E0,6.0634937E0,3.7537308E1,3.9351168E0,1.1721501E0,2.9220111E0,1.4549025E0,3.5875237E0,1.4309655E0,1.9887244E0,1.7043729E0,1.2331423E0,4.830352E0,2.9622273E0,3.457508E1,2.7205732E0,1.2145437E0,1.2012967E0,1.7207144E0,2.1468244E0,1.4406995E0],"tree_param":{"num_deleted":"0","num_feature":"9","num_nodes":"37","size_leaf_vector":"1"}},{"base_weights":[2.801837E-2,-3.8361704E-1,1.7365764E-1,4.4315845E-1,-7.169279E-1,2.388769E-1,-5.210743E-2,6.7982715E-1,-1.5561883E-2,3.723479E-2,-9.91862E-1,-2.350792E-1,4.1283894E-1,4.720951E-2,4.9311123E-3,-1.6282348E-1,-1.1954981E0,1.6747749E-1,-8.141307E-1,8.4902066E-1,2.1736242E-1,-5.0801415E-2,3.4021977E-2,-7.295544E-2,-1.2562974E-2,-3.994042E-2,2.7871478E-2,7.916361E-3,-5.3960234E-2,1.5334779E-2,6.493712E-2,-1.8006416E-2,2.2286125E-2],"categories":[],"categories_nodes":[],"categories_segments":[],"categories_sizes":[],"default_left":[0,0,0,0,0,0,0,0,0,0,0,0,0,0,0,0,0,0,0,0,0,0,0,0,0,0,0,0,0,0,0,0,0],"id":20,"left_children":[1,3,5,7,9,11,-1,13,-1,-1,15,17,19,-1,-1,21,23,25,27,29,31,-1,-1,-1,-1,-1,-1,-1,-1,-1,-1,-1,-1],"loss_changes":[4.571169E0,5.8149476E0,4.7044544E0,1.3452349E0,6.605204E0,4.561124E0,0E0,6.977513E-1,0E0,0E0,1.9521561E0,3.6734524E0,3.2232943E0,0E0,0E0,3.3284106E0,2.1352339E0,4.1306643E0,1.8189435E0,2.534461E0,3.9774914E0,0E0,0E0,0E0,0E0,0E0,0E0,0E0,0E0,0E0,0E0,0E0,0E0],"parents":[2147483647,0,0,1,1,2,2,3,3,4,4,5,5,7,7,10,10,11,11,12,12,15,15,16,16,17,17,18,18,19,19,20,20],"right_children":[2,4,6,8,10,12,-1,14,-1,-1,16,18,20,-1,-1,22,24,26,28,30,32,-1,-1,-1,-1,-1,-1,-1,-1,-1,-1,-1,-1],"split_conditions":[-1.1455868E-1,1.7E0,2.3904634E-1,-3.15E0,-3.5412157E-1,-5.45E0,-5.210743E-2,7E-1,-1.5561883E-2,3.723479E-2,-6.228855E0,3.9E0,5.3043938E1,4.720951E-2,4.9311123E-3,-1.9425084E-1,7.1E0,1.45E0,1E0,4.953156E1,5.66646E1,-5.0801415E-2,3.4021977E-2,-7.295544E-2,-1.2562974E-2,-3.994042E-2,2.7871478E-2,7.916361E-3,-5.3960234E-2,1.5334779E-2,6.493712E-2,-1.8006416E-2,2.2286125E-2],"split_indices":[7,5,7,4,7,4,0,5,0,0,2,6,1,0,0,7,5,5,5,1,1,0,0,0,0,0,0,0,0,0,0,0,0],"split_type":[0,0,0,0,0,0,0,0,0,0,0,0,0,0,0,0,0,0,0,0,0,0,0,0,0,0,0,0,0,0,0,0,0],"sum_hessian":[7.4138115E1,1.8948364E1,5.5189754E1,5.34947E0,1.3598893E1,5.3142563E1,2.047192E0,4.1472445E0,1.2022254E0,1.8824817E0,1.1716412E1,1.4174122E1,3.896844E1,2.4213474E0,1.7258971E0,2.665257E0,9.051155E0,8.780612E0,5.39351E0,1.1024744E1,2.7943697E1,1.2229806E0,1.4422764E0,6.649488E0,2.4016664E0,2.2231805E0,6.5574317E0,1.241524E0,4.1519856E0,5.7602973E0,5.2644467E0,7.7551036E0,2.0188593E1],"tree_param":{"num_deleted":"0","num_feature":"9","num_nodes":"33","size_leaf_vector":"1"}},{"base_weights":[-3.539935E-2,-1.2435494E-1,8.616018E-1,4.3886673E-2,-1.7479739E-1,5.583321E-2,-1.5879375E-3,-9.9671584E-1,-8.228684E-2,-1.1348438E0,-1.1298795E-2,7.616626E-1,-1.6015592E-1,-1.2544676E-2,-6.742733E-2,-5.224515E-3,5.6204826E-2,7.2702864E-4,-2.9172767E-2],"categories":[],"categories_nodes":[],"categories_segments":[],"categories_sizes":[],"default_left":[0,0,0,0,0,0,0,0,0,0,0,0,0,0,0,0,0,0,0],"id":21,"left_children":[1,3,5,-1,7,-1,-1,9,11,13,-1,15,17,-1,-1,-1,-1,-1,-1],"loss_changes":[5.8721433E0,3.520138E0,1.5495276E0,0E0,4.8030353E0,0E0,0E0,4.2593098E-1,3.988595E0,6.4147806E-1,0E0,1.73224E0,4.052965E0,0E0,0E0,0E0,0E0,0E0,0E0],"parents":[2147483647,0,0,1,1,2,2,4,4,7,7,8,8,9,9,11,11,12,12],"right_children":[2,4,6,-1,8,-1,-1,10,12,14,-1,16,18,-1,-1,-1,-1,-1,-1],"split_conditions":[1.8810292E0,-7.628286E0,1.5327066E0,4.3886673E-2,-5.630377E0,5.583321E-2,-1.5879375E-3,6.35E0,4.496E-1,4E-1,-1.1298795E-2,2.3185715E1,2.2007143E1,-1.2544676E-2,-6.742733E-2,-5.224515E-3,5.6204826E-2,7.2702864E-4,-2.9172767E-2],"split_indices":[8,2,2,0,2,0,0,5,8,5,0,3,3,0,0,0,0,0,0],"split_type":[0,0,0,0,0,0,0,0,0,0,0,0,0,0,0,0,0,0,0],"sum_hessian":[7.124918E1,6.5604546E1,5.644636E0,2.3580904E0,6.3246456E1,4.1965303E0,1.4481058E0,5.40967E0,5.7836784E1,4.1869063E0,1.2227638E0,4.1438785E0,5.369291E1,1.2384143E0,2.9484918E0,1.4323984E0,2.7114801E0,3.8690792E1,1.5002116E1],"tree_param":{"num_deleted":"0","num_feature":"9","num_nodes":"19","size_leaf_vector":"1"}},{"base_weights":[-1.2780725E-2,8.814637E-2,-5.103987E-1,1.2042387E-2,8.371344E-1,-1.1499933E-1,-4.7961317E-2,-2.621515E-1,2.2812472E-1,1.0228096E0,3.6782988E-3,-5.268642E-2,3.6279422E-1,4.993337E-2,-4.0188083E-1,3.7803024E-1,-6.41392E-1,1.6462889E-2,5.7634886E-2,5.4593947E-2,-1.9855662E-1,1.1923028E-2,-3.1211058E-2,-1.986642E-3,5.104328E-2,-5.5332996E-2,2.5130082E-2,3.2968473E-2,-4.5113143E-2],"categories":[],"categories_nodes":[],"categories_segments":[],"categories_sizes":[],"default_left":[0,0,0,0,0,0,0,0,0,0,0,0,0,0,0,0,0,0,0,0,0,0,0,0,0,0,0,0,0],"id":22,"left_children":[1,3,5,7,9,11,-1,13,15,17,-1,-1,19,-1,21,23,25,-1,-1,-1,27,-1,-1,-1,-1,-1,-1,-1,-1],"loss_changes":[3.6826477E0,3.4709384E0,2.0832522E0,3.4044504E0,7.212894E-1,3.8392763E0,0E0,4.8665247E0,4.427312E0,2.060318E-2,0E0,0E0,2.611734E0,0E0,3.498873E0,7.5637646E0,3.2664814E0,0E0,0E0,0E0,3.101775E0,0E0,0E0,0E0,0E0,0E0,0E0,0E0,0E0],"parents":[2147483647,0,0,1,1,2,2,3,3,4,4,5,5,7,7,8,8,9,9,12,12,14,14,15,15,16,16,20,20],"right_children":[2,4,6,8,10,12,-1,14,16,18,-1,-1,20,-1,22,24,26,-1,-1,-1,28,-1,-1,-1,-1,-1,-1,-1,-1],"split_conditions":[1.4712198E-1,1.8810292E0,1.7037245E0,5.400591E-1,3.2706373E0,1.45E0,-4.7961317E-2,-3.784074E-1,2.8396475E1,-1.1012819E1,3.6782988E-3,-5.268642E-2,1.003812E0,4.993337E-2,1.85E0,2.0328571E1,3.4264286E1,1.6462889E-2,5.7634886E-2,5.4593947E-2,2.85E0,1.1923028E-2,-3.1211058E-2,-1.986642E-3,5.104328E-2,-5.5332996E-2,2.5130082E-2,3.2968473E-2,-4.5113143E-2],"split_indices":[7,8,2,0,8,6,0,7,0,0,0,0,8,0,6,3,3,0,0,0,6,0,0,0,0,0,0,0,0],"split_type":[0,0,0,0,0,0,0,0,0,0,0,0,0,0,0,0,0,0,0,0,0,0,0,0,0,0,0,0,0],"sum_hessian":[7.142993E1,6.0069473E1,1.1360455E1,5.5451206E1,4.6182675E0,6.707572E0,4.6528826E0,2.4345371E1,3.1105835E1,3.4418166E0,1.1764511E0,1.8558829E0,4.8516893E0,1.8155922E0,2.252978E1,2.701386E1,4.0919743E0,1.1005014E0,2.3413153E0,1.6994045E0,3.1522846E0,5.7879486E0,1.674183E1,1.6941914E1,1.0071947E1,2.9321065E0,1.1598679E0,1.4488808E0,1.7034038E0],"tree_param":{"num_deleted":"0","num_feature":"9","num_nodes":"29","size_leaf_vector":"1"}},{"base_weights":[1.0757832E-2,1.0869958E-1,-4.9232954E-1,5.3833008E-2,6.150423E-2,-6.502632E-2,-1.07385814E-1,3.640869E-3,8.044765E-1,2.5435075E-1,-5.217405E-2,-5.6745714E-1,9.575571E-2,1.0172543E-2,5.112615E-2,-4.4546336E-2,6.4445597E-1,-4.0622108E-2,2.5182415E-2,1.7239854E-2,-1.0909446E-2,-2.0625633E-3,4.77329E-2],"categories":[],"categories_nodes":[],"categories_segments":[],"categories_sizes":[],"default_left":[0,0,0,0,0,0,0,0,0,0,0,0,0,0,0,0,0,0,0,0,0,0,0],"id":23,"left_children":[1,3,5,-1,7,-1,9,11,13,15,-1,17,19,-1,-1,-1,21,-1,-1,-1,-1,-1,-1],"loss_changes":[3.724575E0,2.8201523E0,3.6937804E0,0E0,2.6326468E0,0E0,3.4607666E0,3.099233E0,3.7187052E-1,3.974273E0,0E0,2.556576E0,4.0389833E0,0E0,0E0,0E0,1.3702817E0,0E0,0E0,0E0,0E0,0E0,0E0],"parents":[2147483647,0,0,1,1,2,2,4,4,6,6,7,7,8,8,9,9,11,11,12,12,16,16],"right_children":[2,4,6,-1,8,-1,10,12,14,16,-1,18,20,-1,-1,-1,22,-1,-1,-1,-1,-1,-1],"split_conditions":[1.4712198E-1,-7.98665E0,-3.9E0,5.3833008E-2,1.255E1,-6.502632E-2,7.25E0,-5.630377E0,3.9370033E1,1.2E0,-5.217405E-2,4.6E0,4.85E0,1.0172543E-2,5.112615E-2,-4.4546336E-2,2.15E0,-4.0622108E-2,2.5182415E-2,1.7239854E-2,-1.0909446E-2,-2.0625633E-3,4.77329E-2],"split_indices":[7,2,4,0,5,0,5,2,1,6,0,4,6,0,0,0,5,0,0,0,0,0,0],"split_type":[0,0,0,0,0,0,0,0,0,0,0,0,0,0,0,0,0,0,0,0,0,0,0],"sum_hessian":[7.350408E1,6.2182285E1,1.1321798E1,1.8768053E0,6.030548E1,2.8853874E0,8.436412E0,5.6880478E1,3.4250033E0,6.610278E0,1.8261335E0,7.1835065E0,4.969697E1,1.4263788E0,1.9986244E0,1.3533319E0,5.256946E0,6.0428643E0,1.1406419E0,2.7658318E1,2.2038654E1,1.9074689E0,3.349477E0],"tree_param":{"num_deleted":"0","num_feature":"9","num_nodes":"23","size_leaf_vector":"1"}},{"base_weights":[-1.1866152E-2,4.8406762E-1,-9.665297E-2,-2.061985E-1,8.027588E-1,4.7024176E-1,-2.1181035E-1,-3.9544445E-2,1.3776528E-2,1.0399877E0,-4.833242E-3,7.003985E-1,-3.83146E-2,-3.0724064E-1,6.021785E-1,6.010775E-2,1.4866008E-2,-1.5940484E-2,8.811958E-1,-1.8791583E-1,-9.182935E-1,-2.3682235E-2,5.1976245E-2,1.9936028E-3,5.781998E-2,-1.3734894E-2,4.5465942E-2,-5.474865E-2,3.4562007E-3],"categories":[],"categories_nodes":[],"categories_segments":[],"categories_sizes":[],"default_left":[0,0,0,0,0,0,0,0,0,0,0,0,0,0,0,0,0,0,0,0,0,0,0,0,0,0,0,0,0],"id":24,"left_children":[1,3,5,7,9,11,13,-1,-1,15,-1,17,-1,19,21,-1,-1,-1,23,25,27,-1,-1,-1,-1,-1,-1,-1,-1],"loss_changes":[3.1900332E0,2.6030414E0,4.321533E0,1.4278083E0,1.7616048E0,3.732661E0,4.4140506E0,0E0,0E0,3.9472818E-1,0E0,2.1217947E0,0E0,3.428763E0,3.339299E0,0E0,0E0,0E0,1.9799576E0,4.3042235E0,1.4385457E0,0E0,0E0,0E0,0E0,0E0,0E0,0E0,0E0],"parents":[2147483647,0,0,1,1,2,2,3,3,4,4,5,5,6,6,9,9,11,11,13,13,14,14,18,18,19,19,20,20],"right_children":[2,4,6,8,10,12,14,-1,-1,16,-1,18,-1,20,22,-1,-1,-1,24,26,28,-1,-1,-1,-1,-1,-1,-1,-1],"split_conditions":[6.333105E-1,2.85E0,1.4428572E1,-1.8092816E0,1.115E1,1.0995538E1,1.9213853E0,-3.9544445E-2,1.3776528E-2,2.531924E1,-4.833242E-3,7.978528E-1,-3.83146E-2,2.5592857E1,1.76E1,6.010775E-2,1.4866008E-2,-1.5940484E-2,3.87292E1,5.2878456E0,1.2E1,-2.3682235E-2,5.1976245E-2,1.9936028E-3,5.781998E-2,-1.3734894E-2,4.5465942E-2,-5.474865E-2,3.4562007E-3],"split_indices":[8,5,3,2,5,0,8,0,0,0,0,8,0,3,3,0,0,0,1,2,4,0,0,0,0,0,0,0,0],"split_type":[0,0,0,0,0,0,0,0,0,0,0,0,0,0,0,0,0,0,0,0,0,0,0,0,0,0,0,0,0],"sum_hessian":[7.3752625E1,1.0080527E1,6.3672096E1,3.2955484E0,6.7849784E0,1.0229757E1,5.344234E1,1.1987793E0,2.096769E0,5.245232E0,1.5397466E0,8.990019E0,1.2397386E0,4.8391567E1,5.050772E0,3.7973518E0,1.4478801E0,1.2394595E0,7.7505593E0,4.157955E1,6.812018E0,1.4358197E0,3.6149526E0,2.1925654E0,5.557994E0,3.9226692E1,2.3528562E0,5.6857376E0,1.1262804E0],"tree_param":{"num_deleted":"0","num_feature":"9","num_nodes":"29","size_leaf_vector":"1"}},{"base_weights":[-1.3501776E-2,-1.160588E-1,6.1929417E-1,-4.488752E-2,-9.1909534E-1,1.0028886E0,-2.8950602E-2,-3.3706716E-1,8.484654E-2,-1.4403644E-3,-6.216644E-2,-2.809636E-3,5.8991786E-2,1.4123629E-1,-8.4143746E-1,5.1939803E-1,-7.104485E-2,-1.7989576E-2,2.8103745E-2,-5.9976406E-2,9.165658E-3,-2.5148923E-2,5.148902E-2,4.546934E-2,-8.931606E-3],"categories":[],"categories_nodes":[],"categories_segments":[],"categories_sizes":[],"default_left":[0,0,0,0,0,0,0,0,0,0,0,0,0,0,0,0,0,0,0,0,0,0,0,0,0],"id":25,"left_children":[1,3,5,7,9,11,-1,13,15,-1,-1,-1,-1,17,19,21,23,-1,-1,-1,-1,-1,-1,-1,-1],"loss_changes":[4.856884E0,3.6331594E0,5.379988E0,2.3070314E0,1.4602289E0,1.6170683E0,0E0,4.626131E0,2.9108434E0,0E0,0E0,0E0,0E0,2.4047713E0,3.6097188E0,6.425487E0,3.5487256E0,0E0,0E0,0E0,0E0,0E0,0E0,0E0,0E0],"parents":[2147483647,0,0,1,1,2,2,3,3,4,4,5,5,7,7,8,8,13,13,14,14,15,15,16,16],"right_children":[2,4,6,8,10,12,-1,14,16,-1,-1,-1,-1,18,20,22,24,-1,-1,-1,-1,-1,-1,-1,-1],"split_conditions":[2.8142857E1,2.6117857E1,8.3967285E0,2.35E0,2.35E0,7.5E-1,-2.8950602E-2,-8.5E-1,3.85E0,-1.4403644E-3,-6.216644E-2,-2.809636E-3,5.8991786E-2,8.8496953E-1,1.62E1,-7.407196E-1,-6.862911E0,-1.7989576E-2,2.8103745E-2,-5.9976406E-2,9.165658E-3,-2.5148923E-2,5.148902E-2,4.546934E-2,-8.931606E-3],"split_indices":[3,3,2,6,6,5,0,4,6,0,0,0,0,8,4,0,2,0,0,0,0,0,0,0,0],"split_type":[0,0,0,0,0,0,0,0,0,0,0,0,0,0,0,0,0,0,0,0,0,0,0,0,0],"sum_hessian":[7.2731606E1,6.3290695E1,9.4409075E0,5.9107986E1,4.1827073E0,7.27512E0,2.1657877E0,1.768368E1,4.142431E1,1.407315E0,2.7753925E0,1.1391861E0,6.1359334E0,9.445919E0,8.23776E0,1.0321382E1,3.1102928E1,4.378351E0,5.0675683E0,5.9781785E0,2.2595809E0,3.4416738E0,6.8797083E0,2.3386354E0,2.8764292E1],"tree_param":{"num_deleted":"0","num_feature":"9","num_nodes":"25","size_leaf_vector":"1"}},{"base_weights":[3.0313408E-2,1.0331505E-1,-6.230817E-1,-5.1665083E-2,3.7379563E-1,-5.595392E-2,-1.2603892E-1,5.025946E-2,-1.2420904E-1,1.2123967E-1,1.0285214E0,2.8026605E-2,-5.2017653E-1,-1.18916165E-2,-6.995845E-1,3.8336092E-1,-7.4053603E-1,6.0861077E-2,4.668438E-3,-4.5594133E-2,2.3318115E-3,-1.313586E-2,2.8611837E-2,-7.6385112E-3,-5.4689687E-2,-2.3017772E-3,2.9913513E-2,-6.486976E-2,2.092401E-3],"categories":[],"categories_nodes":[],"categories_segments":[],"categories_sizes":[],"default_left":[0,0,0,0,0,0,0,0,0,0,0,0,0,0,0,0,0,0,0,0,0,0,0,0,0,0,0,0,0],"id":26,"left_children":[1,3,5,7,9,-1,11,-1,13,15,17,-1,19,21,23,25,27,-1,-1,-1,-1,-1,-1,-1,-1,-1,-1,-1,-1],"loss_changes":[3.4447374E0,2.7274697E0,1.6498618E0,3.3410823E0,3.786688E0,0E0,1.5783782E0,0E0,2.5860615E0,4.395881E0,1.0247087E0,0E0,8.2842577E-1,5.220597E0,1.2425385E0,1.3764083E0,2.0525832E0,0E0,0E0,0E0,0E0,0E0,0E0,0E0,0E0,0E0,0E0,0E0,0E0],"parents":[2147483647,0,0,1,1,2,2,3,3,4,4,6,6,8,8,9,9,10,10,12,12,13,13,14,14,15,15,16,16],"right_children":[2,4,6,8,10,-1,12,-1,14,16,18,-1,20,22,24,26,28,-1,-1,-1,-1,-1,-1,-1,-1,-1,-1,-1,-1],"split_conditions":[1.76245E-1,5.5964172E1,2.35E0,-3.784074E-1,1.0537504E0,-5.595392E-2,3.4E0,5.025946E-2,5.385406E1,8.694707E-1,9.15E0,2.8026605E-2,4.75E0,4.970599E1,-6.831872E-1,-2.3442605E0,2.2560947E0,6.0861077E-2,4.668438E-3,-4.5594133E-2,2.3318115E-3,-1.313586E-2,2.8611837E-2,-7.6385112E-3,-5.4689687E-2,-2.3017772E-3,2.9913513E-2,-6.486976E-2,2.092401E-3],"split_indices":[7,1,6,7,8,0,6,0,1,8,6,0,6,1,2,2,2,0,0,0,0,0,0,0,0,0,0,0,0],"split_type":[0,0,0,0,0,0,0,0,0,0,0,0,0,0,0,0,0,0,0,0,0,0,0,0,0,0,0,0,0],"sum_hessian":[6.986878E1,6.360436E1,6.2644215E0,4.0949867E1,2.2654491E1,2.5091143E0,3.7553074E0,1.8045187E0,3.9145348E1,1.7203526E1,5.4509654E0,1.2156037E0,2.5397036E0,3.3605904E1,5.539446E0,1.3616902E1,3.586623E0,4.2847395E0,1.1662263E0,1.141831E0,1.3978726E0,2.3895416E1,9.710486E0,2.9018192E0,2.6376266E0,4.804044E0,8.812859E0,1.7107463E0,1.8758768E0],"tree_param":{"num_deleted":"0","num_feature":"9","num_nodes":"29","size_leaf_vector":"1"}},{"base_weights":[7.118902E-2,1.2263156E-2,7.3912716E-1,5.8359172E-2,-7.5699085E-1,5.3969897E-2,2.4452308E-1,9.617792E-2,-3.9395567E-2,-5.0436288E-2,-4.7437465E-3,-1.9414192E-2,4.088197E-2,-2.1940245E-1,2.2608772E-1,3.278411E-2,-2.2787392E-2,5.5751927E-2,7.0147063E-3],"categories":[],"categories_nodes":[],"categories_segments":[],"categories_sizes":[],"default_left":[0,0,0,0,0,0,0,0,0,0,0,0,0,0,0,0,0,0,0],"id":27,"left_children":[1,3,5,7,9,-1,11,13,-1,-1,-1,-1,-1,15,17,-1,-1,-1,-1],"loss_changes":[2.9057646E0,2.4934003E0,7.4365187E-1,2.1911235E0,5.6709385E-1,0E0,1.6713197E0,2.6799E0,0E0,0E0,0E0,0E0,0E0,4.2732787E0,3.3473558E0,0E0,0E0,0E0,0E0],"parents":[2147483647,0,0,1,1,2,2,3,3,4,4,6,6,7,7,13,13,14,14],"right_children":[2,4,6,8,10,-1,12,14,-1,-1,-1,-1,-1,16,18,-1,-1,-1,-1],"split_conditions":[1.8810292E0,7.213903E1,2.2317474E0,1.6960661E0,7.532817E1,5.3969897E-2,5.65E0,-3.0886471E0,-3.9395567E-2,-5.0436288E-2,-4.7437465E-3,-1.9414192E-2,4.088197E-2,-7.271198E0,-2.5545712E0,3.278411E-2,-2.2787392E-2,5.5751927E-2,7.0147063E-3],"split_indices":[8,1,8,8,1,0,4,2,0,0,0,0,0,2,2,0,0,0,0],"split_type":[0,0,0,0,0,0,0,0,0,0,0,0,0,0,0,0,0,0,0],"sum_hessian":[7.30578E1,6.807091E1,4.9868927E0,6.509439E1,2.9765165E0,2.253923E0,2.73297E0,6.315828E1,1.9361119E0,1.7773023E0,1.1992142E0,1.4521172E0,1.2808527E0,1.8216759E1,4.494152E1,3.4964957E0,1.4720263E1,2.8996832E0,4.2041836E1],"tree_param":{"num_deleted":"0","num_feature":"9","num_nodes":"19","size_leaf_vector":"1"}},{"base_weights":[-1.6598633E-2,4.6106923E-2,-6.689602E-2,-1.4693752E-1,4.795549E-1,-1.1658124E0,-4.839204E-2,7.597962E-1,-2.987038E-2,-1.1386882E-2,-6.92495E-2,5.3661183E-2,-5.9914094E-1,-4.3403944E-3,9.6857196E-1,-2.2219716E-2,1.0244541E-2,-3.0568151E-3,-6.486339E-2,5.9319746E-2,4.3243575E-3],"categories":[],"categories_nodes":[],"categories_segments":[],"categories_sizes":[],"default_left":[0,0,0,0,0,0,0,0,0,0,0,0,0,0,0,0,0,0,0,0,0],"id":28,"left_children":[1,-1,3,5,7,9,11,13,-1,-1,-1,15,17,-1,19,-1,-1,-1,-1,-1,-1],"loss_changes":[3.4582567E0,0E0,3.097659E0,6.081756E0,3.193433E0,7.8418016E-1,3.2238317E0,1.4349699E0,0E0,0E0,0E0,3.7686746E0,3.2858636E0,0E0,1.0911946E0,0E0,0E0,0E0,0E0,0E0,0E0],"parents":[2147483647,0,0,2,2,3,3,4,4,5,5,6,6,7,7,11,11,12,12,14,14],"right_children":[2,-1,4,6,8,10,12,14,-1,-1,-1,16,18,-1,20,-1,-1,-1,-1,-1,-1],"split_conditions":[-3.5412157E-1,4.6106923E-2,2.9242857E1,-1.4022247E1,5.2636524E1,3.0952168E1,2.4764286E1,-2.175E1,-2.987038E-2,-1.1386882E-2,-6.92495E-2,1.65E0,7.9E0,-4.3403944E-3,4.1047476E-2,-2.2219716E-2,1.0244541E-2,-3.0568151E-3,-6.486339E-2,5.9319746E-2,4.3243575E-3],"split_indices":[7,0,3,0,0,1,3,4,0,0,0,6,6,0,7,0,0,0,0,0,0],"split_type":[0,0,0,0,0,0,0,0,0,0,0,0,0,0,0,0,0,0,0,0,0],"sum_hessian":[7.09368E1,2.7259865E0,6.8210815E1,6.013381E1,8.077005E0,4.348093E0,5.5785713E1,6.642921E0,1.434084E0,1.2096931E0,3.1384003E0,4.7826145E1,7.9595695E0,1.4296737E0,5.2132473E0,1.0688009E1,3.7138134E1,5.109531E0,2.8500383E0,3.90416E0,1.3090875E0],"tree_param":{"num_deleted":"0","num_feature":"9","num_nodes":"21","size_leaf_vector":"1"}},{"base_weights":[-2.5151476E-2,-6.9454744E-2,5.261713E-2,3.9062962E-1,-1.5410829E-1,-3.472111E-2,7.306671E-1,-6.796017E-1,2.0455706E-3,3.2287505E-1,-3.1038372E-2,3.7817017E-4,5.037533E-2,3.0548632E-1,-9.1316044E-1,1.8069986E-1,-4.716361E-1,-1.5031486E-2,4.523052E-2,3.3510637E-2,-9.948799E-3,-6.7817755E-2,-2.4466662E-2,-1.0847424E-2,2.3706868E-2,5.071843E-3,-4.226306E-2],"categories":[],"categories_nodes":[],"categories_segments":[],"categories_sizes":[],"default_left":[0,0,0,0,0,0,0,0,0,0,0,0,0,0,0,0,0,0,0,0,0,0,0,0,0,0,0],"id":29,"left_children":[1,3,-1,5,7,9,11,13,15,17,-1,-1,-1,19,21,23,25,-1,-1,-1,-1,-1,-1,-1,-1,-1,-1],"loss_changes":[3.6203024E0,2.8765745E0,0E0,1.6916095E0,5.0718503E0,1.4730805E0,1.2830758E0,3.53645E0,4.2008014E0,1.8785231E0,0E0,0E0,0E0,7.7048457E-1,1.5331526E0,4.307829E0,2.9968486E0,0E0,0E0,0E0,0E0,0E0,0E0,0E0,0E0,0E0,0E0],"parents":[2147483647,0,0,1,1,3,3,4,4,5,5,6,6,7,7,8,8,9,9,13,13,14,14,15,15,16,16],"right_children":[2,4,-1,6,8,10,12,14,16,18,-1,-1,-1,20,22,24,26,-1,-1,-1,-1,-1,-1,-1,-1,-1,-1],"split_conditions":[1.525E1,6.278801E-1,5.261713E-2,2.6592857E1,8.0527335E-1,2.0801033E1,-1.8092816E0,-9.15E0,6.5E0,1.2435162E1,-3.1038372E-2,3.7817017E-4,5.037533E-2,1.8E0,-3.0503597E0,2.35E0,2.9E0,-1.5031486E-2,4.523052E-2,3.3510637E-2,-9.948799E-3,-6.7817755E-2,-2.4466662E-2,-1.0847424E-2,2.3706868E-2,5.071843E-3,-4.226306E-2],"split_indices":[5,8,0,3,8,0,2,4,6,0,0,0,0,6,2,6,5,0,0,0,0,0,0,0,0,0,0],"split_type":[0,0,0,0,0,0,0,0,0,0,0,0,0,0,0,0,0,0,0,0,0,0,0,0,0,0,0],"sum_hessian":[7.330817E1,7.131159E1,1.9965744E0,1.0520293E1,6.0791298E1,5.072734E0,5.44756E0,1.315834E1,4.7632957E1,3.4292948E0,1.6434389E0,1.7926041E0,3.6549556E0,2.4628284E0,1.0695513E1,3.5036915E1,1.259604E1,1.8884597E0,1.540835E0,1.2386879E0,1.2241404E0,4.152746E0,6.542766E0,1.4987478E1,2.0049437E1,5.2586827E0,7.337357E0],"tree_param":{"num_deleted":"0","num_feature":"9","num_nodes":"27","size_leaf_vector":"1"}},{"base_weights":[-1.18959285E-1,-2.8784992E-2,-6.4835906E-1,-1.0919114E-1,9.0405923E-1,-6.0370963E-2,-3.3534685E-1,-3.9557514E-1,1.13468446E-1,5.4780662E-2,1.9906683E-2,-4.702178E-2,2.2148447E-1,-1.788944E-1,-1.1169498E0,7.251486E-1,-8.614717E-2,4.091267E-2,-2.0324742E-2,-2.0400545E-2,4.3167215E-2,-6.278131E-2,-1.6260976E-2,5.15018E-2,-1.5180229E-2,4.1634228E-2,-9.97669E-3],"categories":[],"categories_nodes":[],"categories_segments":[],"categories_sizes":[],"default_left":[0,0,0,0,0,0,0,0,0,0,0,0,0,0,0,0,0,0,0,0,0,0,0,0,0,0,0],"id":30,"left_children":[1,3,5,7,9,-1,11,13,15,-1,-1,-1,17,19,21,23,25,-1,-1,-1,-1,-1,-1,-1,-1,-1,-1],"loss_changes":[3.4126515E0,4.783832E0,1.4176078E0,3.7687256E0,5.4608822E-2,0E0,2.924357E0,3.827743E0,4.168916E0,0E0,0E0,0E0,2.2091665E0,5.3682814E0,2.241869E-1,2.9414816E0,2.9010105E0,0E0,0E0,0E0,0E0,0E0,0E0,0E0,0E0,0E0,0E0],"parents":[2147483647,0,0,1,1,2,2,3,3,4,4,6,6,7,7,8,8,12,12,13,13,14,14,15,15,16,16],"right_children":[2,4,6,8,10,-1,12,14,16,-1,-1,-1,18,20,22,24,26,-1,-1,-1,-1,-1,-1,-1,-1,-1,-1],"split_conditions":[1.5178685E-1,1.8810292E0,-3.95E0,1.8329663E0,4.25E0,-6.0370963E-2,2.35E0,1.3044872E-2,5.305102E1,5.4780662E-2,1.9906683E-2,-4.702178E-2,4.1E0,4.5521904E1,1.662717E0,1.0216311E0,4.509477E0,4.091267E-2,-2.0324742E-2,-2.0400545E-2,4.3167215E-2,-6.278131E-2,-1.6260976E-2,5.15018E-2,-1.5180229E-2,4.1634228E-2,-9.97669E-3],"split_indices":[7,8,4,0,4,0,6,7,1,0,0,0,6,1,8,8,0,0,0,0,0,0,0,0,0,0,0],"split_type":[0,0,0,0,0,0,0,0,0,0,0,0,0,0,0,0,0,0,0,0,0,0,0,0,0,0,0],"sum_hessian":[7.087767E1,6.146288E1,9.414789E0,5.7398396E1,4.0644846E0,2.3536313E0,7.0611577E0,2.4766815E1,3.263158E1,2.1027703E0,1.9617143E0,3.0537984E0,4.0073595E0,2.0005665E1,4.7611494E0,7.381081E0,2.52505E1,1.899382E0,2.1079774E0,1.6899218E1,3.1064484E0,3.5529094E0,1.20824E0,5.69271E0,1.6883714E0,2.0768578E0,2.3173643E1],"tree_param":{"num_deleted":"0","num_feature":"9","num_nodes":"27","size_leaf_vector":"1"}},{"base_weights":[1.3311205E-2,6.968374E-2,-4.821626E-2,-1.3342509E-2,7.779017E-1,8.205106E-2,-6.3336116E-1,1.2383094E-2,5.6626834E-2,5.0192416E-2,2.846978E-2,-9.06342E-1,1.1245794E-2,1.9992618E-2,-1.8048083E-2,-4.922596E-2,8.645567E-3,4.8304322E-5,-5.960235E-2],"categories":[],"categories_nodes":[],"categories_segments":[],"categories_sizes":[],"default_left":[0,0,0,0,0,0,0,0,0,0,0,0,0,0,0,0,0,0,0],"id":31,"left_children":[1,3,-1,5,7,9,11,13,-1,-1,15,17,-1,-1,-1,-1,-1,-1,-1],"loss_changes":[3.9925554E0,4.0249853E0,0E0,3.7245553E0,1.9354777E0,2.6730871E0,2.170583E0,6.1947036E-1,0E0,0E0,7.8846626E0,1.7036028E0,0E0,0E0,0E0,0E0,0E0,0E0,0E0],"parents":[2147483647,0,0,1,1,3,3,4,4,5,5,6,6,7,7,10,10,11,11],"right_children":[2,4,-1,6,8,10,12,14,-1,-1,16,18,-1,-1,-1,-1,-1,-1,-1],"split_conditions":[7.213903E1,2.9242857E1,-4.821626E-2,2.5257143E1,3.55E0,-3.784074E-1,6.2600277E1,-3.353536E0,5.6626834E-2,5.0192416E-2,-1.4022247E1,-1.0756135E0,1.1245794E-2,1.9992618E-2,-1.8048083E-2,-4.922596E-2,8.645567E-3,4.8304322E-5,-5.960235E-2],"split_indices":[1,3,0,3,5,7,1,2,0,0,0,0,0,0,0,0,0,0,0],"split_type":[0,0,0,0,0,0,0,0,0,0,0,0,0,0,0,0,0,0,0],"sum_hessian":[7.022531E1,6.7274826E1,2.9504833E0,6.1093803E1,6.1810255E0,5.3699482E1,7.3943224E0,2.284531E0,3.8964944E0,1.9756637E0,5.1723816E1,5.5675297E0,1.8267927E0,1.0862184E0,1.1983129E0,5.729062E0,4.5994755E1,1.5719941E0,3.9955354E0],"tree_param":{"num_deleted":"0","num_feature":"9","num_nodes":"19","size_leaf_vector":"1"}},{"base_weights":[-7.4515454E-2,-1.2876189E-1,5.5801237E-1,4.4028804E-2,-1.6492426E-1,-1.4671265E-2,4.7681503E-2,2.7368402E-1,-2.5964376E-1,4.8055407E-1,-2.4458691E-2,2.9013136E-1,-3.799133E-1,-8.3349E-3,4.3775264E-2,3.4336064E-2,-6.1942887E-2,-6.229687E-3,-3.1145958E-2],"categories":[],"categories_nodes":[],"categories_segments":[],"categories_sizes":[],"default_left":[0,0,0,0,0,0,0,0,0,0,0,0,0,0,0,0,0,0,0],"id":32,"left_children":[1,3,5,-1,7,-1,-1,9,11,13,-1,15,17,-1,-1,-1,-1,-1,-1],"loss_changes":[2.5515175E0,2.6043E0,2.2657473E0,0E0,2.8081813E0,0E0,0E0,2.1584668E0,3.7267795E0,2.7258637E0,0E0,7.147791E0,2.733684E0,0E0,0E0,0E0,0E0,0E0,0E0],"parents":[2147483647,0,0,1,1,2,2,4,4,7,7,8,8,9,9,11,11,12,12],"right_children":[2,4,6,-1,8,-1,-1,10,12,14,-1,16,18,-1,-1,-1,-1,-1,-1],"split_conditions":[1.9213853E0,-3.784074E-1,1.76E1,4.4028804E-2,6.17766E-1,-1.4671265E-2,4.7681503E-2,6.920441E1,1.4389286E1,4.896048E1,-2.4458691E-2,1.194396E1,3.85E0,-8.3349E-3,4.3775264E-2,3.4336064E-2,-6.1942887E-2,-6.229687E-3,-3.1145958E-2],"split_indices":[8,7,3,0,8,0,0,1,3,1,0,0,6,0,0,0,0,0,0],"split_type":[0,0,0,0,0,0,0,0,0,0,0,0,0,0,0,0,0,0,0],"sum_hessian":[7.126741E1,6.637172E1,4.8956947E0,1.4880389E0,6.4883675E1,1.6350644E0,3.2606306E0,1.1187838E1,5.369584E1,9.092276E0,2.095562E0,9.384617E0,4.4311222E1,3.6646004E0,5.4276752E0,7.8891826E0,1.4954339E0,2.2345812E1,2.1965412E1],"tree_param":{"num_deleted":"0","num_feature":"9","num_nodes":"19","size_leaf_vector":"1"}},{"base_weights":[4.6035178E-2,1.5682177E-1,-4.3752632E-1,-1.749108E-1,4.267807E-1,-4.537493E-2,-8.2444113E-1,4.9098057E-1,-4.4125655E-1,5.3714013E-1,-6.4659315E-1,-5.990887E-1,6.907627E-1,-9.386817E-1,-6.472222E-3,-3.059311E-2,7.712939E-1,4.0676128E-2,-5.711346E-1,8.150694E-1,2.2165243E-1,-4.977792E-2,3.8386888E-3,-7.808577E-2,-5.1579356E-2,5.49479E-2,-8.009491E-3,-5.346194E-2,-1.1928616E-2,5.060379E-2,-3.6484208E-3,2.5482893E-2,-3.4216385E-2,5.3356506E-2,1.9323274E-2,-3.925993E-3,4.2259246E-2,-3.007321E-2,2.4188636E-2],"categories":[],"categories_nodes":[],"categories_segments":[],"categories_sizes":[],"default_left":[0,0,0,0,0,0,0,0,0,0,0,0,0,0,0,0,0,0,0,0,0,0,0,0,0,0,0,0,0,0,0,0,0,0,0,0,0,0,0],"id":33,"left_children":[1,3,5,7,9,11,13,15,17,19,21,23,25,27,-1,-1,29,-1,31,33,35,-1,-1,37,-1,-1,-1,-1,-1,-1,-1,-1,-1,-1,-1,-1,-1,-1,-1],"loss_changes":[3.8807979E0,5.325368E0,2.0151927E0,5.0080323E0,4.210944E0,3.58373E0,4.1452122E-1,3.0043511E0,3.6952522E0,2.4605112E0,9.585717E-1,1.0402265E0,1.497008E0,2.6026535E-1,0E0,0E0,1.4915457E0,0E0,2.61836E0,1.2773094E0,2.9639297E0,0E0,0E0,1.2725577E0,0E0,0E0,0E0,0E0,0E0,0E0,0E0,0E0,0E0,0E0,0E0,0E0,0E0,0E0,0E0],"parents":[2147483647,0,0,1,1,2,2,3,3,4,4,5,5,6,6,7,7,8,8,9,9,10,10,11,11,12,12,13,13,16,16,18,18,19,19,20,20,23,23],"right_children":[2,4,6,8,10,12,14,16,18,20,22,24,26,28,-1,-1,30,-1,32,34,36,-1,-1,38,-1,-1,-1,-1,-1,-1,-1,-1,-1,-1,-1,-1,-1,-1,-1],"split_conditions":[1.446047E-1,4.9574753E1,1.7037245E0,-2.4833801E-1,1.08E1,5.7197914E1,8.85E0,8.6675155E-1,2.9870123E-1,6E-1,1.265E1,1.7449506E-1,1.0985514E0,8.716054E0,-6.472222E-3,-3.059311E-2,3.158162E0,4.0676128E-2,-7.7616954E0,5.735852E1,1.215E1,-4.977792E-2,3.8386888E-3,1.6821428E1,-5.1579356E-2,5.49479E-2,-8.009491E-3,-5.346194E-2,-1.1928616E-2,5.060379E-2,-3.6484208E-3,2.5482893E-2,-3.4216385E-2,5.3356506E-2,1.9323274E-2,-3.925993E-3,4.2259246E-2,-3.007321E-2,2.4188636E-2],"split_indices":[7,1,2,7,6,1,4,8,8,4,6,7,8,2,0,0,2,0,2,1,4,0,0,3,0,0,0,0,0,0,0,0,0,0,0,0,0,0,0],"split_type":[0,0,0,0,0,0,0,0,0,0,0,0,0,0,0,0,0,0,0,0,0,0,0,0,0,0,0,0,0,0,0,0,0,0,0,0,0,0,0],"sum_hessian":[7.015983E1,5.763177E1,1.2528061E1,2.6015423E1,3.1616348E1,6.7768083E0,5.7512527E0,7.1918E0,1.8823624E1,2.9121758E1,2.49459E0,3.9738781E0,2.80293E0,4.638215E0,1.1130376E0,1.2178007E0,5.973999E0,1.2718893E0,1.7551733E1,1.4640592E1,1.4481166E1,1.428953E0,1.0656369E0,2.3379936E0,1.6358848E0,1.6973027E0,1.1056275E0,3.464843E0,1.1733721E0,4.49365E0,1.4803493E0,1.3319012E0,1.6219833E1,8.28086E0,6.3597317E0,1.03653145E1,4.115852E0,1.1739519E0,1.1640418E0],"tree_param":{"num_deleted":"0","num_feature":"9","num_nodes":"39","size_leaf_vector":"1"}},{"base_weights":[7.013204E-2,2.8748906E-1,-1.4502156E-1,2.9938614E-2,5.6526923E-1,2.3032434E-1,-3.6229882E-1,3.7279776E-1,-4.1295022E-1,-2.1035025E-1,7.744386E-1,4.2402142E-1,-4.551765E-2,-6.7466193E-1,1.0835803E-1,-1.9686283E-1,6.966978E-1,2.3777375E-1,-5.436417E-2,-3.5527248E-2,1.3942576E-2,9.3210423E-1,-7.302346E-3,-2.4830872E-2,6.3538146E-1,-9.0304536E-1,3.2917447E-2,5.977423E-1,-8.0164677E-1,3.876085E-2,-3.331312E-2,5.5732843E-2,-1.03127025E-2,-9.195878E-3,4.805803E-2,5.6160152E-2,1.1617191E-2,-1.5500233E-2,4.5713175E-2,-5.6765098E-2,-9.493231E-3,4.5780595E-2,-1.6707232E-2,-6.1805802E-3,-5.254094E-2],"categories":[],"categories_nodes":[],"categories_segments":[],"categories_sizes":[],"default_left":[0,0,0,0,0,0,0,0,0,0,0,0,0,0,0,0,0,0,0,0,0,0,0,0,0,0,0,0,0,0,0,0,0,0,0,0,0,0,0,0,0,0,0,0,0],"id":34,"left_children":[1,3,5,7,9,11,13,15,17,19,21,23,-1,25,27,29,31,33,-1,-1,-1,35,-1,-1,37,39,-1,41,43,-1,-1,-1,-1,-1,-1,-1,-1,-1,-1,-1,-1,-1,-1,-1,-1],"loss_changes":[3.3439724E0,2.5201495E0,3.0317626E0,3.108498E0,2.9217696E0,3.4496136E0,3.4964845E0,2.2577014E0,4.19222E0,1.27439E0,2.1108932E0,2.754745E0,0E0,4.8977375E0,4.9997587E0,2.7731347E0,3.0781507E0,1.8187451E0,0E0,0E0,0E0,1.3106251E0,0E0,0E0,3.0869656E0,1.8531551E0,0E0,2.430957E0,5.420122E-1,0E0,0E0,0E0,0E0,0E0,0E0,0E0,0E0,0E0,0E0,0E0,0E0,0E0,0E0,0E0,0E0],"parents":[2147483647,0,0,1,1,2,2,3,3,4,4,5,5,6,6,7,7,8,8,9,9,10,10,11,11,13,13,14,14,15,15,16,16,17,17,21,21,24,24,25,25,27,27,28,28],"right_children":[2,4,6,8,10,12,14,16,18,20,22,24,-1,26,28,30,32,34,-1,-1,-1,36,-1,-1,38,40,-1,42,44,-1,-1,-1,-1,-1,-1,-1,-1,-1,-1,-1,-1,-1,-1,-1,-1],"split_conditions":[4.1047476E-2,-9.4021186E-2,-8.5202765E-1,-2.1960199E-1,-1.225E1,1.7449506E-1,1.4302073E1,-1.6325539E1,-5.1145034E0,1.3E0,3.203076E0,5.89933E-2,-4.551765E-2,5.119522E0,2.563163E1,-3.784074E-1,3.158162E0,9.7609335E-1,-5.436417E-2,-3.5527248E-2,1.3942576E-2,7.5E0,-7.302346E-3,-2.4830872E-2,2.4888043E0,5.05E0,3.2917447E-2,1.003812E0,-4.5E-1,3.876085E-2,-3.331312E-2,5.5732843E-2,-1.03127025E-2,-9.195878E-3,4.805803E-2,5.6160152E-2,1.1617191E-2,-1.5500233E-2,4.5713175E-2,-5.6765098E-2,-9.493231E-3,4.5780595E-2,-1.6707232E-2,-6.1805802E-3,-5.254094E-2],"split_indices":[7,7,2,7,4,7,0,0,2,5,2,7,0,2,0,7,2,8,0,0,0,5,0,0,0,5,0,8,4,0,0,0,0,0,0,0,0,0,0,0,0,0,0,0,0],"split_type":[0,0,0,0,0,0,0,0,0,0,0,0,0,0,0,0,0,0,0,0,0,0,0,0,0,0,0,0,0,0,0,0,0,0,0,0,0,0,0,0,0,0,0,0,0],"sum_hessian":[6.961415E1,3.446251E1,3.5151646E1,1.845723E1,1.6005278E1,1.2865859E1,2.2285786E1,1.0492667E1,7.9645624E0,3.3983257E0,1.2606952E1,1.1535331E1,1.3305287E0,1.3134981E1,9.1508045E0,3.9455774E0,6.54709E0,4.3827E0,3.5818624E0,1.4565685E0,1.9417572E0,1.0752572E1,1.8543795E0,1.901813E0,9.633517E0,1.1489116E1,1.6458663E0,6.173793E0,2.9770117E0,1.0726726E0,2.8729048E0,4.3152056E0,2.2318845E0,3.2398286E0,1.1428714E0,7.9707117E0,2.7818604E0,2.1690447E0,7.464473E0,8.220211E0,3.2689042E0,4.616541E0,1.5572522E0,1.202074E0,1.7749376E0],"tree_param":{"num_deleted":"0","num_feature":"9","num_nodes":"45","size_leaf_vector":"1"}},{"base_weights":[4.6095192E-2,4.2869028E-2,3.06518E-3,6.833947E-2,-5.396347E-1,-3.425605E-1,1.7708936E-1,1.5977941E-1,-8.8096297E-1,6.379E-1,-1.0202539E0,5.1107466E-2,7.048219E-2,-2.8420968E-2,4.1885145E-2,-5.9599318E-2,-6.088053E-3,4.3901674E-2,-8.658717E-3,-5.993725E-2,5.511734E-4,-4.1828927E-2,6.4053424E-3],"categories":[],"categories_nodes":[],"categories_segments":[],"categories_sizes":[],"default_left":[0,0,0,0,0,0,0,0,0,0,0,0,0,0,0,0,0,0,0,0,0,0,0],"id":35,"left_children":[1,-1,3,5,7,9,11,13,15,17,19,-1,21,-1,-1,-1,-1,-1,-1,-1,-1,-1,-1],"loss_changes":[2.4948764E0,0E0,2.47911E0,2.8502755E0,1.9346437E0,9.5580635E0,4.434456E0,2.1106389E0,1.0835338E0,1.3389833E0,1.5431042E0,0E0,2.485046E0,0E0,0E0,0E0,0E0,0E0,0E0,0E0,0E0,0E0,0E0],"parents":[2147483647,0,0,2,2,3,3,4,4,5,5,6,6,7,7,8,8,9,9,10,10,12,12],"right_children":[2,-1,4,6,8,10,12,14,16,18,20,-1,22,-1,-1,-1,-1,-1,-1,-1,-1,-1,-1],"split_conditions":[-3.5412157E-1,4.2869028E-2,1.005E1,-1.1455868E-1,-1.1380336E0,2.9E0,-4.7925126E-2,3.95E0,1.25E1,5.45E0,2.3707144E1,5.1107466E-2,2.5E-1,-2.8420968E-2,4.1885145E-2,-5.9599318E-2,-6.088053E-3,4.3901674E-2,-8.658717E-3,-5.993725E-2,5.511734E-4,-4.1828927E-2,6.4053424E-3],"split_indices":[7,0,6,7,2,5,7,5,6,6,3,0,6,0,0,0,0,0,0,0,0,0,0],"split_type":[0,0,0,0,0,0,0,0,0,0,0,0,0,0,0,0,0,0,0,0,0,0,0],"sum_hessian":[7.0542015E1,2.5998287E0,6.7942184E1,6.1427902E1,6.5142856E0,1.2405406E1,4.9022495E1,2.310907E0,4.2033787E0,5.094132E0,7.311274E0,4.529533E0,4.449296E1,1.1920173E0,1.1188896E0,2.577428E0,1.6259506E0,3.8667526E0,1.2273794E0,6.0941277E0,1.2171468E0,1.8502798E0,4.264268E1],"tree_param":{"num_deleted":"0","num_feature":"9","num_nodes":"23","size_leaf_vector":"1"}},{"base_weights":[5.18806E-3,-4.3719146E-2,5.1616658E-2,6.745181E-1,-8.903062E-2,5.510919E-2,-1.2881157E-2,-7.2461265E-1,-3.520551E-2,-4.676271E-2,3.3366666E-4,1.7442137E-1,-1.8978828E-1,-3.696894E-3,3.4823455E-2,-5.1659264E-2,-1.9021092E-3],"categories":[],"categories_nodes":[],"categories_segments":[],"categories_sizes":[],"default_left":[0,0,0,0,0,0,0,0,0,0,0,0,0,0,0,0,0],"id":36,"left_children":[1,3,-1,5,7,-1,-1,9,11,-1,-1,13,15,-1,-1,-1,-1],"loss_changes":[3.6293283E0,2.3077435E0,0E0,1.9643023E0,2.227244E0,0E0,0E0,7.903247E-1,2.0344195E0,0E0,0E0,3.5177195E0,4.571372E0,0E0,0E0,0E0,0E0],"parents":[2147483647,0,0,1,1,3,3,4,4,7,7,8,8,11,11,12,12],"right_children":[2,4,-1,6,8,-1,-1,10,12,-1,-1,14,16,-1,-1,-1,-1],"split_conditions":[1.325E1,3.1912796E1,5.1616658E-2,2.65E0,3.745888E1,5.510919E-2,-1.2881157E-2,-1.0809585E0,5.385406E1,-4.676271E-2,3.3366666E-4,5.021225E1,5.5808205E1,-3.696894E-3,3.4823455E-2,-5.1659264E-2,-1.9021092E-3],"split_indices":[5,1,0,5,1,0,0,2,1,0,0,1,1,0,0,0,0],"split_type":[0,0,0,0,0,0,0,0,0,0,0,0,0,0,0,0,0],"sum_hessian":[7.034886E1,6.8065384E1,2.2834766E0,3.2151668E0,6.485022E1,2.0789328E0,1.1362342E0,4.090156E0,6.076006E1,2.9589388E0,1.1312175E0,2.5734135E1,3.502593E1,1.801977E1,7.7143645E0,4.4552474E0,3.0570679E1],"tree_param":{"num_deleted":"0","num_feature":"9","num_nodes":"17","size_leaf_vector":"1"}},{"base_weights":[-3.0273074E-2,3.3122722E-2,-4.114166E-2,-7.380089E-2,3.7868288E-1,-1.4721229E-2,-4.6253145E-2,-3.4541866E-1,5.6539667E-1,-6.737982E-2,4.998098E-2,-4.699729E-2,1.4593917E-2,1.2928709E-2,8.32489E-1,1.8976893E-2,-7.743913E-3,-1.92053E-2,3.935757E-2,6.4211087E-3,4.7310285E-2],"categories":[],"categories_nodes":[],"categories_segments":[],"categories_sizes":[],"default_left":[0,0,0,0,0,0,0,0,0,0,0,0,0,0,0,0,0,0,0,0,0],"id":37,"left_children":[1,3,-1,5,7,9,-1,11,13,15,-1,-1,-1,17,19,-1,-1,-1,-1,-1,-1],"loss_changes":[3.4906557E0,2.4217072E0,0E0,2.5167856E0,2.287157E0,2.6346781E0,0E0,1.7113048E0,1.860271E0,1.882214E0,0E0,0E0,0E0,1.8848383E0,5.6157064E-1,0E0,0E0,0E0,0E0,0E0,0E0],"parents":[2147483647,0,0,1,1,3,3,4,4,5,5,7,7,8,8,9,9,13,13,14,14],"right_children":[2,4,-1,6,8,10,-1,12,14,16,-1,-1,-1,18,20,-1,-1,-1,-1,-1,-1],"split_conditions":[2.0247367E-1,7.6E0,-4.114166E-2,3.4756374E1,-1.261296E1,7.015759E1,-4.6253145E-2,2.0467857E1,2.3E0,1E0,4.998098E-2,-4.699729E-2,1.4593917E-2,1.465E1,-7.6976695E0,1.8976893E-2,-7.743913E-3,-1.92053E-2,3.935757E-2,6.4211087E-3,4.7310285E-2],"split_indices":[7,4,0,0,0,1,0,3,6,5,0,0,0,4,0,0,0,0,0,0,0],"split_type":[0,0,0,0,0,0,0,0,0,0,0,0,0,0,0,0,0,0,0,0,0],"sum_hessian":[6.79303E1,6.3786324E1,4.143973E0,4.9313972E1,1.4472353E1,4.706485E1,2.2491221E0,2.7925344E0,1.1679819E1,4.56296E1,1.4352471E0,1.199055E0,1.5934794E0,4.148092E0,7.5317273E0,6.9243417E0,3.870526E1,3.07504E0,1.0730517E0,1.3434137E0,6.1883135E0],"tree_param":{"num_deleted":"0","num_feature":"9","num_nodes":"21","size_leaf_vector":"1"}},{"base_weights":[2.7314935E-2,1.2493856E-1,-3.200389E-1,-1.9364772E-2,3.906236E-1,-4.5348346E-2,-1.1550998E-1,1.0560817E-1,-9.77095E-1,5.964721E-2,1.9012772E-1,-5.025096E-1,1.9528055E-1,2.6638797E-1,-4.3781105E-1,-6.788942E-2,2.2089237E-3,2.2555185E-2,5.1030945E-2,-5.1960826E-2,-1.3894164E-2,4.9530566E-2,-1.6755629E-1,5.8674277E-3,4.961066E-2,7.408768E-3,-5.369211E-2,1.6080072E-2,-3.9304655E-2,3.4626782E-2,-2.6489576E-2,2.2859592E-2,-3.366987E-2],"categories":[],"categories_nodes":[],"categories_segments":[],"categories_sizes":[],"default_left":[0,0,0,0,0,0,0,0,0,0,0,0,0,0,0,0,0,0,0,0,0,0,0,0,0,0,0,0,0,0,0,0,0],"id":38,"left_children":[1,3,5,7,9,-1,11,13,15,-1,17,19,21,23,25,-1,-1,27,-1,-1,29,-1,31,-1,-1,-1,-1,-1,-1,-1,-1,-1,-1],"loss_changes":[2.426775E0,2.1416543E0,1.7826594E0,4.5346437E0,2.9323602E0,0E0,1.6383393E0,3.056934E0,1.7594495E0,0E0,2.3292074E0,1.5546658E0,2.4232907E0,2.7601252E0,3.1638103E0,0E0,0E0,3.9011724E0,0E0,0E0,1.8777326E0,0E0,2.2757423E0,0E0,0E0,0E0,0E0,0E0,0E0,0E0,0E0,0E0,0E0],"parents":[2147483647,0,0,1,1,2,2,3,3,4,4,6,6,7,7,8,8,10,10,11,11,12,12,13,13,14,14,17,17,20,20,22,22],"right_children":[2,4,6,8,10,-1,12,14,16,-1,18,20,22,24,26,-1,-1,28,-1,-1,30,-1,32,-1,-1,-1,-1,-1,-1,-1,-1,-1,-1],"split_conditions":[1.3178195E-1,6.7904844E0,-5.45E0,4.543003E0,8.709549E0,-4.5348346E-2,2.35E0,2.4764286E1,1.7046429E1,5.964721E-2,1.1881049E0,5.7197914E1,3.45E0,2.4888043E0,7.9E0,-6.788942E-2,2.2089237E-3,9.0014076E-1,5.1030945E-2,-5.1960826E-2,6.1148304E1,4.9530566E-2,6.15805E1,5.8674277E-3,4.961066E-2,7.408768E-3,-5.369211E-2,1.6080072E-2,-3.9304655E-2,3.4626782E-2,-2.6489576E-2,2.2859592E-2,-3.366987E-2],"split_indices":[7,0,4,0,0,0,6,3,3,0,8,1,6,0,6,0,0,8,0,0,1,0,1,0,0,0,0,0,0,0,0,0,0],"split_type":[0,0,0,0,0,0,0,0,0,0,0,0,0,0,0,0,0,0,0,0,0,0,0,0,0,0,0,0,0,0,0,0,0],"sum_hessian":[6.938613E1,5.466334E1,1.4722792E1,3.602432E1,1.8639023E1,2.9171505E0,1.1805641E1,3.265318E1,3.3711395E0,2.7368906E0,1.5902132E1,4.9833927E0,6.8222485E0,2.5591341E1,7.06184E0,2.2157016E0,1.155438E0,1.4086904E1,1.8152288E0,1.8378234E0,3.145569E0,1.5952687E0,5.2269797E0,2.219545E1,3.3958912E0,4.074742E0,2.9870982E0,1.0723531E1,3.363372E0,1.183114E0,1.962455E0,2.381652E0,2.8453274E0],"tree_param":{"num_deleted":"0","num_feature":"9","num_nodes":"33","size_leaf_vector":"1"}},{"base_weights":[-1.23978674E-1,-5.3206038E-2,-7.451815E-1,-2.9791796E-1,1.2608398E-1,-4.866026E-2,4.430819E-3,8.1747964E-2,-7.356837E-1,-7.960865E-2,5.5795926E-1,3.0509466E-1,-5.7307083E-2,-2.7580383E-1,-1.1642897E0,-2.616292E-1,5.856349E-1,5.628044E-2,-3.9716572E-1,-3.9687686E-2,2.530323E-2,-3.3433322E-2,2.7127644E-2,-9.463962E-3,-6.916446E-2,4.3679364E-2,-2.035077E-2,-1.0809357E-2,4.2102445E-2,6.5404787E-3,-3.5435457E-2],"categories":[],"categories_nodes":[],"categories_segments":[],"categories_sizes":[],"default_left":[0,0,0,0,0,0,0,0,0,0,0,0,0,0,0,0,0,0,0,0,0,0,0,0,0,0,0,0,0,0,0],"id":39,"left_children":[1,3,5,7,9,-1,-1,11,13,15,17,19,-1,21,23,25,27,-1,29,-1,-1,-1,-1,-1,-1,-1,-1,-1,-1,-1,-1],"loss_changes":[2.8510737E0,2.6745825E0,1.3501885E0,4.333661E0,3.1883664E0,0E0,0E0,4.3728447E0,2.0525346E0,3.1620817E0,6.705327E0,3.317161E0,0E0,2.6517808E0,1.0028353E0,3.6897116E0,1.3430731E0,0E0,9.220601E-1,0E0,0E0,0E0,0E0,0E0,0E0,0E0,0E0,0E0,0E0,0E0,0E0],"parents":[2147483647,0,0,1,1,2,2,3,3,4,4,7,7,8,8,9,9,10,10,11,11,13,13,14,14,15,15,16,16,18,18],"right_children":[2,4,6,8,10,-1,-1,12,14,16,18,20,-1,22,24,26,28,-1,30,-1,-1,-1,-1,-1,-1,-1,-1,-1,-1,-1,-1],"split_conditions":[1.6422148E-1,1.8664286E1,4.3E0,1.5014286E1,6.462805E-2,-4.866026E-2,4.430819E-3,1.194396E1,1.0216311E0,1.2072718E0,2.5257143E1,7.479815E-1,-5.7307083E-2,7.747639E-2,1.35E0,-3.784074E-1,-3.03E1,5.628044E-2,2.05E0,-3.9687686E-2,2.530323E-2,-3.3433322E-2,2.7127644E-2,-9.463962E-3,-6.916446E-2,4.3679364E-2,-2.035077E-2,-1.0809357E-2,4.2102445E-2,6.5404787E-3,-3.5435457E-2],"split_indices":[7,3,6,3,7,0,0,0,8,8,3,8,0,7,6,7,4,0,6,0,0,0,0,0,0,0,0,0,0,0,0],"split_type":[0,0,0,0,0,0,0,0,0,0,0,0,0,0,0,0,0,0,0,0,0,0,0,0,0,0,0,0,0,0,0],"sum_hessian":[6.475178E1,5.9103825E1,5.647954E0,2.4712383E1,3.439144E1,4.303778E0,1.3441757E0,1.3669954E1,1.104243E1,2.3848564E1,1.0542877E1,1.2202003E1,1.4679513E0,6.119694E0,4.922736E0,1.9201473E1,4.6470923E0,6.500819E0,4.042058E0,1.4305478E0,1.0771455E1,4.25834E0,1.8613544E0,1.2448435E0,3.6778927E0,1.6112944E0,1.7590178E1,1.1640188E0,3.4830735E0,1.7152808E0,2.3267772E0],"tree_param":{"num_deleted":"0","num_feature":"9","num_nodes":"31","size_leaf_vector":"1"}},{"base_weights":[3.4183583E-3,-6.9085374E-2,5.8052164E-1,3.0473264E-2,-6.302666E-1,8.0649656E-1,-1.9063028E-2,4.4614136E-1,-1.0744266E-1,-2.3604614E-1,-5.7974756E-2,-2.0993866E-3,5.59024E-2,-1.1627782E-1,6.8376803E-1,-7.358335E-1,3.3506874E-2,2.5005618E-1,-6.540967E-1,3.8105678E-2,-3.9975986E-2,4.418867E-2,-1.5308927E-2,3.854991E-2,-5.7585426E-2,-1.1338474E-2,1.6719924E-2,4.506293E-2,-2.447195E-2,-3.9544903E-2,-7.1389074E-3],"categories":[],"categories_nodes":[],"categories_segments":[],"categories_sizes":[],"default_left":[0,0,0,0,0,0,0,0,0,0,0,0,0,0,0,0,0,0,0,0,0,0,0,0,0,0,0,0,0,0,0],"id":40,"left_children":[1,3,5,7,9,11,-1,13,15,17,-1,-1,-1,19,21,23,25,27,29,-1,-1,-1,-1,-1,-1,-1,-1,-1,-1,-1,-1],"loss_changes":[2.859996E0,3.41419E0,1.9654007E0,3.061239E0,1.6461611E0,1.7646537E0,0E0,1.855567E0,3.5917716E0,1.4904203E0,0E0,0E0,0E0,3.4911442E0,2.1490664E0,5.5390296E0,2.726937E0,2.2432964E0,1.5197027E-1,0E0,0E0,0E0,0E0,0E0,0E0,0E0,0E0,0E0,0E0,0E0,0E0],"parents":[2147483647,0,0,1,1,2,2,3,3,4,4,5,5,7,7,8,8,9,9,13,13,14,14,15,15,16,16,17,17,18,18],"right_children":[2,4,6,8,10,12,-1,14,16,18,-1,-1,-1,20,22,24,26,28,30,-1,-1,-1,-1,-1,-1,-1,-1,-1,-1,-1,-1],"split_conditions":[2.9242857E1,2.4764286E1,5.2636524E1,1.85E0,7.9E0,-1.818584E-1,-1.9063028E-2,-3.453053E0,-9.829791E0,7.8518963E0,-5.7974756E-2,-2.0993866E-3,5.59024E-2,-1.0389909E-1,1.7449506E-1,-3.784074E-1,4.75E0,6.95E0,3.2E0,3.8105678E-2,-3.9975986E-2,4.418867E-2,-1.5308927E-2,3.854991E-2,-5.7585426E-2,-1.1338474E-2,1.6719924E-2,4.506293E-2,-2.447195E-2,-3.9544903E-2,-7.1389074E-3],"split_indices":[3,3,0,5,6,7,0,2,0,0,0,0,0,7,7,7,5,5,5,0,0,0,0,0,0,0,0,0,0,0,0],"split_type":[0,0,0,0,0,0,0,0,0,0,0,0,0,0,0,0,0,0,0,0,0,0,0,0,0,0,0,0,0,0,0],"sum_hessian":[6.639355E1,5.9765293E1,6.6282573E0,5.156321E1,8.202083E0,5.4979467E0,1.1303108E0,1.2289304E1,3.9273903E1,5.5293264E0,2.6727564E0,1.7089616E0,3.7889853E0,3.8018014E0,8.487502E0,6.4220657E0,3.2851837E1,2.7423818E0,2.7869446E0,1.6128488E0,2.1889527E0,7.150161E0,1.3373419E0,1.2043713E0,5.2176943E0,1.7746853E1,1.5104987E1,1.341927E0,1.4004549E0,1.7673228E0,1.0196218E0],"tree_param":{"num_deleted":"0","num_feature":"9","num_nodes":"31","size_leaf_vector":"1"}},{"base_weights":[5.6033906E-2,1.0451585E-1,-6.544251E-1,2.7488604E-2,6.680513E-1,4.5338804E-3,-5.026353E-2,1.0072164E-1,-5.3527623E-1,-1.0248015E-2,8.735752E-1,2.1121668E-2,9.5682895E-1,1.6670803E-2,-8.3428663E-1,1.0007792E0,1.4467128E-2,4.1727894E-3,-5.0502967E-2,6.0844976E-3,6.0213067E-2,1.6403307E-3,-5.388085E-2,1.560125E-2,5.8449186E-2],"categories":[],"categories_nodes":[],"categories_segments":[],"categories_sizes":[],"default_left":[0,0,0,0,0,0,0,0,0,0,0,0,0,0,0,0,0,0,0,0,0,0,0,0,0],"id":41,"left_children":[1,3,5,7,9,-1,-1,11,13,-1,15,17,19,-1,21,23,-1,-1,-1,-1,-1,-1,-1,-1,-1],"loss_changes":[2.493062E0,2.8794818E0,1.3026938E0,2.5173852E0,1.611721E0,0E0,0E0,3.6414857E0,2.1070929E0,0E0,2.0488071E-1,3.3100457E0,7.933483E-1,0E0,1.2007957E0,2.2110653E-1,0E0,0E0,0E0,0E0,0E0,0E0,0E0,0E0,0E0],"parents":[2147483647,0,0,1,1,2,2,3,3,4,4,7,7,8,8,10,10,11,11,12,12,14,14,15,15],"right_children":[2,4,6,8,10,-1,-1,12,14,-1,16,18,20,-1,22,24,-1,-1,-1,-1,-1,-1,-1,-1,-1],"split_conditions":[7.1764565E1,6.650698E1,4.1047476E-2,6.15805E1,5.6337893E-1,4.5338804E-3,-5.026353E-2,5.8866234E1,7.1355605E-1,-1.0248015E-2,4.85E0,1.7449506E-1,7E-1,1.6670803E-2,9.89152E0,1.2342361E1,1.4467128E-2,4.1727894E-3,-5.0502967E-2,6.0844976E-3,6.0213067E-2,1.6403307E-3,-5.388085E-2,1.560125E-2,5.8449186E-2],"split_indices":[1,1,7,1,8,0,0,1,8,0,6,7,4,0,0,0,0,0,0,0,0,0,0,0,0],"split_type":[0,0,0,0,0,0,0,0,0,0,0,0,0,0,0,0,0,0,0,0,0,0,0,0,0],"sum_hessian":[6.93935E1,6.575898E1,3.6345236E0,5.8774166E1,6.9848104E0,1.4009097E0,2.233614E0,5.2733E1,6.041164E0,1.3315367E0,5.6532736E0,4.9184547E1,3.5484567E0,1.5174798E0,4.523684E0,4.056976E0,1.5962981E0,4.7247536E1,1.9370103E0,1.1520028E0,2.3964539E0,1.1808767E0,3.3428073E0,1.3566946E0,2.7002811E0],"tree_param":{"num_deleted":"0","num_feature":"9","num_nodes":"25","size_leaf_vector":"1"}},{"base_weights":[-1.5414885E-3,7.449664E-1,-4.771885E-2,3.9987196E-3,4.8699405E-2,-1.3916151E-1,2.9099122E-1,-2.4856606E-2,-5.42674E-1,5.536245E-2,4.2985827E-2,-4.4984072E-2,7.781911E-2,1.134201E-1,-7.3851246E-1,7.655859E-1,-2.7254364E-1,1.0556956E-2,-3.372868E-2,-1.4706047E-2,2.5589777E-2,-5.1867336E-2,-5.3144167E-3,-2.573037E-4,5.406895E-2,4.429143E-2,-2.8762257E-2],"categories":[],"categories_nodes":[],"categories_segments":[],"categories_sizes":[],"default_left":[0,0,0,0,0,0,0,0,0,0,0,0,0,0,0,0,0,0,0,0,0,0,0,0,0,0,0],"id":42,"left_children":[1,3,5,-1,-1,7,9,11,13,-1,15,-1,17,19,21,23,25,-1,-1,-1,-1,-1,-1,-1,-1,-1,-1],"loss_changes":[2.48482E0,5.616431E-1,2.1420522E0,0E0,0E0,2.4820018E0,2.9378695E0,3.9512172E0,1.6121628E0,0E0,3.024798E0,0E0,4.113769E0,7.3521507E-1,1.6456504E0,9.831784E-1,3.7827277E0,0E0,0E0,0E0,0E0,0E0,0E0,0E0,0E0,0E0,0E0],"parents":[2147483647,0,0,1,1,2,2,5,5,6,6,7,7,8,8,10,10,12,12,13,13,14,14,15,15,16,16],"right_children":[2,4,6,-1,-1,8,10,12,14,-1,16,-1,18,20,22,24,26,-1,-1,-1,-1,-1,-1,-1,-1,-1,-1],"split_conditions":[-7.271198E0,2.1E0,1.2072718E0,3.9987196E-3,4.8699405E-2,1.0362676E0,-2.6453414E0,-5.7203927E0,-7.054168E0,5.536245E-2,1.3067644E0,-4.4984072E-2,6.941871E1,-7.978982E-2,5.8271435E1,2.15E0,-2.2315775E-1,1.0556956E-2,-3.372868E-2,-1.4706047E-2,2.5589777E-2,-5.1867336E-2,-5.3144167E-3,-2.573037E-4,5.406895E-2,4.429143E-2,-2.8762257E-2],"split_indices":[2,6,8,0,0,8,2,2,0,0,8,0,1,2,1,5,7,0,0,0,0,0,0,0,0,0,0],"split_type":[0,0,0,0,0,0,0,0,0,0,0,0,0,0,0,0,0,0,0,0,0,0,0,0,0,0,0],"sum_hessian":[7.005152E1,3.199259E0,6.6852264E1,1.1651902E0,2.0340688E0,5.3104588E1,1.3747675E1,4.2209347E1,1.0895241E1,2.3962624E0,1.1351413E1,3.6182785E0,3.859107E1,2.6012917E0,8.293949E0,3.0166264E0,8.334786E0,3.3393326E1,5.1977434E0,1.415215E0,1.1860766E0,5.196787E0,3.0971622E0,1.1626759E0,1.8539504E0,1.3276712E0,7.0071154E0],"tree_param":{"num_deleted":"0","num_feature":"9","num_nodes":"27","size_leaf_vector":"1"}},{"base_weights":[-7.1447186E-2,5.1488346E-1,-1.5432948E-1,7.876764E-1,-8.590022E-3,-3.7033203E-1,7.635601E-2,-7.560383E-3,5.9201825E-2,-4.6972725E-1,3.6778954E-1,5.9815224E-2,-1.0339439E-1,3.0422375E-2,-5.502859E-1,4.378101E-2,-1.14783775E-2,3.8112927E-2,-2.1377438E-1,-6.235364E-2,-1.6047046E-2,-5.528296E-2,-3.8620674E-3],"categories":[],"categories_nodes":[],"categories_segments":[],"categories_sizes":[],"default_left":[0,0,0,0,0,0,0,0,0,0,0,0,0,0,0,0,0,0,0,0,0,0,0],"id":43,"left_children":[1,3,5,7,-1,9,11,-1,-1,13,15,-1,17,-1,19,-1,-1,-1,21,-1,-1,-1,-1],"loss_changes":[3.301078E0,1.7165239E0,2.960803E0,2.4937983E0,0E0,2.415134E0,6.0196753E0,0E0,0E0,2.7126079E0,1.4715252E0,0E0,2.6623483E0,0E0,3.7543535E0,0E0,0E0,0E0,2.8347535E0,0E0,0E0,0E0,0E0],"parents":[2147483647,0,0,1,1,2,2,3,3,5,5,6,6,9,9,10,10,12,12,14,14,18,18],"right_children":[2,4,6,8,-1,10,12,-1,-1,14,16,-1,18,-1,20,-1,-1,-1,22,-1,-1,-1,-1],"split_conditions":[-2.4833801E-1,3.158162E0,6.7904844E0,-2.2093372E1,-8.590022E-3,1.8810292E0,8.709549E0,-7.560383E-3,5.9201825E-2,3.1615305E1,2.092355E0,5.9815224E-2,-3.192379E-2,3.0422375E-2,-1.1455868E-1,4.378101E-2,-1.14783775E-2,3.8112927E-2,-1.5168338E-3,-6.235364E-2,-1.6047046E-2,-5.528296E-2,-3.8620674E-3],"split_indices":[7,2,0,0,0,8,0,0,0,1,8,0,7,0,7,0,0,0,7,0,0,0,0],"split_type":[0,0,0,0,0,0,0,0,0,0,0,0,0,0,0,0,0,0,0,0,0,0,0],"sum_hessian":[6.529327E1,7.4410615E0,5.7852207E1,5.220204E0,2.2208574E0,2.9564299E1,2.8287909E1,1.7331909E0,3.4870129E0,2.6376116E1,3.1881819E0,3.1301165E0,2.5157793E1,1.378173E0,2.4997944E1,1.4714422E0,1.7167397E0,2.17722E0,2.2980572E1,5.091526E0,1.9906418E1,2.10856E0,2.0872011E1],"tree_param":{"num_deleted":"0","num_feature":"9","num_nodes":"23","size_leaf_vector":"1"}},{"base_weights":[-4.2709783E-2,3.6260094E-2,-8.105937E-2,-4.7238305E-2,-4.2564962E-2,-1.441881E-1,1.9700131E-1,-8.326156E-2,-4.925787E-2,5.839531E-1,-3.413501E-1,-8.43393E-3,2.3215747E-2,-8.003955E-3,4.3053463E-2,-5.6569308E-2,4.0969844E-3],"categories":[],"categories_nodes":[],"categories_segments":[],"categories_sizes":[],"default_left":[0,0,0,0,0,0,0,0,0,0,0,0,0,0,0,0,0],"id":44,"left_children":[1,-1,3,5,-1,7,9,11,-1,13,15,-1,-1,-1,-1,-1,-1],"loss_changes":[1.9719108E0,0E0,1.5950521E0,1.4773612E0,0E0,2.191954E0,3.9095156E0,2.0649984E0,0E0,2.3504267E0,2.7945023E0,0E0,0E0,0E0,0E0,0E0,0E0],"parents":[2147483647,0,0,2,2,3,3,5,5,6,6,7,7,9,9,10,10],"right_children":[2,-1,4,6,-1,8,10,12,-1,14,16,-1,-1,-1,-1,-1,-1],"split_conditions":[-3.5412157E-1,3.6260094E-2,2.5678718E-1,5.8866234E1,-4.2564962E-2,1.7449506E-1,4.15E0,1.0920177E1,-4.925787E-2,1.4E0,-2.9E0,-8.43393E-3,2.3215747E-2,-8.003955E-3,4.3053463E-2,-5.6569308E-2,4.0969844E-3],"split_indices":[7,0,7,1,0,7,6,0,0,6,4,0,0,0,0,0,0],"split_type":[0,0,0,0,0,0,0,0,0,0,0,0,0,0,0,0,0],"sum_hessian":[6.3963844E1,2.1905239E0,6.177332E1,6.0191647E1,1.5816728E0,4.338129E1,1.681036E1,4.147548E1,1.905809E0,9.731166E0,7.0791926E0,3.6477303E1,4.998179E0,2.7554278E0,6.9757385E0,1.8860999E0,5.193093E0],"tree_param":{"num_deleted":"0","num_feature":"9","num_nodes":"17","size_leaf_vector":"1"}},{"base_weights":[1.6539197E-2,6.810583E-1,-7.2024584E-2,-1.2407842E-2,1.0143324E0,-7.241818E-1,2.8057303E-2,6.315368E-2,1.0362327E-3,2.0890436E-1,-5.9924748E-2,3.278834E-1,-1.4253862E-1,2.4719005E-2,-6.492264E-3,-1.11894205E-1,7.664006E-1,-8.503607E-1,-2.3379973E-3,-3.7051827E-2,1.2842901E-2,1.2396741E-2,5.5728294E-2,-1.5284019E-2,-5.139468E-2,-1.3470054E-2,1.3041005E-2],"categories":[],"categories_nodes":[],"categories_segments":[],"categories_sizes":[],"default_left":[0,0,0,0,0,0,0,0,0,0,0,0,0,0,0,0,0,0,0,0,0,0,0,0,0,0,0],"id":45,"left_children":[1,3,5,-1,7,9,11,-1,-1,13,-1,15,17,-1,-1,19,21,23,25,-1,-1,-1,-1,-1,-1,-1,-1],"loss_changes":[3.982711E0,2.715577E0,3.9288554E0,0E0,1.4696741E0,3.792964E0,2.751444E0,0E0,0E0,4.0741724E-1,0E0,3.8423276E0,3.4117339E0,0E0,0E0,2.6491084E0,1.5072966E0,2.3546886E-1,2.1586468E0,0E0,0E0,0E0,0E0,0E0,0E0,0E0,0E0],"parents":[2147483647,0,0,1,1,2,2,4,4,5,5,6,6,9,9,11,11,12,12,15,15,16,16,17,17,18,18],"right_children":[2,4,6,-1,8,10,12,-1,-1,14,-1,16,18,-1,-1,20,22,24,26,-1,-1,-1,-1,-1,-1,-1,-1],"split_conditions":[-2.4833801E-1,-2.0398195E1,-1.6793627E-1,-1.2407842E-2,1.015E1,2.65E0,5.385406E1,6.315368E-2,1.0362327E-3,3.1912796E1,-5.9924748E-2,-3.9E0,5.5447357E1,2.4719005E-2,-6.492264E-3,1.774643E1,4.55E0,9.540298E-2,1.8328571E1,-3.7051827E-2,1.2842901E-2,1.2396741E-2,5.5728294E-2,-1.5284019E-2,-5.139468E-2,-1.3470054E-2,1.3041005E-2],"split_indices":[7,0,7,0,5,5,1,0,0,1,0,4,1,0,0,3,5,7,3,0,0,0,0,0,0,0,0],"split_type":[0,0,0,0,0,0,0,0,0,0,0,0,0,0,0,0,0,0,0,0,0,0,0,0,0,0,0],"sum_hessian":[6.583947E1,6.956071E0,5.8883396E1,1.9036961E0,5.052375E0,7.004504E0,5.1878895E1,3.8238962E0,1.2284787E0,2.5491962E0,4.455308E0,1.8479239E1,3.3399654E1,1.1340598E0,1.4151365E0,9.598243E0,8.880996E0,4.6844177E0,2.8715239E1,3.1737714E0,6.4244714E0,4.2557383E0,4.6252575E0,1.8205862E0,2.8638315E0,1.4240103E1,1.4475135E1],"tree_param":{"num_deleted":"0","num_feature":"9","num_nodes":"27","size_leaf_vector":"1"}},{"base_weights":[5.2291863E-2,3.9045438E-1,-5.81472E-2,-5.5693258E-2,7.09647E-1,-1.4546941E-1,5.2485645E-1,4.690834E-1,-3.3378425E-1,9.615276E-1,-2.0723596E-2,-4.5445982E-2,-9.295717E-1,7.652368E-1,-1.9696377E-2,-1.0975172E-2,4.5876168E-2,-5.864181E-1,1.4828903E-2,5.7650443E-2,-9.982558E-3,-7.1256226E-1,5.394942E-2,-1.1693748E-2,-5.2539576E-2,3.46727E-3,9.0334433E-1,-6.722193E-3,-4.9752228E-2,1.8728183E-3,-4.449777E-2,2.1325458E-2,-1.2002799E-2,5.0464924E-2,1.3597988E-2],"categories":[],"categories_nodes":[],"categories_segments":[],"categories_sizes":[],"default_left":[0,0,0,0,0,0,0,0,0,0,0,0,0,0,0,0,0,0,0,0,0,0,0,0,0,0,0,0,0,0,0,0,0,0,0],"id":46,"left_children":[1,3,5,7,9,11,13,15,17,19,-1,21,23,25,-1,-1,-1,27,-1,-1,-1,29,31,-1,-1,-1,33,-1,-1,-1,-1,-1,-1,-1,-1],"loss_changes":[2.6192815E0,2.4954915E0,2.7888324E0,1.3415546E0,3.2657032E0,3.653546E0,1.8823062E0,1.1982487E0,1.1121688E0,2.1365342E0,0E0,2.8793058E0,1.9949913E-1,5.152838E-1,0E0,0E0,0E0,7.0505357E-1,0E0,0E0,0E0,7.818594E-1,4.2885003E0,0E0,0E0,0E0,5.561018E-2,0E0,0E0,0E0,0E0,0E0,0E0,0E0,0E0],"parents":[2147483647,0,0,1,1,2,2,3,3,4,4,5,5,6,6,7,7,8,8,9,9,11,11,12,12,13,13,17,17,21,21,22,22,26,26],"right_children":[2,4,6,8,10,12,14,16,18,20,-1,22,24,26,-1,-1,-1,28,-1,-1,-1,30,32,-1,-1,-1,34,-1,-1,-1,-1,-1,-1,-1,-1],"split_conditions":[1.85E0,-1.4181418E0,2.8817858E1,3.1E0,2.4764286E1,2.5592857E1,7.1013103E0,1.25E0,6.7904844E0,1.64E1,-2.0723596E-2,-1.4022247E1,2.35E0,-2.175E1,-1.9696377E-2,-1.0975172E-2,4.5876168E-2,-8.276693E-1,1.4828903E-2,5.7650443E-2,-9.982558E-3,-2.6331907E1,5.385406E1,-1.1693748E-2,-5.2539576E-2,3.46727E-3,7.5E0,-6.722193E-3,-4.9752228E-2,1.8728183E-3,-4.449777E-2,2.1325458E-2,-1.2002799E-2,5.0464924E-2,1.3597988E-2],"split_indices":[5,2,3,6,3,3,2,6,0,4,0,0,6,4,0,0,0,0,0,0,0,0,1,0,0,0,5,0,0,0,0,0,0,0,0],"split_type":[0,0,0,0,0,0,0,0,0,0,0,0,0,0,0,0,0,0,0,0,0,0,0,0,0,0,0,0,0,0,0,0,0,0,0],"sum_hessian":[6.852694E1,1.624612E1,5.228082E1,7.1198936E0,9.126227E0,4.6123005E1,6.1578155E0,2.228245E0,4.891649E0,7.573808E0,1.5524194E0,4.1843258E1,4.2797456E0,5.013309E0,1.1445062E0,1.0801598E0,1.1480854E0,3.5418673E0,1.3497814E0,6.5077076E0,1.0661008E0,4.6259704E0,3.721729E1,1.0697356E0,3.2100098E0,1.0789326E0,3.9343765E0,2.3127694E0,1.2290978E0,1.0357342E0,3.5902364E0,1.6216839E1,2.1000448E1,2.8564768E0,1.0778997E0],"tree_param":{"num_deleted":"0","num_feature":"9","num_nodes":"35","size_leaf_vector":"1"}},{"base_weights":[3.063883E-2,-5.4849483E-2,3.445952E-1,9.369108E-2,-4.713666E-1,5.2112454E-1,-3.5910025E-1,1.4272596E-1,-4.0170755E-2,2.8373846E-1,-6.994708E-1,4.6328377E-2,3.0466408E-1,-3.0010382E-2,2.904787E-3,-3.6456013E-1,2.5160512E-1,-2.350281E-2,3.594358E-2,-9.1843736E-1,2.6595721E-2,-3.274262E-2,6.452417E-1,2.657259E-2,-6.4301565E-2,-1.832221E-3,3.403254E-2,-1.2746833E-2,-6.344841E-2,-3.006326E-2,1.2571106E-2,9.349383E-3,4.477448E-2],"categories":[],"categories_nodes":[],"categories_segments":[],"categories_sizes":[],"default_left":[0,0,0,0,0,0,0,0,0,0,0,0,0,0,0,0,0,0,0,0,0,0,0,0,0,0,0,0,0,0,0,0,0],"id":47,"left_children":[1,3,5,7,9,11,13,15,-1,17,19,-1,21,-1,-1,23,25,-1,-1,27,-1,29,31,-1,-1,-1,-1,-1,-1,-1,-1,-1,-1],"loss_changes":[1.8312058E0,3.381103E0,1.9993688E0,1.9002421E0,2.6691263E0,7.770686E-1,3.8871914E-1,2.2643878E0,0E0,1.6627827E0,3.5366755E0,0E0,1.0966338E0,0E0,0E0,6.759628E0,4.103297E0,0E0,0E0,1.9940882E0,0E0,1.0644758E0,3.7223184E-1,0E0,0E0,0E0,0E0,0E0,0E0,0E0,0E0,0E0,0E0],"parents":[2147483647,0,0,1,1,2,2,3,3,4,4,5,5,6,6,7,7,9,9,10,10,12,12,15,15,16,16,19,19,21,21,22,22],"right_children":[2,4,6,8,10,12,14,16,-1,18,20,-1,22,-1,-1,24,26,-1,-1,28,-1,30,32,-1,-1,-1,-1,-1,-1,-1,-1,-1,-1],"split_conditions":[1.2055825E0,9.8199815E-1,8.25E0,1.3727984E1,-2.4833801E-1,1.3536808E0,1.774643E1,1.4685715E1,-4.0170755E-2,-1.115E1,1.18E1,4.6328377E-2,1.9213853E0,-3.0010382E-2,2.904787E-3,4.4290196E-2,6.598794E-2,-2.350281E-2,3.594358E-2,-1.4181418E0,2.6595721E-2,-1.475E1,-1.6793627E-1,2.657259E-2,-6.4301565E-2,-1.832221E-3,3.403254E-2,-1.2746833E-2,-6.344841E-2,-3.006326E-2,1.2571106E-2,9.349383E-3,4.477448E-2],"split_indices":[8,8,5,2,7,8,3,3,0,4,4,0,8,0,0,7,7,0,0,2,0,4,7,0,0,0,0,0,0,0,0,0,0],"split_type":[0,0,0,0,0,0,0,0,0,0,0,0,0,0,0,0,0,0,0,0,0,0,0,0,0,0,0,0,0,0,0,0,0],"sum_hessian":[6.652354E1,5.293498E1,1.358856E1,3.9590916E1,1.3344063E1,1.1070785E1,2.5177753E0,3.833639E1,1.2545228E0,3.0392337E0,1.030483E1,2.7114823E0,8.3593025E0,1.3176209E0,1.2001545E0,6.3592567E0,3.1977135E1,1.0829488E0,1.9562849E0,8.964834E0,1.3399954E0,4.6532435E0,3.7060587E0,3.4387615E0,2.9204955E0,1.967398E1,1.2303154E1,3.6960561E0,5.2687774E0,1.1788462E0,3.4743974E0,1.926133E0,1.7799258E0],"tree_param":{"num_deleted":"0","num_feature":"9","num_nodes":"33","size_leaf_vector":"1"}},{"base_weights":[-3.9946392E-2,-7.848888E-2,4.525833E-2,4.2370683E-1,-1.305784E-1,4.5325764E-2,6.6173226E-2,-5.7977253E-1,-5.2452594E-2,-1.4541166E-2,2.0704104E-2,1.956809E-1,-5.098172E-2,6.224076E-1,-1.0992196E-1,3.3121206E-2,-1.54490145E-2,-1.0991619E-3,4.7948793E-2,-1.9073285E-2,2.304213E-3],"categories":[],"categories_nodes":[],"categories_segments":[],"categories_sizes":[],"default_left":[0,0,0,0,0,0,0,0,0,0,0,0,0,0,0,0,0,0,0,0,0],"id":48,"left_children":[1,3,-1,5,7,-1,9,11,13,-1,-1,15,-1,17,19,-1,-1,-1,-1,-1,-1],"loss_changes":[2.5238488E0,1.7717994E0,0E0,1.0451214E0,2.0827398E0,0E0,7.112446E-1,3.20854E0,2.1004117E0,0E0,0E0,1.1543663E0,0E0,9.453478E-1,2.0989044E0,0E0,0E0,0E0,0E0,0E0,0E0],"parents":[2147483647,0,0,1,1,3,3,4,4,6,6,7,7,8,8,11,11,13,13,14,14],"right_children":[2,4,-1,6,8,-1,10,12,14,-1,-1,16,-1,18,20,-1,-1,-1,-1,-1,-1],"split_conditions":[1.325E1,-2.4833801E-1,4.525833E-2,1.1E0,-1.1455868E-1,4.5325764E-2,-5.0258195E-1,2.65E0,-7.313177E-2,-1.4541166E-2,2.0704104E-2,-1.05E1,-5.098172E-2,1.5407143E1,2.45E0,3.3121206E-2,-1.54490145E-2,-1.0991619E-3,4.7948793E-2,-1.9073285E-2,2.304213E-3],"split_indices":[5,7,0,5,7,0,2,5,7,0,0,4,0,3,5,0,0,0,0,0,0],"split_type":[0,0,0,0,0,0,0,0,0,0,0,0,0,0,0,0,0,0,0,0,0],"sum_hessian":[6.633474E1,6.461657E1,1.7181643E0,5.401963E0,5.921461E1,1.6450467E0,3.7569168E0,7.821707E0,5.1392902E1,1.9352244E0,1.8216922E0,3.0318477E0,4.789859E0,3.2616184E0,4.8131283E1,1.4126898E0,1.6191579E0,1.4397566E0,1.8218619E0,1.7035017E1,3.1096268E1],"tree_param":{"num_deleted":"0","num_feature":"9","num_nodes":"21","size_leaf_vector":"1"}},{"base_weights":[1.010299E-2,-4.7702976E-2,6.1354977E-1,-6.984486E-3,-4.485771E-2,-2.4435257E-3,4.5096945E-2,3.510424E-2,-4.4634964E-2,-4.0051243E-1,8.400765E-2,8.074843E-3,-3.715054E-2,2.2440625E-2,-3.8932895E-3],"categories":[],"categories_nodes":[],"categories_segments":[],"categories_sizes":[],"default_left":[0,0,0,0,0,0,0,0,0,0,0,0,0,0,0],"id":49,"left_children":[1,3,5,7,-1,-1,-1,-1,9,11,13,-1,-1,-1,-1],"loss_changes":[2.4217062E0,2.190691E0,1.2032318E0,1.6763847E0,0E0,0E0,0E0,0E0,2.7554615E0,3.191791E0,2.6624448E0,0E0,0E0,0E0,0E0],"parents":[2147483647,0,0,1,1,2,2,3,3,8,8,9,9,10,10],"right_children":[2,4,6,8,-1,-1,-1,-1,10,12,14,-1,-1,-1,-1],"split_conditions":[1.8810292E0,2.38E1,1.76E1,-3.5412157E-1,-4.485771E-2,-2.4435257E-3,4.5096945E-2,3.510424E-2,4.5521904E1,-1.05E1,5.385406E1,8.074843E-3,-3.715054E-2,2.2440625E-2,-3.8932895E-3],"split_indices":[8,4,3,7,0,0,0,0,1,4,1,0,0,0,0],"split_type":[0,0,0,0,0,0,0,0,0,0,0,0,0,0,0],"sum_hessian":[6.7584984E1,6.2517223E1,5.067762E0,6.061964E1,1.8975832E0,1.7890081E0,3.2787535E0,2.1667082E0,5.845293E1,1.4958447E1,4.3494484E1,5.864234E0,9.0942135E0,1.2823128E1,3.0671356E1],"tree_param":{"num_deleted":"0","num_feature":"9","num_nodes":"15","size_leaf_vector":"1"}},{"base_weights":[-3.5729006E-2,-7.594145E-2,4.609267E-2,-1.6862083E-2,-7.9346603E-1,6.3153654E-1,-5.810229E-2,-5.5136677E-2,-1.0013911E-2,4.597802E-2,-2.8990663E-3,-7.011958E-1,-1.1918416E-3,-4.6578377E-2,2.3250997E-3,6.5824464E-3,-1.3044819E-2],"categories":[],"categories_nodes":[],"categories_segments":[],"categories_sizes":[],"default_left":[0,0,0,0,0,0,0,0,0,0,0,0,0,0,0,0,0],"id":50,"left_children":[1,3,-1,5,7,9,11,-1,-1,-1,-1,13,15,-1,-1,-1,-1],"loss_changes":[2.616461E0,2.7161226E0,0E0,1.6547973E0,6.7377806E-1,7.8869784E-1,2.1149154E0,0E0,0E0,0E0,0E0,8.5257936E-1,1.9011474E0,0E0,0E0,0E0,0E0],"parents":[2147483647,0,0,1,1,3,3,4,4,5,5,6,6,11,11,12,12],"right_children":[2,4,-1,6,8,10,12,-1,-1,-1,-1,14,16,-1,-1,-1,-1],"split_conditions":[1.525E1,1.015E1,4.609267E-2,-7.628286E0,1.19E1,-1.9E0,-5.7203927E0,-5.5136677E-2,-1.0013911E-2,4.597802E-2,-2.8990663E-3,1.8982143E1,2.2007143E1,-4.6578377E-2,2.3250997E-3,6.5824464E-3,-1.3044819E-2],"split_indices":[5,5,0,2,5,4,2,0,0,0,0,3,3,0,0,0,0],"split_type":[0,0,0,0,0,0,0,0,0,0,0,0,0,0,0,0,0],"sum_hessian":[6.513011E1,6.338887E1,1.7412399E0,5.9512264E1,3.876606E0,2.7028668E0,5.68094E1,1.9834887E0,1.8931173E0,1.6711638E0,1.031703E0,3.6982124E0,5.3111183E1,2.639153E0,1.0590594E0,3.5464115E1,1.764707E1],"tree_param":{"num_deleted":"0","num_feature":"9","num_nodes":"17","size_leaf_vector":"1"}},{"base_weights":[4.745985E-2,8.261819E-2,-4.2216476E-2,3.9746262E-2,4.2345498E-2,-3.3583993E-1,1.572508E-1,-6.234706E-1,5.1049626E-1,2.1263279E-1,-5.417992E-1,2.0324653E-3,-3.942747E-2,-6.5968647E-3,4.643191E-2,3.7707016E-3,4.6684664E-2,1.338377E-2,-4.9522694E-2],"categories":[],"categories_nodes":[],"categories_segments":[],"categories_sizes":[],"default_left":[0,0,0,0,0,0,0,0,0,0,0,0,0,0,0,0,0,0,0],"id":51,"left_children":[1,3,-1,-1,5,7,9,11,13,15,17,-1,-1,-1,-1,-1,-1,-1,-1],"loss_changes":[2.2096057E0,1.8760192E0,0E0,0E0,2.8367686E0,4.0301147E0,2.0438437E0,1.3290534E0,1.3091738E0,4.5678186E0,1.6956018E0,0E0,0E0,0E0,0E0,0E0,0E0,0E0,0E0],"parents":[2147483647,0,0,1,1,4,4,5,5,6,6,7,7,8,8,9,9,10,10],"right_children":[2,4,-1,-1,6,8,10,12,14,16,18,-1,-1,-1,-1,-1,-1,-1,-1],"split_conditions":[2.5678718E-1,-7.628286E0,-4.2216476E-2,3.9746262E-2,-3.0886471E0,1.0705359E0,2.8233446E1,1.4864285E1,3.87292E1,6.5666336E1,2.020313E-2,2.0324653E-3,-3.942747E-2,-6.5968647E-3,4.643191E-2,3.7707016E-3,4.6684664E-2,1.338377E-2,-4.9522694E-2],"split_indices":[7,2,0,0,2,8,0,3,1,1,7,0,0,0,0,0,0,0,0],"split_type":[0,0,0,0,0,0,0,0,0,0,0,0,0,0,0,0,0,0,0],"sum_hessian":[6.72484E1,6.557066E1,1.6777333E0,2.5061193E0,6.3064545E1,1.4247919E1,4.8816628E1,1.0830471E1,3.417448E0,4.58778E1,2.9388266E0,2.3062148E0,8.524256E0,1.617219E0,1.800229E0,3.9471004E1,6.4067965E0,1.191847E0,1.7469795E0],"tree_param":{"num_deleted":"0","num_feature":"9","num_nodes":"19","size_leaf_vector":"1"}},{"base_weights":[7.457244E-3,4.4738385E-1,-6.164405E-2,8.8957286E-1,-5.5146582E-2,-2.9922792E-1,7.1337566E-2,7.267337E-3,1.0089366E0,5.225486E-2,-7.053195E-1,7.268064E-1,-4.3154903E-2,5.7388492E-2,2.109613E-2,-5.76099E-1,4.040839E-1,2.048015E-3,-8.9975387E-1,-1.11525515E-2,5.5431474E-2,-1.2255969E-1,3.666331E-2,-3.209795E-3,-4.7760762E-2,-3.2078873E-2,3.8204685E-2,-5.3479284E-2,6.1800173E-3,3.8588926E-2,-9.2072E-3],"categories":[],"categories_nodes":[],"categories_segments":[],"categories_sizes":[],"default_left":[0,0,0,0,0,0,0,0,0,0,0,0,0,0,0,0,0,0,0,0,0,0,0,0,0,0,0,0,0,0,0],"id":52,"left_children":[1,3,5,7,-1,9,11,-1,13,15,17,19,21,-1,-1,23,25,-1,27,-1,-1,29,-1,-1,-1,-1,-1,-1,-1,-1,-1],"loss_changes":[2.0500062E0,7.2554193E0,1.8656914E0,5.3513527E-1,0E0,3.054452E0,2.9007244E0,0E0,4.1035175E-2,2.9439628E0,1.4701309E0,2.3295882E0,2.154768E0,0E0,0E0,8.729758E-1,3.6710155E0,0E0,1.5016656E0,0E0,0E0,1.8628583E0,0E0,0E0,0E0,0E0,0E0,0E0,0E0,0E0,0E0],"parents":[2147483647,0,0,1,1,2,2,3,3,5,5,6,6,8,8,9,9,10,10,11,11,12,12,15,15,16,16,18,18,21,21],"right_children":[2,4,6,8,-1,10,12,-1,14,16,18,20,22,-1,-1,24,26,-1,28,-1,-1,30,-1,-1,-1,-1,-1,-1,-1,-1,-1],"split_conditions":[1.4146428E1,1.194396E1,1.8625E1,7.978528E-1,-5.5146582E-2,1.0216311E0,1.9696428E1,7.267337E-3,-2.2406733E0,-3.8631423E0,1.4960714E1,-2.0082937E1,1.8748308E0,5.7388492E-2,2.109613E-2,2.4E0,1.4685715E1,2.048015E-3,6.242021E1,-1.11525515E-2,5.5431474E-2,2.9870123E-1,3.666331E-2,-3.209795E-3,-4.7760762E-2,-3.2078873E-2,3.8204685E-2,-5.3479284E-2,6.1800173E-3,3.8588926E-2,-9.2072E-3],"split_indices":[3,0,3,8,0,8,3,0,2,2,3,0,8,0,0,5,3,0,1,0,0,8,0,0,0,0,0,0,0,0,0],"split_type":[0,0,0,0,0,0,0,0,0,0,0,0,0,0,0,0,0,0,0,0,0,0,0,0,0,0,0,0,0,0,0],"sum_hessian":[6.552833E1,8.152421E0,5.737591E1,6.6747994E0,1.4776218E0,2.0141365E1,3.7234543E1,1.229102E0,5.4456973E0,1.1263681E1,8.877685E0,4.741486E0,3.2493057E1,3.6315422E0,1.8141552E0,3.8142068E0,7.4494743E0,1.9980576E0,6.879627E0,1.4787185E0,3.2627678E0,3.0242317E1,2.2507415E0,2.1204252E0,1.6937815E0,1.7075939E0,5.7418804E0,5.861671E0,1.017956E0,1.2053889E0,2.9036928E1],"tree_param":{"num_deleted":"0","num_feature":"9","num_nodes":"31","size_leaf_vector":"1"}},{"base_weights":[-2.502025E-2,-5.476659E-2,4.1204505E-2,4.159454E-3,-8.3665043E-1,6.7887264E-1,-5.694502E-2,-5.338605E-2,-1.4077951E-2,4.475617E-2,1.2338758E-3,-2.1943723E-1,1.3654564E-1,-3.6625743E-2,-4.323179E-3,4.4927027E-2,-7.7296136E-4],"categories":[],"categories_nodes":[],"categories_segments":[],"categories_sizes":[],"default_left":[0,0,0,0,0,0,0,0,0,0,0,0,0,0,0,0,0],"id":53,"left_children":[1,3,-1,5,7,9,11,-1,-1,-1,-1,13,15,-1,-1,-1,-1],"loss_changes":[1.7336072E0,3.0224047E0,0E0,2.5917966E0,2.89016E-1,7.163873E-1,1.8443218E0,0E0,0E0,0E0,0E0,2.102816E0,3.1362991E0,0E0,0E0,0E0,0E0],"parents":[2147483647,0,0,1,1,3,3,4,4,5,5,6,6,11,11,12,12],"right_children":[2,4,-1,6,8,10,12,-1,-1,-1,-1,14,16,-1,-1,-1,-1],"split_conditions":[1.525E1,1.115E1,4.1204505E-2,4.4325918E-1,1.205E1,1.4373034E-2,3.75E0,-5.338605E-2,-1.4077951E-2,4.475617E-2,1.2338758E-3,-1.225E1,-9.2E0,-3.6625743E-2,-4.323179E-3,4.4927027E-2,-7.7296136E-4],"split_indices":[5,5,0,8,5,7,5,0,0,0,0,4,4,0,0,0,0],