{"learner":{"attributes":{"scikit_learn":"{\"_estimator_type\": \"classifier\"}"},"feature_names":["ema_diff","rsi","macd_hist","atr","candle_body","upper_wick","lower_wick","vwap_dist","rel_volume"],"feature_types":["float","float","float","float","float","float","float","float","float"],"gradient_booster":{"model":{"cats":{"enc":[],"feature_segments":[],"sorted_idx":[]},"gbtree_model_param":{"num_parallel_tree":"1","num_trees":"100"},"iteration_indptr":[0,1,2,3,4,5,6,7,8,9,10,11,12,13,14,15,16,17,18,19,20,21,22,23,24,25,26,27,28,29,30,31,32,33,34,35,36,37,38,39,40,41,42,43,44,45,46,47,48,49,50,51,52,53,54,55,56,57,58,59,60,61,62,63,64,65,66,67,68,69,70,71,72,73,74,75,76,77,78,79,80,81,82,83,84,85,86,87,88,89,90,91,92,93,94,95,96,97,98,99,100],"tree_info":[0,0,0,0,0,0,0,0,0,0,0,0,0,0,0,0,0,0,0,0,0,0,0,0,0,0,0,0,0,0,0,0,0,0,0,0,0,0,0,0,0,0,0,0,0,0,0,0,0,0,0,0,0,0,0,0,0,0,0,0,0,0,0,0,0,0,0,0,0,0,0,0,0,0,0,0,0,0,0,0,0,0,0,0,0,0,0,0,0,0,0,0,0,0,0,0,0,0,0,0],"trees":[{"base_weights":[1.37230065E-2,-1.8576601E-1,7.173961E-1,7.4687764E-2,-5.700335E-1,-5.204143E-2,9.950276E-1,-4.6033219E-1,6.698395E-1,-8.137183E-1,1.7136034E-1,-6.3563846E-2,1.2780542E0,6.8460666E-2,-6.942437E-1,8.5587907E-1,-4.379199E-2,-3.1172815E-1,-1.1216619E0,5.63886E-1,-5.4108124E-2,-4.8260357E-2,4.7157533E-2,1.7629389E-3,1.4780679E0,-4.0724274E-2,3.4815278E-2,6.326091E-2,2.292141E-3,-3.346875E-2,2.1949574E-2,1.7629389E-3,-6.652301E-2,4.502232E-2,-1.8421816E-2,8.243068E-2,2.4918867E-2],"categories":[],"categories_nodes":[],"categories_segments":[],"categories_sizes":[],"default_left":[0,0,0,0,0,0,0,0,0,0,0,0,0,0,0,0,0,0,0,0,0,0,0,0,0,0,0,0,0,0,0,0,0,0,0,0,0],"id":0,"left_children":[1,3,5,7,9,-1,11,13,15,17,19,21,23,-1,25,27,-1,29,31,33,-1,-1,-1,-1,35,-1,-1,-1,-1,-1,-1,-1,-1,-1,-1,-1,-1],"loss_changes":[1.28635025E1,7.1936464E0,1.0913895E1,1.4150081E1,5.375231E0,0E0,5.4706516E0,1.100071E1,6.784301E0,3.0489416E0,4.544129E0,5.2195206E0,3.487793E0,0E0,4.1595793E0,6.3206787E0,0E0,2.9100103E0,3.245552E0,2.4485302E0,0E0,0E0,0E0,0E0,1.2238102E0,0E0,0E0,0E0,0E0,0E0,0E0,0E0,0E0,0E0,0E0,0E0,0E0],"parents":[2147483647,0,0,1,1,2,2,3,3,4,4,6,6,7,7,8,8,9,9,10,10,11,11,12,12,14,14,15,15,17,17,18,18,19,19,24,24],"right_children":[2,4,6,8,10,-1,12,14,16,18,20,22,24,-1,26,28,-1,30,32,34,-1,-1,-1,-1,36,-1,-1,-1,-1,-1,-1,-1,-1,-1,-1,-1,-1],"split_conditions":[2.9778572E1,5.3706917E1,1.4630532E1,4.612729E1,4.4417553E0,-5.204143E-2,5.5321383E-1,6.5329635E-1,1.9868265E0,2.75E0,7.55E0,3.6039288E1,4.5E-1,6.8460666E-2,1.545E1,5.9E0,-4.379199E-2,1.85E0,-5.5E0,7.081478E1,-5.4108124E-2,-4.8260357E-2,4.7157533E-2,1.7629389E-3,1.065E1,-4.0724274E-2,3.4815278E-2,6.326091E-2,2.292141E-3,-3.346875E-2,2.1949574E-2,1.7629389E-3,-6.652301E-2,4.502232E-2,-1.8421816E-2,8.243068E-2,2.4918867E-2],"split_indices":[3,1,1,1,2,0,8,8,8,6,5,3,5,0,6,6,0,6,4,1,0,0,0,0,5,0,0,0,0,0,0,0,0,0,0,0,0],"split_type":[0,0,0,0,0,0,0,0,0,0,0,0,0,0,0,0,0,0,0,0,0,0,0,0,0,0,0,0,0,0,0,0,0,0,0,0,0],"sum_hessian":[8.96873E1,7.045075E1,1.9236553E1,4.247031E1,2.798044E1,2.2484283E0,1.6988125E1,2.2484282E1,1.9986029E1,2.098533E1,6.99511E0,3.7473803E0,1.3240744E1,1.9986029E0,2.048568E1,1.8237251E1,1.7487775E0,8.743888E0,1.2241443E1,5.745983E0,1.2491268E0,1.9986029E0,1.7487775E0,1.9986029E0,1.1242141E1,1.9236553E1,1.2491268E0,1.1741792E1,6.4954596E0,5.9958086E0,2.7480788E0,1.9986029E0,1.024284E1,4.247031E0,1.4989522E0,8.993713E0,2.2484283E0],"tree_param":{"num_deleted":"0","num_feature":"9","num_nodes":"37","size_leaf_vector":"1"}},{"base_weights":[3.4215122E-3,-1.643716E-1,6.8556917E-1,2.6125845E-1,-3.0271682E-1,1.0904375E0,-3.062329E-1,9.220588E-1,-4.624637E-1,3.7931132E-1,-4.4206834E-1,-4.2870086E-2,1.4691849E0,-5.542917E-2,5.832551E-1,1.3310483E0,-1.147233E-1,5.6955677E-2,-8.43589E-1,-3.6141858E-1,1.1181233E0,-1.2987077E0,-1.17494464E-1,7.9108804E-2,2.7236745E-2,5.548134E-2,-1.0123685E-2,1.2506098E-2,7.571671E-2,3.4512907E-2,-3.9644826E-2,-5.8414903E-2,1.1531252E-2,2.2453329E-2,-3.7663247E-2,7.688614E-2,2.0735243E-3,-8.5233655E-3,-7.032174E-2,4.0536847E-2,-1.9474579E-2],"categories":[],"categories_nodes":[],"categories_segments":[],"categories_sizes":[],"default_left":[0,0,0,0,0,0,0,0,0,0,0,0,0,0,0,0,0,0,0,0,0,0,0,0,0,0,0,0,0,0,0,0,0,0,0,0,0,0,0,0,0],"id":1,"left_children":[1,3,5,7,9,11,13,15,17,19,21,-1,23,-1,25,27,29,-1,31,33,35,37,39,-1,-1,-1,-1,-1,-1,-1,-1,-1,-1,-1,-1,-1,-1,-1,-1,-1,-1],"loss_changes":[1.0428739E1,4.38597E0,7.556305E0,9.263618E0,5.4580064E0,1.0844133E1,4.924836E0,4.3901873E0,6.7508793E0,5.866735E0,1.2826848E1,0E0,3.1275368E-1,0E0,1.6714704E0,1.056736E0,2.5931916E0,0E0,3.1424346E0,2.161252E0,2.304205E0,1.3071938E0,9.140776E0,0E0,0E0,0E0,0E0,0E0,0E0,0E0,0E0,0E0,0E0,0E0,0E0,0E0,0E0,0E0,0E0,0E0,0E0],"parents":[2147483647,0,0,1,1,2,2,3,3,4,4,5,5,6,6,7,7,8,8,9,9,10,10,12,12,14,14,15,15,16,16,18,18,19,19,20,20,21,21,22,22],"right_children":[2,4,6,8,10,12,14,16,18,20,22,-1,24,-1,26,28,30,-1,32,34,36,38,40,-1,-1,-1,-1,-1,-1,-1,-1,-1,-1,-1,-1,-1,-1,-1,-1,-1,-1],"split_conditions":[2.9778572E1,7.193127E-1,1.0283857E1,8.399408E0,-1.8246353E-1,-2.455E1,1.1045823E1,1.1189341E-1,-8.75E0,-1.1839797E1,-2.106083E0,-4.2870086E-2,1.6437039E-1,-5.542917E-2,1.06384605E-1,-1.08992815E-1,-3.4046822E0,5.6955677E-2,3.3056934E1,-3.9231735E-1,-5.7414613E0,-1.4805491E1,1.2084579E-3,7.9108804E-2,2.7236745E-2,5.548134E-2,-1.0123685E-2,1.2506098E-2,7.571671E-2,3.4512907E-2,-3.9644826E-2,-5.8414903E-2,1.1531252E-2,2.2453329E-2,-3.7663247E-2,7.688614E-2,2.0735243E-3,-8.5233655E-3,-7.032174E-2,4.0536847E-2,-1.9474579E-2],"split_indices":[3,8,0,0,7,4,2,7,4,0,0,0,7,0,7,7,2,0,0,7,0,0,7,0,0,0,0,0,0,0,0,0,0,0,0,0,0,0,0,0,0],"split_type":[0,0,0,0,0,0,0,0,0,0,0,0,0,0,0,0,0,0,0,0,0,0,0,0,0,0,0,0,0,0,0,0,0,0,0,0,0,0,0,0,0],"sum_hessian":[8.912824E1,7.214197E1,1.6986277E1,1.7478748E1,5.4663216E1,1.1991654E1,4.994623E0,8.993297E0,8.485453E0,8.98177E0,4.5681446E1,1.7464012E0,1.0245254E1,2.4964333E0,2.4981897E0,6.245678E0,2.747619E0,1.248817E0,7.2366357E0,4.7401376E0,4.241632E0,1.1727662E1,3.3953785E1,8.4954195E0,1.7498338E0,1.2491435E0,1.2490463E0,1.2483293E0,4.9973483E0,1.248202E0,1.4994168E0,5.48966E0,1.7469755E0,1.4972458E0,3.242892E0,2.7439857E0,1.4976463E0,1.2472662E0,1.0480396E1,7.24578E0,2.6708006E1],"tree_param":{"num_deleted":"0","num_feature":"9","num_nodes":"41","size_leaf_vector":"1"}},{"base_weights":[-1.26035595E-2,6.044104E-1,-1.9193755E-1,-7.862608E-1,8.410362E-1,3.1677836E-1,-4.0711388E-1,-5.241651E-2,-8.718045E-3,-2.2761223E-1,1.0278519E0,7.1068424E-1,-1.2423602E-1,-1.2243031E0,-2.893336E-1,-5.2096225E-2,3.4342006E-2,1.24706E0,2.1501812E-1,1.6226497E-1,6.952624E-2,-6.270797E-2,2.654441E-1,-8.879765E-3,-7.3120676E-2,1.6547643E-1,-6.208383E-1,2.7710041E-2,8.311509E-2,-3.332289E-2,5.9370436E-2,-2.6322354E-2,2.3173116E-2,4.570858E-2,-1.5690712E-2,-1.6935734E-2,2.3437308E-2,-3.6247667E-2,2.6526276E-2],"categories":[],"categories_nodes":[],"categories_segments":[],"categories_sizes":[],"default_left":[0,0,0,0,0,0,0,0,0,0,0,0,0,0,0,0,0,0,0,0,0,0,0,0,0,0,0,0,0,0,0,0,0,0,0,0,0,0,0],"id":2,"left_children":[1,3,5,7,9,11,13,-1,-1,15,17,19,21,23,25,-1,-1,27,29,31,-1,-1,33,-1,-1,35,37,-1,-1,-1,-1,-1,-1,-1,-1,-1,-1,-1,-1],"loss_changes":[1.0050567E1,7.3938866E0,7.8267474E0,3.7716913E-1,3.8210363E0,3.8172858E0,4.44444E0,0E0,0E0,3.3162055E0,2.4892597E0,4.057251E0,5.166839E0,1.2284832E0,6.870245E0,0E0,0E0,2.5254593E0,4.6444983E0,1.7977626E0,0E0,0E0,3.6646035E0,0E0,0E0,3.1730208E0,3.5220432E0,0E0,0E0,0E0,0E0,0E0,0E0,0E0,0E0,0E0,0E0,0E0,0E0],"parents":[2147483647,0,0,1,1,2,2,3,3,4,4,5,5,6,6,9,9,10,10,11,11,12,12,13,13,14,14,17,17,18,18,19,19,22,22,25,25,26,26],"right_children":[2,4,6,8,10,12,14,-1,-1,16,18,20,22,24,26,-1,-1,28,30,32,-1,-1,34,-1,-1,36,38,-1,-1,-1,-1,-1,-1,-1,-1,-1,-1,-1,-1],"split_conditions":[-9.9349375E0,-2.455E1,-7.05E0,8.2E0,1.8232143E1,9.507113E-1,-6.4493704E0,-5.241651E-2,-8.718045E-3,-5.611349E0,1.095E1,3.2E0,1.0306367E0,8.2620525E-1,4.5200453E0,-5.2096225E-2,3.4342006E-2,2.937143E1,9.816285E-1,1.25E0,6.952624E-2,-6.270797E-2,1.9E0,-8.879765E-3,-7.3120676E-2,3.35E0,3.645714E1,2.7710041E-2,8.311509E-2,-3.332289E-2,5.9370436E-2,-2.6322354E-2,2.3173116E-2,4.570858E-2,-1.5690712E-2,-1.6935734E-2,2.3437308E-2,-3.6247667E-2,2.6526276E-2],"split_indices":[0,4,4,6,3,8,0,0,0,2,6,5,8,8,0,0,0,3,8,6,0,0,5,0,0,5,3,0,0,0,0,0,0,0,0,0,0,0,0],"split_type":[0,0,0,0,0,0,0,0,0,0,0,0,0,0,0,0,0,0,0,0,0,0,0,0,0,0,0,0,0,0,0,0,0,0,0,0,0,0,0],"sum_hessian":[8.878234E1,1.9459602E1,6.932274E1,2.4918673E0,1.6967735E1,2.0465767E1,4.8856968E1,1.2452874E0,1.2465798E0,2.4923394E0,1.4475395E1,1.0487263E1,9.978504E0,4.971141E0,4.388583E1,1.2446191E0,1.2477202E0,1.0980042E1,3.4953525E0,6.490298E0,3.9969647E0,1.9899571E0,7.9885473E0,1.2448345E0,3.7263062E0,1.87131E1,2.5172728E1,4.989451E0,5.9905915E0,1.9984075E0,1.496945E0,1.7472417E0,4.7430563E0,3.4955773E0,4.49297E0,6.9844527E0,1.1728648E1,2.342483E1,1.7478979E0],"tree_param":{"num_deleted":"0","num_feature":"9","num_nodes":"39","size_leaf_vector":"1"}},{"base_weights":[1.6718451E-3,1.7631745E-1,-4.9232522E-1,2.8151436E-2,8.0114275E-1,4.3479592E-1,-7.845481E-1,-4.444926E-1,2.3552519E-1,-8.414662E-1,1.2613426E0,-2.423444E-1,5.424705E-2,-1.233763E0,-1.4956793E-1,1.4570959E-1,-1.323209E0,7.513481E-1,-1.2740266E-1,-5.510176E-2,-1.0200883E-2,1.662463E-2,1.4359676E0,-3.2444585E-2,8.920492E-3,-2.4595411E-2,-6.605947E-2,7.6998484E-1,-9.54056E-1,2.6305487E-2,-3.493763E-2,-7.6479696E-2,-9.318669E-3,1.21564E-2,7.120248E-2,-1.6095215E-2,3.7345916E-2,7.9694465E-2,2.563732E-2,5.8558293E-2,-9.862733E-3,-1.2930472E-2,-6.510433E-2],"categories":[],"categories_nodes":[],"categories_segments":[],"categories_sizes":[],"default_left":[0,0,0,0,0,0,0,0,0,0,0,0,0,0,0,0,0,0,0,0,0,0,0,0,0,0,0,0,0,0,0,0,0,0,0,0,0,0,0,0,0,0,0],"id":3,"left_children":[1,3,5,7,9,11,13,15,17,19,21,23,-1,25,27,29,31,33,35,-1,-1,-1,37,-1,-1,-1,-1,39,41,-1,-1,-1,-1,-1,-1,-1,-1,-1,-1,-1,-1,-1,-1],"loss_changes":[8.05972E0,6.36642E0,6.9521313E0,5.6738615E0,1.1033352E1,3.120696E0,5.20945E0,9.358829E0,7.6113753E0,3.543272E-1,1.2588825E0,7.9949784E-1,0E0,5.945587E-2,7.372562E0,4.053268E0,1.4043341E0,5.3719244E0,4.39335E0,0E0,0E0,0E0,4.525547E-1,0E0,0E0,0E0,0E0,2.0704932E0,9.2973804E-1,0E0,0E0,0E0,0E0,0E0,0E0,0E0,0E0,0E0,0E0,0E0,0E0,0E0,0E0],"parents":[2147483647,0,0,1,1,2,2,3,3,4,4,5,5,6,6,7,7,8,8,9,9,10,10,11,11,13,13,14,14,15,15,16,16,17,17,18,18,22,22,27,27,28,28],"right_children":[2,4,6,8,10,12,14,16,18,20,22,24,-1,26,28,30,32,34,36,-1,-1,-1,38,-1,-1,-1,-1,40,42,-1,-1,-1,-1,-1,-1,-1,-1,-1,-1,-1,-1,-1,-1],"split_conditions":[8.448192E0,2.9778572E1,-8.75E0,4.1142033E1,-1.5391226E1,2.8E0,4.687171E0,-9.462522E0,-5.3926057E-1,-8.792566E1,1.3E0,2E0,5.424705E-2,-5.5E0,4.65E0,2.6892857E1,1.9453571E1,2.0387294E0,2.3339285E1,-5.510176E-2,-1.0200883E-2,1.662463E-2,1.31E1,-3.2444585E-2,8.920492E-3,-2.4595411E-2,-6.605947E-2,3.654017E1,7.95E0,2.6305487E-2,-3.493763E-2,-7.6479696E-2,-9.318669E-3,1.21564E-2,7.120248E-2,-1.6095215E-2,3.7345916E-2,7.9694465E-2,2.563732E-2,5.8558293E-2,-9.862733E-3,-1.2930472E-2,-6.510433E-2],"split_indices":[0,3,4,1,2,5,2,0,2,0,5,6,0,4,5,3,3,0,3,0,0,0,6,0,0,0,0,0,5,0,0,0,0,0,0,0,0,0,0,0,0,0,0],"split_type":[0,0,0,0,0,0,0,0,0,0,0,0,0,0,0,0,0,0,0,0,0,0,0,0,0,0,0,0,0,0,0,0,0,0,0,0,0,0,0,0,0,0,0],"sum_hessian":[9.141343E1,6.801188E1,2.3401548E1,5.5820187E1,1.2191693E1,5.4913907E0,1.7910158E1,1.6673862E1,3.9146324E1,2.4868402E0,9.704853E0,2.997096E0,2.4942946E0,9.937153E0,7.973005E0,1.0473421E1,6.200441E0,1.5725588E1,2.3420736E1,1.247911E0,1.2389292E0,1.995357E0,7.7094955E0,1.248521E0,1.748575E0,1.7462169E0,8.190936E0,3.740451E0,4.2325535E0,7.480645E0,2.992776E0,4.955347E0,1.2450937E0,9.733462E0,5.9921255E0,1.9675535E1,3.7452006E0,5.963043E0,1.7464525E0,2.4948368E0,1.2456143E0,1.9930463E0,2.2395074E0],"tree_param":{"num_deleted":"0","num_feature":"9","num_nodes":"43","size_leaf_vector":"1"}},{"base_weights":[-3.8308967E-2,5.2765244E-1,-2.0173728E-1,-5.9182692E-2,7.391466E-1,-1.0673921E0,-4.326479E-2,9.610085E-1,-8.6585E-3,5.5459917E-2,-7.2253935E-2,4.573498E-1,-4.1860622E-1,1.0708715E0,-1.4290814E-3,-6.556739E-1,4.3779776E-2,9.760919E-1,-1.551462E-2,-8.1038284E-1,1.9114019E-1,1.6597895E-2,6.336777E-2,1.1396228E-2,-5.9360594E-2,-9.8358365E-3,5.574547E-2,9.086446E-3,-4.5006778E-2,-1.177016E-2,-6.1287273E-2,-1.2466512E-2,3.3970203E-2],"categories":[],"categories_nodes":[],"categories_segments":[],"categories_sizes":[],"default_left":[0,0,0,0,0,0,0,0,0,0,0,0,0,0,0,0,0,0,0,0,0,0,0,0,0,0,0,0,0,0,0,0,0],"id":4,"left_children":[1,3,5,-1,7,9,11,13,15,-1,-1,17,19,21,-1,23,-1,25,27,29,31,-1,-1,-1,-1,-1,-1,-1,-1,-1,-1,-1,-1],"loss_changes":[8.822085E0,8.616505E0,1.008329E1,0E0,3.2688713E0,1.0960979E1,1.2114883E1,1.6793318E0,3.713719E0,0E0,0E0,6.8020263E0,8.942862E0,1.5647755E0,0E0,2.027485E0,0E0,2.3699503E0,2.8608768E0,5.1059875E0,3.4383368E0,0E0,0E0,0E0,0E0,0E0,0E0,0E0,0E0,0E0,0E0,0E0,0E0],"parents":[2147483647,0,0,1,1,2,2,4,4,5,5,6,6,7,7,8,8,11,11,12,12,13,13,15,15,17,17,18,18,19,19,20,20],"right_children":[2,4,6,-1,8,10,12,14,16,-1,-1,18,20,22,-1,24,-1,26,28,30,32,-1,-1,-1,-1,-1,-1,-1,-1,-1,-1,-1,-1],"split_conditions":[-1.0094576E1,1.2367723E1,4.26622E1,-5.9182692E-2,1.095E1,-1.8490331E-1,5.3706917E1,1.5628004E0,1.595E1,5.5459917E-2,-7.2253935E-2,9.431365E-1,4.4417553E0,4.25E0,-1.4290814E-3,-3.9231735E-1,4.3779776E-2,4.581371E1,2.0859983E0,7.609985E0,7.518866E-1,1.6597895E-2,6.336777E-2,1.1396228E-2,-5.9360594E-2,-9.8358365E-3,5.574547E-2,9.086446E-3,-4.5006778E-2,-1.177016E-2,-6.1287273E-2,-1.2466512E-2,3.3970203E-2],"split_indices":[0,1,1,0,6,7,1,8,6,0,0,8,2,6,0,7,0,1,8,0,8,0,0,0,0,0,0,0,0,0,0,0,0],"split_type":[0,0,0,0,0,0,0,0,0,0,0,0,0,0,0,0,0,0,0,0,0,0,0,0,0,0,0,0,0,0,0,0,0],"sum_hessian":[9.322911E1,2.038972E1,7.283939E1,1.7371264E0,1.8652594E1,1.0383593E1,6.24558E1,1.4164968E1,4.487627E0,1.248977E0,9.134616E0,2.666828E1,3.5787518E1,1.2675603E1,1.4893646E0,2.740721E0,1.7469059E0,1.2209735E1,1.4458545E1,2.1587795E1,1.4199723E1,3.2274973E0,9.448106E0,1.2439864E0,1.4967345E0,1.248089E0,1.0961646E1,1.2472194E1,1.9863509E0,9.711318E0,1.1876477E1,7.7224946E0,6.4772286E0],"tree_param":{"num_deleted":"0","num_feature":"9","num_nodes":"33","size_leaf_vector":"1"}},{"base_weights":[-7.4872166E-2,-6.0553813E-1,1.056537E-1,-1.1539929E-1,-1.1886795E0,3.5128334E-1,-2.1287157E-1,8.9278233E-1,-9.0756184E-1,-7.724139E-2,-5.022291E-1,1.8350221E-1,6.250963E-2,-8.735463E-1,1.0252936E-3,3.354332E-1,5.955252E-2,-4.9249954E-3,-5.927356E-2,-5.6320865E-2,1.3251016E-1,3.9848676E-1,-8.3655393E-1,7.725283E-2,-6.703363E-2,4.0094423E-1,-3.2801577E-1,3.6066443E-2,-1.2089348E-2,3.5999868E-2,-2.5939781E-2,3.098077E-2,-2.2834195E-2,1.9438311E-2,-6.414851E-2,-2.8325483E-2,3.4194734E-2,5.0005026E-2,1.3014231E-3,-3.560569E-2,2.3248365E-2],"categories":[],"categories_nodes":[],"categories_segments":[],"categories_sizes":[],"default_left":[0,0,0,0,0,0,0,0,0,0,0,0,0,0,0,0,0,0,0,0,0,0,0,0,0,0,0,0,0,0,0,0,0,0,0,0,0,0,0,0,0],"id":5,"left_children":[1,3,5,7,9,11,13,15,17,-1,19,21,-1,23,25,27,-1,-1,-1,-1,29,31,33,35,-1,37,39,-1,-1,-1,-1,-1,-1,-1,-1,-1,-1,-1,-1,-1,-1],"loss_changes":[9.063708E0,6.7210503E0,5.6257796E0,1.210673E1,1.8768082E0,5.869085E0,4.454261E0,7.189088E-1,1.7757063E0,0E0,2.2047858E0,8.062994E0,0E0,3.5272622E0,3.3955925E0,1.0068903E0,0E0,0E0,0E0,0E0,1.7001507E0,5.9161983E0,4.031432E0,1.7484574E0,0E0,2.5901675E0,4.6435223E0,0E0,0E0,0E0,0E0,0E0,0E0,0E0,0E0,0E0,0E0,0E0,0E0,0E0,0E0],"parents":[2147483647,0,0,1,1,2,2,3,3,4,4,5,5,6,6,7,7,8,8,10,10,11,11,13,13,14,14,15,15,20,20,21,21,22,22,23,23,25,25,26,26],"right_children":[2,4,6,8,10,12,14,16,18,-1,20,22,-1,24,26,28,-1,-1,-1,-1,30,32,34,36,-1,38,40,-1,-1,-1,-1,-1,-1,-1,-1,-1,-1,-1,-1,-1,-1],"split_conditions":[1.7035715E1,1.5207143E1,6.45E0,5.3706917E1,5.244418E0,3.505E1,7.5E0,-4.359809E0,4.1644793E0,-7.724139E-2,3.25E0,1.8075378E1,6.250963E-2,2.035357E1,1.07E1,5.063486E1,5.955252E-2,-4.9249954E-3,-5.927356E-2,-5.6320865E-2,6.3E0,8.05E0,1.35E0,4.224783E1,-6.703363E-2,-9.9349375E0,1.605E1,3.6066443E-2,-1.2089348E-2,3.5999868E-2,-2.5939781E-2,3.098077E-2,-2.2834195E-2,1.9438311E-2,-6.414851E-2,-2.8325483E-2,3.4194734E-2,5.0005026E-2,1.3014231E-3,-3.560569E-2,2.3248365E-2],"split_indices":[3,3,6,1,0,3,6,2,0,0,6,0,0,3,6,1,0,0,0,0,6,5,6,1,0,0,6,0,0,0,0,0,0,0,0,0,0,0,0,0,0],"split_type":[0,0,0,0,0,0,0,0,0,0,0,0,0,0,0,0,0,0,0,0,0,0,0,0,0,0,0,0,0,0,0,0,0,0,0,0,0,0,0,0,0],"sum_hessian":[9.294396E1,2.2994886E1,6.994907E1,1.3144573E1,9.850314E0,3.9435604E1,3.0513468E1,5.727804E0,7.416769E0,5.6621733E0,4.1881404E0,3.4247463E1,5.188139E0,6.7085257E0,2.3804943E1,2.7373488E0,2.9904556E0,2.24256E0,5.174209E0,1.7210677E0,2.4670727E0,2.8789259E1,5.4582057E0,2.485041E0,4.2234845E0,1.0646539E1,1.3158404E1,1.4909362E0,1.2464126E0,1.2416338E0,1.2254391E0,2.3093283E1,5.695976E0,1.4920307E0,3.9661748E0,1.2377292E0,1.2473117E0,3.455977E0,7.190562E0,8.933336E0,4.225068E0],"tree_param":{"num_deleted":"0","num_feature":"9","num_nodes":"41","size_leaf_vector":"1"}},{"base_weights":[-1.0023893E-2,5.543714E-1,-1.7805535E-1,-7.5044703E-1,7.711943E-1,-1.022817E0,-5.4852594E-2,-8.152419E-3,-5.0091017E-2,3.0544466E-1,1.0284796E0,3.3724558E-2,-6.9467716E-2,3.405161E-1,-3.768577E-1,6.07947E-2,-6.7035043E-1,1.2260388E0,2.2475825E-1,-3.4450093E-1,9.166144E-1,-6.318256E-1,1.9531918E-1,9.675239E-3,-5.294643E-2,6.7241296E-2,2.3265565E-2,2.9952917E-2,-1.2501182E-2,-4.643525E-2,4.7639757E-3,3.2262977E-3,5.6640852E-2,-9.435056E-3,-4.445413E-2,3.2746043E-2,-3.7288334E-2],"categories":[],"categories_nodes":[],"categories_segments":[],"categories_sizes":[],"default_left":[0,0,0,0,0,0,0,0,0,0,0,0,0,0,0,0,0,0,0,0,0,0,0,0,0,0,0,0,0,0,0,0,0,0,0,0,0],"id":6,"left_children":[1,3,5,7,9,11,13,-1,-1,15,17,-1,-1,19,21,-1,23,25,27,29,31,33,35,-1,-1,-1,-1,-1,-1,-1,-1,-1,-1,-1,-1,-1,-1],"loss_changes":[8.589421E0,6.4585276E0,7.2029943E0,3.4876132E-1,1.8805141E0,6.424762E0,8.012247E0,0E0,0E0,7.8686748E0,1.5306101E0,0E0,0E0,1.1492731E1,5.171745E0,0E0,1.7076805E0,1.7904758E-1,7.662327E-1,3.5992777E0,2.811346E0,2.587963E0,5.4324856E0,0E0,0E0,0E0,0E0,0E0,0E0,0E0,0E0,0E0,0E0,0E0,0E0,0E0,0E0],"parents":[2147483647,0,0,1,1,2,2,3,3,4,4,5,5,6,6,9,9,10,10,13,13,14,14,16,16,17,17,18,18,19,19,20,20,21,21,22,22],"right_children":[2,4,6,8,10,12,14,-1,-1,16,18,-1,-1,20,22,-1,24,26,28,30,32,34,36,-1,-1,-1,-1,-1,-1,-1,-1,-1,-1,-1,-1,-1,-1],"split_conditions":[-1.0521544E1,1.4630532E1,4.1142033E1,-1.2116348E0,-6.304925E0,-1.7036588E-1,5.3706917E1,-8.152419E-3,-5.0091017E-2,3.0983753E1,4.4031E1,3.3724558E-2,-6.9467716E-2,2.767097E-1,5.2006035E0,6.07947E-2,3.4E0,-1.1685168E-1,2.6E0,3.2E0,1.3E0,2.75E0,8.9E0,9.675239E-3,-5.294643E-2,6.7241296E-2,2.3265565E-2,2.9952917E-2,-1.2501182E-2,-4.643525E-2,4.7639757E-3,3.2262977E-3,5.6640852E-2,-9.435056E-3,-4.445413E-2,3.2746043E-2,-3.7288334E-2],"split_indices":[0,1,1,7,2,7,1,0,0,1,1,0,0,0,2,0,6,7,5,5,5,6,5,0,0,0,0,0,0,0,0,0,0,0,0,0,0],"split_type":[0,0,0,0,0,0,0,0,0,0,0,0,0,0,0,0,0,0,0,0,0,0,0,0,0,0,0,0,0,0,0,0,0,0,0,0,0],"sum_hessian":[8.853032E1,1.9782917E1,6.87474E1,2.4682322E0,1.7314686E1,7.820799E0,6.09266E1,1.233791E0,1.2344412E0,6.9395595E0,1.0375125E1,1.2397542E0,6.5810447E0,2.7322111E1,3.3604492E1,3.4626954E0,3.4768643E0,7.906267E0,2.4688582E0,1.2664837E1,1.4657274E1,2.317377E1,1.043072E1,1.2344824E0,2.242382E0,6.1743345E0,1.7319326E0,1.2341478E0,1.2347103E0,4.961816E0,7.703021E0,3.2291474E0,1.1428126E1,9.148689E0,1.4025082E1,7.2124352E0,3.2182846E0],"tree_param":{"num_deleted":"0","num_feature":"9","num_nodes":"37","size_leaf_vector":"1"}},{"base_weights":[7.540252E-2,3.6907E-1,-2.4320765E-1,6.353882E-1,-1.5935446E-1,4.3098715E-1,-5.04414E-1,2.0089206E-1,1.0499493E0,-5.316296E-1,8.324112E-1,-9.446984E-1,9.872938E-1,-1.2372643E0,-2.3016185E-1,7.8772604E-1,-3.4716922E-1,1.2187877E0,2.307308E-1,5.787205E-1,-8.542973E-1,1.1011969E-2,5.479995E-2,-7.093535E-3,-6.1508585E-2,6.9493644E-2,-3.6295094E-2,-5.339265E-3,-7.0589505E-2,1.6279E-1,-5.7930654E-1,1.098948E-4,5.572446E-2,1.8860785E-2,-4.405554E-2,8.3718E-3,6.5701686E-2,2.682603E-2,-1.2219077E-2,-8.22438E-3,5.3147197E-2,1.7553538E-2,-5.2784145E-2,-8.162258E-3,2.8735688E-2,-4.5020796E-2,7.369788E-3],"categories":[],"categories_nodes":[],"categories_segments":[],"categories_sizes":[],"default_left":[0,0,0,0,0,0,0,0,0,0,0,0,0,0,0,0,0,0,0,0,0,0,0,0,0,0,0,0,0,0,0,0,0,0,0,0,0,0,0,0,0,0,0,0,0,0,0],"id":7,"left_children":[1,3,5,7,9,11,13,15,17,19,21,23,25,27,29,31,33,35,37,39,41,-1,-1,-1,-1,-1,-1,-1,-1,43,45,-1,-1,-1,-1,-1,-1,-1,-1,-1,-1,-1,-1,-1,-1,-1,-1],"loss_changes":[8.584655E0,6.805863E0,7.9922013E0,5.531045E0,6.632083E0,1.07803335E1,6.203315E0,5.6770973E0,1.9424133E0,5.0800347E0,5.5978775E-1,7.917657E-1,7.6654825E0,1.5385513E0,3.4856892E0,2.1586847E0,3.9610171E0,1.0913582E0,7.0944285E-1,1.42654E0,2.876008E0,0E0,0E0,0E0,0E0,0E0,0E0,0E0,0E0,1.7605786E0,3.2382684E0,0E0,0E0,0E0,0E0,0E0,0E0,0E0,0E0,0E0,0E0,0E0,0E0,0E0,0E0,0E0,0E0],"parents":[2147483647,0,0,1,1,2,2,3,3,4,4,5,5,6,6,7,7,8,8,9,9,10,10,11,11,12,12,13,13,14,14,15,15,16,16,17,17,18,18,19,19,20,20,29,29,30,30],"right_children":[2,4,6,8,10,12,14,16,18,20,22,24,26,28,30,32,34,36,38,40,42,-1,-1,-1,-1,-1,-1,-1,-1,44,46,-1,-1,-1,-1,-1,-1,-1,-1,-1,-1,-1,-1,-1,-1,-1,-1],"split_conditions":[9.3447727E-1,5.5585857E1,-1.6459352E-1,3.2E0,7.694757E-1,1.9827038E1,-6.2459193E-2,7.3283046E-1,8.8179064E-1,-7.25E0,-1.5E-1,-1.2116348E0,4.3761196E1,7E-1,4.0805974E0,4.1142033E1,-7.293973E-2,-1.2956883E-1,4.9609047E1,1.9E0,4.359132E-1,1.1011969E-2,5.479995E-2,-7.093535E-3,-6.1508585E-2,6.9493644E-2,-3.6295094E-2,-5.339265E-3,-7.0589505E-2,5.0735588E1,2.0370755E-1,1.098948E-4,5.572446E-2,1.8860785E-2,-4.405554E-2,8.3718E-3,6.5701686E-2,2.682603E-2,-1.2219077E-2,-8.22438E-3,5.3147197E-2,1.7553538E-2,-5.2784145E-2,-8.162258E-3,2.8735688E-2,-4.5020796E-2,7.369788E-3],"split_indices":[8,1,7,5,8,1,7,8,8,4,4,7,1,5,0,1,7,7,1,5,8,0,0,0,0,0,0,0,0,1,7,0,0,0,0,0,0,0,0,0,0,0,0,0,0,0,0],"split_type":[0,0,0,0,0,0,0,0,0,0,0,0,0,0,0,0,0,0,0,0,0,0,0,0,0,0,0,0,0,0,0,0,0,0,0,0,0,0,0,0,0,0,0,0,0,0,0],"sum_hessian":[8.979094E1,4.6641987E1,4.314895E1,3.0877672E1,1.5764315E1,1.1867635E1,3.1281315E1,1.5801215E1,1.5076456E1,1.1799238E1,3.9650767E0,3.2161891E0,8.651446E0,7.5622454E0,2.371907E1,7.4195123E0,8.381703E0,1.2095804E1,2.9806519E0,2.4781125E0,9.321125E0,1.745882E0,2.2191947E0,1.2363125E0,1.9798765E0,7.158107E0,1.4933391E0,1.2269053E0,6.33534E0,1.1410567E1,1.2308503E1,2.4754164E0,4.944096E0,3.6811318E0,4.700571E0,1.2338763E0,1.0861928E1,1.7348347E0,1.2458171E0,1.2381105E0,1.2400019E0,1.2279731E0,8.093152E0,6.706284E0,4.7042828E0,8.3706875E0,3.9378152E0],"tree_param":{"num_deleted":"0","num_feature":"9","num_nodes":"47","size_leaf_vector":"1"}},{"base_weights":[2.6929155E-2,3.0472893E-1,-4.3523523E-1,7.156269E-2,6.986307E-1,-6.061065E-1,6.405716E-2,5.239899E-1,-6.0451394E-1,8.3228E-1,-3.274296E-2,-4.0988907E-1,-6.676291E-2,-5.2679356E-2,6.815572E-1,9.3542224E-1,-1.0111756E0,9.6401244E-1,-2.3552246E-2,-1.045747E0,-1.5931489E-1,1.5630934E-2,5.0168704E-2,1.1968809E-2,5.9374522E-2,-6.261628E-2,-8.274767E-3,3.425247E-2,6.996902E-2,-4.1803117E-3,-7.229523E-2,5.6731332E-2,-1.5130699E-2],"categories":[],"categories_nodes":[],"categories_segments":[],"categories_sizes":[],"default_left":[0,0,0,0,0,0,0,0,0,0,0,0,0,0,0,0,0,0,0,0,0,0,0,0,0,0,0,0,0,0,0,0,0],"id":8,"left_children":[1,3,5,7,9,11,-1,13,15,17,-1,19,-1,-1,21,23,25,27,-1,29,31,-1,-1,-1,-1,-1,-1,-1,-1,-1,-1,-1,-1],"loss_changes":[1.1847706E1,5.2382965E0,1.0943911E1,1.1720719E1,4.3972683E0,4.060753E0,0E0,6.4033756E0,1.0597013E1,3.8573685E0,0E0,4.1068463E0,0E0,0E0,2.2273827E0,3.7176156E-1,2.3770962E0,1.267664E0,0E0,2.7289734E0,4.1295233E0,0E0,0E0,0E0,0E0,0E0,0E0,0E0,0E0,0E0,0E0,0E0,0E0],"parents":[2147483647,0,0,1,1,2,2,3,3,4,4,5,5,7,7,8,8,9,9,11,11,14,14,15,15,16,16,17,17,19,19,20,20],"right_children":[2,4,6,8,10,12,-1,14,16,18,-1,20,-1,-1,22,24,26,28,-1,30,32,-1,-1,-1,-1,-1,-1,-1,-1,-1,-1,-1,-1],"split_conditions":[5.3706917E1,4.6230206E1,3.863214E1,-9.9349375E0,1.9868265E0,9.75E0,6.405716E-2,-2.2013168E1,-1.8246353E-1,7.173599E0,-3.274296E-2,1E0,-6.676291E-2,-5.2679356E-2,2.9439285E1,-2.4212961E-1,-1.4946997E-1,4.807945E-2,-2.3552246E-2,5.6328907E1,1.45E0,1.5630934E-2,5.0168704E-2,1.1968809E-2,5.9374522E-2,-6.261628E-2,-8.274767E-3,3.425247E-2,6.996902E-2,-4.1803117E-3,-7.229523E-2,5.6731332E-2,-1.5130699E-2],"split_indices":[1,1,3,0,8,5,0,2,7,2,0,5,0,0,3,7,0,7,0,1,5,0,0,0,0,0,0,0,0,0,0,0,0],"split_type":[0,0,0,0,0,0,0,0,0,0,0,0,0,0,0,0,0,0,0,0,0,0,0,0,0,0,0,0,0,0,0,0,0],"sum_hessian":[9.024663E1,5.6578705E1,3.3667923E1,3.6283016E1,2.029569E1,3.1207935E1,2.459987E0,2.18716E1,1.4411415E1,1.8822193E1,1.4734968E0,2.5821436E1,5.3865004E0,1.4697502E0,2.040185E1,2.7390401E0,1.1672375E1,1.7330837E1,1.4913555E0,6.402083E0,1.9419352E1,1.0423509E1,9.978341E0,1.2465475E0,1.4924928E0,8.708307E0,2.9640672E0,1.2131223E1,5.199615E0,2.2356372E0,4.1664457E0,1.2464497E0,1.8172903E1],"tree_param":{"num_deleted":"0","num_feature":"9","num_nodes":"33","size_leaf_vector":"1"}},{"base_weights":[-1.7776532E-2,4.7106326E-1,-1.7371175E-1,-5.6154416E-3,1.2209646E0,-9.8778945E-1,-3.007243E-2,-5.1515084E-2,1.8420804E-1,7.4233085E-2,9.904821E-3,-1.1752365E0,4.807271E-3,3.8142282E-1,-3.5090768E-1,-4.7347638E-1,7.0353216E-1,-6.935827E-2,-4.717563E-1,5.0687224E-1,-4.095325E-2,-4.4455576E-1,5.2672803E-2,-3.9348405E-2,1.7116578E-2,5.320221E-2,-2.7890792E-3,1.28743155E-2,-4.720738E-2,4.2081323E-2,2.0964816E-3,-1.2538443E-2,-6.350254E-2],"categories":[],"categories_nodes":[],"categories_segments":[],"categories_sizes":[],"default_left":[0,0,0,0,0,0,0,0,0,0,0,0,0,0,0,0,0,0,0,0,0,0,0,0,0,0,0,0,0,0,0,0,0],"id":9,"left_children":[1,3,5,7,9,11,13,-1,15,-1,-1,17,-1,19,21,23,25,-1,27,29,-1,31,-1,-1,-1,-1,-1,-1,-1,-1,-1,-1,-1],"loss_changes":[7.097831E0,8.060078E0,8.2154665E0,3.0625086E0,2.0686665E0,2.2553272E0,8.18292E0,0E0,4.8788195E0,0E0,0E0,6.970854E-1,0E0,4.509864E0,5.042237E0,1.9240965E0,2.2052257E0,0E0,1.4880936E0,3.8922434E0,0E0,5.0097146E0,0E0,0E0,0E0,0E0,0E0,0E0,0E0,0E0,0E0,0E0,0E0],"parents":[2147483647,0,0,1,1,2,2,3,3,4,4,5,5,6,6,8,8,11,11,13,13,14,14,15,15,16,16,18,18,19,19,21,21],"right_children":[2,4,6,8,10,12,14,-1,16,-1,-1,18,-1,20,22,24,26,-1,28,30,-1,32,-1,-1,-1,-1,-1,-1,-1,-1,-1,-1,-1],"split_conditions":[-1.0094576E1,-2.555216E0,4.26622E1,-2.2013168E1,4.5155434E1,1.9542856E1,5.3706917E1,-5.1515084E-2,2.9439285E1,7.4233085E-2,9.904821E-3,1.0501001E0,4.807271E-3,2.0859983E0,3.863214E1,7E0,1.095E1,-6.935827E-2,3.7773567E1,1.9017857E1,-4.095325E-2,9.75E0,5.2672803E-2,-3.9348405E-2,1.7116578E-2,5.320221E-2,-2.7890792E-3,1.28743155E-2,-4.720738E-2,4.2081323E-2,2.0964816E-3,-1.2538443E-2,-6.350254E-2],"split_indices":[0,2,1,2,1,3,1,0,3,0,0,8,0,8,3,6,6,0,1,3,0,5,0,0,0,0,0,0,0,0,0,0,0],"split_type":[0,0,0,0,0,0,0,0,0,0,0,0,0,0,0,0,0,0,0,0,0,0,0,0,0,0,0,0,0,0,0,0,0],"sum_hessian":[9.104049E1,2.152889E1,6.95116E1,1.376904E1,7.7598505E0,9.543997E0,5.99676E1,1.4600201E0,1.230902E1,5.8104396E0,1.949411E0,8.065059E0,1.4789382E0,2.6189177E1,3.3778423E1,5.4699845E0,6.839035E0,5.4510317E0,2.6140273E0,2.4234484E1,1.9546938E0,3.230749E1,1.4709338E0,3.9770637E0,1.492921E0,4.3651814E0,2.4738536E0,1.2064812E0,1.407546E0,1.361886E1,1.06156225E1,2.7221062E1,5.086428E0],"tree_param":{"num_deleted":"0","num_feature":"9","num_nodes":"33","size_leaf_vector":"1"}},{"base_weights":[-5.4509556E-3,-4.7033736E-1,1.5757301E-1,2.1916221E-1,-7.208929E-1,7.351164E-1,4.582714E-2,5.1808048E-2,-4.0581447E-1,-1.3449565E-1,-1.1942993E0,1.0368E0,-2.4338895E-2,-1.5091632E-1,4.6971786E-1,-4.8316494E-2,3.4541816E-2,-7.8056455E-1,2.8245288E-1,-1.3101553E0,-2.3403026E-2,1.0207828E-2,1.2618985E0,4.7745366E-2,-2.2983529E-1,-5.008709E-2,6.463578E-1,-1.8539777E-3,-5.4909613E-2,-8.069982E-3,4.2789996E-2,-7.362112E-2,-2.6501944E-2,7.944371E-2,-2.655713E-4,-5.1021215E-2,-7.25955E-3,-1.6638359E-2,4.616151E-2],"categories":[],"categories_nodes":[],"categories_segments":[],"categories_sizes":[],"default_left":[0,0,0,0,0,0,0,0,0,0,0,0,0,0,0,0,0,0,0,0,0,0,0,0,0,0,0,0,0,0,0,0,0,0,0,0,0,0,0],"id":10,"left_children":[1,3,5,7,9,11,13,-1,15,17,19,21,-1,23,25,-1,-1,27,29,31,-1,-1,33,-1,35,-1,37,-1,-1,-1,-1,-1,-1,-1,-1,-1,-1,-1,-1],"loss_changes":[7.1581106E0,4.393835E0,4.4809294E0,4.1489105E0,4.8964825E0,4.6606064E0,5.047953E0,0E0,3.652349E0,2.7160652E0,2.2417736E-1,1.496913E0,0E0,3.8426907E0,5.6279216E0,0E0,0E0,8.80141E-1,1.7578604E0,2.3574543E-1,0E0,0E0,2.981802E0,0E0,2.4989896E0,0E0,5.1098046E0,0E0,0E0,0E0,0E0,0E0,0E0,0E0,0E0,0E0,0E0,0E0,0E0],"parents":[2147483647,0,0,1,1,2,2,3,3,4,4,5,5,6,6,8,8,9,9,10,10,11,11,13,13,14,14,17,17,18,18,19,19,22,22,24,24,26,26],"right_children":[2,4,6,8,10,12,14,-1,16,18,20,22,-1,24,26,-1,-1,28,30,32,-1,-1,34,-1,36,-1,38,-1,-1,-1,-1,-1,-1,-1,-1,-1,-1,-1,-1],"split_conditions":[1.7239286E1,-8.45E0,1.85E1,1.4682143E1,3.45E0,8E0,3.0985714E1,5.1808048E-2,3.15E0,1.4E0,7.7E0,-6.5E0,-2.4338895E-2,4.429381E-1,-2.2013168E1,-4.8316494E-2,3.4541816E-2,-1.5E-1,1.4989285E1,6.45E0,-2.3403026E-2,1.0207828E-2,7.85E0,4.7745366E-2,5.8230823E-1,-5.008709E-2,5.376477E-1,-1.8539777E-3,-5.4909613E-2,-8.069982E-3,4.2789996E-2,-7.362112E-2,-2.6501944E-2,7.944371E-2,-2.655713E-4,-5.1021215E-2,-7.25955E-3,-1.6638359E-2,4.616151E-2],"split_indices":[3,4,3,3,6,6,3,0,6,6,6,4,0,8,2,0,0,4,3,4,0,0,5,0,8,0,8,0,0,0,0,0,0,0,0,0,0,0,0],"split_type":[0,0,0,0,0,0,0,0,0,0,0,0,0,0,0,0,0,0,0,0,0,0,0,0,0,0,0,0,0,0,0,0,0,0,0,0,0,0,0],"sum_hessian":[9.247169E1,2.3518944E1,6.895274E1,6.3019657E0,1.7216978E1,1.0274082E1,5.8678665E1,2.4462256E0,3.8557398E0,8.264296E0,8.952683E0,8.361197E0,1.912884E0,4.051713E1,1.8161535E1,2.6302257E0,1.2255142E0,2.8994536E0,5.3648415E0,7.0275583E0,1.9251249E0,2.185172E0,6.176026E0,1.9595664E0,3.8557564E1,1.4458777E0,1.6715656E1,1.202185E0,1.6972685E0,3.428888E0,1.9359536E0,5.082865E0,1.9446929E0,4.7075186E0,1.4685073E0,2.6597452E0,3.589782E1,3.6403015E0,1.3075356E1],"tree_param":{"num_deleted":"0","num_feature":"9","num_nodes":"39","size_leaf_vector":"1"}},{"base_weights":[-6.786267E-2,-1.822685E-1,4.0346736E-1,2.0546857E-2,-3.7610364E-1,7.600032E-1,-1.756054E-1,2.917029E-1,-4.21838E-1,-1.0475426E0,-1.8353799E-1,6.385516E-2,-6.635647E-2,-6.627317E-1,4.180641E-1,-1.6550684E-1,9.832207E-1,2.5006277E-2,-5.9574026E-1,-7.173599E-2,3.2491975E-3,-5.146845E-2,-5.1423132E-2,-7.910963E-1,5.2771956E-2,4.196631E-3,-5.8012396E-2,-1.7579338E-2,5.11954E-2,-4.4537928E-2,2.3625439E-2,6.8720356E-2,-1.986359E-3,-3.924983E-2,2.3204835E-2,-3.316989E-2,8.366193E-3,-6.9122138E-3,-5.270923E-2],"categories":[],"categories_nodes":[],"categories_segments":[],"categories_sizes":[],"default_left":[0,0,0,0,0,0,0,0,0,0,0,0,0,0,0,0,0,0,0,0,0,0,0,0,0,0,0,0,0,0,0,0,0,0,0,0,0,0,0],"id":11,"left_children":[1,3,5,7,9,11,13,15,17,19,21,-1,23,25,27,29,31,-1,33,-1,-1,35,-1,37,-1,-1,-1,-1,-1,-1,-1,-1,-1,-1,-1,-1,-1,-1,-1],"loss_changes":[4.7359548E0,2.7700405E0,3.684453E0,4.355715E0,4.459776E0,4.7137365E0,2.4074118E0,7.266274E0,2.513367E0,3.455881E0,3.2024639E0,0E0,4.9977207E0,1.7442094E0,2.194078E0,7.0753345E0,3.6906805E0,0E0,2.787611E0,0E0,0E0,3.6298091E0,0E0,4.867053E-1,0E0,0E0,0E0,0E0,0E0,0E0,0E0,0E0,0E0,0E0,0E0,0E0,0E0,0E0,0E0],"parents":[2147483647,0,0,1,1,2,2,3,3,4,4,5,5,6,6,7,7,8,8,9,9,10,10,12,12,13,13,14,14,15,15,16,16,18,18,21,21,23,23],"right_children":[2,4,6,8,10,12,14,16,18,20,22,-1,24,26,28,30,32,-1,34,-1,-1,36,-1,38,-1,-1,-1,-1,-1,-1,-1,-1,-1,-1,-1,-1,-1,-1,-1],"split_conditions":[3.045E1,1.4950492E-2,1.06E1,-4.0643176E-1,1E0,5.486556E1,1.48E1,4.581371E1,-2.611259E-1,2.1299046E-1,1.02E1,6.385516E-2,2.0009623E1,1.29E1,-1.3176748E1,4.75E0,5.85E0,2.5006277E-2,2.6760714E1,-7.173599E-2,3.2491975E-3,2E0,-5.1423132E-2,3.425E1,5.2771956E-2,4.196631E-3,-5.8012396E-2,-1.7579338E-2,5.11954E-2,-4.4537928E-2,2.3625439E-2,6.8720356E-2,-1.986359E-3,-3.924983E-2,2.3204835E-2,-3.316989E-2,8.366193E-3,-6.9122138E-3,-5.270923E-2],"split_indices":[3,7,6,2,5,1,6,1,7,7,5,0,2,6,2,6,6,0,3,0,0,6,0,3,0,0,0,0,0,0,0,0,0,0,0,0,0,0,0],"split_type":[0,0,0,0,0,0,0,0,0,0,0,0,0,0,0,0,0,0,0,0,0,0,0,0,0,0,0,0,0,0,0,0,0,0,0,0,0,0,0],"sum_hessian":[8.546448E1,6.926507E1,1.6199406E1,3.428533E1,3.497974E1,9.832855E0,6.3665504E0,2.1467577E1,1.2817756E1,6.806584E0,2.8173155E1,5.7126627E0,4.120192E0,3.4331782E0,2.9333723E0,1.3381086E1,8.08649E0,1.7363561E0,1.1081399E1,4.834496E0,1.9720876E0,2.5282225E1,2.8909307E0,2.682165E0,1.4380273E0,1.7052553E0,1.7279229E0,1.476867E0,1.4565053E0,6.077018E0,7.304069E0,5.601023E0,2.485467E0,9.622434E0,1.4589657E0,6.1235313E0,1.9158693E1,1.2085705E0,1.4735945E0],"tree_param":{"num_deleted":"0","num_feature":"9","num_nodes":"39","size_leaf_vector":"1"}},{"base_weights":[2.8108852E-2,6.7077965E-1,-1.1124963E-1,-5.289377E-2,9.478745E-1,1.4850663E-1,-4.71829E-1,1.0878952E0,-1.6281966E-2,-2.9266742E-1,5.6426114E-1,-6.536284E-1,3.7744603E-1,1.2501776E0,-1.3537E-2,3.6918465E-2,-4.4478852E-1,9.822845E-1,8.153789E-2,-7.6329E-1,4.4731554E-2,6.1252158E-2,-2.3467651E-1,5.88032E-3,7.481085E-2,-6.7207622E-3,-4.0992524E-2,5.590396E-2,-7.076442E-3,-3.735034E-2,2.5170444E-2,-2.4614831E-2,-6.394739E-2,-4.587881E-2,1.5398674E-2],"categories":[],"categories_nodes":[],"categories_segments":[],"categories_sizes":[],"default_left":[0,0,0,0,0,0,0,0,0,0,0,0,0,0,0,0,0,0,0,0,0,0,0,0,0,0,0,0,0,0,0,0,0,0,0],"id":12,"left_children":[1,3,5,-1,7,9,11,13,-1,15,17,19,21,23,-1,-1,25,27,29,31,-1,-1,33,-1,-1,-1,-1,-1,-1,-1,-1,-1,-1,-1,-1],"loss_changes":[8.053695E0,8.675494E0,7.00786E0,0E0,2.9100504E0,8.201891E0,5.072557E0,3.2363539E0,0E0,3.7658775E0,4.5407753E0,5.1161003E0,3.4757147E0,3.145338E0,0E0,0E0,2.185719E0,2.017253E0,4.4718843E0,2.8531847E0,0E0,0E0,1.915851E0,0E0,0E0,0E0,0E0,0E0,0E0,0E0,0E0,0E0,0E0,0E0,0E0],"parents":[2147483647,0,0,1,1,2,2,4,4,5,5,6,6,7,7,9,9,10,10,11,11,12,12,13,13,16,16,17,17,18,18,19,19,22,22],"right_children":[2,4,6,-1,8,10,12,14,-1,16,18,20,22,24,-1,-1,26,28,30,32,-1,-1,34,-1,-1,-1,-1,-1,-1,-1,-1,-1,-1,-1,-1],"split_conditions":[-1.8246353E-1,-1.7825645E1,9.362381E-1,-5.289377E-2,4.687171E0,3.2E0,1.804661E-1,2.1095166E0,-1.6281966E-2,4.9554983E-1,6.320146E-2,3.675357E1,1.0704048E0,8.633797E-1,-1.3537E-2,3.6918465E-2,7.328326E0,1.185E1,5.5321383E-1,1.5278982E0,4.4731554E-2,6.1252158E-2,1.5721429E1,5.88032E-3,7.481085E-2,-6.7207622E-3,-4.0992524E-2,5.590396E-2,-7.076442E-3,-3.735034E-2,2.5170444E-2,-2.4614831E-2,-6.394739E-2,-4.587881E-2,1.5398674E-2],"split_indices":[7,2,8,0,2,5,7,8,0,8,7,3,8,8,0,0,0,5,8,2,0,0,3,0,0,0,0,0,0,0,0,0,0,0,0],"split_type":[0,0,0,0,0,0,0,0,0,0,0,0,0,0,0,0,0,0,0,0,0,0,0,0,0,0,0,0,0,0,0,0,0,0,0],"sum_hessian":[8.809028E1,1.5018244E1,7.307204E1,1.6855028E0,1.3332742E1,4.2816082E1,3.0255955E1,1.2143353E1,1.1893877E0,2.091664E1,2.1899443E1,2.5110964E1,5.1449904E0,1.0918963E1,1.2243903E0,2.1938019E0,1.8722837E1,1.1181623E1,1.0717819E1,2.392349E1,1.1874743E0,1.7376239E0,3.4073665E0,2.2124739E0,8.70649E0,1.0988202E1,7.734636E0,9.980717E0,1.200906E0,3.3560045E0,7.3618145E0,1.6963413E1,6.9600763E0,1.2027919E0,2.2045743E0],"tree_param":{"num_deleted":"0","num_feature":"9","num_nodes":"35","size_leaf_vector":"1"}},{"base_weights":[8.2209386E-2,2.944055E-1,-3.6890215E-1,1.0041478E0,8.043896E-2,-5.154488E-1,5.392319E-2,1.1554116E0,-1.4367367E-2,5.5594504E-1,-1.3593435E-1,-5.5371947E-3,-8.038009E-1,2.8915697E-1,6.8168886E-2,-5.633849E-2,8.9733773E-1,-8.2602E-1,3.1513697E-1,1.0015832E0,-6.46941E-1,-1.0580612E0,8.173966E-2,4.8083436E-2,-2.162499E-2,5.7934802E-2,-2.4361545E-2,-5.7263773E-2,2.1177419E-2,3.9077714E-2,-2.2865219E-2,6.904208E-2,6.9449465E-3,-4.6245623E-2,-1.1308558E-3,-6.1272718E-2,1.5246728E-2,-1.7921176E-2,3.5916533E-2],"categories":[],"categories_nodes":[],"categories_segments":[],"categories_sizes":[],"default_left":[0,0,0,0,0,0,0,0,0,0,0,0,0,0,0,0,0,0,0,0,0,0,0,0,0,0,0,0,0,0,0,0,0,0,0,0,0,0,0],"id":13,"left_children":[1,3,5,7,9,11,-1,13,-1,15,17,19,21,23,-1,-1,25,27,29,31,33,35,37,-1,-1,-1,-1,-1,-1,-1,-1,-1,-1,-1,-1,-1,-1,-1,-1],"loss_changes":[8.363147E0,8.909774E0,6.501278E0,2.9940271E0,4.867624E0,3.8374991E0,0E0,1.8391075E0,0E0,9.491539E0,1.0474475E1,7.395517E0,3.8430328E0,2.1966684E0,0E0,0E0,5.2070036E0,5.769562E0,7.767312E0,1.2663093E0,1.1919837E0,3.3474646E0,1.560435E0,0E0,0E0,0E0,0E0,0E0,0E0,0E0,0E0,0E0,0E0,0E0,0E0,0E0,0E0,0E0,0E0],"parents":[2147483647,0,0,1,1,2,2,3,3,4,4,5,5,7,7,9,9,10,10,11,11,12,12,13,13,16,16,17,17,18,18,19,19,20,20,21,21,22,22],"right_children":[2,4,6,8,10,12,-1,14,-1,16,18,20,22,24,-1,-1,26,28,30,32,34,36,38,-1,-1,-1,-1,-1,-1,-1,-1,-1,-1,-1,-1,-1,-1,-1,-1],"split_conditions":[5.4941914E1,7.420125E-1,3.863214E1,2.6070124E-1,-1.8246353E-1,2.75E0,5.392319E-2,3.632385E1,-1.4367367E-2,-1.5391226E1,4.4010708E1,1.0506008E1,2.0370755E-1,3.0983753E1,6.8168886E-2,-5.633849E-2,4.3761196E1,2.3339285E1,1.9071428E1,9.6707886E-1,3.0821596E1,6.8460945E1,4.1030827E0,4.8083436E-2,-2.162499E-2,5.7934802E-2,-2.4361545E-2,-5.7263773E-2,2.1177419E-2,3.9077714E-2,-2.2865219E-2,6.904208E-2,6.9449465E-3,-4.6245623E-2,-1.1308558E-3,-6.1272718E-2,1.5246728E-2,-1.7921176E-2,3.5916533E-2],"split_indices":[1,8,3,7,7,6,0,1,0,2,1,0,7,1,0,0,1,3,3,8,0,1,2,0,0,0,0,0,0,0,0,0,0,0,0,0,0,0,0],"split_type":[0,0,0,0,0,0,0,0,0,0,0,0,0,0,0,0,0,0,0,0,0,0,0,0,0,0,0,0,0,0,0,0,0,0,0,0,0,0,0],"sum_hessian":[8.523261E1,5.820244E1,2.7030174E1,1.2626481E1,4.5575954E1,2.5129654E1,1.900521E0,1.1396999E1,1.2294817E0,1.3762296E1,3.181366E1,9.445597E0,1.5684056E1,2.6692023E0,8.727797E0,1.9331832E0,1.1829112E1,1.2246589E1,1.956707E1,3.456584E0,5.989013E0,1.2033985E1,3.6500716E0,1.2094922E0,1.4597101E0,1.0087988E1,1.7411245E0,9.8208885E0,2.425701E0,1.2192918E1,7.374153E0,1.9838142E0,1.4727697E0,3.8108315E0,2.1781814E0,1.0807589E1,1.2263968E0,2.4163086E0,1.233763E0],"tree_param":{"num_deleted":"0","num_feature":"9","num_nodes":"39","size_leaf_vector":"1"}},{"base_weights":[5.151885E-2,1.0237574E-1,-5.708626E-1,5.876478E-1,2.8206662E-3,-8.29076E-1,1.5671713E-2,1.2208159E0,-1.676073E-1,-7.101098E-1,1.7198333E-1,-5.1721763E-2,-3.6358254E-3,1.1558111E-2,7.0927106E-2,-6.128202E-2,4.1595554E-1,3.7570972E-2,-1.0295504E0,8.198567E-1,2.7081344E-2,-2.6686652E-2,5.6458898E-2,7.952788E-3,-5.975912E-2,5.886463E-2,-4.99599E-3,-1.8706223E-2,1.6209787E-2],"categories":[],"categories_nodes":[],"categories_segments":[],"categories_sizes":[],"default_left":[0,0,0,0,0,0,0,0,0,0,0,0,0,0,0,0,0,0,0,0,0,0,0,0,0,0,0,0,0],"id":14,"left_children":[1,3,5,7,9,11,-1,13,15,17,19,-1,-1,-1,-1,-1,21,-1,23,25,27,-1,-1,-1,-1,-1,-1,-1,-1],"loss_changes":[2.7320251E0,3.8117588E0,1.751534E0,6.6279173E0,8.142362E0,7.5276685E-1,0E0,1.1254749E0,4.8347754E0,6.818847E0,5.0992026E0,0E0,0E0,0E0,0E0,0E0,4.1663723E0,0E0,2.365098E0,3.3845568E0,5.5589805E0,0E0,0E0,0E0,0E0,0E0,0E0,0E0,0E0],"parents":[2147483647,0,0,1,1,2,2,3,3,4,4,5,5,7,7,8,8,9,9,10,10,16,16,18,18,19,19,20,20],"right_children":[2,4,6,8,10,12,-1,14,16,18,20,-1,-1,-1,-1,-1,22,-1,24,26,28,-1,-1,-1,-1,-1,-1,-1,-1],"split_conditions":[2.0370781E0,-1.8490331E-1,5.602222E1,3.35E0,4.26622E1,8.6E0,1.5671713E-2,-9.651849E0,9.507113E-1,-1.1837822E1,-3.041744E-2,-5.1721763E-2,-3.6358254E-3,1.1558111E-2,7.0927106E-2,-6.128202E-2,-3.5E0,3.7570972E-2,5.9855086E-1,9.507113E-1,3.25E0,-2.6686652E-2,5.6458898E-2,7.952788E-3,-5.975912E-2,5.886463E-2,-4.99599E-3,-1.8706223E-2,1.6209787E-2],"split_indices":[8,7,1,5,1,6,0,2,8,2,7,0,0,0,0,0,4,0,8,8,5,0,0,0,0,0,0,0,0],"split_type":[0,0,0,0,0,0,0,0,0,0,0,0,0,0,0,0,0,0,0,0,0,0,0,0,0,0,0,0,0],"sum_hessian":[8.3467026E1,7.793426E1,5.5327616E0,1.2432149E1,6.550211E1,4.3306613E0,1.2021008E0,6.4273515E0,6.0047975E0,1.1948359E1,5.3553753E1,3.1167748E0,1.2138861E0,1.4315088E0,4.9958425E0,1.7434858E0,4.2613115E0,1.9005444E0,1.0047814E1,8.937072E0,4.461668E1,1.9356133E0,2.3256984E0,1.2337685E0,8.814046E0,6.234353E0,2.7027187E0,1.8872786E1,2.5743896E1],"tree_param":{"num_deleted":"0","num_feature":"9","num_nodes":"29","size_leaf_vector":"1"}},{"base_weights":[-1.8702189E-2,2.0782939E-1,-2.7158985E-1,3.9761868E-1,-3.624113E-1,3.2857576E-1,-4.9376184E-1,-5.9885148E-2,7.7372885E-1,9.423106E-2,-7.9744387E-1,-4.7812972E-2,7.521489E-1,-9.714415E-1,-2.1946725E-1,5.4713583E-1,-5.0398946E-1,1.2555225E0,4.213816E-1,3.6005642E-2,-3.492622E-1,-1.0807096E0,1.0141468E-2,1.0178919E0,-1.5850488E-2,-1.3340317E0,1.7234653E-2,8.4597623E-1,-4.0809783E-1,-1.3261782E-2,3.711387E-2,9.999237E-3,-4.1861836E-2,6.984205E-2,1.3732192E-2,-5.015407E-2,3.4558747E-2,-4.018722E-2,1.9085247E-2,-6.4963914E-2,-1.0052346E-2,6.2644295E-2,3.9099585E-3,-1.853355E-2,-7.13765E-2,1.2677406E-2,5.2751757E-2,9.353429E-3,-3.570209E-2],"categories":[],"categories_nodes":[],"categories_segments":[],"categories_sizes":[],"default_left":[0,0,0,0,0,0,0,0,0,0,0,0,0,0,0,0,0,0,0,0,0,0,0,0,0,0,0,0,0,0,0,0,0,0,0,0,0,0,0,0,0,0,0,0,0,0,0,0,0],"id":15,"left_children":[1,3,5,7,9,11,13,15,17,19,21,-1,23,25,27,29,31,33,35,-1,37,39,-1,41,-1,43,-1,45,47,-1,-1,-1,-1,-1,-1,-1,-1,-1,-1,-1,-1,-1,-1,-1,-1,-1,-1,-1,-1],"loss_changes":[5.059835E0,5.191387E0,5.7228165E0,6.149338E0,2.492559E0,7.177632E0,3.8269644E0,4.8398895E0,2.7875624E0,2.1477127E0,2.0149179E0,0E0,3.0174713E0,5.688097E0,4.5414705E0,1.4068675E0,2.58328E0,6.902962E-1,5.6085377E0,0E0,1.8587623E0,7.1876335E-1,0E0,1.6319427E0,0E0,2.6301765E-1,0E0,1.6176629E-1,3.486421E0,0E0,0E0,0E0,0E0,0E0,0E0,0E0,0E0,0E0,0E0,0E0,0E0,0E0,0E0,0E0,0E0,0E0,0E0,0E0,0E0],"parents":[2147483647,0,0,1,1,2,2,3,3,4,4,5,5,6,6,7,7,8,8,9,9,10,10,12,12,13,13,14,14,15,15,16,16,17,17,18,18,20,20,21,21,23,23,25,25,27,27,28,28],"right_children":[2,4,6,8,10,12,14,16,18,20,22,-1,24,26,28,30,32,34,36,-1,38,40,-1,42,-1,44,-1,46,48,-1,-1,-1,-1,-1,-1,-1,-1,-1,-1,-1,-1,-1,-1,-1,-1,-1,-1,-1,-1],"split_conditions":[9.362381E-1,6.6E0,-1.8246353E-1,3.2E0,3.1667796E-1,-2.455E1,-1.1225487E0,-3.041744E-2,-3.8E0,1.8E0,6.7E0,-4.7812972E-2,4.636638E0,-6.479304E-4,5.18724E-1,-8.103829E0,6.131165E-1,8.825741E0,-2.6E0,3.6005642E-2,-3.533092E0,1.545517E1,1.0141468E-2,8.5E0,-1.5850488E-2,-1.6249236E-1,1.7234653E-2,3.4E0,2.2E0,-1.3261782E-2,3.711387E-2,9.999237E-3,-4.1861836E-2,6.984205E-2,1.3732192E-2,-5.015407E-2,3.4558747E-2,-4.018722E-2,1.9085247E-2,-6.4963914E-2,-1.0052346E-2,6.2644295E-2,3.9099585E-3,-1.853355E-2,-7.13765E-2,1.2677406E-2,5.2751757E-2,9.353429E-3,-3.570209E-2],"split_indices":[8,4,7,5,2,4,0,7,4,5,6,0,2,7,0,2,8,2,4,0,2,2,0,5,0,7,0,5,5,0,0,0,0,0,0,0,0,0,0,0,0,0,0,0,0,0,0,0,0],"split_type":[0,0,0,0,0,0,0,0,0,0,0,0,0,0,0,0,0,0,0,0,0,0,0,0,0,0,0,0,0,0,0,0,0,0,0,0,0,0,0,0,0,0,0,0,0,0,0,0,0],"sum_hessian":[8.633897E1,4.5636715E1,4.0702255E1,3.4467762E1,1.1168952E1,1.0867189E1,2.9835068E1,1.5930514E1,1.8537247E1,5.83134E0,5.337612E0,2.3825471E0,8.484642E0,9.955727E0,1.987934E1,6.632681E0,9.297833E0,6.7475085E0,1.1789739E1,2.1597106E0,3.6716294E0,4.0969806E0,1.2406316E0,6.833983E0,1.6506588E0,7.7947145E0,2.1610126E0,2.4659672E0,1.7413372E1,1.2150886E0,5.417592E0,3.1157665E0,6.182067E0,5.527126E0,1.2203826E0,1.4445896E0,1.0345149E1,2.2025938E0,1.4690356E0,2.8995216E0,1.197459E0,5.200238E0,1.6337448E0,1.1287814E0,6.665933E0,1.2204057E0,1.2455614E0,6.0440903E0,1.1369283E1],"tree_param":{"num_deleted":"0","num_feature":"9","num_nodes":"49","size_leaf_vector":"1"}},{"base_weights":[2.9515285E-2,-4.2427835E-1,1.5803413E-1,-7.9682004E-1,-1.9381685E-2,3.377343E-1,-1.2175337E-1,7.39744E-2,-1.1473967E0,3.5428563E-1,-4.2249296E-2,1.1005672E0,1.860467E-1,-6.4266E-2,8.037538E-2,-2.1850964E-2,3.0622778E-2,-2.1282172E-2,-6.653428E-2,-2.2868341E-1,8.287794E-1,1.1709622E-2,6.483062E-2,3.0073968E-1,-4.713244E-2,-8.2439445E-2,7.844841E-1,2.2623675E-2,-3.8952257E-2,-2.3359247E-3,5.750522E-2,4.771804E-2,6.7814286E-3,5.233847E-2,-1.1558046E-2,-2.5849591E-4,5.8972698E-2],"categories":[],"categories_nodes":[],"categories_segments":[],"categories_sizes":[],"default_left":[0,0,0,0,0,0,0,0,0,0,0,0,0,0,0,0,0,0,0,0,0,0,0,0,0,0,0,0,0,0,0,0,0,0,0,0,0],"id":16,"left_children":[1,3,5,7,9,11,13,15,17,19,-1,21,23,-1,25,-1,-1,-1,-1,27,29,-1,-1,31,-1,33,35,-1,-1,-1,-1,-1,-1,-1,-1,-1,-1],"loss_changes":[4.8201094E0,2.7386684E0,3.2709608E0,2.9802155E0,3.3147175E0,4.3521504E0,6.1849637E0,1.2752188E0,3.3614063E-1,2.2457042E0,0E0,7.712436E-1,4.69174E0,0E0,2.6982172E0,0E0,0E0,0E0,0E0,1.8966981E0,1.267396E0,0E0,0E0,3.28837E0,0E0,3.5273259E0,1.3813715E0,0E0,0E0,0E0,0E0,0E0,0E0,0E0,0E0,0E0,0E0],"parents":[2147483647,0,0,1,1,2,2,3,3,4,4,5,5,6,6,7,7,8,8,9,9,11,11,12,12,14,14,19,19,20,20,23,23,25,25,26,26],"right_children":[2,4,6,8,10,12,14,16,18,20,-1,22,24,-1,26,-1,-1,-1,-1,28,30,-1,-1,32,-1,34,36,-1,-1,-1,-1,-1,-1,-1,-1,-1,-1],"split_conditions":[1.6635714E1,-2.525614E0,6.95E0,-6.882935E0,8.027778E-2,-1.8719004E1,7.4E0,-6.7E0,-7.85E0,1.4210714E1,-4.2249296E-2,-1.19E1,1.75E1,-6.4266E-2,8.9E0,-2.1850964E-2,3.0622778E-2,-2.1282172E-2,-6.653428E-2,1.3960714E1,2.6574552E0,1.1709622E-2,6.483062E-2,1.7703571E1,-4.713244E-2,4.429381E-1,4.6056632E-2,2.2623675E-2,-3.8952257E-2,-2.3359247E-3,5.750522E-2,4.771804E-2,6.7814286E-3,5.233847E-2,-1.1558046E-2,-2.5849591E-4,5.8972698E-2],"split_indices":[3,2,6,2,7,0,6,4,4,3,0,4,4,0,4,0,0,0,0,3,0,0,0,3,0,8,7,0,0,0,0,0,0,0,0,0,0],"split_type":[0,0,0,0,0,0,0,0,0,0,0,0,0,0,0,0,0,0,0,0,0,0,0,0,0,0,0,0,0,0,0,0,0,0,0,0,0],"sum_hessian":[8.04982E1,1.725839E1,6.3239807E1,8.484198E0,8.774192E0,3.8381355E1,2.485845E1,2.661733E0,5.822465E0,6.433346E0,2.340846E0,5.3285804E0,3.3052776E1,2.886014E0,2.1972435E1,1.4624027E0,1.1993301E0,1.8519868E0,3.9704783E0,3.119157E0,3.3141885E0,1.3882267E0,3.9403536E0,3.06698E1,2.3829763E0,1.8562943E1,3.409492E0,1.4734272E0,1.64573E0,1.119245E0,2.1949434E0,5.2210903E0,2.544871E1,1.4575601E0,1.7105383E1,1.465821E0,1.9436711E0],"tree_param":{"num_deleted":"0","num_feature":"9","num_nodes":"37","size_leaf_vector":"1"}},{"base_weights":[4.2974737E-2,-4.274556E-1,1.8737414E-1,-5.9742123E-2,-2.0362154E-1,7.892432E-1,5.720863E-2,3.127419E-1,-7.701467E-1,1.0708305E0,-2.32873E-2,-3.0295625E-1,3.0790418E-1,5.672447E-1,-2.2710597E-2,-1.1731296E0,8.079456E-2,-1.3342637E-2,1.2932959E0,5.3116614E-1,-5.5663604E-1,-3.8071893E-2,3.9736184E-1,5.571884E-2,-7.4198167E-3,-1.9160774E-2,-6.432183E-2,-1.3590467E-2,2.1443544E-2,7.1975805E-2,1.071478E-2,4.918232E-2,-7.6761143E-3,-1.182223E-2,-5.8005553E-2,3.3193495E-2,-3.4430844E-3],"categories":[],"categories_nodes":[],"categories_segments":[],"categories_sizes":[],"default_left":[0,0,0,0,0,0,0,0,0,0,0,0,0,0,0,0,0,0,0,0,0,0,0,0,0,0,0,0,0,0,0,0,0,0,0,0,0],"id":17,"left_children":[1,3,5,-1,7,9,11,13,15,17,-1,19,21,23,-1,25,27,-1,29,31,33,-1,35,-1,-1,-1,-1,-1,-1,-1,-1,-1,-1,-1,-1,-1,-1],"loss_changes":[5.7739325E0,3.1904435E0,5.0336986E0,0E0,5.1208467E0,4.5447783E0,5.003297E0,2.0999663E0,2.9215512E0,3.2181015E0,0E0,5.1246405E0,3.4171133E0,3.1143284E0,0E0,1.3475418E-2,5.5654407E-1,0E0,1.0244732E0,1.9583418E0,3.201384E0,0E0,3.8604932E0,0E0,0E0,0E0,0E0,0E0,0E0,0E0,0E0,0E0,0E0,0E0,0E0,0E0,0E0],"parents":[2147483647,0,0,1,1,2,2,4,4,5,5,6,6,7,7,8,8,9,9,11,11,12,12,13,13,15,15,16,16,18,18,19,19,20,20,22,22],"right_children":[2,4,6,-1,8,10,12,14,16,18,-1,20,22,24,-1,26,28,-1,30,32,34,-1,36,-1,-1,-1,-1,-1,-1,-1,-1,-1,-1,-1,-1,-1,-1],"split_conditions":[1.7035715E1,-1.5477403E0,1.8567858E1,-5.9742123E-2,7.634105E0,8E0,2.2357143E1,1.5207143E1,3.75E0,2.7364786E1,-2.32873E-2,-1.461984E0,-2.455E1,5.3706917E1,-2.2710597E-2,2.5E-1,1.525E1,-1.3342637E-2,8.9E0,5.85E0,5.35E0,-3.8071893E-2,5.536891E1,5.571884E-2,-7.4198167E-3,-1.9160774E-2,-6.432183E-2,-1.3590467E-2,2.1443544E-2,7.1975805E-2,1.071478E-2,4.918232E-2,-7.6761143E-3,-1.182223E-2,-5.8005553E-2,3.3193495E-2,-3.4430844E-3],"split_indices":[3,0,3,0,0,6,3,3,5,1,0,2,4,1,0,5,3,0,5,6,5,0,1,0,0,0,0,0,0,0,0,0,0,0,0,0,0],"split_type":[0,0,0,0,0,0,0,0,0,0,0,0,0,0,0,0,0,0,0,0,0,0,0,0,0,0,0,0,0,0,0,0,0,0,0,0,0],"sum_hessian":[8.281937E1,1.899064E1,6.3828728E1,3.3087924E0,1.5681849E1,1.0449263E1,5.3379463E1,8.438491E0,7.243358E0,8.65422E0,1.7950426E0,2.1821241E1,3.1558222E1,6.531498E0,1.9069928E0,4.6585627E0,2.5847955E0,1.2055756E0,7.448644E0,4.833711E0,1.698753E1,1.8563559E0,2.9701866E1,3.3857803E0,3.1457176E0,1.1341304E0,3.5244324E0,1.3928938E0,1.1919017E0,6.265463E0,1.1831815E0,2.6474771E0,2.1862338E0,1.2008089E1,4.9794407E0,1.862901E1,1.1072858E1],"tree_param":{"num_deleted":"0","num_feature":"9","num_nodes":"37","size_leaf_vector":"1"}},{"base_weights":[-6.1820406E-2,-5.094385E-1,8.537145E-2,-5.795774E-2,-3.3512622E-1,4.3769246E-1,-2.6025806E-2,-5.306891E-2,-5.379771E-2,6.1740863E-1,-2.5699574E-1,-6.5399027E-1,9.3408756E-2,-6.464948E-1,4.253729E-1,-2.0665066E-1,9.678042E-1,-3.9957833E-2,2.7906248E-2,1.1412851E-1,-1.0275779E0,-3.158043E-1,4.2390206E-1,9.271412E-3,-5.6598034E-2,1.2499322E-3,6.412745E-2,-3.5241053E-2,2.9236829E-2,6.0738545E-2,1.8079014E-2,2.99336E-2,-1.835615E-2,-6.394648E-2,-1.6825443E-2,5.0072324E-2,-2.8466014E-2,-7.2048055E-3,3.696874E-2],"categories":[],"categories_nodes":[],"categories_segments":[],"categories_sizes":[],"default_left":[0,0,0,0,0,0,0,0,0,0,0,0,0,0,0,0,0,0,0,0,0,0,0,0,0,0,0,0,0,0,0,0,0,0,0,0,0,0,0],"id":18,"left_children":[1,3,5,-1,7,9,11,13,-1,15,17,19,21,23,25,27,29,-1,-1,31,33,35,37,-1,-1,-1,-1,-1,-1,-1,-1,-1,-1,-1,-1,-1,-1,-1,-1],"loss_changes":[5.832977E0,2.0904598E0,2.6403265E0,0E0,3.8430178E0,2.1746051E0,3.9488275E0,4.4116874E0,0E0,3.9890585E0,2.2247114E0,2.5301464E0,6.1423655E0,2.9967294E0,2.9432664E0,2.280501E0,9.656105E-1,0E0,0E0,1.0712512E0,5.6962395E-1,7.390252E0,4.5870934E0,0E0,0E0,0E0,0E0,0E0,0E0,0E0,0E0,0E0,0E0,0E0,0E0,0E0,0E0,0E0,0E0],"parents":[2147483647,0,0,1,1,2,2,4,4,5,5,6,6,7,7,9,9,10,10,11,11,12,12,13,13,14,14,15,15,16,16,19,19,20,20,21,21,22,22],"right_children":[2,4,6,-1,8,10,12,14,-1,16,18,20,22,24,26,28,30,-1,-1,32,34,36,38,-1,-1,-1,-1,-1,-1,-1,-1,-1,-1,-1,-1,-1,-1,-1,-1],"split_conditions":[1.7035715E1,-1.5477403E0,1.9017857E1,-5.795774E-2,8.027778E-2,7.85E0,5.6075037E-1,1.4210714E1,-5.379771E-2,-8.340673E0,1.0164053E0,5.5333596E-2,2.3617857E1,4.1644793E0,-2.3843831E-1,4.75E0,5.25E0,-3.9957833E-2,2.7906248E-2,4.939285E-1,4.6E0,6.976594E-1,-5.107496E0,9.271412E-3,-5.6598034E-2,1.2499322E-3,6.412745E-2,-3.5241053E-2,2.9236829E-2,6.0738545E-2,1.8079014E-2,2.99336E-2,-1.835615E-2,-6.394648E-2,-1.6825443E-2,5.0072324E-2,-2.8466014E-2,-7.2048055E-3,3.696874E-2],"split_indices":[3,0,3,0,7,6,8,3,0,0,8,7,3,0,2,6,6,0,0,8,6,8,2,0,0,0,0,0,0,0,0,0,0,0,0,0,0,0,0],"split_type":[0,0,0,0,0,0,0,0,0,0,0,0,0,0,0,0,0,0,0,0,0,0,0,0,0,0,0,0,0,0,0,0,0,0,0,0,0,0,0],"sum_hessian":[8.6871605E1,2.088826E1,6.5983345E1,3.2234778E0,1.7664782E1,1.5147274E1,5.0836067E1,1.356991E1,4.0948715E0,1.21224375E1,3.0248363E0,7.408396E0,4.342767E1,5.900317E0,7.6695933E0,3.739091E0,8.383347E0,1.828339E0,1.1964973E0,2.651421E0,4.7569747E0,1.9422901E1,2.400477E1,2.4020545E0,3.498263E0,5.929279E0,1.7403144E0,2.3617673E0,1.3773237E0,5.2434216E0,3.1399252E0,1.1996126E0,1.4518083E0,2.8644714E0,1.8925033E0,2.6586282E0,1.6764273E1,8.765685E0,1.5239086E1],"tree_param":{"num_deleted":"0","num_feature":"9","num_nodes":"39","size_leaf_vector":"1"}},{"base_weights":[-9.618002E-3,4.6998644E-1,-1.5049362E-1,-7.697896E-1,7.2686136E-1,-6.70346E-1,7.4106483E-3,-4.8526462E-2,-9.217892E-3,8.568574E-1,7.575872E-2,6.086938E-1,-1.0184591E0,6.695925E-1,-2.1875538E-1,4.6573007E-1,6.1344303E-2,-1.4106765E-2,2.4184262E-2,5.3801324E-2,-1.1305238E-2,-1.1797533E0,6.2899254E-3,1.0213726E0,1.4937699E-1,-2.9895374E-1,5.01157E-2,4.790383E-2,-1.0478335E-2,-3.339646E-2,-6.764206E-2,6.695669E-2,6.721218E-3,2.291069E-2,-3.3447456E-2,3.6608574E-3,-2.9403964E-2],"categories":[],"categories_nodes":[],"categories_segments":[],"categories_sizes":[],"default_left":[0,0,0,0,0,0,0,0,0,0,0,0,0,0,0,0,0,0,0,0,0,0,0,0,0,0,0,0,0,0,0,0,0,0,0,0,0],"id":19,"left_children":[1,3,5,7,9,11,13,-1,-1,15,17,19,21,23,25,27,-1,-1,-1,-1,-1,29,-1,31,33,35,-1,-1,-1,-1,-1,-1,-1,-1,-1,-1,-1],"loss_changes":[5.7677565E0,6.733576E0,5.417203E0,2.6918435E-1,1.3378944E0,7.464344E0,7.868399E0,0E0,0E0,1.4140396E0,6.993171E-1,1.7704966E0,2.4475822E0,2.2947521E0,4.1372094E0,2.9540243E0,0E0,0E0,0E0,0E0,0E0,7.219982E-2,0E0,2.0202703E0,1.9660254E0,4.0828147E0,0E0,0E0,0E0,0E0,0E0,0E0,0E0,0E0,0E0,0E0,0E0],"parents":[2147483647,0,0,1,1,2,2,3,3,4,4,5,5,6,6,9,9,10,10,11,11,12,12,13,13,14,14,15,15,21,21,23,23,24,24,25,25],"right_children":[2,4,6,8,10,12,14,-1,-1,16,18,20,22,24,26,28,-1,-1,-1,-1,-1,30,-1,32,34,36,-1,-1,-1,-1,-1,-1,-1,-1,-1,-1,-1],"split_conditions":[-1.0094576E1,1.8569853E1,4.612729E1,-2.2013168E1,4.4031E1,-1.8246353E-1,5.1788147E1,-4.8526462E-2,-9.217892E-3,-5.107496E0,4.782721E0,2.2928538E0,2.0410715E1,-1.4253885E0,3.863214E1,3.0983753E1,6.1344303E-2,-1.4106765E-2,2.4184262E-2,5.3801324E-2,-1.1305238E-2,-8.4E0,6.2899254E-3,4.75E0,3.5686312E0,8.027778E-2,5.01157E-2,4.790383E-2,-1.0478335E-2,-3.339646E-2,-6.764206E-2,6.695669E-2,6.721218E-3,2.291069E-2,-3.3447456E-2,3.6608574E-3,-2.9403964E-2],"split_indices":[0,1,1,2,1,7,1,0,0,2,2,2,3,2,3,1,0,0,0,0,0,4,0,4,0,7,0,0,0,0,0,0,0,0,0,0,0],"split_type":[0,0,0,0,0,0,0,0,0,0,0,0,0,0,0,0,0,0,0,0,0,0,0,0,0,0,0,0,0,0,0,0,0,0,0,0,0],"sum_hessian":[8.331973E1,1.8386744E1,6.493299E1,2.8130665E0,1.5573676E1,1.4372052E1,5.0560936E1,1.6049441E0,1.2081225E0,1.2718377E1,2.8552992E0,2.9146118E0,1.145744E1,1.2373238E1,3.81877E1,7.280929E0,5.437448E0,1.6851776E0,1.1701218E0,1.6833065E0,1.2313054E0,1.0014745E1,1.4426956E0,6.806907E0,5.566331E0,3.654278E1,1.6449153E0,3.9686852E0,3.3122442E0,3.7588024E0,6.2559423E0,4.636129E0,2.1707778E0,4.360671E0,1.2056603E0,1.630337E1,2.0239414E1],"tree_param":{"num_deleted":"0","num_feature":"9","num_nodes":"37","size_leaf_vector":"1"}},{"base_weights":[-1.1331345E-3,5.134235E-1,-1.1604661E-1,-5.0560772E-2,7.80972E-1,-1.7103317E-1,7.957552E-1,9.446729E-1,-1.9324541E-2,2.221347E-1,-3.0319366E-1,5.2356333E-2,3.8902238E-3,-7.5693056E-3,1.0940554E0,-1.7492256E-1,9.6079254E-1,-1.5568542E-2,-5.061085E-1,5.7286527E-2,1.4426306E-2,-3.409326E-2,6.6516674E-3,-5.2988324E-3,6.3993745E-2,-4.250663E-2,1.6405972E-2,-4.8636425E-2,-1.3039394E-2],"categories":[],"categories_nodes":[],"categories_segments":[],"categories_sizes":[],"default_left":[0,0,0,0,0,0,0,0,0,0,0,0,0,0,0,0,0,0,0,0,0,0,0,0,0,0,0,0,0],"id":20,"left_children":[1,3,5,-1,7,9,11,13,-1,15,17,-1,-1,-1,19,21,23,25,27,-1,-1,-1,-1,-1,-1,-1,-1,-1,-1],"loss_changes":[5.1691437E0,7.2998805E0,3.7185557E0,0E0,3.0677128E0,3.6117659E0,6.838875E-1,2.2438068E0,0E0,5.370398E0,2.9963655E0,0E0,0E0,0E0,1.3945484E-1,2.0238206E0,2.2989192E0,6.6823015E0,3.1976614E0,0E0,0E0,0E0,0E0,0E0,0E0,0E0,0E0,0E0,0E0],"parents":[2147483647,0,0,1,1,2,2,4,4,5,5,6,6,7,7,9,9,10,10,14,14,15,15,16,16,17,17,18,18],"right_children":[2,4,6,-1,8,10,12,14,-1,16,18,-1,-1,-1,20,22,24,26,28,-1,-1,-1,-1,-1,-1,-1,-1,-1,-1],"split_conditions":[-1.6459352E-1,-1.5391226E1,3.711786E1,-5.0560772E-2,4.4348915E1,-7.2E0,2.4019503E1,1.8178572E1,-1.9324541E-2,3.35E0,-3.4438023E-1,5.2356333E-2,3.8902238E-3,-7.5693056E-3,1.74E1,2.4E0,-1.53E1,-1.65E0,4.3180574E-2,5.7286527E-2,1.4426306E-2,-3.409326E-2,6.6516674E-3,-5.2988324E-3,6.3993745E-2,-4.250663E-2,1.6405972E-2,-4.8636425E-2,-1.3039394E-2],"split_indices":[7,2,3,0,1,4,2,3,0,5,2,0,0,0,4,6,4,4,7,0,0,0,0,0,0,0,0,0,0],"split_type":[0,0,0,0,0,0,0,0,0,0,0,0,0,0,0,0,0,0,0,0,0,0,0,0,0,0,0,0,0],"sum_hessian":[8.541311E1,1.49595785E1,7.045354E1,1.8183066E0,1.3141272E1,6.721267E1,3.2408638E0,1.1692578E1,1.4486929E0,1.6737885E1,5.0474785E1,2.0608263E0,1.1800374E0,1.400839E0,1.0291739E1,1.13825245E1,5.35536E0,2.1324598E1,2.9150187E1,9.2744465E0,1.0172931E0,3.8426948E0,7.5398293E0,1.3868057E0,3.9685543E0,5.790411E0,1.5534187E1,9.022853E0,2.0127335E1],"tree_param":{"num_deleted":"0","num_feature":"9","num_nodes":"29","size_leaf_vector":"1"}},{"base_weights":[-2.9828854E-2,6.2403757E-2,-8.431193E-2,-7.7662444E-1,-2.8874552E-2,4.8620375E-3,-5.6025065E-2,-8.957023E-2,7.637124E-1,2.943559E-1,-1.7647552E-1,4.9475404E-3,5.134163E-2,3.0280218E-2,-2.8909478E-2,1.170986E-4,-1.9981703E-2],"categories":[],"categories_nodes":[],"categories_segments":[],"categories_sizes":[],"default_left":[0,0,0,0,0,0,0,0,0,0,0,0,0,0,0,0,0],"id":21,"left_children":[1,-1,3,5,7,-1,-1,9,11,13,15,-1,-1,-1,-1,-1,-1],"loss_changes":[6.076276E0,0E0,3.1704452E0,1.9507575E0,3.8237007E0,0E0,0E0,2.5010953E0,8.879895E-1,4.131519E0,2.414394E0,0E0,0E0,0E0,0E0,0E0,0E0],"parents":[2147483647,0,0,2,2,3,3,4,4,7,7,8,8,9,9,10,10],"right_children":[2,-1,4,6,8,-1,-1,10,12,14,16,-1,-1,-1,-1,-1,-1],"split_conditions":[4.359132E-1,6.2403757E-2,5.376477E-1,8.014742E-3,9.509268E0,4.8620375E-3,-5.6025065E-2,7.2280294E-1,6.941593E-1,1.1866967E1,1.4950492E-2,4.9475404E-3,5.134163E-2,3.0280218E-2,-2.8909478E-2,1.170986E-4,-1.9981703E-2],"split_indices":[8,0,8,7,2,0,0,8,8,0,7,0,0,0,0,0,0],"split_type":[0,0,0,0,0,0,0,0,0,0,0,0,0,0,0,0,0],"sum_hessian":[8.476118E1,2.5701673E0,8.219101E1,5.1290774E0,7.7061935E1,1.6509299E0,3.4781473E0,7.240426E1,4.657671E0,1.2923655E1,5.9480606E1,1.7109919E0,2.9466794E0,9.7512045E0,3.1724494E0,3.3570217E1,2.591039E1],"tree_param":{"num_deleted":"0","num_feature":"9","num_nodes":"17","size_leaf_vector":"1"}},{"base_weights":[-5.5310454E-2,3.5637358E-1,-1.8164402E-1,3.240464E-2,8.8747114E-1,-2.2459602E-1,4.7229115E-2,-4.925459E-2,2.1119885E-1,5.367574E-2,3.9192748E-1,-3.353489E-2,-4.7547683E-1,-4.2444906E-1,6.8183106E-1,3.53317E-2,1.4820808E-4,4.409171E-1,-1.8908066E-1,6.988996E-1,-6.159922E-1,-5.0560154E-2,4.377634E-3,4.9957734E-2,-1.2624057E-2,-8.188004E-3,5.440649E-2,7.1911844E-3,-2.1539988E-2,8.103277E-3,4.5978308E-2,-5.690859E-2,-2.0314593E-2],"categories":[],"categories_nodes":[],"categories_segments":[],"categories_sizes":[],"default_left":[0,0,0,0,0,0,0,0,0,0,0,0,0,0,0,0,0,0,0,0,0,0,0,0,0,0,0,0,0,0,0,0,0],"id":22,"left_children":[1,3,5,7,9,11,-1,-1,13,-1,15,17,19,21,23,-1,-1,25,27,29,31,-1,-1,-1,-1,-1,-1,-1,-1,-1,-1,-1,-1],"loss_changes":[4.4533663E0,3.4384847E0,3.3675587E0,2.6738894E0,2.7965975E-1,3.0346174E0,0E0,0E0,3.984583E0,0E0,4.4454068E-1,2.828968E0,4.9582295E0,1.8523241E0,2.4702013E0,0E0,0E0,3.8904624E0,2.372882E0,2.5380862E-1,2.2791643E0,0E0,0E0,0E0,0E0,0E0,0E0,0E0,0E0,0E0,0E0,0E0,0E0],"parents":[2147483647,0,0,1,1,2,2,3,3,4,4,5,5,8,8,10,10,11,11,12,12,13,13,14,14,17,17,18,18,19,19,20,20],"right_children":[2,4,6,8,10,12,-1,-1,14,-1,16,18,20,22,24,-1,-1,26,28,30,32,-1,-1,-1,-1,-1,-1,-1,-1,-1,-1,-1,-1],"split_conditions":[-1.0521544E1,-2.555216E0,3.863214E1,1.8232143E1,6.65E0,9.6707886E-1,4.7229115E-2,-4.925459E-2,-3.3146462E-1,5.367574E-2,-3.088025E-1,-2.7591772E0,-1.8246353E-1,-1.5391226E1,1.02E1,3.53317E-2,1.4820808E-4,1.7239286E1,3.75E0,1.4882699E0,-2.795983E0,-5.0560154E-2,4.377634E-3,4.9957734E-2,-1.2624057E-2,-8.188004E-3,5.440649E-2,7.1911844E-3,-2.1539988E-2,8.103277E-3,4.5978308E-2,-5.690859E-2,-2.0314593E-2],"split_indices":[0,2,3,3,6,8,0,0,7,0,7,2,7,2,6,0,0,3,6,8,0,0,0,0,0,0,0,0,0,0,0,0,0],"split_type":[0,0,0,0,0,0,0,0,0,0,0,0,0,0,0,0,0,0,0,0,0,0,0,0,0,0,0,0,0,0,0,0,0],"sum_hessian":[8.338135E1,1.915146E1,6.422989E1,1.2554341E1,6.59712E0,6.264145E1,1.5884421E0,1.2023385E0,1.1352003E1,3.9484153E0,2.6487045E0,3.6203743E1,2.6437704E1,4.8711E0,6.480903E0,1.01266E0,1.6360446E0,8.485694E0,2.7718052E1,2.4005923E0,2.4037111E1,1.8155175E0,3.0555825E0,4.786012E0,1.694891E0,4.7731843E0,3.7125094E0,1.1830144E1,1.5887907E1,1.2045698E0,1.1960225E0,5.618571E0,1.8418541E1],"tree_param":{"num_deleted":"0","num_feature":"9","num_nodes":"33","size_leaf_vector":"1"}},{"base_weights":[-3.5907745E-2,-4.8325112E-1,9.461113E-2,9.40735E-2,-6.770622E-1,6.726878E-1,-3.4471747E-2,5.418668E-1,-3.0673549E-2,6.403511E-3,-7.8965753E-1,-3.3152223E-2,8.957438E-1,-1.24484695E-1,5.633978E-1,-1.1997453E-2,4.724292E-2,-6.151188E-2,-3.1780356E-1,1.0624791E0,-9.271396E-3,5.327186E-2,-6.232204E-1,-4.8133325E-2,1.1291943E0,1.2949446E-2,-2.9086936E-2,1.9048573E-2,6.3348435E-2,-1.2750289E-2,1.8553907E-2,4.229677E-2,-4.390961E-2,1.6934019E-2,6.1649274E-2],"categories":[],"categories_nodes":[],"categories_segments":[],"categories_sizes":[],"default_left":[0,0,0,0,0,0,0,0,0,0,0,0,0,0,0,0,0,0,0,0,0,0,0,0,0,0,0,0,0,0,0,0,0,0,0],"id":23,"left_children":[1,3,5,7,9,11,13,15,-1,-1,17,-1,19,21,23,-1,-1,-1,25,27,-1,29,31,-1,33,-1,-1,-1,-1,-1,-1,-1,-1,-1,-1],"loss_changes":[5.130994E0,2.283153E0,5.116781E0,2.1901307E0,1.4584403E0,4.3208394E0,3.1242871E0,1.5253514E0,0E0,0E0,2.3687553E0,0E0,2.2059813E0,4.47869E0,7.6554356E0,0E0,0E0,0E0,1.3317541E0,8.835926E-1,0E0,3.8067784E0,5.7080655E0,0E0,7.55105E-2,0E0,0E0,0E0,0E0,0E0,0E0,0E0,0E0,0E0,0E0],"parents":[2147483647,0,0,1,1,2,2,3,3,4,4,5,5,6,6,7,7,10,10,12,12,13,13,14,14,18,18,19,19,21,21,22,22,24,24],"right_children":[2,4,6,8,10,12,14,16,-1,-1,18,-1,20,22,24,-1,-1,-1,26,28,-1,30,32,-1,34,-1,-1,-1,-1,-1,-1,-1,-1,-1,-1],"split_conditions":[1.6635714E1,1.25E0,1.85E1,5.6328907E1,-6.882935E0,2.7364786E1,3.711786E1,1.4210714E1,-3.0673549E-2,6.403511E-3,-2.525614E0,-3.3152223E-2,8.95E0,5.536891E1,-1.5391226E1,-1.1997453E-2,4.724292E-2,-6.151188E-2,-3.4438023E-1,4.1142033E1,-9.271396E-3,2.255E1,1.985357E1,-4.8133325E-2,1.75E0,1.2949446E-2,-2.9086936E-2,1.9048573E-2,6.3348435E-2,-1.2750289E-2,1.8553907E-2,4.229677E-2,-4.390961E-2,1.6934019E-2,6.1649274E-2],"split_indices":[3,5,3,1,2,1,3,3,0,0,2,0,6,1,2,0,0,0,2,1,0,3,3,0,5,0,0,0,0,0,0,0,0,0,0],"split_type":[0,0,0,0,0,0,0,0,0,0,0,0,0,0,0,0,0,0,0,0,0,0,0,0,0,0,0,0,0,0,0,0,0,0,0],"sum_hessian":[8.6096344E1,1.8835745E1,6.72606E1,4.863364E0,1.3972381E1,1.1508841E1,5.575176E1,3.121792E0,1.7415721E0,1.6973984E0,1.2274982E1,1.3646029E0,1.01442375E1,4.914453E1,6.6072264E0,1.1994344E0,1.9223578E0,5.5166893E0,6.758293E0,8.803824E0,1.3404129E0,3.68897E1,1.2254831E1,1.5973699E0,5.009856E0,2.1275587E0,4.6307344E0,2.692729E0,6.111096E0,1.8825876E1,1.8063824E1,1.4695388E0,1.0785293E1,1.0761992E0,3.9336572E0],"tree_param":{"num_deleted":"0","num_feature":"9","num_nodes":"35","size_leaf_vector":"1"}},{"base_weights":[1.343831E-2,2.0566387E-1,-2.9350585E-1,-7.820913E-2,6.037838E-1,-9.7753584E-2,-1.1077058E0,2.2566588E-1,-5.4131037E-1,7.198374E-1,-2.834909E-2,-4.6526203E-1,5.6733614E-1,-6.2321402E-2,-1.2863134E-2,-8.349324E-2,7.309623E-1,-8.1443024E-1,3.9211455E-1,8.008412E-1,-1.6149394E-2,-2.0689157E-1,-5.541833E-2,3.678023E-2,5.7110824E-2,1.6149174E-2,-3.0038927E-2,5.3340465E-2,-2.161634E-2,-9.048884E-3,-5.3675633E-2,4.9492564E-2,-1.5986323E-2,5.470003E-2,2.130492E-2,-2.4370952E-2,3.4612436E-2,2.002078E-2,-4.409196E-2],"categories":[],"categories_nodes":[],"categories_segments":[],"categories_sizes":[],"default_left":[0,0,0,0,0,0,0,0,0,0,0,0,0,0,0,0,0,0,0,0,0,0,0,0,0,0,0,0,0,0,0,0,0,0,0,0,0,0,0],"id":24,"left_children":[1,3,5,7,9,11,13,15,17,19,-1,21,23,-1,-1,25,27,29,31,33,-1,35,-1,37,-1,-1,-1,-1,-1,-1,-1,-1,-1,-1,-1,-1,-1,-1,-1],"loss_changes":[5.1630096E0,6.1236677E0,5.265321E0,4.6636324E0,3.4644918E0,7.175676E0,4.3886948E-1,3.215311E0,3.6540165E0,2.024682E0,0E0,2.8882785E0,3.1650243E0,0E0,0E0,3.0167563E0,3.4957027E0,1.5198174E0,1.863555E0,1.6966352E0,0E0,4.023715E0,0E0,2.524847E0,0E0,0E0,0E0,0E0,0E0,0E0,0E0,0E0,0E0,0E0,0E0,0E0,0E0,0E0,0E0],"parents":[2147483647,0,0,1,1,2,2,3,3,4,4,5,5,6,6,7,7,8,8,9,9,11,11,12,12,15,15,16,16,17,17,18,18,19,19,21,21,23,23],"right_children":[2,4,6,8,10,12,14,16,18,20,-1,22,24,-1,-1,26,28,30,32,34,-1,36,-1,38,-1,-1,-1,-1,-1,-1,-1,-1,-1,-1,-1,-1,-1,-1,-1],"split_conditions":[5.3706917E1,4.6230206E1,9.95E0,-9.462522E0,1.9868265E0,4.4417553E0,3.4107143E1,-2.555216E0,1.4005703E0,8.195908E0,-2.834909E-2,2.0635714E1,7.518866E-1,-6.2321402E-2,-1.2863134E-2,3.0983753E1,4.4031E1,-8.55E0,4.3761196E1,9.1753817E-1,-1.6149394E-2,1.7367857E1,-5.541833E-2,1.19E1,5.7110824E-2,1.6149174E-2,-3.0038927E-2,5.3340465E-2,-2.161634E-2,-9.048884E-3,-5.3675633E-2,4.9492564E-2,-1.5986323E-2,5.470003E-2,2.130492E-2,-2.4370952E-2,3.4612436E-2,2.002078E-2,-4.409196E-2],"split_indices":[1,1,5,0,8,2,3,2,8,2,0,3,8,0,0,1,1,4,1,8,0,3,0,4,0,0,0,0,0,0,0,0,0,0,0,0,0,0,0],"split_type":[0,0,0,0,0,0,0,0,0,0,0,0,0,0,0,0,0,0,0,0,0,0,0,0,0,0,0,0,0,0,0,0,0,0,0,0,0,0,0],"sum_hessian":[8.5481834E1,5.2766483E1,3.2715355E1,3.1272024E1,2.149446E1,2.7277323E1,5.4380302E0,1.9191662E1,1.2080362E1,1.9906372E1,1.5880871E0,1.7762665E1,9.514659E0,4.2750697E0,1.1629602E0,1.2424596E1,6.767065E0,9.444412E0,2.6359506E0,1.8686874E1,1.2194986E0,1.3614629E1,4.148037E0,5.5014033E0,4.013255E0,7.167823E0,5.256773E0,5.315417E0,1.4516485E0,3.2345414E0,6.209871E0,1.2205212E0,1.4154294E0,9.407836E0,9.279037E0,1.0726055E1,2.8885727E0,4.345392E0,1.1560112E0],"tree_param":{"num_deleted":"0","num_feature":"9","num_nodes":"39","size_leaf_vector":"1"}},{"base_weights":[-3.8575698E-2,-4.0937534E-1,7.1570896E-2,-1.2962149E-1,-8.799265E-1,1.6255392E-1,-5.156256E-1,5.1292384E-1,-7.330448E-1,3.6613964E-3,-1.0652846E0,3.7307692E-1,-1.5866263E-1,2.246011E-2,-7.925052E-1,-1.5648806E-1,8.7493336E-1,-5.5443104E-2,8.37343E-3,-5.9201535E-2,-1.1788437E-2,-2.565168E-1,5.419941E-1,-5.255509E-2,2.066579E-2,1.2536104E-2,-1.0136465E0,2.1802124E-2,-3.3391062E-2,5.7243623E-2,1.5443278E-2,2.9051473E-2,-4.4660605E-2,-3.0621937E-2,3.3343393E-2,-7.6708198E-3,3.4231838E-2,-6.136632E-2,-1.5285022E-2],"categories":[],"categories_nodes":[],"categories_segments":[],"categories_sizes":[],"default_left":[0,0,0,0,0,0,0,0,0,0,0,0,0,0,0,0,0,0,0,0,0,0,0,0,0,0,0,0,0,0,0,0,0,0,0,0,0,0,0],"id":25,"left_children":[1,3,5,7,9,11,13,15,17,-1,19,21,23,-1,25,27,29,-1,-1,-1,-1,31,33,-1,35,-1,37,-1,-1,-1,-1,-1,-1,-1,-1,-1,-1,-1,-1],"loss_changes":[3.5638547E0,2.5145793E0,3.6938937E0,5.6863008E0,1.362895E0,4.0670867E0,2.8417754E0,1.8868825E0,2.7153459E0,0E0,3.2691193E-1,3.9783692E0,3.8893285E0,0E0,2.0056229E0,1.3161281E0,3.857274E-1,0E0,0E0,0E0,0E0,4.953386E0,4.5581026E0,0E0,2.5443177E0,0E0,6.024027E-1,0E0,0E0,0E0,0E0,0E0,0E0,0E0,0E0,0E0,0E0,0E0,0E0],"parents":[2147483647,0,0,1,1,2,2,3,3,4,4,5,5,6,6,7,7,8,8,10,10,11,11,12,12,14,14,15,15,16,16,21,21,22,22,24,24,26,26],"right_children":[2,4,6,8,10,12,14,16,18,-1,20,22,24,-1,26,28,30,-1,-1,-1,-1,32,34,-1,36,-1,38,-1,-1,-1,-1,-1,-1,-1,-1,-1,-1,-1,-1],"split_conditions":[1.6635714E1,1.5442857E1,1.065E1,4.1644793E0,7.16205E-1,6.95E0,1.4E0,-4.2361603E0,1.49E1,3.6613964E-3,6.7E0,1E0,7.6E0,2.246011E-2,2.0532143E1,-7.5668755E0,1.65E0,-5.5443104E-2,8.37343E-3,-5.9201535E-2,-1.1788437E-2,-5.5362344E-1,-1.53E1,-5.255509E-2,1.0461813E1,1.2536104E-2,3.505E1,2.1802124E-2,-3.3391062E-2,5.7243623E-2,1.5443278E-2,2.9051473E-2,-4.4660605E-2,-3.0621937E-2,3.3343393E-2,-7.6708198E-3,3.4231838E-2,-6.136632E-2,-1.5285022E-2],"split_indices":[3,3,5,0,8,6,6,2,3,0,6,5,6,0,3,2,5,0,0,0,0,2,4,0,0,0,3,0,0,0,0,0,0,0,0,0,0,0,0],"split_type":[0,0,0,0,0,0,0,0,0,0,0,0,0,0,0,0,0,0,0,0,0,0,0,0,0,0,0,0,0,0,0,0,0,0,0,0,0,0,0],"sum_hessian":[8.5541504E1,1.89686E1,6.657291E1,1.2695995E1,6.2726035E0,5.8267784E1,8.3051195E0,6.2213116E0,6.4746842E0,1.1197137E0,5.1528897E0,3.510124E1,2.3166546E1,1.7131215E0,6.591998E0,2.382824E0,3.8384876E0,4.4049644E0,2.0697198E0,4.1337624E0,1.0191274E0,7.315621E0,2.7785618E1,3.0628347E0,2.010371E1,1.1295618E0,5.462436E0,1.1719813E0,1.2108425E0,1.9067305E0,1.9317572E0,3.1972284E0,4.1183925E0,2.3310509E0,2.5454567E1,1.653694E1,3.5667706E0,3.6324174E0,1.8300189E0],"tree_param":{"num_deleted":"0","num_feature":"9","num_nodes":"39","size_leaf_vector":"1"}},{"base_weights":[-2.4266805E-2,-7.944884E-2,5.692081E-1,-7.6047647E-1,-2.6230805E-2,-4.0391028E-2,9.652403E-1,-6.8355664E-3,-4.4711202E-2,6.9605164E-2,-4.5937037E-1,5.854665E-2,8.359116E-3,-1.2259017E-1,5.503118E-1,7.042054E-2,-1.0163801E0,1.3853359E-2,-2.1545982E-2,-8.334629E-3,3.6121365E-2,-2.7288018E-2,2.3826493E-2,4.034017E-3,-6.287288E-2],"categories":[],"categories_nodes":[],"categories_segments":[],"categories_sizes":[],"default_left":[0,0,0,0,0,0,0,0,0,0,0,0,0,0,0,0,0,0,0,0,0,0,0,0,0],"id":26,"left_children":[1,3,5,7,9,-1,11,-1,-1,13,15,-1,-1,17,19,21,23,-1,-1,-1,-1,-1,-1,-1,-1],"loss_changes":[2.7075713E0,2.707582E0,4.6180964E0,3.298304E-1,2.9724827E0,0E0,7.763443E-1,0E0,0E0,5.5066643E0,3.8976734E0,0E0,0E0,5.4027176E0,2.2180343E0,2.1569433E0,1.7901845E0,0E0,0E0,0E0,0E0,0E0,0E0,0E0,0E0],"parents":[2147483647,0,0,1,1,2,2,3,3,4,4,6,6,9,9,10,10,13,13,14,14,15,15,16,16],"right_children":[2,4,6,8,10,-1,12,-1,-1,14,16,-1,-1,18,20,22,24,-1,-1,-1,-1,-1,-1,-1,-1],"split_conditions":[3.711786E1,2E-1,-1.5391226E1,1.5442857E1,8.15E0,-4.0391028E-2,1.364917E-1,-6.8355664E-3,-4.4711202E-2,4.85E0,5.3137268E1,5.854665E-2,8.359116E-3,2.05E0,3.9738804E1,-1.371167E-1,1.6732143E1,1.3853359E-2,-2.1545982E-2,-8.334629E-3,3.6121365E-2,-2.7288018E-2,2.3826493E-2,4.034017E-3,-6.287288E-2],"split_indices":[3,5,2,3,5,0,7,0,0,5,1,0,0,5,1,7,3,0,0,0,0,0,0,0,0],"split_type":[0,0,0,0,0,0,0,0,0,0,0,0,0,0,0,0,0,0,0,0,0,0,0,0,0],"sum_hessian":[8.029519E1,7.425683E1,6.038363E0,4.4188805E0,6.9837944E1,1.1164863E0,4.921877E0,1.1372395E0,3.281641E0,5.7872456E1,1.1965492E1,3.541784E0,1.3800927E0,4.187503E1,1.5997425E1,6.5803094E0,5.385183E0,1.8280802E1,2.3594227E1,3.1028743E0,1.289455E1,2.477451E0,4.1028585E0,1.0900549E0,4.295128E0],"tree_param":{"num_deleted":"0","num_feature":"9","num_nodes":"25","size_leaf_vector":"1"}},{"base_weights":[5.1125508E-2,4.3463433E-1,-6.189949E-2,-6.96821E-2,7.582407E-1,4.9573317E-1,-1.6217509E-1,-6.652681E-1,2.565457E-1,-4.362579E-3,8.963365E-1,4.867692E-2,-1.8075071E-1,-2.3697372E-1,6.308025E-1,-4.590134E-2,-5.580478E-3,-4.383746E-1,7.616636E-1,1.1471051E0,2.1066363E-1,-6.2820786E-1,3.909914E-2,-7.691378E-1,-6.519163E-2,5.543774E-2,9.39537E-2,4.57319E-3,-3.89412E-2,5.1104736E-2,2.9750864E-3,1.601698E-2,6.181502E-2,-1.9030211E-2,3.895645E-2,7.1609505E-3,-4.7870584E-2,2.9392585E-2,-5.419171E-2,3.196582E-2,-1.2638422E-2,-9.456313E-3,1.7733756E-2],"categories":[],"categories_nodes":[],"categories_segments":[],"categories_sizes":[],"default_left":[0,0,0,0,0,0,0,0,0,0,0,0,0,0,0,0,0,0,0,0,0,0,0,0,0,0,0,0,0,0,0,0,0,0,0,0,0,0,0,0,0,0,0],"id":27,"left_children":[1,3,5,7,9,11,13,15,17,-1,19,-1,21,23,25,-1,-1,27,29,31,33,35,-1,37,39,-1,41,-1,-1,-1,-1,-1,-1,-1,-1,-1,-1,-1,-1,-1,-1,-1,-1],"loss_changes":[3.7082925E0,3.228242E0,3.7973628E0,1.8262656E0,1.4718623E0,3.5304334E0,3.5359938E0,3.5848808E-1,2.5197117E0,0E0,1.537816E0,0E0,2.7051578E0,4.7858276E0,1.228656E0,0E0,0E0,6.5852594E-1,6.653955E-1,1.461811E-1,1.639765E0,1.1689701E0,0E0,6.1103168E0,5.5908194E0,0E0,3.2827875E-1,0E0,0E0,0E0,0E0,0E0,0E0,0E0,0E0,0E0,0E0,0E0,0E0,0E0,0E0,0E0,0E0],"parents":[2147483647,0,0,1,1,2,2,3,3,4,4,5,5,6,6,7,7,8,8,10,10,12,12,13,13,14,14,17,17,18,18,19,19,20,20,21,21,23,23,24,24,26,26],"right_children":[2,4,6,8,10,12,14,16,18,-1,20,-1,22,24,26,-1,-1,28,30,32,34,36,-1,38,40,-1,42,-1,-1,-1,-1,-1,-1,-1,-1,-1,-1,-1,-1,-1,-1,-1,-1],"split_conditions":[-8.45E0,2.5E0,-1.8719004E1,-1.905E1,-1.2186893E1,8.05E0,1.6895968E0,1.0051374E0,1.689643E1,-4.362579E-3,1.5278982E0,4.867692E-2,-1.6057956E0,4.5918007E1,2.0859983E0,-4.590134E-2,-5.580478E-3,1.4421429E1,7.858035E-1,-2.46162E1,-1.335E1,2.7554312E1,3.909914E-2,7.420125E-1,5.1788147E1,5.543774E-2,6.7E0,4.57319E-3,-3.89412E-2,5.1104736E-2,2.9750864E-3,1.601698E-2,6.181502E-2,-1.9030211E-2,3.895645E-2,7.1609505E-3,-4.7870584E-2,2.9392585E-2,-5.419171E-2,3.196582E-2,-1.2638422E-2,-9.456313E-3,1.7733756E-2],"split_indices":[4,6,0,4,2,6,8,8,3,0,2,0,2,1,8,0,0,3,8,0,4,1,0,8,1,0,6,0,0,0,0,0,0,0,0,0,0,0,0,0,0,0,0],"split_type":[0,0,0,0,0,0,0,0,0,0,0,0,0,0,0,0,0,0,0,0,0,0,0,0,0,0,0,0,0,0,0,0,0,0,0,0,0,0,0,0,0,0,0],"sum_hessian":[8.393014E1,1.845714E1,6.5473E1,7.520958E0,1.0936182E1,9.378036E0,5.6094963E1,2.2938528E0,5.227105E0,1.5871325E0,9.34905E0,5.2387533E0,4.139282E0,5.190054E1,4.194425E0,1.1230451E0,1.1708077E0,2.2558012E0,2.9713037E0,6.352727E0,2.9963229E0,3.0630972E0,1.0761847E0,1.1816566E1,4.0083973E1,1.6553648E0,2.5390604E0,1.1685466E0,1.0872548E0,1.8350471E0,1.1362567E0,1.065731E0,5.286996E0,1.6306914E0,1.3656316E0,1.0851668E0,1.9779303E0,2.061078E0,9.755488E0,7.9219875E0,3.2161983E1,1.34899E0,1.1900704E0],"tree_param":{"num_deleted":"0","num_feature":"9","num_nodes":"43","size_leaf_vector":"1"}},{"base_weights":[2.8291315E-2,-4.896857E-2,6.5416746E-2,8.1572505E-3,4.8865613E-2,1.3956626E-1,-3.5624206E-1,3.275663E-1,-1.1751397E-1,-5.773346E-1,3.9277855E-1,-1.0088147E-3,3.1301446E-2,-1.8716272E-2,1.9242406E-2,-4.6604987E-2,1.6029214E-2,3.83345E-2,-1.3909486E-2],"categories":[],"categories_nodes":[],"categories_segments":[],"categories_sizes":[],"default_left":[0,0,0,0,0,0,0,0,0,0,0,0,0,0,0,0,0,0,0],"id":28,"left_children":[1,-1,3,5,-1,7,9,11,13,15,17,-1,-1,-1,-1,-1,-1,-1,-1],"loss_changes":[3.0999691E0,0E0,4.127747E0,3.6667323E0,0E0,2.7563252E0,3.5887086E0,3.4111528E0,3.3034172E0,5.420913E0,1.5233576E0,0E0,0E0,0E0,0E0,0E0,0E0,0E0,0E0],"parents":[2147483647,0,0,2,2,3,3,5,5,6,6,7,7,8,8,9,9,10,10],"right_children":[2,-1,4,6,-1,8,10,12,14,16,18,-1,-1,-1,-1,-1,-1,-1,-1],"split_conditions":[1.4630532E1,-4.896857E-2,3.711786E1,5.6328907E1,4.8865613E-2,6.15E0,1.920911E-1,4.612729E1,3.95E0,3.3056934E1,3.5411885E-1,-1.0088147E-3,3.1301446E-2,-1.8716272E-2,1.9242406E-2,-4.6604987E-2,1.6029214E-2,3.83345E-2,-1.3909486E-2],"split_indices":[1,0,3,1,0,6,7,1,5,0,7,0,0,0,0,0,0,0,0],"split_type":[0,0,0,0,0,0,0,0,0,0,0,0,0,0,0,0,0,0,0],"sum_hessian":[8.015235E1,1.9462745E0,7.820608E1,7.453485E1,3.6712265E0,5.5233604E1,1.9301245E1,3.1744795E1,2.3488811E1,1.5079392E1,4.2218523E0,1.5092606E1,1.665219E1,1.5711723E1,7.7770877E0,1.0781561E1,4.297831E0,2.6194472E0,1.6024052E0],"tree_param":{"num_deleted":"0","num_feature":"9","num_nodes":"19","size_leaf_vector":"1"}},{"base_weights":[-5.641593E-3,2.8884098E-1,-1.2932652E-1,-2.3149966E-1,5.6208086E-1,3.724743E-2,-4.984374E-1,5.990841E-1,-6.637265E-1,2.1501747E-1,6.1758757E-2,-1.5478045E-1,4.3281388E-1,-6.076482E-1,3.561871E-2,4.279031E-2,8.006672E-3,-1.0467112E0,1.7733032E-2,4.2873514E-1,-3.0080948E-2,-5.462379E-1,1.8960631E-1,1.1035264E0,5.2356746E-2,-3.8514072E-1,-5.2712E-2,-7.872307E-3,-6.546845E-2,-6.49991E-3,4.3744482E-2,-4.48075E-2,6.6344514E-3,-1.8375339E-2,2.8292766E-2,1.4411802E-2,6.220284E-2,-3.1164143E-2,1.9084064E-2,-3.5802472E-2,2.5533361E-2],"categories":[],"categories_nodes":[],"categories_segments":[],"categories_sizes":[],"default_left":[0,0,0,0,0,0,0,0,0,0,0,0,0,0,0,0,0,0,0,0,0,0,0,0,0,0,0,0,0,0,0,0,0,0,0,0,0,0,0,0,0],"id":29,"left_children":[1,3,5,7,9,11,13,15,17,19,-1,21,23,25,-1,-1,-1,27,-1,29,-1,31,33,35,37,39,-1,-1,-1,-1,-1,-1,-1,-1,-1,-1,-1,-1,-1,-1,-1],"loss_changes":[3.1317925E0,3.7468517E0,3.7396016E0,3.796265E0,3.6989818E0,3.3052752E0,2.9305801E0,2.873274E-1,2.98482E0,2.423539E0,0E0,4.071919E0,3.5646079E0,1.3692656E0,0E0,0E0,0E0,9.9038744E-1,0E0,2.7108445E0,0E0,3.4529376E0,3.6459935E0,2.243762E-1,2.4868543E0,4.367474E0,0E0,0E0,0E0,0E0,0E0,0E0,0E0,0E0,0E0,0E0,0E0,0E0,0E0,0E0,0E0],"parents":[2147483647,0,0,1,1,2,2,3,3,4,4,5,5,6,6,7,7,8,8,9,9,11,11,12,12,13,13,17,17,19,19,21,21,22,22,23,23,24,24,25,25],"right_children":[2,4,6,8,10,12,14,16,18,20,-1,22,24,26,-1,-1,-1,28,-1,30,-1,32,34,36,38,40,-1,-1,-1,-1,-1,-1,-1,-1,-1,-1,-1,-1,-1,-1,-1],"split_conditions":[-7.2E0,-1.645E1,8.448192E0,4E-1,3.35E0,2.0387294E0,3.863214E1,5.4E0,8.876362E0,2.7E0,6.1758757E-2,4.15E0,-5.5362344E-1,7.95E0,3.561871E-2,4.279031E-2,8.006672E-3,-1.1837822E1,1.7733032E-2,8.85701E-1,-3.0080948E-2,8.1E0,4.25E0,-4.6315484E0,1.4325E1,8.2079685E-1,-5.2712E-2,-7.872307E-3,-6.546845E-2,-6.49991E-3,4.3744482E-2,-4.48075E-2,6.6344514E-3,-1.8375339E-2,2.8292766E-2,1.4411802E-2,6.220284E-2,-3.1164143E-2,1.9084064E-2,-3.5802472E-2,2.5533361E-2],"split_indices":[4,4,0,5,5,0,3,6,0,5,0,5,2,5,0,0,0,2,0,8,0,4,6,2,3,8,0,0,0,0,0,0,0,0,0,0,0,0,0,0,0],"split_type":[0,0,0,0,0,0,0,0,0,0,0,0,0,0,0,0,0,0,0,0,0,0,0,0,0,0,0,0,0,0,0,0,0,0,0,0,0,0,0,0,0],"sum_hessian":[8.395821E1,2.4438078E1,5.9520138E1,8.466939E0,1.5971138E1,4.1631557E1,1.788858E1,2.765879E0,5.7010603E0,1.140823E1,4.562908E0,2.8436E1,1.3195557E1,1.6865519E1,1.0230606E0,1.1459825E0,1.6198964E0,4.1227903E0,1.57827E0,9.41839E0,1.9898393E0,1.3034187E1,1.5401814E1,4.088088E0,9.107468E0,1.249999E1,4.365528E0,1.3047633E0,2.8180268E0,4.496237E0,4.922154E0,8.390076E0,4.6441116E0,6.218015E0,9.183799E0,1.0496393E0,3.0384488E0,2.691991E0,6.4154773E0,9.274635E0,3.2253556E0],"tree_param":{"num_deleted":"0","num_feature":"9","num_nodes":"41","size_leaf_vector":"1"}},{"base_weights":[8.0996715E-2,2.0255671E-1,-2.718423E-1,7.2074616E-1,8.047065E-2,-6.325761E-1,4.813398E-1,5.3643238E-2,-2.8839072E-2,-9.563478E-2,3.269378E-1,-7.800215E-1,1.486761E-2,8.111583E-1,-1.8119147E-2,-5.5459154E-1,1.3835262E-1,-6.574071E-1,4.8623544E-1,-7.2110645E-2,-9.8544884E-1,1.3062209E-5,1.0067059E0,1.3483907E-2,-5.024689E-2,2.7658118E-2,-9.629071E-3,-4.5858253E-2,-2.746474E-3,4.3718223E-2,1.1701306E-2,-4.4036042E-2,2.7904633E-2,-1.9772856E-2,-5.71913E-2,6.277406E-2,5.7472973E-3],"categories":[],"categories_nodes":[],"categories_segments":[],"categories_sizes":[],"default_left":[0,0,0,0,0,0,0,0,0,0,0,0,0,0,0,0,0,0,0,0,0,0,0,0,0,0,0,0,0,0,0,0,0,0,0,0,0],"id":30,"left_children":[1,3,5,7,9,11,13,-1,-1,15,17,19,-1,21,-1,23,25,27,29,31,33,-1,35,-1,-1,-1,-1,-1,-1,-1,-1,-1,-1,-1,-1,-1,-1],"loss_changes":[3.609313E0,3.8773863E0,6.189676E0,5.9806137E0,2.2652998E0,2.2993684E0,2.4039924E0,0E0,0E0,3.383702E0,3.7185988E0,1.8617191E0,0E0,9.131446E-1,0E0,4.2050285E0,3.0162163E0,4.8867357E-1,1.6779871E0,2.5646706E0,5.028572E-1,0E0,8.852515E-1,0E0,0E0,0E0,0E0,0E0,0E0,0E0,0E0,0E0,0E0,0E0,0E0,0E0,0E0],"parents":[2147483647,0,0,1,1,2,2,3,3,4,4,5,5,6,6,9,9,10,10,11,11,13,13,15,15,16,16,17,17,18,18,19,19,20,20,22,22],"right_children":[2,4,6,8,10,12,14,-1,-1,16,18,20,-1,22,-1,24,26,28,30,32,34,-1,36,-1,-1,-1,-1,-1,-1,-1,-1,-1,-1,-1,-1,-1,-1],"split_conditions":[5.6328907E1,6.89884E-1,6.810118E1,2.3141687E-1,1.0501001E0,8.35E0,7.343817E1,5.3643238E-2,-2.8839072E-2,4.144045E1,-2.45E1,-7.25E0,1.486761E-2,6.911056E1,-1.8119147E-2,-2.6696642E1,-5.4777316E-3,7.3E0,-1.8246353E-1,-1.49E1,2.75E0,1.3062209E-5,4.5491302E1,1.3483907E-2,-5.024689E-2,2.7658118E-2,-9.629071E-3,-4.5858253E-2,-2.746474E-3,4.3718223E-2,1.1701306E-2,-4.4036042E-2,2.7904633E-2,-1.9772856E-2,-5.71913E-2,6.277406E-2,5.7472973E-3],"split_indices":[1,8,1,7,8,6,1,0,0,1,4,4,0,1,0,0,7,6,7,4,6,0,0,0,0,0,0,0,0,0,0,0,0,0,0,0,0],"split_type":[0,0,0,0,0,0,0,0,0,0,0,0,0,0,0,0,0,0,0,0,0,0,0,0,0,0,0,0,0,0,0,0,0,0,0,0,0],"sum_hessian":[8.1866806E1,6.120604E1,2.0660765E1,1.0735603E1,5.0470436E1,1.4078195E1,6.582571E0,8.580267E0,2.1553364E0,2.9794022E1,2.0676414E1,1.2290646E1,1.7875493E0,4.760318E0,1.8222532E0,9.5979185E0,2.0196102E1,2.4444654E0,1.8231949E1,3.0682743E0,9.222371E0,1.1194628E0,3.6408548E0,3.532872E0,6.065047E0,8.664303E0,1.15318E1,1.3430765E0,1.101389E0,6.209393E0,1.2022556E1,1.1697966E0,1.8984776E0,2.6917837E0,6.530587E0,2.527802E0,1.113053E0],"tree_param":{"num_deleted":"0","num_feature":"9","num_nodes":"37","size_leaf_vector":"1"}},{"base_weights":[5.7274945E-2,-4.0916517E-2,4.462196E-1,1.783265E-1,-1.9906959E-1,-3.80753E-2,5.763674E-1,-4.059762E-1,4.3110722E-1,-3.331038E-2,-7.1579975E-1,8.925707E-1,-4.213433E-2,8.952789E-2,-7.834171E-1,2.1153145E-1,6.0302544E-2,-2.8373533E-1,3.493019E-1,1.2288733E-2,-9.70947E-1,9.950063E-3,9.529105E-1,-5.302642E-1,3.5758942E-2,-1.4601764E-2,3.773366E-2,-5.3546485E-2,-6.0207136E-3,3.2599617E-2,-1.1824927E-2,-2.3996666E-2,3.624474E-2,3.3643257E-2,-1.5605018E-2,-1.17521575E-2,-6.1782856E-2,5.197372E-2,1.6944794E-2,-4.2929035E-2,5.5357493E-3],"categories":[],"categories_nodes":[],"categories_segments":[],"categories_sizes":[],"default_left":[0,0,0,0,0,0,0,0,0,0,0,0,0,0,0,0,0,0,0,0,0,0,0,0,0,0,0,0,0,0,0,0,0,0,0,0,0,0,0,0,0],"id":31,"left_children":[1,3,5,7,9,-1,11,13,15,17,19,21,23,25,27,29,-1,31,33,-1,35,-1,37,39,-1,-1,-1,-1,-1,-1,-1,-1,-1,-1,-1,-1,-1,-1,-1,-1,-1],"loss_changes":[3.2001555E0,2.3738253E0,3.0918016E0,4.4270372E0,3.3722396E0,0E0,3.1286445E0,1.7923224E0,3.2467055E0,3.0759475E0,2.589271E0,2.499361E-1,2.70875E0,1.4586393E0,8.8695383E-1,3.5580504E0,0E0,4.173088E0,2.9361405E0,0E0,1.2239261E0,0E0,1.4728832E-1,1.0222886E0,0E0,0E0,0E0,0E0,0E0,0E0,0E0,0E0,0E0,0E0,0E0,0E0,0E0,0E0,0E0,0E0,0E0],"parents":[2147483647,0,0,1,1,2,2,3,3,4,4,6,6,7,7,8,8,9,9,10,10,11,11,12,12,13,13,14,14,15,15,17,17,18,18,20,20,22,22,23,23],"right_children":[2,4,6,8,10,-1,12,14,16,18,20,22,24,26,28,30,-1,32,34,-1,36,-1,38,40,-1,-1,-1,-1,-1,-1,-1,-1,-1,-1,-1,-1,-1,-1,-1,-1,-1],"split_conditions":[3.0985714E1,-3.8E0,-2.389363E1,3.995888E1,8E0,-3.80753E-2,1.0283857E1,-1.8490331E-1,5.95E0,4.15E0,-3.4438023E-1,1.4630532E1,3.675357E1,-4.548716E0,-1.4253885E0,-6.479304E-4,6.0302544E-2,2.1872485E-1,1.7516847E0,1.2288733E-2,-5.7414613E0,9.950063E-3,1.6437039E-1,7.15E0,3.5758942E-2,-1.4601764E-2,3.773366E-2,-5.3546485E-2,-6.0207136E-3,3.2599617E-2,-1.1824927E-2,-2.3996666E-2,3.624474E-2,3.3643257E-2,-1.5605018E-2,-1.17521575E-2,-6.1782856E-2,5.197372E-2,1.6944794E-2,-4.2929035E-2,5.5357493E-3],"split_indices":[3,4,2,1,5,0,0,7,5,5,2,1,3,2,2,7,0,7,2,0,0,0,7,5,0,0,0,0,0,0,0,0,0,0,0,0,0,0,0,0,0],"split_type":[0,0,0,0,0,0,0,0,0,0,0,0,0,0,0,0,0,0,0,0,0,0,0,0,0,0,0,0,0,0,0,0,0,0,0,0,0,0,0,0,0],"sum_hessian":[8.2315285E1,6.643753E1,1.587776E1,2.7788115E1,3.8649414E1,1.0726703E0,1.4805089E1,8.208386E0,1.9579727E1,3.0068392E1,8.58102E0,9.503431E0,5.301658E0,3.878931E0,4.329455E0,1.6248713E1,3.331015E0,1.8329748E1,1.1738645E1,1.8071483E0,6.7738724E0,1.1046112E0,8.39882E0,3.4060688E0,1.8955895E0,2.8213804E0,1.0575507E0,2.5907147E0,1.7387403E0,7.964008E0,8.284705E0,1.57836895E1,2.546059E0,7.8708377E0,3.8678064E0,2.2914584E0,4.4824142E0,6.753759E0,1.6450611E0,2.0278826E0,1.3781863E0],"tree_param":{"num_deleted":"0","num_feature":"9","num_nodes":"41","size_leaf_vector":"1"}},{"base_weights":[-2.766982E-3,1.8049634E-1,-2.095913E-1,4.3605304E-1,-1.4199416E-1,3.942452E-1,-3.9531288E-1,6.05913E-1,-8.455479E-2,-4.7309163E-1,3.22167E-1,-5.974786E-1,7.585035E-1,-8.903762E-1,-1.7195553E-1,2.0295039E-2,8.56659E-1,3.559248E-1,-5.2030366E-2,5.7835346E-1,-8.0168146E-1,-1.169531E-1,7.8974646E-1,-3.816322E-2,-7.3569953E-3,9.718735E-1,-1.0702561E-2,-5.615076E-2,3.1537046E-3,5.134482E-1,-3.986152E-1,3.2160796E-2,-3.3938877E-2,-2.3202028E-2,5.287202E-2,-9.259311E-3,4.2104255E-2,8.0351485E-3,3.5003282E-2,-5.739708E-2,1.4063396E-2,2.316974E-2,-2.9133072E-2,1.1364775E-2,5.5458434E-2,1.9927032E-2,5.637684E-2,-1.0364217E-2,4.4615928E-2,-3.724728E-2,7.784066E-3],"categories":[],"categories_nodes":[],"categories_segments":[],"categories_sizes":[],"default_left":[0,0,0,0,0,0,0,0,0,0,0,0,0,0,0,0,0,0,0,0,0,0,0,0,0,0,0,0,0,0,0,0,0,0,0,0,0,0,0,0,0,0,0,0,0,0,0,0,0,0,0],"id":32,"left_children":[1,3,5,7,9,11,13,15,17,19,21,23,25,27,29,31,33,35,-1,37,39,41,43,-1,-1,45,-1,-1,-1,47,49,-1,-1,-1,-1,-1,-1,-1,-1,-1,-1,-1,-1,-1,-1,-1,-1,-1,-1,-1,-1],"loss_changes":[3.1404269E0,3.6829748E0,4.5203815E0,2.2405915E0,3.25359E0,3.9410567E0,3.1932921E0,2.741735E0,3.3048291E0,4.6727595E0,1.9395034E0,1.2309921E-1,1.7648253E0,2.104723E0,3.637013E0,3.3357394E0,3.9730034E0,1.606883E0,0E0,6.448221E-2,3.9606462E0,1.7592921E0,5.538287E-1,0E0,0E0,1.1581659E-1,0E0,0E0,0E0,1.8035908E0,3.4113553E0,0E0,0E0,0E0,0E0,0E0,0E0,0E0,0E0,0E0,0E0,0E0,0E0,0E0,0E0,0E0,0E0,0E0,0E0,0E0,0E0],"parents":[2147483647,0,0,1,1,2,2,3,3,4,4,5,5,6,6,7,7,8,8,9,9,10,10,11,11,12,12,13,13,14,14,15,15,16,16,17,17,19,19,20,20,21,21,22,22,25,25,29,29,30,30],"right_children":[2,4,6,8,10,12,14,16,18,20,22,24,26,28,30,32,34,36,-1,38,40,42,44,-1,-1,46,-1,-1,-1,48,50,-1,-1,-1,-1,-1,-1,-1,-1,-1,-1,-1,-1,-1,-1,-1,-1,-1,-1,-1,-1],"split_conditions":[9.362381E-1,5.6953654E0,-1.8246353E-1,8E0,6.9193625E-1,1.8569853E1,-2.795983E0,2.3E0,-3.902006E-1,1.35E0,5.961377E1,4.6307144E1,4.4348915E1,1.5819663E0,1.0040874E0,1.2608268E-2,-2.3503526E-1,4.1142033E1,-5.2030366E-2,7.5E-1,7.4E0,5.3495026E1,7.9925585E-1,-3.816322E-2,-7.3569953E-3,4.05E0,-1.0702561E-2,-5.615076E-2,3.1537046E-3,1.6492857E1,1.2805026E0,3.2160796E-2,-3.3938877E-2,-2.3202028E-2,5.287202E-2,-9.259311E-3,4.2104255E-2,8.0351485E-3,3.5003282E-2,-5.739708E-2,1.4063396E-2,2.316974E-2,-2.9133072E-2,1.1364775E-2,5.5458434E-2,1.9927032E-2,5.637684E-2,-1.0364217E-2,4.4615928E-2,-3.724728E-2,7.784066E-3],"split_indices":[8,0,7,6,8,1,0,6,0,6,1,3,1,8,0,7,7,1,0,6,6,1,8,0,0,6,0,0,0,3,8,0,0,0,0,0,0,0,0,0,0,0,0,0,0,0,0,0,0,0,0],"split_type":[0,0,0,0,0,0,0,0,0,0,0,0,0,0,0,0,0,0,0,0,0,0,0,0,0,0,0,0,0,0,0,0,0,0,0,0,0,0,0,0,0,0,0,0,0,0,0,0,0,0,0],"sum_hessian":[8.085557E1,4.2937084E1,3.7918484E1,2.3757988E1,1.9179094E1,8.655167E0,2.9263315E1,1.7789808E1,5.9681797E0,1.1182854E1,7.9962416E0,2.153049E0,6.502117E0,8.169527E0,2.109379E1,5.657542E0,1.2132266E1,4.515486E0,1.4526937E0,2.481682E0,8.701171E0,4.5103197E0,3.4859223E0,1.0658168E0,1.0872322E0,5.3328395E0,1.1692778E0,6.4241986E0,1.7453284E0,4.927643E0,1.6166145E1,3.0339706E0,2.6235714E0,1.4279993E0,1.0704267E1,2.429956E0,2.0855298E0,1.0836234E0,1.3980587E0,6.5476303E0,2.153541E0,2.0102239E0,2.5000958E0,1.882582E0,1.6033403E0,1.8989553E0,3.4338841E0,1.8538725E0,3.0737703E0,9.737871E0,6.428275E0],"tree_param":{"num_deleted":"0","num_feature":"9","num_nodes":"51","size_leaf_vector":"1"}},{"base_weights":[1.4735408E-2,-7.5311765E-2,3.994759E-1,3.8990718E-1,-1.5327366E-1,6.552146E-1,-2.6440933E-1,7.212459E-1,-3.171829E-2,-8.045599E-1,-1.5179183E-2,8.8689774E-1,1.2639536E-1,-4.7711648E-2,2.6728174E-1,-1.2749064E-2,1.0290207E0,2.3412738E-2,-1.0282472E0,2.862086E-1,-2.6557285E-1,-4.1434327E-3,5.243627E-2,-3.9412193E-2,6.9072413E-1,3.6771577E-2,-1.0700395E-2,9.436597E-3,5.9081804E-2,-2.1347618E-2,-5.6433976E-2,3.6865827E-2,-5.395749E-3,1.9494643E-2,-2.3621483E-2,1.0959667E-2,4.2165723E-2],"categories":[],"categories_nodes":[],"categories_segments":[],"categories_sizes":[],"default_left":[0,0,0,0,0,0,0,0,0,0,0,0,0,0,0,0,0,0,0,0,0,0,0,0,0,0,0,0,0,0,0,0,0,0,0,0,0],"id":33,"left_children":[1,3,5,7,9,11,13,15,-1,17,19,21,23,-1,25,-1,27,-1,29,31,33,-1,-1,-1,35,-1,-1,-1,-1,-1,-1,-1,-1,-1,-1,-1,-1],"loss_changes":[2.807502E0,2.4464736E0,2.781623E0,3.7587268E0,5.1213365E0,1.2819576E0,2.083352E0,2.6112275E0,0E0,3.3189359E0,3.7068155E0,1.3024917E0,2.9355848E0,0E0,9.676826E-1,0E0,5.6467867E-1,0E0,4.88863E-2,4.04685E0,3.8176618E0,0E0,0E0,0E0,5.9632182E-2,0E0,0E0,0E0,0E0,0E0,0E0,0E0,0E0,0E0,0E0,0E0,0E0],"parents":[2147483647,0,0,1,1,2,2,3,3,4,4,5,5,6,6,7,7,9,9,10,10,11,11,12,12,14,14,16,16,18,18,19,19,20,20,24,24],"right_children":[2,4,6,8,10,12,14,16,-1,18,20,22,24,-1,26,-1,28,-1,30,32,34,-1,-1,-1,36,-1,-1,-1,-1,-1,-1,-1,-1,-1,-1,-1,-1],"split_conditions":[3.0985714E1,-1.8246353E-1,1.31E1,4.3761196E1,4.1142033E1,5.3980865E1,1.465E1,8.633797E-1,-3.171829E-2,6.5329635E-1,5.3706917E1,1.4630532E1,1.1045823E1,-4.7711648E-2,3.8096428E1,-1.2749064E-2,2.2017475E1,2.3412738E-2,8.509455E-1,9.1753817E-1,-5.45E0,-4.1434327E-3,5.243627E-2,-3.9412193E-2,3.567857E1,3.6771577E-2,-1.0700395E-2,9.436597E-3,5.9081804E-2,-2.1347618E-2,-5.6433976E-2,3.6865827E-2,-5.395749E-3,1.9494643E-2,-2.3621483E-2,1.0959667E-2,4.2165723E-2],"split_indices":[3,7,6,1,1,1,6,8,0,8,1,1,2,0,3,0,1,0,8,8,4,0,0,0,3,0,0,0,0,0,0,0,0,0,0,0,0],"split_type":[0,0,0,0,0,0,0,0,0,0,0,0,0,0,0,0,0,0,0,0,0,0,0,0,0,0,0,0,0,0,0,0,0,0,0,0,0],"sum_hessian":[7.916837E1,6.480519E1,1.4363177E1,8.727093E0,5.6078102E1,1.0378343E1,3.9848351E0,6.8175516E0,1.9095414E0,8.966028E0,4.7112072E1,6.745789E0,3.6325536E0,1.3885707E0,2.5962644E0,1.6752808E0,5.1422706E0,1.1767576E0,7.789271E0,2.1314146E1,2.5797928E1,1.0344827E0,5.7113066E0,1.2346714E0,2.3978822E0,1.0484221E0,1.5478423E0,1.1341854E0,4.0080853E0,1.8663635E0,5.9229074E0,9.532553E0,1.1781592E1,5.976233E0,1.9821693E1,1.1819458E0,1.2159364E0],"tree_param":{"num_deleted":"0","num_feature":"9","num_nodes":"37","size_leaf_vector":"1"}},{"base_weights":[2.1678982E-2,1.9595952E-1,-1.8629983E-1,3.800936E-1,-2.7197513E-1,3.59817E-1,-4.1011396E-1,4.930789E-1,-4.4769615E-1,4.7026744E-1,-5.3293604E-1,-4.6412047E-2,7.2016424E-1,-1.0605518E0,-1.2030338E-1,5.986697E-1,-2.2714247E-1,-5.4601777E-2,1.8378505E-2,-1.9451365E-2,5.576361E-2,-7.824691E-1,4.0728897E-2,9.987665E-1,-3.3395555E-2,-5.9951942E-2,-4.8653553E-3,4.8788914E-1,-3.536531E-1,1.0681106E-2,4.9917266E-2,1.570689E-2,-3.6164783E-2,-5.7755716E-2,-2.156932E-3,5.7528015E-2,8.8578725E-4,4.776704E-2,-5.6981933E-3,2.4398899E-2,-2.7931085E-2],"categories":[],"categories_nodes":[],"categories_segments":[],"categories_sizes":[],"default_left":[0,0,0,0,0,0,0,0,0,0,0,0,0,0,0,0,0,0,0,0,0,0,0,0,0,0,0,0,0,0,0,0,0,0,0,0,0,0,0,0,0],"id":34,"left_children":[1,3,5,7,9,11,13,15,17,19,21,-1,23,25,27,29,31,-1,-1,-1,-1,33,-1,35,-1,-1,-1,37,39,-1,-1,-1,-1,-1,-1,-1,-1,-1,-1,-1,-1],"loss_changes":[2.8801734E0,3.8231926E0,4.582167E0,3.157343E0,2.7248998E0,5.810958E0,4.811552E0,2.2731848E0,2.6575766E0,2.5700061E0,3.9729416E0,0E0,4.2328477E0,9.435873E-1,2.9050493E0,3.6009588E0,1.3869241E0,0E0,0E0,0E0,0E0,2.3966813E0,0E0,1.1828613E0,0E0,0E0,0E0,1.7291093E0,2.7730265E0,0E0,0E0,0E0,0E0,0E0,0E0,0E0,0E0,0E0,0E0,0E0,0E0],"parents":[2147483647,0,0,1,1,2,2,3,3,4,4,5,5,6,6,7,7,8,8,9,9,10,10,12,12,13,13,14,14,15,15,16,16,21,21,23,23,27,27,28,28],"right_children":[2,4,6,8,10,12,14,16,18,20,22,-1,24,26,28,30,32,-1,-1,-1,-1,34,-1,36,-1,-1,-1,38,40,-1,-1,-1,-1,-1,-1,-1,-1,-1,-1,-1,-1],"split_conditions":[9.362381E-1,1.2117764E1,-1.6459352E-1,6.165568E0,-7.85E0,-1.7825645E1,-2.795983E0,7.95E0,8.4597025E0,-1.335E1,8.0562586E-1,-4.6412047E-2,2.1095166E0,8.3E0,1.95E0,3.2E0,1.1563822E0,-5.4601777E-2,1.8378505E-2,-1.9451365E-2,5.576361E-2,5.15E0,4.0728897E-2,4.4417553E0,-3.3395555E-2,-5.9951942E-2,-4.8653553E-3,-7.75E0,5.18724E-1,1.0681106E-2,4.9917266E-2,1.570689E-2,-3.6164783E-2,-5.7755716E-2,-2.156932E-3,5.7528015E-2,8.8578725E-4,4.776704E-2,-5.6981933E-3,2.4398899E-2,-2.7931085E-2],"split_indices":[8,0,7,2,4,2,0,5,2,4,8,0,8,5,5,5,2,0,0,0,0,5,0,2,0,0,0,4,0,0,0,0,0,0,0,0,0,0,0,0,0],"split_type":[0,0,0,0,0,0,0,0,0,0,0,0,0,0,0,0,0,0,0,0,0,0,0,0,0,0,0,0,0,0,0,0,0,0,0,0,0,0,0,0,0],"sum_hessian":[7.7453186E1,4.2172E1,3.528119E1,3.0397995E1,1.1774006E1,1.0079378E1,2.520181E1,2.7103035E1,3.294959E0,2.8541057E0,8.919901E0,1.858877E0,8.220501E0,6.9481745E0,1.8253635E1,2.378475E1,3.3182852E0,1.650788E0,1.644171E0,1.3939307E0,1.460175E0,7.880003E0,1.0398974E0,7.0799437E0,1.1405574E0,5.8607717E0,1.0874029E0,4.7590494E0,1.3494587E1,1.2895607E1,1.0889143E1,1.7624197E0,1.5558655E0,4.8653426E0,3.0146604E0,5.9816456E0,1.0982982E0,2.348031E0,2.4110186E0,2.3724036E0,1.1122183E1],"tree_param":{"num_deleted":"0","num_feature":"9","num_nodes":"41","size_leaf_vector":"1"}},{"base_weights":[-2.627881E-2,-1.3393846E-1,2.0369266E-1,-5.258703E-1,-9.203059E-4,4.279007E-1,-2.8244716E-1,-6.5593857E-1,2.2195602E-2,3.150852E-1,-3.4979203E-1,-6.0734373E-2,8.679747E-1,-6.3240665E-1,3.4194723E-2,-8.2773805E-1,5.4526743E-2,4.1052517E-1,-3.8878478E-2,-6.44854E-1,7.248113E-2,3.5674825E-1,-6.920413E-1,5.9741784E-2,3.5233167E-1,1.57013E-2,-8.7141263E-1,7.4953013E-3,-4.813705E-2,3.6775243E-2,-3.791091E-2,2.7072582E-2,-2.2271315E-2,1.3342919E-2,-3.9979607E-2,2.6019705E-2,-3.1138543E-2,-2.2097634E-2,5.351246E-2,-5.579524E-2,-2.496903E-3,-2.1441935E-2,3.611287E-2,-5.3468406E-2,-6.1888173E-3],"categories":[],"categories_nodes":[],"categories_segments":[],"categories_sizes":[],"default_left":[0,0,0,0,0,0,0,0,0,0,0,0,0,0,0,0,0,0,0,0,0,0,0,0,0,0,0,0,0,0,0,0,0,0,0,0,0,0,0,0,0,0,0,0,0],"id":35,"left_children":[1,3,5,7,9,11,13,15,-1,17,19,21,23,25,-1,27,29,31,-1,33,35,37,39,-1,41,-1,43,-1,-1,-1,-1,-1,-1,-1,-1,-1,-1,-1,-1,-1,-1,-1,-1,-1,-1],"loss_changes":[2.0397022E0,2.9172902E0,2.9890735E0,2.079786E0,4.827281E0,4.010791E0,3.4450579E0,1.6204681E0,0E0,2.7153325E0,2.639581E0,2.7919948E0,1.2223101E0,1.8704877E0,0E0,1.5242324E0,2.4679012E0,2.682642E0,0E0,1.9558406E0,3.2696412E0,4.16155E0,1.0830364E0,0E0,1.8126372E0,0E0,7.4096966E-1,0E0,0E0,0E0,0E0,0E0,0E0,0E0,0E0,0E0,0E0,0E0,0E0,0E0,0E0,0E0,0E0,0E0,0E0],"parents":[2147483647,0,0,1,1,2,2,3,3,4,4,5,5,6,6,7,7,9,9,10,10,11,11,12,12,13,13,15,15,16,16,17,17,19,19,20,20,21,21,22,22,24,24,26,26],"right_children":[2,4,6,8,10,12,14,16,-1,18,20,22,24,26,-1,28,30,32,-1,34,36,38,40,-1,42,-1,44,-1,-1,-1,-1,-1,-1,-1,-1,-1,-1,-1,-1,-1,-1,-1,-1,-1,-1],"split_conditions":[2.4071428E1,2.05E0,8.744582E-2,8.65E0,5.85E0,-5.107496E0,3.711786E1,1.5796255E-1,2.2195602E-2,6.57036E1,3.75E0,3.0983753E1,5.486556E1,1.35E0,3.4194723E-2,-6.304925E0,8.5E-1,8.05E0,-3.8878478E-2,-1.9659248E-1,1.9710714E1,-5.239307E-1,2.9439285E1,5.9741784E-2,4.36849E0,1.57013E-2,3.5725224E1,7.4953013E-3,-4.813705E-2,3.6775243E-2,-3.791091E-2,2.7072582E-2,-2.2271315E-2,1.3342919E-2,-3.9979607E-2,2.6019705E-2,-3.1138543E-2,-2.2097634E-2,5.351246E-2,-5.579524E-2,-2.496903E-3,-2.1441935E-2,3.611287E-2,-5.3468406E-2,-6.1888173E-3],"split_indices":[3,6,7,5,6,2,3,7,0,1,5,1,1,6,0,2,6,5,0,7,3,7,3,0,2,0,0,0,0,0,0,0,0,0,0,0,0,0,0,0,0,0,0,0,0],"split_type":[0,0,0,0,0,0,0,0,0,0,0,0,0,0,0,0,0,0,0,0,0,0,0,0,0,0,0,0,0,0,0,0,0,0,0,0,0,0,0,0,0,0,0,0,0],"sum_hessian":[8.02815E1,5.4966755E1,2.5314745E1,1.3179777E1,4.178698E1,1.7406605E1,7.9081407E0,1.1906489E1,1.2732878E0,2.1977112E1,1.9809866E1,8.656676E0,8.749928E0,6.059328E0,1.8488123E0,9.45507E0,2.4514196E0,2.0785822E1,1.1912899E0,1.13511715E1,8.458695E0,5.4725738E0,3.1841023E0,4.549114E0,4.2008142E0,1.1583862E0,4.900942E0,1.1338363E0,8.321233E0,1.385544E0,1.0658758E0,1.8346905E1,2.4389179E0,1.5418798E0,9.809291E0,5.297383E0,3.1613123E0,2.761691E0,2.7108824E0,1.4735177E0,1.7105846E0,1.2988285E0,2.9019856E0,3.534707E0,1.3662349E0],"tree_param":{"num_deleted":"0","num_feature":"9","num_nodes":"45","size_leaf_vector":"1"}},{"base_weights":[3.986466E-2,-5.0403625E-3,4.8741737E-1,3.667909E-2,-7.148687E-1,-4.198535E-2,9.143838E-1,-1.5368068E-4,5.307222E-2,-5.0659876E-2,1.9946385E-3,5.5444658E-2,1.8212311E-3,1.2817799E-1,-2.4397883E-1,-4.0369886E-3,1.9916534E-2,6.242192E-3,-3.2135155E-2],"categories":[],"categories_nodes":[],"categories_segments":[],"categories_sizes":[],"default_left":[0,0,0,0,0,0,0,0,0,0,0,0,0,0,0,0,0,0,0],"id":36,"left_children":[1,3,5,7,9,-1,11,13,-1,-1,-1,-1,-1,15,17,-1,-1,-1,-1],"loss_changes":[1.6031767E0,2.1991296E0,4.8889713E0,2.6518695E0,9.685502E-1,0E0,9.8105717E-1,2.1845481E0,0E0,0E0,0E0,0E0,0E0,2.613791E0,3.620566E0,0E0,0E0,0E0,0E0],"parents":[2147483647,0,0,1,1,2,2,3,3,4,4,6,6,7,7,13,13,14,14],"right_children":[2,4,6,8,10,-1,12,14,-1,-1,-1,-1,-1,16,18,-1,-1,-1,-1],"split_conditions":[3.645714E1,7.097451E1,-1.5391226E1,6.883979E1,6.423425E-1,-4.198535E-2,1.26E1,5.3706917E1,5.307222E-2,-5.0659876E-2,1.9946385E-3,5.5444658E-2,1.8212311E-3,4.6230206E1,1.9964285E1,-4.0369886E-3,1.9916534E-2,6.242192E-3,-3.2135155E-2],"split_indices":[3,1,2,1,8,0,6,1,0,0,0,0,0,1,3,0,0,0,0],"split_type":[0,0,0,0,0,0,0,0,0,0,0,0,0,0,0,0,0,0,0],"sum_hessian":[7.8648254E1,7.237525E1,6.2730036E0,6.925328E1,3.1219656E0,1.2916214E0,4.981382E0,6.781566E1,1.4376237E0,1.99214E0,1.1298256E0,3.8625996E0,1.1187825E0,4.4741383E1,2.3074278E1,2.5625494E1,1.9115887E1,1.2343421E1,1.0730857E1],"tree_param":{"num_deleted":"0","num_feature":"9","num_nodes":"19","size_leaf_vector":"1"}},{"base_weights":[-7.1322516E-2,2.6588878E-1,-1.653769E-1,-2.7168375E-1,6.065916E-1,-6.094194E-1,-4.823601E-2,-6.4452195E-1,4.3829754E-1,1.450663E-1,1.0097138E0,-4.071158E-2,-1.0831227E0,5.245579E-1,-1.18898414E-1,-4.327918E-2,-5.46599E-3,7.136141E-3,2.6349803E-2,5.1734287E-1,-3.2997508E-2,3.8499974E-3,6.076479E-2,-5.225701E-1,4.8284948E-1,-5.89929E-2,-1.3011448E-2,-1.7280243E-2,8.6984384E-1,1.48231825E-2,-5.4112476E-1,5.0462913E-2,-2.9372273E-2,-1.7267239E-3,-4.239313E-2,3.6537666E-2,-1.5355931E-3,5.5626523E-2,1.2619885E-2,-1.073933E-2,2.688691E-2,-3.485948E-2,2.3396721E-2],"categories":[],"categories_nodes":[],"categories_segments":[],"categories_sizes":[],"default_left":[0,0,0,0,0,0,0,0,0,0,0,0,0,0,0,0,0,0,0,0,0,0,0,0,0,0,0,0,0,0,0,0,0,0,0,0,0,0,0,0,0,0,0],"id":37,"left_children":[1,3,5,7,9,11,13,15,17,19,21,23,25,27,29,-1,-1,-1,-1,31,-1,-1,-1,33,35,-1,-1,-1,37,39,41,-1,-1,-1,-1,-1,-1,-1,-1,-1,-1,-1,-1],"loss_changes":[2.517942E0,3.3507667E0,3.175187E0,2.2515597E0,1.8919973E0,3.3972254E0,2.0794044E0,5.303168E-1,7.539928E-3,2.2222679E0,9.956579E-1,1.9789393E0,2.4462223E-1,2.0004191E0,2.5587335E0,0E0,0E0,0E0,0E0,3.2297678E0,0E0,0E0,0E0,6.1274993E-1,5.062111E-1,0E0,0E0,0E0,3.6872077E-1,4.3518896E0,2.0416477E0,0E0,0E0,0E0,0E0,0E0,0E0,0E0,0E0,0E0,0E0,0E0,0E0],"parents":[2147483647,0,0,1,1,2,2,3,3,4,4,5,5,6,6,7,7,8,8,9,9,10,10,11,11,12,12,13,13,14,14,19,19,23,23,24,24,28,28,29,29,30,30],"right_children":[2,4,6,8,10,12,14,16,18,20,22,24,26,28,30,-1,-1,-1,-1,32,-1,-1,-1,34,36,-1,-1,-1,38,40,42,-1,-1,-1,-1,-1,-1,-1,-1,-1,-1,-1,-1],"split_conditions":[-8.4E0,4.1142033E1,1.610357E1,8.2E0,-1.315E1,4.1644793E0,1.3E0,-1.435E1,1.465E1,-1.5E1,1.85E0,1.1774658E0,1.3E1,-1.1685168E-1,8.05E0,-4.327918E-2,-5.46599E-3,7.136141E-3,2.6349803E-2,4.2E0,-3.2997508E-2,3.8499974E-3,6.076479E-2,1.4682143E1,5.5749138E1,-5.89929E-2,-1.3011448E-2,-1.7280243E-2,2.137143E1,4.85E0,1.38E1,5.0462913E-2,-2.9372273E-2,-1.7267239E-3,-4.239313E-2,3.6537666E-2,-1.5355931E-3,5.5626523E-2,1.2619885E-2,-1.073933E-2,2.688691E-2,-3.485948E-2,2.3396721E-2],"split_indices":[4,1,3,6,4,0,6,4,6,4,6,0,4,7,5,0,0,0,0,5,0,0,0,3,1,0,0,0,3,5,6,0,0,0,0,0,0,0,0,0,0,0,0],"split_type":[0,0,0,0,0,0,0,0,0,0,0,0,0,0,0,0,0,0,0,0,0,0,0,0,0,0,0,0,0,0,0,0,0,0,0,0,0,0,0,0,0,0,0],"sum_hessian":[7.700335E1,1.6395157E1,6.0608192E1,6.4386353E0,9.956521E0,1.1774081E1,4.883411E1,4.2821264E0,2.156509E0,5.2760024E0,4.680518E0,5.8439856E0,5.9300957E0,4.6574106E0,4.41767E1,2.5935688E0,1.6885579E0,1.0999997E0,1.0565091E0,3.8520083E0,1.4239943E0,1.0935755E0,3.5869424E0,3.044176E0,2.7998095E0,4.918151E0,1.0119449E0,1.3228197E0,3.334591E0,3.428373E1,9.892968E0,2.725104E0,1.1269042E0,1.6599385E0,1.3842375E0,1.6030699E0,1.1967396E0,1.818145E0,1.5164459E0,2.4232565E1,1.0051167E1,8.835506E0,1.0574617E0],"tree_param":{"num_deleted":"0","num_feature":"9","num_nodes":"43","size_leaf_vector":"1"}},{"base_weights":[-4.327385E-2,3.0924076E-1,-1.6059332E-1,-3.282909E-2,4.6546948E-1,1.619017E-1,-3.2698992E-1,5.695426E-1,-1.2349687E-1,-7.0076454E-1,3.2927737E-1,-4.6568233E-1,3.0098978E-1,1.9438602E-1,9.8632294E-1,-3.1823523E-2,2.6545344E-2,-4.491061E-2,-5.238447E-3,6.0749865E-1,-1.8833637E-1,-1.0133295E-1,-8.359603E-1,-2.1221963E-1,8.184985E-1,2.1270165E-2,-3.7550524E-2,4.701739E-3,5.6096833E-2,1.9843287E-3,5.58844E-2,-2.8519247E-2,3.1214973E-2,-4.496172E-2,1.7572569E-2,-5.0017424E-2,2.5586266E-2,1.1600488E-2,-3.4097992E-2,-4.9278014E-3,5.987537E-2],"categories":[],"categories_nodes":[],"categories_segments":[],"categories_sizes":[],"default_left":[0,0,0,0,0,0,0,0,0,0,0,0,0,0,0,0,0,0,0,0,0,0,0,0,0,0,0,0,0,0,0,0,0,0,0,0,0,0,0,0,0],"id":38,"left_children":[1,3,5,-1,7,9,11,13,15,17,19,21,23,25,27,-1,-1,-1,-1,29,31,33,35,37,39,-1,-1,-1,-1,-1,-1,-1,-1,-1,-1,-1,-1,-1,-1,-1,-1],"loss_changes":[3.289223E0,3.3085575E0,3.242096E0,0E0,1.1562355E0,3.2479396E0,3.583427E0,2.190167E0,1.5068412E0,3.4309113E-1,2.7326884E0,4.3369703E0,2.2344697E0,2.3424602E0,7.380371E-1,0E0,0E0,0E0,0E0,3.4498067E0,2.5664196E0,6.69534E0,4.0825787E0,1.1368712E0,1.5323999E0,0E0,0E0,0E0,0E0,0E0,0E0,0E0,0E0,0E0,0E0,0E0,0E0,0E0,0E0,0E0,0E0],"parents":[2147483647,0,0,1,1,2,2,4,4,5,5,6,6,7,7,8,8,9,9,10,10,11,11,12,12,13,13,14,14,19,19,20,20,21,21,22,22,23,23,24,24],"right_children":[2,4,6,-1,8,10,12,14,16,18,20,22,24,26,28,-1,-1,-1,-1,30,32,34,36,38,40,-1,-1,-1,-1,-1,-1,-1,-1,-1,-1,-1,-1,-1,-1,-1,-1],"split_conditions":[-9.462522E0,-2.39E1,-5.45E0,-3.282909E-2,1.325E1,4.1142033E1,1.920911E-1,2.9439285E1,-2.1128654E1,1.0306367E0,6E0,5.3980865E1,5.1E0,2.862857E1,-8.091399E1,-3.1823523E-2,2.6545344E-2,-4.491061E-2,-5.238447E-3,1.9E0,9E0,4.6882755E1,3.645714E1,2.75E0,3.95E0,2.1270165E-2,-3.7550524E-2,4.701739E-3,5.6096833E-2,1.9843287E-3,5.58844E-2,-2.8519247E-2,3.1214973E-2,-4.496172E-2,1.7572569E-2,-5.0017424E-2,2.5586266E-2,1.1600488E-2,-3.4097992E-2,-4.9278014E-3,5.987537E-2],"split_indices":[0,4,4,0,6,1,7,3,0,8,6,1,6,3,0,0,0,0,0,6,6,1,3,6,4,0,0,0,0,0,0,0,0,0,0,0,0,0,0,0,0],"split_type":[0,0,0,0,0,0,0,0,0,0,0,0,0,0,0,0,0,0,0,0,0,0,0,0,0,0,0,0,0,0,0,0,0,0,0,0,0,0,0,0,0],"sum_hessian":[7.733195E1,1.8901611E1,5.8430332E1,2.1858373E0,1.6715775E1,1.9896238E1,3.8534096E1,1.4233608E1,2.482166E0,2.7151878E0,1.7181051E1,3.1774897E1,6.7591987E0,8.262595E0,5.971013E0,1.4068048E0,1.0753613E0,1.6586231E0,1.0565646E0,1.1061668E1,6.119382E0,1.6657637E1,1.5117261E1,3.689887E0,3.0693116E0,7.082051E0,1.1805447E0,1.0111859E0,4.9598274E0,5.7452807E0,5.3163877E0,4.3652368E0,1.7541453E0,5.67358E0,1.09840555E1,1.3703466E1,1.4137948E0,2.1565473E0,1.5333397E0,1.1139495E0,1.9553621E0],"tree_param":{"num_deleted":"0","num_feature":"9","num_nodes":"41","size_leaf_vector":"1"}},{"base_weights":[-3.3578627E-2,1.3520774E-1,-1.9235761E-1,2.9517096E-1,-2.953454E-1,4.1479146E-1,-3.902625E-1,5.8940244E-1,1.1684404E-1,4.3331218E-1,-6.122466E-1,-4.2588416E-2,7.2589415E-1,-5.9104152E-2,-1.9600648E-1,9.095835E-2,5.7532143E-2,-5.1562524E-1,2.7663738E-1,-5.7116337E-3,3.5451535E-2,-4.902619E-2,3.3533115E-2,9.286454E-1,-1.9574853E-2,-3.6071083E-1,2.1433392E-1,-1.5216201E-2,2.8122202E-2,-4.241047E-2,7.4994224E-3,2.3479296E-2,-3.5167538E-2,3.2419644E-2,-2.3979798E-2,5.3674985E-2,4.453192E-3,1.346057E-3,-4.5481782E-2,-2.815245E-2,