{"learner":{"attributes":{"scikit_learn":"{\"_estimator_type\": \"classifier\"}"},"feature_names":["ema_diff","rsi","macd_hist","atr","candle_body","upper_wick","lower_wick"],"feature_types":["float","float","float","float","float","float","float"],"gradient_booster":{"model":{"cats":{"enc":[],"feature_segments":[],"sorted_idx":[]},"gbtree_model_param":{"num_parallel_tree":"1","num_trees":"50"},"iteration_indptr":[0,1,2,3,4,5,6,7,8,9,10,11,12,13,14,15,16,17,18,19,20,21,22,23,24,25,26,27,28,29,30,31,32,33,34,35,36,37,38,39,40,41,42,43,44,45,46,47,48,49,50],"tree_info":[0,0,0,0,0,0,0,0,0,0,0,0,0,0,0,0,0,0,0,0,0,0,0,0,0,0,0,0,0,0,0,0,0,0,0,0,0,0,0,0,0,0,0,0,0,0,0,0,0,0],"trees":[{"base_weights":[1.1671136E-7,-7.745193E-2,1.0487002E0,9.085238E-1,-1.2151389E-1,1.3150312E0,-7.7655464E-2,1.2090188E-1,-3.298531E-2,-1.6173266E-1,-8.637424E-3,-3.298531E-2,1.5478945E-1],"categories":[],"categories_nodes":[],"categories_segments":[],"categories_sizes":[],"default_left":[0,0,0,0,0,0,0,0,0,0,0,0,0],"id":0,"left_children":[1,3,5,7,9,11,-1,-1,-1,-1,-1,-1,-1],"loss_changes":[1.4931489E1,7.547491E0,7.1672983E0,3.1677456E0,8.519794E0,4.8788795E0,0E0,0E0,0E0,0E0,0E0,0E0,0E0],"parents":[2147483647,0,0,1,1,2,2,3,3,4,4,5,5],"right_children":[2,4,6,8,10,12,-1,-1,-1,-1,-1,-1,-1],"split_conditions":[7.535782E1,-2.825E1,2.13E1,6.95E0,-2.4764101E1,4.4741597E0,-7.7655464E-2,1.2090188E-1,-3.298531E-2,-1.6173266E-1,-8.637424E-3,-3.298531E-2,1.5478945E-1],"split_indices":[1,4,4,6,2,2,0,0,0,0,0,0,0],"split_type":[0,0,0,0,0,0,0,0,0,0,0,0,0],"sum_hessian":[1.8183107E2,1.7018793E2,1.1643133E1,6.440882E0,1.6374706E2,1.0404502E1,1.2386312E0,5.202251E0,1.2386312E0,2.7249887E0,1.6102206E2,1.2386312E0,9.165871E0],"tree_param":{"num_deleted":"0","num_feature":"7","num_nodes":"13","size_leaf_vector":"1"}},{"base_weights":[-9.466923E-5,-7.011237E-2,9.6182394E-1,1.317407E-1,-2.5698617E-1,1.2149587E0,-7.310529E-2,1.0696926E-1,6.259569E-3,-1.3532521E-1,-2.1636298E-2,-3.1107953E-2,1.436108E-1],"categories":[],"categories_nodes":[],"categories_segments":[],"categories_sizes":[],"default_left":[0,0,0,0,0,0,0,0,0,0,0,0,0],"id":1,"left_children":[1,3,5,7,9,11,-1,-1,-1,-1,-1,-1,-1],"loss_changes":[1.2374819E1,6.4942446E0,6.2304573E0,5.315658E0,3.6828508E0,4.233507E0,0E0,0E0,0E0,0E0,0E0,0E0,0E0],"parents":[2147483647,0,0,1,1,2,2,3,3,4,4,5,5],"right_children":[2,4,6,8,10,12,-1,-1,-1,-1,-1,-1,-1],"split_conditions":[7.535782E1,4.4E0,2.13E1,-2.825E1,-2.4764101E1,4.4741597E0,-7.310529E-2,1.0696926E-1,6.259569E-3,-1.3532521E-1,-2.1636298E-2,-3.1107953E-2,1.436108E-1],"split_indices":[1,6,4,4,2,2,0,0,0,0,0,0,0],"split_type":[0,0,0,0,0,0,0,0,0,0,0,0,0],"sum_hessian":[1.8173407E2,1.7026747E2,1.1466595E1,8.1995E1,8.827247E1,1.0220623E1,1.2459716E0,4.636097E0,7.735891E1,1.9995625E0,8.627291E1,1.2421986E0,8.978424E0],"tree_param":{"num_deleted":"0","num_feature":"7","num_nodes":"13","size_leaf_vector":"1"}},{"base_weights":[2.420754E-5,-6.331154E-2,8.8844216E-1,-1.23481154E-1,-3.520801E-2,1.1311746E0,-6.893523E-2,9.497883E-2,-6.781291E-3,-2.934648E-2,1.3439058E-1],"categories":[],"categories_nodes":[],"categories_segments":[],"categories_sizes":[],"default_left":[0,0,0,0,0,0,0,0,0,0,0],"id":2,"left_children":[1,3,5,-1,7,9,-1,-1,-1,-1,-1],"loss_changes":[1.0325316E1,5.595939E0,5.456481E0,0E0,5.4696746E0,3.7165308E0,0E0,0E0,0E0,0E0,0E0],"parents":[2147483647,0,0,1,1,2,2,4,4,5,5],"right_children":[2,4,6,-1,8,10,-1,-1,-1,-1,-1],"split_conditions":[7.535782E1,-2.4764101E1,2.13E1,-1.23481154E-1,-5.3929707E1,4.4741597E0,-6.893523E-2,9.497883E-2,-6.781291E-3,-2.934648E-2,1.3439058E-1],"split_indices":[1,2,4,0,0,2,0,0,0,0,0],"split_type":[0,0,0,0,0,0,0,0,0,0,0],"sum_hessian":[1.8150084E2,1.7028955E2,1.1211288E1,2.9835103E0,1.6730605E2,9.961802E0,1.2494861E0,4.459324E0,1.6284671E2,1.2449555E0,8.716846E0],"tree_param":{"num_deleted":"0","num_feature":"7","num_nodes":"11","size_leaf_vector":"1"}},{"base_weights":[1.4724769E-4,-1.7108971E-1,2.9547864E-1,-4.6628088E-2,-1.1189765E0,4.683996E-1,-8.4720445E-1,8.648325E-2,-1.0951994E-2,-6.000634E-2,-1.5476342E-1,5.5745523E-3,1.0769093E-1,6.5728895E-2,-1.4245968E-1],"categories":[],"categories_nodes":[],"categories_segments":[],"categories_sizes":[],"default_left":[0,0,0,0,0,0,0,0,0,0,0,0,0,0,0],"id":3,"left_children":[1,3,5,7,9,11,13,-1,-1,-1,-1,-1,-1,-1,-1],"loss_changes":[9.265935E0,1.3630483E1,1.368413E1,6.0312033E0,2.0558643E0,1.4767865E1,8.923632E0,0E0,0E0,0E0,0E0,0E0,0E0,0E0,0E0],"parents":[2147483647,0,0,1,1,2,2,3,3,4,4,5,5,6,6],"right_children":[2,4,6,8,10,12,14,-1,-1,-1,-1,-1,-1,-1,-1],"split_conditions":[2.9344358E0,5.981622E1,3.4717857E1,-2.825E1,2.1367857E1,1.8463442E1,5.307035E0,8.648325E-2,-1.0951994E-2,-6.000634E-2,-1.5476342E-1,5.5745523E-3,1.0769093E-1,6.5728895E-2,-1.4245968E-1],"split_indices":[2,1,3,4,3,0,2,0,0,0,0,0,0,0,0],"split_type":[0,0,0,0,0,0,0,0,0,0,0,0,0,0,0],"sum_hessian":[1.8122429E2,1.1497878E2,6.62455E1,1.0256124E2,1.2417541E1,5.805082E1,8.194679E0,5.797005E0,9.676424E1,6.7030296E0,5.7145114E0,3.5242867E1,2.2807951E1,2.2343433E0,5.960336E0],"tree_param":{"num_deleted":"0","num_feature":"7","num_nodes":"15","size_leaf_vector":"1"}},{"base_weights":[-2.3394919E-4,-1.550412E-1,2.686683E-1,-3.492745E-2,-9.79177E-1,4.2726588E-1,-7.687428E-1,3.77403E-2,-1.6041128E-2,1.765003E-2,-1.0991893E-1,5.034957E-3,9.935857E-2,9.878539E-2,-1.1637451E-1],"categories":[],"categories_nodes":[],"categories_segments":[],"categories_sizes":[],"default_left":[0,0,0,0,0,0,0,0,0,0,0,0,0,0,0],"id":4,"left_children":[1,3,5,7,9,11,13,-1,-1,-1,-1,-1,-1,-1,-1],"loss_changes":[7.610563E0,1.1451174E1,1.1318607E1,5.3538027E0,2.235897E0,1.2454603E1,7.543451E0,0E0,0E0,0E0,0E0,0E0,0E0,0E0,0E0],"parents":[2147483647,0,0,1,1,2,2,3,3,4,4,5,5,6,6],"right_children":[2,4,6,8,10,12,14,-1,-1,-1,-1,-1,-1,-1,-1],"split_conditions":[2.9344358E0,5.906784E1,3.4717857E1,1.8E0,-3.0597582E0,1.8463442E1,4.079587E0,3.77403E-2,-1.6041128E-2,1.765003E-2,-1.0991893E-1,5.034957E-3,9.935857E-2,9.878539E-2,-1.1637451E-1],"split_indices":[2,1,3,6,2,0,2,0,0,0,0,0,0,0,0],"split_type":[0,0,0,0,0,0,0,0,0,0,0,0,0,0,0],"sum_hessian":[1.8082243E2,1.1502556E2,6.579688E1,1.0130345E2,1.3722102E1,5.7581993E1,8.214892E0,2.3167894E1,7.813556E1,1.2466453E0,1.2475456E1,3.522606E1,2.2355932E1,1.2325945E0,6.982298E0],"tree_param":{"num_deleted":"0","num_feature":"7","num_nodes":"15","size_leaf_vector":"1"}},{"base_weights":[3.9919352E-5,-4.796434E-2,7.2722775E-1,-1.1464361E-1,-2.1819675E-2,9.6479523E-1,-6.674591E-2,1.08050825E-2,-2.3503775E-2,-2.3573358E-2,1.15940295E-1],"categories":[],"categories_nodes":[],"categories_segments":[],"categories_sizes":[],"default_left":[0,0,0,0,0,0,0,0,0,0,0],"id":5,"left_children":[1,3,5,-1,7,9,-1,-1,-1,-1,-1],"loss_changes":[6.3626757E0,4.8854733E0,4.383753E0,0E0,4.6781974E0,2.622076E0,0E0,0E0,0E0,0E0,0E0],"parents":[2147483647,0,0,1,1,2,2,4,4,5,5],"right_children":[2,4,6,-1,8,10,-1,-1,-1,-1,-1],"split_conditions":[7.535782E1,-2.4764101E1,2.13E1,-1.1464361E-1,7.126748E0,4.4741597E0,-6.674591E-2,1.08050825E-2,-2.3503775E-2,-2.3573358E-2,1.15940295E-1],"split_indices":[1,2,4,0,0,2,0,0,0,0,0],"split_type":[0,0,0,0,0,0,0,0,0,0,0],"sum_hessian":[1.8027005E2,1.6998291E2,1.0287136E1,2.9555452E0,1.6702736E2,9.053262E0,1.2338748E0,1.0410845E2,6.291891E1,1.2333623E0,7.819899E0],"tree_param":{"num_deleted":"0","num_feature":"7","num_nodes":"11","size_leaf_vector":"1"}},{"base_weights":[-4.0953685E-4,-1.3789117E-1,2.4139845E-1,-3.635055E-2,-9.074599E-1,3.3625245E-1,-1.2229735E-1,-1.2369306E-2,5.484533E-2,-4.3889027E-2,-1.31221E-1,-9.615477E-4,8.93943E-2],"categories":[],"categories_nodes":[],"categories_segments":[],"categories_sizes":[],"default_left":[0,0,0,0,0,0,0,0,0,0,0,0,0],"id":6,"left_children":[1,3,5,7,9,11,-1,-1,-1,-1,-1,-1,-1],"loss_changes":[6.046447E0,9.027777E0,9.568576E0,5.3532953E0,1.9795084E0,1.21027565E1,0E0,0E0,0E0,0E0,0E0,0E0,0E0],"parents":[2147483647,0,0,1,1,2,2,3,3,4,4,5,5],"right_children":[2,4,6,8,10,12,-1,-1,-1,-1,-1,-1,-1],"split_conditions":[2.9344358E0,5.981622E1,4.104286E1,1.1871126E1,2.1367857E1,1.8463442E1,-1.2229735E-1,-1.2369306E-2,5.484533E-2,-4.3889027E-2,-1.31221E-1,-9.615477E-4,8.93943E-2],"split_indices":[2,1,3,0,3,0,0,0,0,0,0,0,0],"split_type":[0,0,0,0,0,0,0,0,0,0,0,0,0],"sum_hessian":[1.7987872E2,1.1495181E2,6.492691E1,1.0247765E2,1.2474161E1,6.170066E1,3.226253E0,8.984715E1,1.26305E1,6.7473087E0,5.7268524E0,3.8689198E1,2.3011463E1],"tree_param":{"num_deleted":"0","num_feature":"7","num_nodes":"13","size_leaf_vector":"1"}},{"base_weights":[-1.1822525E-3,-1.2531622E-1,2.1896203E-1,-1.9364398E-2,-7.6770556E-1,3.0703744E-1,-1.1385933E-1,8.5208595E-2,-7.3445067E-3,-3.3842385E-2,-1.2125691E-1,-8.677398E-4,8.278297E-2],"categories":[],"categories_nodes":[],"categories_segments":[],"categories_sizes":[],"default_left":[0,0,0,0,0,0,0,0,0,0,0,0,0],"id":7,"left_children":[1,3,5,7,9,11,-1,-1,-1,-1,-1,-1,-1],"loss_changes":[4.953493E0,7.8736515E0,8.164427E0,4.799841E0,2.718463E0,1.0228451E1,0E0,0E0,0E0,0E0,0E0,0E0,0E0],"parents":[2147483647,0,0,1,1,2,2,3,3,4,4,5,5],"right_children":[2,4,6,8,10,12,-1,-1,-1,-1,-1,-1,-1],"split_conditions":[2.9344358E0,5.8443554E1,4.104286E1,-3.005E1,2.1739286E1,1.8463442E1,-1.1385933E-1,8.5208595E-2,-7.3445067E-3,-3.3842385E-2,-1.2125691E-1,-8.677398E-4,8.278297E-2],"split_indices":[2,1,3,4,3,0,0,0,0,0,0,0,0],"split_type":[0,0,0,0,0,0,0,0,0,0,0,0,0],"sum_hessian":[1.7926073E2,1.149014E2,6.435933E1,9.951769E1,1.5383703E1,6.1164906E1,3.1944237E0,4.952809E0,9.456489E1,8.725021E0,6.658682E0,3.8692226E1,2.247268E1],"tree_param":{"num_deleted":"0","num_feature":"7","num_nodes":"13","size_leaf_vector":"1"}},{"base_weights":[-1.5705358E-3,-1.0651189E-1,2.1976681E-2,8.904357E-1,-5.4332404E-3,1.3393264E-1,-3.463318E-2,-4.2802166E-2,5.8590546E-3],"categories":[],"categories_nodes":[],"categories_segments":[],"categories_sizes":[],"default_left":[0,0,0,0,0,0,0,0,0],"id":8,"left_children":[1,-1,3,5,7,-1,-1,-1,-1],"loss_changes":[4.5187616E0,0E0,4.208521E0,3.4668293E0,4.6836286E0,0E0,0E0,0E0,0E0],"parents":[2147483647,0,0,2,2,3,3,4,4],"right_children":[2,-1,4,6,8,-1,-1,-1,-1],"split_conditions":[-2.4764101E1,-1.0651189E-1,-5.3929707E1,6.15E0,-6.431E0,1.3393264E-1,-3.463318E-2,-4.2802166E-2,5.8590546E-3],"split_indices":[2,0,0,4,2,0,0,0,0],"split_type":[0,0,0,0,0,0,0,0,0],"sum_hessian":[1.7850107E2,2.9083292E0,1.7559274E2,4.40908E0,1.7118365E2,3.1741E0,1.2349799E0,2.1774687E1,1.4940897E2],"tree_param":{"num_deleted":"0","num_feature":"7","num_nodes":"9","size_leaf_vector":"1"}},{"base_weights":[-1.6393762E-3,-7.2871906E-1,3.1501345E-2,-1.228679E-1,9.284636E-2,1.8904701E-1,-1.1438193E-1,-4.42848E-2,6.0789376E-2,-2.42215E-2,3.262779E-2,-3.9791763E-2,3.829559E-3],"categories":[],"categories_nodes":[],"categories_segments":[],"categories_sizes":[],"default_left":[0,0,0,0,0,0,0,0,0,0,0,0,0],"id":9,"left_children":[1,3,5,-1,7,9,11,-1,-1,-1,-1,-1,-1],"loss_changes":[4.3450074E0,3.3428779E0,3.9864151E0,0E0,1.3462452E0,5.0098534E0,3.91961E0,0E0,0E0,0E0,0E0,0E0,0E0],"parents":[2147483647,0,0,1,1,2,2,4,4,5,5,6,6],"right_children":[2,4,6,-1,8,10,12,-1,-1,-1,-1,-1,-1],"split_conditions":[1.5E-1,7.25E0,4.4E0,-1.228679E-1,2.1482143E1,-4.448995E0,-3.5E0,-4.42848E-2,6.0789376E-2,-2.42215E-2,3.262779E-2,-3.9791763E-2,3.829559E-3],"split_indices":[5,6,6,0,3,2,4,0,0,0,0,0,0],"split_type":[0,0,0,0,0,0,0,0,0,0,0,0,0],"sum_hessian":[1.7836842E2,6.8607464E0,1.7150768E2,3.9571233E0,2.903623E0,8.2315605E1,8.919207E1,1.4919965E0,1.4116267E0,1.9685839E1,6.2629765E1,3.0655613E1,5.8536457E1],"tree_param":{"num_deleted":"0","num_feature":"7","num_nodes":"13","size_leaf_vector":"1"}},{"base_weights":[-2.1896183E-3,-3.7721504E-2,5.903505E-1,6.83159E-1,-6.854056E-2,8.4233695E-1,-7.00289E-2,9.6082054E-2,-3.493612E-2,-1.16646186E-1,-4.367486E-3,-1.846412E-2,1.022653E-1],"categories":[],"categories_nodes":[],"categories_segments":[],"categories_sizes":[],"default_left":[0,0,0,0,0,0,0,0,0,0,0,0,0],"id":10,"left_children":[1,3,5,7,9,11,-1,-1,-1,-1,-1,-1,-1],"loss_changes":[3.7949328E0,3.8235118E0,3.906292E0,2.359917E0,4.424474E0,1.8527765E0,0E0,0E0,0E0,0E0,0E0,0E0,0E0],"parents":[2147483647,0,0,1,1,2,2,3,3,4,4,5,5],"right_children":[2,4,6,8,10,12,-1,-1,-1,-1,-1,-1,-1],"split_conditions":[7.535782E1,-2.825E1,2.13E1,6.95E0,-2.4764101E1,4.4741597E0,-7.00289E-2,9.6082054E-2,-3.493612E-2,-1.16646186E-1,-4.367486E-3,-1.846412E-2,1.022653E-1],"split_indices":[1,4,4,6,2,2,0,0,0,0,0,0,0],"split_type":[0,0,0,0,0,0,0,0,0,0,0,0,0],"sum_hessian":[1.7818932E2,1.6899199E2,9.197328E0,6.06071E0,1.6293127E2,7.9855633E0,1.2117647E0,4.831013E0,1.229697E0,2.5915904E0,1.6033969E2,1.1891054E0,6.796458E0],"tree_param":{"num_deleted":"0","num_feature":"7","num_nodes":"13","size_leaf_vector":"1"}},{"base_weights":[-2.1195207E-3,-6.629754E-1,2.795399E-2,-1.1216457E-1,9.07297E-2,4.6006482E-2,-1.11972705E-1,-4.1033242E-2,5.7585087E-2,-2.729465E-3,3.986277E-2],"categories":[],"categories_nodes":[],"categories_segments":[],"categories_sizes":[],"default_left":[0,0,0,0,0,0,0,0,0,0,0],"id":11,"left_children":[1,3,5,-1,7,9,-1,-1,-1,-1,-1],"loss_changes":[3.5694416E0,2.8041987E0,3.6120222E0,0E0,1.1800579E0,4.4088597E0,0E0,0E0,0E0,0E0,0E0],"parents":[2147483647,0,0,1,1,2,2,4,4,5,5],"right_children":[2,4,6,-1,8,10,-1,-1,-1,-1,-1],"split_conditions":[1.5E-1,7.25E0,1.9796469E1,-1.1216457E-1,2.1482143E1,6.912072E0,-1.11972705E-1,-4.1033242E-2,5.7585087E-2,-2.729465E-3,3.986277E-2],"split_indices":[5,6,2,0,3,2,0,0,0,0,0],"split_type":[0,0,0,0,0,0,0,0,0,0,0],"sum_hessian":[1.776688E2,6.8172274E0,1.7085156E2,3.9346213E0,2.882606E0,1.6915082E2,1.7007506E0,1.4938418E0,1.3887641E0,1.4080382E2,2.8346996E1],"tree_param":{"num_deleted":"0","num_feature":"7","num_nodes":"11","size_leaf_vector":"1"}},{"base_weights":[-2.8548953E-3,1.3777968E-1,-1.3205543E-1,-2.8006905E-1,2.7398956E-1,-5.158494E-1,4.84578E-3,5.423666E-2,-5.7950296E-2,9.409112E-2,9.459023E-3,-1.05533056E-1,-1.9484406E-2,-2.0694442E-2,3.0973965E-2],"categories":[],"categories_nodes":[],"categories_segments":[],"categories_sizes":[],"default_left":[0,0,0,0,0,0,0,0,0,0,0,0,0,0,0],"id":12,"left_children":[1,3,5,7,9,11,13,-1,-1,-1,-1,-1,-1,-1,-1],"loss_changes":[3.2589693E0,4.965145E0,4.9135056E0,5.635992E0,7.7214284E0,4.0517473E0,4.5767817E0,0E0,0E0,0E0,0E0,0E0,0E0,0E0,0E0],"parents":[2147483647,0,0,1,1,2,2,3,3,4,4,5,5,6,6],"right_children":[2,4,6,8,10,12,14,-1,-1,-1,-1,-1,-1,-1,-1],"split_conditions":[4.45E0,-4.448995E0,-5.85E0,-9.705125E0,4.520065E1,2.4642857E1,1.04E1,5.423666E-2,-5.7950296E-2,9.409112E-2,9.459023E-3,-1.05533056E-1,-1.9484406E-2,-2.0694442E-2,3.0973965E-2],"split_indices":[6,2,4,2,1,3,6,0,0,0,0,0,0,0,0],"split_type":[0,0,0,0,0,0,0,0,0,0,0,0,0,0,0],"sum_hessian":[1.7735791E2,8.4889465E1,9.2468445E1,2.0609596E1,6.427987E1,2.3584038E1,6.888441E1,5.284285E0,1.5325311E1,1.2725968E1,5.1553898E1,7.944665E0,1.5639373E1,4.0838078E1,2.8046333E1],"tree_param":{"num_deleted":"0","num_feature":"7","num_nodes":"15","size_leaf_vector":"1"}},{"base_weights":[-2.587247E-3,-9.295083E-2,1.724704E-2,8.417189E-1,-8.56362E-3,1.2627852E-1,-3.0405069E-2,-7.225358E-2,2.3342671E-3],"categories":[],"categories_nodes":[],"categories_segments":[],"categories_sizes":[],"default_left":[0,0,0,0,0,0,0,0,0],"id":13,"left_children":[1,-1,3,5,7,-1,-1,-1,-1],"loss_changes":[3.291464E0,0E0,3.7399414E0,2.957641E0,3.9139752E0,0E0,0E0,0E0,0E0],"parents":[2147483647,0,0,2,2,3,3,4,4],"right_children":[2,-1,4,6,8,-1,-1,-1,-1],"split_conditions":[-2.4764101E1,-9.295083E-2,-5.3929707E1,6.15E0,-3.974372E1,1.2627852E-1,-3.0405069E-2,-7.225358E-2,2.3342671E-3],"split_indices":[2,0,0,4,0,0,0,0,0],"split_type":[0,0,0,0,0,0,0,0,0],"sum_hessian":[1.7715967E2,2.7506175E0,1.7440906E2,4.334682E0,1.7007437E2,3.0951114E0,1.2395709E0,6.349309E0,1.6372507E2],"tree_param":{"num_deleted":"0","num_feature":"7","num_nodes":"9","size_leaf_vector":"1"}},{"base_weights":[-2.6856682E-3,1.3460985E-2,-1.0669594E-1,-9.496135E-2,2.1418674E-1,5.4154004E-4,-7.057225E-2,-3.935396E-3,6.36624E-2],"categories":[],"categories_nodes":[],"categories_segments":[],"categories_sizes":[],"default_left":[0,0,0,0,0,0,0,0,0],"id":14,"left_children":[1,3,-1,5,7,-1,-1,-1,-1],"loss_changes":[3.0733094E0,3.8579206E0,0E0,7.065321E0,6.6816096E0,0E0,0E0,0E0,0E0],"parents":[2147483647,0,0,1,1,3,3,4,4],"right_children":[2,4,-1,6,8,-1,-1,-1,-1],"split_conditions":[1.9796469E1,2.9344358E0,-1.0669594E-1,5.8443554E1,1.8463442E1,5.4154004E-4,-7.057225E-2,-3.935396E-3,6.36624E-2],"split_indices":[2,2,0,1,0,0,0,0,0],"split_type":[0,0,0,0,0,0,0,0,0],"sum_hessian":[1.7700659E2,1.7533386E2,1.6727298E0,1.1418407E2,6.1149796E1,9.8918274E1,1.5265788E1,3.87809E1,2.2368895E1],"tree_param":{"num_deleted":"0","num_feature":"7","num_nodes":"9","size_leaf_vector":"1"}},{"base_weights":[-3.0321972E-3,6.417278E-1,-2.8985491E-2,9.0470773E-1,-3.1531766E-2,-5.7522315E-1,1.1840774E-2,-1.8875046E-2,1.2053337E-1,6.619332E-3,-9.51881E-2,-1.0965344E-2,2.2712212E-2],"categories":[],"categories_nodes":[],"categories_segments":[],"categories_sizes":[],"default_left":[0,0,0,0,0,0,0,0,0,0,0,0,0],"id":15,"left_children":[1,3,5,7,-1,9,11,-1,-1,-1,-1,-1,-1],"loss_changes":[2.9873464E0,2.0239456E0,3.8314865E0,2.093843E0,0E0,2.9493537E0,4.224331E0,0E0,0E0,0E0,0E0,0E0,0E0],"parents":[2147483647,0,0,1,1,2,2,3,3,5,5,6,6],"right_children":[2,4,6,8,-1,10,12,-1,-1,-1,-1,-1,-1],"split_conditions":[-2.825E1,6.95E0,-2.22E1,6.5E-1,-3.1531766E-2,1.3E0,3.052251E0,-1.8875046E-2,1.2053337E-1,6.619332E-3,-9.51881E-2,-1.0965344E-2,2.2712212E-2],"split_indices":[4,6,4,6,0,6,2,0,0,0,0,0,0],"split_type":[0,0,0,0,0,0,0,0,0,0,0,0,0],"sum_hessian":[1.7641177E2,5.9081755E0,1.705036E2,4.6775503E0,1.230625E0,1.0947066E1,1.5955653E2,1.0889363E0,3.588614E0,4.355048E0,6.592018E0,1.02309006E2,5.7247528E1],"tree_param":{"num_deleted":"0","num_feature":"7","num_nodes":"13","size_leaf_vector":"1"}},{"base_weights":[-2.7139816E-3,-5.584012E-1,2.657803E-2,-1.0337518E0,2.151961E-1,5.088699E-1,-2.5791407E-2,-1.4110996E-2,-1.4699475E-1,-3.1383857E-2,7.0883155E-2,6.1787654E-2,-3.5908703E-2,-1.1913033E-1,1.2868812E-4],"categories":[],"categories_nodes":[],"categories_segments":[],"categories_sizes":[],"default_left":[0,0,0,0,0,0,0,0,0,0,0,0,0,0,0],"id":16,"left_children":[1,3,5,7,9,11,13,-1,-1,-1,-1,-1,-1,-1,-1],"loss_changes":[2.8966765E0,3.4992397E0,4.285066E0,2.008719E0,1.3242959E0,1.7938647E0,4.8466854E0,0E0,0E0,0E0,0E0,0E0,0E0,0E0,0E0],"parents":[2147483647,0,0,1,1,2,2,3,3,4,4,5,5,6,6],"right_children":[2,4,6,8,10,12,14,-1,-1,-1,-1,-1,-1,-1,-1],"split_conditions":[1.5171429E1,-7E-1,1.7921429E1,1.4657143E1,2.95E0,1.2416591E1,1.8107143E1,-1.4110996E-2,-1.4699475E-1,-3.1383857E-2,7.0883155E-2,6.1787654E-2,-3.5908703E-2,-1.1913033E-1,1.2868812E-4],"split_indices":[3,4,3,3,6,0,3,0,0,0,0,0,0,0,0],"split_type":[0,0,0,0,0,0,0,0,0,0,0,0,0,0,0],"sum_hessian":[1.7604741E2,7.910834E0,1.6813657E2,4.6916647E0,3.219169E0,1.5614965E1,1.525216E2,1.9745E0,2.717165E0,1.7296808E0,1.4894881E0,1.4128672E1,1.486294E0,2.4868553E0,1.5003476E2],"tree_param":{"num_deleted":"0","num_feature":"7","num_nodes":"15","size_leaf_vector":"1"}},{"base_weights":[-3.6462054E-3,-8.769523E-2,1.46938255E-2,7.9324937E-1,-9.399239E-3,1.1972337E-1,-2.8109962E-2,-6.666792E-2,2.0180205E-3],"categories":[],"categories_nodes":[],"categories_segments":[],"categories_sizes":[],"default_left":[0,0,0,0,0,0,0,0,0],"id":17,"left_children":[1,-1,3,5,7,-1,-1,-1,-1],"loss_changes":[2.8469362E0,0E0,3.2767525E0,2.6122694E0,3.3194978E0,0E0,0E0,0E0,0E0],"parents":[2147483647,0,0,2,2,3,3,4,4],"right_children":[2,-1,4,6,8,-1,-1,-1,-1],"split_conditions":[-2.4764101E1,-8.769523E-2,-5.3929707E1,6.15E0,-3.974372E1,1.1972337E-1,-2.8109962E-2,-6.666792E-2,2.0180205E-3],"split_indices":[2,0,0,4,0,0,0,0,0],"split_type":[0,0,0,0,0,0,0,0,0],"sum_hessian":[1.7594612E2,2.656037E0,1.7329008E2,4.243367E0,1.690467E2,3.000658E0,1.2427093E0,6.352403E0,1.626943E2],"tree_param":{"num_deleted":"0","num_feature":"7","num_nodes":"9","size_leaf_vector":"1"}},{"base_weights":[-3.6083856E-3,1.1671853E-2,-1.0178553E-1,-2.646894E-2,4.5645034E-1,8.298954E-3,-2.4266858E-2,-9.317908E-2,6.8678856E-2],"categories":[],"categories_nodes":[],"categories_segments":[],"categories_sizes":[],"default_left":[0,0,0,0,0,0,0,0,0],"id":18,"left_children":[1,3,-1,5,7,-1,-1,-1,-1],"loss_changes":[2.7513871E0,2.9830399E0,0E0,3.859634E0,5.08039E0,0E0,0E0,0E0,0E0],"parents":[2147483647,0,0,1,1,3,3,4,4],"right_children":[2,4,-1,6,8,-1,-1,-1,-1],"split_conditions":[1.9796469E1,7.090795E1,-1.0178553E-1,7.3369956E0,2.702584E0,8.298954E-3,-2.4266858E-2,-9.317908E-2,6.8678856E-2],"split_indices":[2,1,0,0,2,0,0,0,0],"split_type":[0,0,0,0,0,0,0,0,0],"sum_hessian":[1.757659E2,1.7413101E2,1.634896E0,1.6124442E2,1.2886595E1,1.0745685E2,5.3787567E1,1.4005013E0,1.14860935E1],"tree_param":{"num_deleted":"0","num_feature":"7","num_nodes":"9","size_leaf_vector":"1"}},{"base_weights":[-4.0090103E-3,6.0459876E-1,-2.8186763E-2,8.632754E-1,-3.1320892E-2,-1.0191281E-1,-8.295612E-3,-1.6598225E-2,1.1558212E-1,-5.68508E-2,2.1599939E-3],"categories":[],"categories_nodes":[],"categories_segments":[],"categories_sizes":[],"default_left":[0,0,0,0,0,0,0,0,0,0,0],"id":19,"left_children":[1,3,5,7,-1,-1,9,-1,-1,-1,-1],"loss_changes":[2.612325E0,1.8808861E0,3.3540232E0,1.8654466E0,0E0,0E0,2.829949E0,0E0,0E0,0E0,0E0],"parents":[2147483647,0,0,1,1,2,2,3,3,6,6],"right_children":[2,4,6,8,-1,-1,10,-1,-1,-1,-1],"split_conditions":[-2.825E1,6.95E0,-2.4764101E1,6.5E-1,-3.1320892E-2,-1.0191281E-1,-2.365E1,-1.6598225E-2,1.1558212E-1,-5.68508E-2,2.1599939E-3],"split_indices":[4,6,2,6,0,0,4,0,0,0,0],"split_type":[0,0,0,0,0,0,0,0,0,0,0],"sum_hessian":[1.753727E2,5.7834706E0,1.6958922E2,4.558196E0,1.2252749E0,2.3486464E0,1.6724057E2,1.1045854E0,3.4536104E0,7.559866E0,1.5968071E2],"tree_param":{"num_deleted":"0","num_feature":"7","num_nodes":"11","size_leaf_vector":"1"}},{"base_weights":[-4.0963055E-3,-5.241895E-1,2.3403801E-2,-9.676115E-1,1.9780701E-1,4.6059343E-1,-2.4052199E-2,-1.4000933E-2,-1.371416E-1,6.697448E-2,-3.027719E-2,6.9486834E-2,-1.6416056E-3,-1.10611714E-1,1.2199086E-4],"categories":[],"categories_nodes":[],"categories_segments":[],"categories_sizes":[],"default_left":[0,0,0,0,0,0,0,0,0,0,0,0,0,0,0],"id":20,"left_children":[1,3,5,7,9,11,13,-1,-1,-1,-1,-1,-1,-1,-1],"loss_changes":[2.5311937E0,3.0366614E0,3.5013735E0,1.704701E0,1.1977692E0,1.8578131E0,4.177275E0,0E0,0E0,0E0,0E0,0E0,0E0,0E0,0E0],"parents":[2147483647,0,0,1,1,2,2,3,3,4,4,5,5,6,6],"right_children":[2,4,6,8,10,12,14,-1,-1,-1,-1,-1,-1,-1,-1],"split_conditions":[1.5171429E1,-7E-1,1.7921429E1,1.4657143E1,1.4860714E1,3.15E0,1.8107143E1,-1.4000933E-2,-1.371416E-1,6.697448E-2,-3.027719E-2,6.9486834E-2,-1.6416056E-3,-1.10611714E-1,1.2199086E-4],"split_indices":[3,4,3,3,3,5,3,0,0,0,0,0,0,0,0],"split_type":[0,0,0,0,0,0,0,0,0,0,0,0,0,0,0],"sum_hessian":[1.7511641E2,7.887296E0,1.6722911E2,4.675561E0,3.2117352E0,1.55224495E1,1.5170667E2,1.974836E0,2.700725E0,1.4792149E0,1.7325206E0,1.010355E1,5.4189E0,2.4862368E0,1.4922043E2],"tree_param":{"num_deleted":"0","num_feature":"7","num_nodes":"15","size_leaf_vector":"1"}},{"base_weights":[-4.583768E-3,1.1963009E-1,-1.16034485E-1,-2.6563954E-2,4.6615022E-1,-2.7002499E-1,1.24787904E-1,4.6628164E-3,-9.682899E-2,-1.7626148E-2,6.281778E-2,-3.685342E-2,5.8603793E-2,-6.408941E-2,2.3668932E-2],"categories":[],"categories_nodes":[],"categories_segments":[],"categories_sizes":[],"default_left":[0,0,0,0,0,0,0,0,0,0,0,0,0,0,0],"id":21,"left_children":[1,3,5,7,9,11,13,-1,-1,-1,-1,-1,-1,-1,-1],"loss_changes":[2.4501383E0,4.253484E0,3.4923487E0,4.1686473E0,2.7019129E0,5.0400124E0,3.3270483E0,0E0,0E0,0E0,0E0,0E0,0E0,0E0,0E0],"parents":[2147483647,0,0,1,1,2,2,3,3,4,4,5,5,6,6],"right_children":[2,4,6,8,10,12,14,-1,-1,-1,-1,-1,-1,-1,-1],"split_conditions":[4.4E0,2.95E0,1.04E1,2.75E0,8.5E-1,1.16E1,-3.892119E1,4.6628164E-3,-9.682899E-2,-1.7626148E-2,6.281778E-2,-3.685342E-2,5.8603793E-2,-6.408941E-2,2.3668932E-2],"split_indices":[6,6,6,6,5,5,0,0,0,0,0,0,0,0,0],"split_type":[0,0,0,0,0,0,0,0,0,0,0,0,0,0,0],"sum_hessian":[1.7498279E2,8.271832E1,9.2264465E1,5.8824203E1,2.3894117E1,5.6204212E1,3.6060257E1,5.5463963E1,3.3602421E0,4.7949834E0,1.9099134E1,5.091482E1,5.289391E0,3.9952905E0,3.2064964E1],"tree_param":{"num_deleted":"0","num_feature":"7","num_nodes":"15","size_leaf_vector":"1"}},{"base_weights":[-4.4504055E-3,9.832955E-3,-9.6550964E-2,-3.597037E-2,3.1604102E-1,7.616433E-3,-3.0174378E-2,5.008737E-2,-9.237808E-2],"categories":[],"categories_nodes":[],"categories_segments":[],"categories_sizes":[],"default_left":[0,0,0,0,0,0,0,0,0],"id":22,"left_children":[1,3,-1,5,7,-1,-1,-1,-1],"loss_changes":[2.4213178E0,2.4533808E0,0E0,4.563575E0,5.67785E0,0E0,0E0,0E0,0E0],"parents":[2147483647,0,0,1,1,3,3,4,4],"right_children":[2,4,-1,6,8,-1,-1,-1,-1],"split_conditions":[1.9796469E1,2.6401188E1,-9.6550964E-2,7.3369956E0,2.13E1,7.616433E-3,-3.0174378E-2,5.008737E-2,-9.237808E-2],"split_indices":[2,0,0,0,4,0,0,0,0],"split_type":[0,0,0,0,0,0,0,0,0],"sum_hessian":[1.746973E2,1.7311423E2,1.5830728E0,1.513565E2,2.1757732E1,1.0694701E2,4.440949E1,1.94536E1,2.3041315E0],"tree_param":{"num_deleted":"0","num_feature":"7","num_nodes":"9","size_leaf_vector":"1"}},{"base_weights":[-4.8894105E-3,-2.8996957E-2,5.330617E-1,2.6805867E-2,-6.6980875E-1,-3.414331E-2,8.3930355E-1,-1.9094272E-3,6.578096E-2,-1.8553065E-2,-1.3578248E-1,1.13217704E-1,1.6483573E-2],"categories":[],"categories_nodes":[],"categories_segments":[],"categories_sizes":[],"default_left":[0,0,0,0,0,0,0,0,0,0,0,0,0],"id":23,"left_children":[1,3,5,7,9,-1,11,-1,-1,-1,-1,-1,-1],"loss_changes":[2.2903905E0,6.055592E0,2.3153398E0,4.538872E0,4.2673807E0,0E0,9.7879744E-1,0E0,0E0,0E0,0E0,0E0,0E0],"parents":[2147483647,0,0,1,1,2,2,3,3,4,4,6,6],"right_children":[2,4,6,8,10,-1,12,-1,-1,-1,-1,-1,-1],"split_conditions":[3.33E1,2E1,9.5E-1,1.585E1,1.5021599E1,-3.414331E-2,6.25E0,-1.9094272E-3,6.578096E-2,-1.8553065E-2,-1.3578248E-1,1.13217704E-1,1.6483573E-2],"split_indices":[4,4,6,4,0,0,5,0,0,0,0,0,0],"split_type":[0,0,0,0,0,0,0,0,0,0,0,0,0],"sum_hessian":[1.7441747E2,1.6784195E2,6.575511E0,1.5527826E2,1.2563687E1,1.6756533E0,4.8998575E0,1.4565298E2,9.625274E0,8.118752E0,4.4449363E0,2.9432085E0,1.9566491E0],"tree_param":{"num_deleted":"0","num_feature":"7","num_nodes":"13","size_leaf_vector":"1"}},{"base_weights":[-4.3256935E-3,5.644339E-1,-2.6509445E-2,8.106967E-1,-2.8475983E-2,-9.633865E-2,-8.335512E-3,-1.5037459E-2,1.0959285E-1,4.6661854E-2,-4.2911633E-3],"categories":[],"categories_nodes":[],"categories_segments":[],"categories_sizes":[],"default_left":[0,0,0,0,0,0,0,0,0,0,0],"id":24,"left_children":[1,3,5,7,-1,-1,9,-1,-1,-1,-1],"loss_changes":[2.2269468E0,1.616535E0,2.8812127E0,1.6441231E0,0E0,0E0,2.770198E0,0E0,0E0,0E0,0E0],"parents":[2147483647,0,0,1,1,2,2,3,3,6,6],"right_children":[2,4,6,8,-1,-1,10,-1,-1,-1,-1],"split_conditions":[-2.825E1,6.95E0,-2.4764101E1,6.5E-1,-2.8475983E-2,-9.633865E-2,-9.961028E0,-1.5037459E-2,1.0959285E-1,4.6661854E-2,-4.2911633E-3],"split_indices":[4,6,2,6,0,0,2,0,0,0,0],"split_type":[0,0,0,0,0,0,0,0,0,0,0],"sum_hessian":[1.7431467E2,5.626095E0,1.6868857E2,4.3964696E0,1.2296252E0,2.2203238E0,1.6646825E2,1.1143917E0,3.282078E0,1.0448417E1,1.5601984E2],"tree_param":{"num_deleted":"0","num_feature":"7","num_nodes":"11","size_leaf_vector":"1"}},{"base_weights":[-3.8008166E-3,-2.5388372E-1,4.5755666E-2,-8.552002E-1,2.5640315E-1,1.18981495E-1,-4.8247543E-1,9.21002E-2,-1.2374838E-1,5.0363716E-2,-1.02842025E-1,6.326791E-2,6.586801E-3,1.9869432E-2,-8.4541276E-2],"categories":[],"categories_nodes":[],"categories_segments":[],"categories_sizes":[],"default_left":[0,0,0,0,0,0,0,0,0,0,0,0,0,0,0],"id":25,"left_children":[1,3,5,7,9,11,13,-1,-1,-1,-1,-1,-1,-1,-1],"loss_changes":[2.1814263E0,9.151108E0,5.742289E0,1.0369652E1,5.7641516E0,3.5020175E0,4.6405277E0,0E0,0E0,0E0,0E0,0E0,0E0,0E0,0E0],"parents":[2147483647,0,0,1,1,2,2,3,3,4,4,5,5,6,6],"right_children":[2,4,6,8,10,12,14,-1,-1,-1,-1,-1,-1,-1,-1],"split_conditions":[-6.431E0,2.8107143E1,3.4717857E1,1.850357E1,1.9668561E0,3.7790573E1,-3.4982092E0,9.21002E-2,-1.2374838E-1,5.0363716E-2,-1.02842025E-1,6.326791E-2,6.586801E-3,1.9869432E-2,-8.4541276E-2],"split_indices":[2,3,3,3,0,1,0,0,0,0,0,0,0,0,0],"split_type":[0,0,0,0,0,0,0,0,0,0,0,0,0,0,0],"sum_hessian":[1.7408028E2,2.8108717E1,1.4597156E2,1.2593157E1,1.5515559E1,1.2888033E2,1.709123E1,1.9807583E0,1.0612399E1,1.3521647E1,1.993912E0,1.1054332E1,1.1782599E2,6.0983095E0,1.0992921E1],"tree_param":{"num_deleted":"0","num_feature":"7","num_nodes":"15","size_leaf_vector":"1"}},{"base_weights":[-3.8672357E-3,-5.265833E-1,1.9730737E-2,-9.482736E-2,1.3008907E-1,2.927853E-1,-5.5084743E-2,6.2854044E-2,-3.466217E-2,-2.7257972E-3,7.092309E-2,-1.3348023E-2,2.7952332E-2],"categories":[],"categories_nodes":[],"categories_segments":[],"categories_sizes":[],"default_left":[0,0,0,0,0,0,0,0,0,0,0,0,0],"id":26,"left_children":[1,3,5,-1,7,9,11,-1,-1,-1,-1,-1,-1],"loss_changes":[2.1663291E0,2.223959E0,3.4521525E0,0E0,1.131685E0,4.8616557E0,3.5225701E0,0E0,0E0,0E0,0E0,0E0,0E0],"parents":[2147483647,0,0,1,1,2,2,4,4,5,5,6,6],"right_children":[2,4,6,-1,8,10,12,-1,-1,-1,-1,-1,-1],"split_conditions":[1.5E-1,7.25E0,1.65E0,-9.482736E-2,8.5E0,9.5E-1,1.8463442E1,6.2854044E-2,-3.466217E-2,-2.7257972E-3,7.092309E-2,-1.3348023E-2,2.7952332E-2],"split_indices":[5,6,5,0,6,5,0,0,0,0,0,0,0],"split_type":[0,0,0,0,0,0,0,0,0,0,0,0,0],"sum_hessian":[1.7378168E2,6.5857906E0,1.6719589E2,3.7400274E0,2.8457632E0,3.533179E1,1.318641E2,1.2354625E0,1.6103008E0,2.0506702E1,1.482509E1,1.07320915E2,2.4543184E1],"tree_param":{"num_deleted":"0","num_feature":"7","num_nodes":"13","size_leaf_vector":"1"}},{"base_weights":[-3.3789494E-3,1.1211678E-1,-1.0908839E-1,-2.6643735E-1,2.3579967E-1,-3.697037E-1,3.860202E-2,4.411437E-2,-5.3762514E-2,8.1589945E-2,8.157763E-3,4.303797E-2,-5.948134E-2,1.1241273E-1,-6.8385834E-3],"categories":[],"categories_nodes":[],"categories_segments":[],"categories_sizes":[],"default_left":[0,0,0,0,0,0,0,0,0,0,0,0,0,0,0],"id":27,"left_children":[1,3,5,7,9,11,13,-1,-1,-1,-1,-1,-1,-1,-1],"loss_changes":[2.143653E0,3.9920387E0,3.5422091E0,4.292918E0,5.639859E0,6.2442694E0,6.9765325E0,0E0,0E0,0E0,0E0,0E0,0E0,0E0,0E0],"parents":[2147483647,0,0,1,1,2,2,3,3,4,4,5,5,6,6],"right_children":[2,4,6,8,10,12,14,-1,-1,-1,-1,-1,-1,-1,-1],"split_conditions":[4.45E0,-4.448995E0,-3.5E0,-9.584241E0,4.520065E1,-1.4719017E1,-2E0,4.411437E-2,-5.3762514E-2,8.1589945E-2,8.157763E-3,4.303797E-2,-5.948134E-2,1.1241273E-1,-6.8385834E-3],"split_indices":[6,2,4,2,1,0,4,0,0,0,0,0,0,0,0],"split_type":[0,0,0,0,0,0,0,0,0,0,0,0,0,0,0],"sum_hessian":[1.7357811E2,8.292048E1,9.065764E1,2.0136091E1,6.278439E1,3.224851E1,5.840913E1,5.405471E0,1.473062E1,1.2284885E1,5.04995E1,6.880832E0,2.5367676E1,4.3873134E0,5.4021816E1],"tree_param":{"num_deleted":"0","num_feature":"7","num_nodes":"15","size_leaf_vector":"1"}},{"base_weights":[-1.9972462E-3,-7.952255E-2,1.384623E-2,6.9291294E-1,-6.5127504E-3,1.0847461E-1,-2.7598087E-2,-6.874136E-2,2.2084408E-3],"categories":[],"categories_nodes":[],"categories_segments":[],"categories_sizes":[],"default_left":[0,0,0,0,0,0,0,0,0],"id":28,"left_children":[1,-1,3,5,7,-1,-1,-1,-1],"loss_changes":[2.2007234E0,0E0,2.379765E0,2.2015028E0,3.282493E0,0E0,0E0,0E0,0E0],"parents":[2147483647,0,0,2,2,3,3,4,4],"right_children":[2,-1,4,6,8,-1,-1,-1,-1],"split_conditions":[-2.4764101E1,-7.952255E-2,-5.3929707E1,6.15E0,-4.067679E1,1.0847461E-1,-2.7598087E-2,-6.874136E-2,2.2084408E-3],"split_indices":[2,0,0,4,0,0,0,0,0],"split_type":[0,0,0,0,0,0,0,0,0],"sum_hessian":[1.7323624E2,2.4290578E0,1.7080717E2,4.0102987E0,1.6679688E2,2.7703583E0,1.2399406E0,5.7943788E0,1.610025E2],"tree_param":{"num_deleted":"0","num_feature":"7","num_nodes":"9","size_leaf_vector":"1"}},{"base_weights":[-2.1530539E-3,1.0807072E-2,-8.972262E-2,-3.153096E-2,3.2143426E-1,8.567747E-3,-2.606189E-2,-3.616996E-2,7.213144E-2],"categories":[],"categories_nodes":[],"categories_segments":[],"categories_sizes":[],"default_left":[0,0,0,0,0,0,0,0,0],"id":29,"left_children":[1,3,-1,5,7,-1,-1,-1,-1],"loss_changes":[2.0285258E0,2.2792323E0,0E0,4.1238832E0,5.938802E0,0E0,0E0,0E0,0E0],"parents":[2147483647,0,0,1,1,3,3,4,4],"right_children":[2,4,-1,6,8,-1,-1,-1,-1],"split_conditions":[1.9796469E1,8.624505E0,-8.972262E-2,7.3369956E0,1.4884472E1,8.567747E-3,-2.606189E-2,-3.616996E-2,7.213144E-2],"split_indices":[2,2,0,0,0,0,0,0,0],"split_type":[0,0,0,0,0,0,0,0,0],"sum_hessian":[1.7303311E2,1.7153728E2,1.4958318E0,1.5175218E2,1.9785109E1,1.0080384E2,5.0948338E1,7.340489E0,1.244462E1],"tree_param":{"num_deleted":"0","num_feature":"7","num_nodes":"9","size_leaf_vector":"1"}},{"base_weights":[-2.2854952E-3,-4.678804E-1,2.235644E-2,-8.9234823E-1,2.0594889E-1,4.1843212E-1,-2.081665E-2,-4.367198E-3,-1.2297241E-1,-2.9468998E-2,6.744637E-2,5.5165052E-2,-3.0237947E-2,-1.0167358E-1,2.5830444E-4],"categories":[],"categories_nodes":[],"categories_segments":[],"categories_sizes":[],"default_left":[0,0,0,0,0,0,0,0,0,0,0,0,0,0,0],"id":30,"left_children":[1,3,5,7,9,11,13,-1,-1,-1,-1,-1,-1,-1,-1],"loss_changes":[2.0025532E0,2.6930833E0,2.8448424E0,1.5411353E0,1.1846324E0,1.736753E0,3.5101008E0,0E0,0E0,0E0,0E0,0E0,0E0,0E0,0E0],"parents":[2147483647,0,0,1,1,2,2,3,3,4,4,5,5,6,6],"right_children":[2,4,6,8,10,12,14,-1,-1,-1,-1,-1,-1,-1,-1],"split_conditions":[1.5171429E1,-7E-1,1.7921429E1,-6.55E0,2.95E0,9.7E0,1.8107143E1,-4.367198E-3,-1.2297241E-1,-2.9468998E-2,6.744637E-2,5.5165052E-2,-3.0237947E-2,-1.0167358E-1,2.5830444E-4],"split_indices":[3,4,3,4,6,4,3,0,0,0,0,0,0,0,0],"split_type":[0,0,0,0,0,0,0,0,0,0,0,0,0,0,0],"sum_hessian":[1.7263074E2,7.773216E0,1.6485751E2,4.5700765E0,3.2031398E0,1.5349274E1,1.4950824E2,1.6212449E0,2.9488313E0,1.7278408E0,1.475299E0,1.3153046E1,2.196228E0,2.4576328E0,1.4705061E2],"tree_param":{"num_deleted":"0","num_feature":"7","num_nodes":"15","size_leaf_vector":"1"}},{"base_weights":[-3.0104436E-3,-2.8087987E-2,4.4783404E-1,2.6208421E-2,-7.3699033E-1,-1.816624E-1,8.141108E-1,-1.2513177E-3,6.570729E-2,-2.5827456E-2,-1.3523036E-1,5.1846165E-2,-1.029699E-1,1.1075218E-1,1.549293E-3],"categories":[],"categories_nodes":[],"categories_segments":[],"categories_sizes":[],"default_left":[0,0,0,0,0,0,0,0,0,0,0,0,0,0,0],"id":31,"left_children":[1,3,5,7,9,11,13,-1,-1,-1,-1,-1,-1,-1,-1],"loss_changes":[1.9739949E0,6.381203E0,2.269206E0,3.7821162E0,3.124516E0,3.028554E0,1.3884468E0,0E0,0E0,0E0,0E0,0E0,0E0,0E0,0E0],"parents":[2147483647,0,0,1,1,2,2,3,3,4,4,5,5,6,6],"right_children":[2,4,6,8,10,12,14,-1,-1,-1,-1,-1,-1,-1,-1],"split_conditions":[3.14E1,2E1,1.3499016E-1,1.65E1,1.5021599E1,-4.0374875E0,9.389395E0,-1.2513177E-3,6.570729E-2,-2.5827456E-2,-1.3523036E-1,5.1846165E-2,-1.029699E-1,1.1075218E-1,1.549293E-3],"split_indices":[4,4,2,4,0,0,2,0,0,0,0,0,0,0,0],"split_type":[0,0,0,0,0,0,0,0,0,0,0,0,0,0,0],"sum_hessian":[1.7248343E2,1.6428313E2,8.200301E0,1.5349E2,1.0793112E1,3.2017272E0,4.998574E0,1.455373E2,7.952716E0,6.86886E0,3.9242518E0,1.966693E0,1.2350341E0,3.3726642E0,1.6259094E0],"tree_param":{"num_deleted":"0","num_feature":"7","num_nodes":"15","size_leaf_vector":"1"}},{"base_weights":[-2.8796806E-3,-7.58585E-2,1.1997051E-2,6.5197486E-1,-6.804965E-3,1.034415E-1,-2.6262749E-2,-6.1606105E-2,2.0695336E-3],"categories":[],"categories_nodes":[],"categories_segments":[],"categories_sizes":[],"default_left":[0,0,0,0,0,0,0,0,0],"id":32,"left_children":[1,-1,3,5,7,-1,-1,-1,-1],"loss_changes":[1.9572585E0,0E0,2.061158E0,1.981621E0,2.8114014E0,0E0,0E0,0E0,0E0],"parents":[2147483647,0,0,2,2,3,3,4,4],"right_children":[2,-1,4,6,8,-1,-1,-1,-1],"split_conditions":[-2.4764101E1,-7.58585E-2,-5.3929707E1,6.15E0,-3.974372E1,1.034415E-1,-2.6262749E-2,-6.1606105E-2,2.0695336E-3],"split_indices":[2,0,0,4,0,0,0,0,0],"split_type":[0,0,0,0,0,0,0,0,0],"sum_hessian":[1.7228622E2,2.361004E0,1.6992522E2,3.8886497E0,1.6603658E2,2.649686E0,1.2389637E0,6.2464933E0,1.5979007E2],"tree_param":{"num_deleted":"0","num_feature":"7","num_nodes":"9","size_leaf_vector":"1"}},{"base_weights":[-2.911602E-3,5.297898E-1,-2.337528E-2,7.829136E-1,-3.1017307E-2,-8.9948885E-2,-7.070271E-3,-1.0710347E-2,1.056024E-1,-5.953716E-2,1.5910423E-3],"categories":[],"categories_nodes":[],"categories_segments":[],"categories_sizes":[],"default_left":[0,0,0,0,0,0,0,0,0,0,0],"id":33,"left_children":[1,3,5,7,-1,-1,9,-1,-1,-1,-1],"loss_changes":[1.8990891E0,1.6131381E0,2.3882537E0,1.3859057E0,0E0,0E0,2.2479906E0,0E0,0E0,0E0,0E0],"parents":[2147483647,0,0,1,1,2,2,3,3,6,6],"right_children":[2,4,6,8,-1,-1,10,-1,-1,-1,-1],"split_conditions":[-2.825E1,6.95E0,-2.4764101E1,6.5E-1,-3.1017307E-2,-8.9948885E-2,-2.44E1,-1.0710347E-2,1.056024E-1,-5.953716E-2,1.5910423E-3],"split_indices":[4,6,2,6,0,0,4,0,0,0,0],"split_type":[0,0,0,0,0,0,0,0,0,0,0],"sum_hessian":[1.7207585E2,5.4449906E0,1.6663086E2,4.2362967E0,1.2086942E0,2.0547915E0,1.6457608E2,1.1374362E0,3.0988603E0,5.250737E0,1.5932533E2],"tree_param":{"num_deleted":"0","num_feature":"7","num_nodes":"11","size_leaf_vector":"1"}},{"base_weights":[-3.0914152E-3,9.141698E-3,-8.599785E-2,-2.9492969E-2,2.9627398E-1,8.321214E-3,-2.244823E-2,9.357693E-2,-1.0442517E-2],"categories":[],"categories_nodes":[],"categories_segments":[],"categories_sizes":[],"default_left":[0,0,0,0,0,0,0,0,0],"id":34,"left_children":[1,3,-1,5,7,-1,-1,-1,-1],"loss_changes":[1.81931E0,1.9097431E0,0E0,3.3580198E0,5.328666E0,0E0,0E0,0E0,0E0],"parents":[2147483647,0,0,1,1,3,3,4,4],"right_children":[2,4,-1,6,8,-1,-1,-1,-1],"split_conditions":[1.9796469E1,8.624505E0,-8.599785E-2,6.3944445E0,2.755E1,8.321214E-3,-2.244823E-2,9.357693E-2,-1.0442517E-2],"split_indices":[2,2,0,0,3,0,0,0,0],"split_type":[0,0,0,0,0,0,0,0,0],"sum_hessian":[1.7180862E2,1.7036578E2,1.4428487E0,1.5095195E2,1.9413836E1,9.602317E1,5.4928772E1,6.9641175E0,1.24497175E1],"tree_param":{"num_deleted":"0","num_feature":"7","num_nodes":"9","size_leaf_vector":"1"}},{"base_weights":[-2.8248697E-3,7.717508E-2,-1.3029397E-1,-9.916914E-2,1.16727054E-1,-1.20256476E-1,-6.3402176E-2,6.5509453E-3,6.5872006E-2,-9.726105E-2,-4.012986E-4],"categories":[],"categories_nodes":[],"categories_segments":[],"categories_sizes":[],"default_left":[0,0,0,0,0,0,0,0,0,0,0],"id":35,"left_children":[1,3,5,-1,7,-1,9,-1,-1,-1,-1],"loss_changes":[1.7691928E0,4.6230326E0,4.7215395E0,0E0,2.8356915E0,0E0,3.4528964E0,0E0,0E0,0E0,0E0],"parents":[2147483647,0,0,1,1,2,2,4,4,6,6],"right_children":[2,4,6,-1,8,-1,10,-1,-1,-1,-1],"split_conditions":[6.95E0,5E-2,1.5857142E1,-9.916914E-2,5.9E0,-1.20256476E-1,-2.44E1,6.5509453E-3,6.5872006E-2,-9.726105E-2,-4.012986E-4],"split_indices":[6,5,3,0,6,0,4,0,0,0,0],"split_type":[0,0,0,0,0,0,0,0,0,0,0],"sum_hessian":[1.7150636E2,1.0561602E2,6.589034E1,2.9097154E0,1.0270631E2,2.872154E0,6.3018192E1,9.486277E1,7.843535E0,2.9211078E0,6.0097084E1],"tree_param":{"num_deleted":"0","num_feature":"7","num_nodes":"11","size_leaf_vector":"1"}},{"base_weights":[-3.9874576E-3,5.1364774E-1,-2.3452267E-2,7.4134475E-1,-2.4055028E-2,-8.649918E-2,-8.250648E-3,-9.251889E-3,1.0081835E-1,3.9980557E-2,-3.7275378E-3],"categories":[],"categories_nodes":[],"categories_segments":[],"categories_sizes":[],"default_left":[0,0,0,0,0,0,0,0,0,0,0],"id":36,"left_children":[1,3,5,7,-1,-1,9,-1,-1,-1,-1],"loss_changes":[1.747816E0,1.25798E0,2.1290808E0,1.2222812E0,0E0,0E0,1.9695094E0,0E0,0E0,0E0,0E0],"parents":[2147483647,0,0,1,1,2,2,3,3,6,6],"right_children":[2,4,6,8,-1,-1,10,-1,-1,-1,-1],"split_conditions":[-2.825E1,6.95E0,-2.4764101E1,6.5E-1,-2.4055028E-2,-8.649918E-2,-9.961028E0,-9.251889E-3,1.0081835E-1,3.9980557E-2,-3.7275378E-3],"split_indices":[4,6,2,6,0,0,2,0,0,0,0],"split_type":[0,0,0,0,0,0,0,0,0,0,0],"sum_hessian":[1.7127338E2,5.2869496E0,1.6598643E2,4.0740204E0,1.2129294E0,1.9532998E0,1.6403313E2,1.1460192E0,2.9280012E0,1.0044446E1,1.5398868E2],"tree_param":{"num_deleted":"0","num_feature":"7","num_nodes":"11","size_leaf_vector":"1"}},{"base_weights":[-3.4668245E-3,-2.3642148E-1,4.1902203E-2,-7.6284343E-1,2.305678E-1,1.0359765E-1,-4.0654385E-1,8.6828485E-2,-1.11459054E-1,4.647368E-2,-9.248512E-2,6.006589E-3,5.930936E-2,1.759254E-2,-7.2184995E-2],"categories":[],"categories_nodes":[],"categories_segments":[],"categories_sizes":[],"default_left":[0,0,0,0,0,0,0,0,0,0,0,0,0,0,0],"id":37,"left_children":[1,3,5,7,9,11,13,-1,-1,-1,-1,-1,-1,-1,-1],"loss_changes":[1.828083E0,7.1066456E0,4.049347E0,8.704845E0,4.67974E0,2.6943944E0,3.3812704E0,0E0,0E0,0E0,0E0,0E0,0E0,0E0,0E0],"parents":[2147483647,0,0,1,1,2,2,3,3,4,4,5,5,6,6],"right_children":[2,4,6,8,10,12,14,-1,-1,-1,-1,-1,-1,-1,-1],"split_conditions":[-6.431E0,2.8107143E1,3.4717857E1,1.850357E1,1.9668561E0,3.1882143E1,-3.4982092E0,8.6828485E-2,-1.11459054E-1,4.647368E-2,-9.248512E-2,6.006589E-3,5.930936E-2,1.759254E-2,-7.2184995E-2],"split_indices":[2,3,3,3,0,3,0,0,0,0,0,0,0,0,0],"split_type":[0,0,0,0,0,0,0,0,0,0,0,0,0,0,0],"sum_hessian":[1.7103038E2,2.7192907E1,1.4383748E2,1.2485204E1,1.4707704E1,1.2711806E2,1.6719418E1,1.9542813E0,1.0530922E1,1.2726249E1,1.9814546E0,1.17767494E2,9.350567E0,6.027248E0,1.069217E1],"tree_param":{"num_deleted":"0","num_feature":"7","num_nodes":"15","size_leaf_vector":"1"}},{"base_weights":[-3.487294E-3,-4.2173535E-1,1.873786E-2,-8.9332104E-1,1.277207E-1,1.02588646E-1,3.4490658E-3,-1.4141563E-3,-1.3230667E-1,6.0379244E-2,-7.0859045E-2,2.2998188E-2,-6.952688E-3],"categories":[],"categories_nodes":[],"categories_segments":[],"categories_sizes":[],"default_left":[0,0,0,0,0,0,0,0,0,0,0,0,0],"id":38,"left_children":[1,3,5,7,9,-1,11,-1,-1,-1,-1,-1,-1],"loss_changes":[1.6022862E0,2.3676214E0,2.5190191E0,1.7968166E0,2.3754697E0,0E0,2.7003076E0,0E0,0E0,0E0,0E0,0E0,0E0],"parents":[2147483647,0,0,1,1,2,2,3,3,4,4,6,6],"right_children":[2,4,6,8,10,-1,12,-1,-1,-1,-1,-1,-1],"split_conditions":[1.5171429E1,-1.15E0,1.52535715E1,-6.55E0,4.438011E0,1.02588646E-1,1.65E0,-1.4141563E-3,-1.3230667E-1,6.0379244E-2,-7.0859045E-2,2.2998188E-2,-6.952688E-3],"split_indices":[3,4,3,4,2,0,5,0,0,0,0,0,0],"split_type":[0,0,0,0,0,0,0,0,0,0,0,0,0],"sum_hessian":[1.7051976E2,7.6969905E0,1.6282277E2,3.8052242E0,3.8917663E0,1.4463149E0,1.6137646E2,1.5884525E0,2.2167718E0,2.6571867E0,1.2345797E0,3.8795506E1,1.22580956E2],"tree_param":{"num_deleted":"0","num_feature":"7","num_nodes":"13","size_leaf_vector":"1"}},{"base_weights":[-3.2809288E-3,9.964274E-2,-9.7188585E-2,-2.5449732E-1,2.1458904E-1,-3.298566E-1,3.4475047E-2,4.0072784E-2,-4.923607E-2,2.6631817E-2,-1.108524E-1,3.9180942E-2,-5.2904166E-2,1.0518505E-1,-6.4539085E-3],"categories":[],"categories_nodes":[],"categories_segments":[],"categories_sizes":[],"default_left":[0,0,0,0,0,0,0,0,0,0,0,0,0,0,0],"id":39,"left_children":[1,3,5,7,9,11,13,-1,-1,-1,-1,-1,-1,-1,-1],"loss_changes":[1.6669856E0,3.4048495E0,2.7735646E0,3.411755E0,4.585005E0,4.904848E0,5.959643E0,0E0,0E0,0E0,0E0,0E0,0E0,0E0,0E0],"parents":[2147483647,0,0,1,1,2,2,3,3,4,4,5,5,6,6],"right_children":[2,4,6,8,10,12,14,-1,-1,-1,-1,-1,-1,-1,-1],"split_conditions":[4.45E0,-4.448995E0,-3.5E0,-9.584241E0,4.255357E1,-1.4719017E1,-2E0,4.0072784E-2,-4.923607E-2,2.6631817E-2,-1.108524E-1,3.9180942E-2,-5.2904166E-2,1.0518505E-1,-6.4539085E-3],"split_indices":[6,2,4,2,3,0,4,0,0,0,0,0,0,0,0],"split_type":[0,0,0,0,0,0,0,0,0,0,0,0,0,0,0],"sum_hessian":[1.7046886E2,8.130106E1,8.916779E1,1.9624758E1,6.1676304E1,3.1679823E1,5.748797E1,5.0444574E0,1.45803E1,6.012437E1,1.5519359E0,6.6433353E0,2.5036488E1,4.2451897E0,5.324278E1],"tree_param":{"num_deleted":"0","num_feature":"7","num_nodes":"15","size_leaf_vector":"1"}},{"base_weights":[-2.9751952E-3,-7.122103E-2,1.0370943E-2,-2.707606E-2,2.6099566E-1,7.3763044E-3,-2.642866E-2,5.1244378E-2,-6.066236E-2],"categories":[],"categories_nodes":[],"categories_segments":[],"categories_sizes":[],"default_left":[0,0,0,0,0,0,0,0,0],"id":40,"left_children":[1,-1,3,5,7,-1,-1,-1,-1],"loss_changes":[1.6260834E0,0E0,1.5916207E0,3.554766E0,5.119431E0,0E0,0E0,0E0,0E0],"parents":[2147483647,0,0,2,2,3,3,4,4],"right_children":[2,-1,4,6,8,-1,-1,-1,-1],"split_conditions":[-2.4764101E1,-7.122103E-2,1.36E1,6.95E0,7.6E0,7.3763044E-3,-2.642866E-2,5.1244378E-2,-6.066236E-2],"split_indices":[2,0,6,6,5,0,0,0,0],"split_type":[0,0,0,0,0,0,0,0,0],"sum_hessian":[1.700093E2,2.172909E0,1.6783638E2,1.4679503E2,2.104136E1,1.0349005E2,4.3304974E1,1.663087E1,4.41049E0],"tree_param":{"num_deleted":"0","num_feature":"7","num_nodes":"9","size_leaf_vector":"1"}},{"base_weights":[-3.2610323E-3,4.883981E-1,-2.1328382E-2,7.06857E-1,-2.2108544E-2,-8.4198155E-2,-6.7408597E-3,-7.998808E-3,9.680615E-2,5.249369E-2,-2.5286295E-3],"categories":[],"categories_nodes":[],"categories_segments":[],"categories_sizes":[],"default_left":[0,0,0,0,0,0,0,0,0,0,0],"id":41,"left_children":[1,3,5,7,-1,-1,9,-1,-1,-1,-1],"loss_changes":[1.5276222E0,1.1010903E0,1.9780083E0,1.0843127E0,0E0,0E0,1.6285452E0,0E0,0E0,0E0,0E0],"parents":[2147483647,0,0,1,1,2,2,3,3,6,6],"right_children":[2,4,6,8,-1,-1,10,-1,-1,-1,-1],"split_conditions":[-2.825E1,6.95E0,-2.4764101E1,6.5E-1,-2.2108544E-2,-8.4198155E-2,-1.4119569E1,-7.998808E-3,9.680615E-2,5.249369E-2,-2.5286295E-3],"split_indices":[4,6,2,6,0,0,2,0,0,0,0],"split_type":[0,0,0,0,0,0,0,0,0,0,0],"sum_hessian":[1.6979921E2,5.0958524E0,1.6470335E2,3.8990023E0,1.19685E0,1.8859472E0,1.6281741E2,1.1446531E0,2.7543492E0,4.56747E0,1.5824994E2],"tree_param":{"num_deleted":"0","num_feature":"7","num_nodes":"11","size_leaf_vector":"1"}},{"base_weights":[-2.7234016E-3,-2.1574199E-1,3.8343955E-2,-6.896571E-1,2.0863768E-1,9.3432955E-2,-3.651415E-1,8.1830375E-2,-1.0149217E-1,4.259415E-2,-8.512013E-2,5.4583836E-2,4.6947943E-3,-5.0373464E-3,-9.10978E-2],"categories":[],"categories_nodes":[],"categories_segments":[],"categories_sizes":[],"default_left":[0,0,0,0,0,0,0,0,0,0,0,0,0,0,0],"id":42,"left_children":[1,3,5,7,9,11,13,-1,-1,-1,-1,-1,-1,-1,-1],"loss_changes":[1.5003183E0,5.718443E0,3.2313092E0,7.367132E0,3.9071598E0,2.6526706E0,2.9579394E0,0E0,0E0,0E0,0E0,0E0,0E0,0E0,0E0],"parents":[2147483647,0,0,1,1,2,2,3,3,4,4,5,5,6,6],"right_children":[2,4,6,8,10,12,14,-1,-1,-1,-1,-1,-1,-1,-1],"split_conditions":[-6.431E0,2.8107143E1,3.4717857E1,1.850357E1,1.9668561E0,3.7790573E1,5.307035E0,8.1830375E-2,-1.0149217E-1,4.259415E-2,-8.512013E-2,5.4583836E-2,4.6947943E-3,-5.0373464E-3,-9.10978E-2],"split_indices":[2,3,3,3,0,1,2,0,0,0,0,0,0,0,0],"split_type":[0,0,0,0,0,0,0,0,0,0,0,0,0,0,0],"sum_hessian":[1.6955637E2,2.6717564E1,1.428388E2,1.2326815E1,1.4390748E1,1.2635556E2,1.6483242E1,1.9181691E0,1.0408646E1,1.2438525E1,1.9522228E0,1.0772478E1,1.15583084E2,1.114724E1,5.3360023E0],"tree_param":{"num_deleted":"0","num_feature":"7","num_nodes":"15","size_leaf_vector":"1"}},{"base_weights":[-3.0867935E-3,-5.6700572E-2,1.5987977E-1,1.826727E-2,-6.4312166E-1,-1.3531066E-1,4.6136883E-1,-5.205005E-3,4.4912856E-2,-1.151061E-1,-1.2436842E-2,4.5594055E-2,-3.467461E-2,7.2867356E-2,-3.5457518E-2],"categories":[],"categories_nodes":[],"categories_segments":[],"categories_sizes":[],"default_left":[0,0,0,0,0,0,0,0,0,0,0,0,0,0,0],"id":43,"left_children":[1,3,5,7,9,11,13,-1,-1,-1,-1,-1,-1,-1,-1],"loss_changes":[1.4948828E0,5.6696167E0,3.8321931E0,3.510007E0,3.7079067E0,2.9303546E0,4.878381E0,0E0,0E0,0E0,0E0,0E0,0E0,0E0,0E0],"parents":[2147483647,0,0,1,1,2,2,3,3,4,4,5,5,6,6],"right_children":[2,4,6,8,10,12,14,-1,-1,-1,-1,-1,-1,-1,-1],"split_conditions":[7.8E0,6.45E0,1.2E0,1.36E1,7.05E0,1.15E0,1.55E1,-5.205005E-3,4.4912856E-2,-1.151061E-1,-1.2436842E-2,4.5594055E-2,-3.467461E-2,7.2867356E-2,-3.5457518E-2],"split_indices":[5,5,4,6,5,6,5,0,0,0,0,0,0,0,0],"split_type":[0,0,0,0,0,0,0,0,0,0,0,0,0,0,0],"sum_hessian":[1.6905545E2,1.2769696E2,4.1358486E1,1.1408165E2,1.3615305E1,2.117604E1,2.0182446E1,9.883139E1,1.5250261E1,6.2634873E0,7.3518176E0,5.2733655E0,1.5902676E1,1.5282747E1,4.8996983E0],"tree_param":{"num_deleted":"0","num_feature":"7","num_nodes":"15","size_leaf_vector":"1"}},{"base_weights":[-2.9800558E-3,-6.82508E-2,9.472987E-3,-3.9161047E-1,3.1000815E-2,-8.400241E-2,1.261429E-2,2.426692E-2,-3.5450277E-3],"categories":[],"categories_nodes":[],"categories_segments":[],"categories_sizes":[],"default_left":[0,0,0,0,0,0,0,0,0],"id":44,"left_children":[1,-1,3,5,7,-1,-1,-1,-1],"loss_changes":[1.4438428E0,0E0,1.4609007E0,2.1073635E0,2.2614577E0,0E0,0E0,0E0,0E0],"parents":[2147483647,0,0,2,2,3,3,4,4],"right_children":[2,-1,4,6,8,-1,-1,-1,-1],"split_conditions":[-2.4764101E1,-6.82508E-2,1.5171429E1,-1.15E0,1.65E0,-8.400241E-2,1.261429E-2,2.426692E-2,-3.5450277E-3],"split_indices":[2,0,3,4,5,0,0,0,0],"split_type":[0,0,0,0,0,0,0,0,0],"sum_hessian":[1.6885878E2,2.0705054E0,1.6678827E2,7.6204934E0,1.5916777E2,3.750144E0,3.8703494E0,3.7396355E1,1.21771416E2],"tree_param":{"num_deleted":"0","num_feature":"7","num_nodes":"9","size_leaf_vector":"1"}},{"base_weights":[-3.401398E-3,4.6729633E-1,-2.0406816E-2,6.8559253E-1,-2.232781E-2,-4.4237113E-1,8.887468E-3,-5.9961346E-3,9.3875475E-2,2.6949838E-2,-8.663055E-2,-7.703138E-2,2.9727754E-3],"categories":[],"categories_nodes":[],"categories_segments":[],"categories_sizes":[],"default_left":[0,0,0,0,0,0,0,0,0,0,0,0,0],"id":45,"left_children":[1,3,5,7,-1,9,11,-1,-1,-1,-1,-1,-1],"loss_changes":[1.367844E0,1.05137E0,2.0402577E0,9.5722675E-1,0E0,3.4667554E0,2.5402713E0,0E0,0E0,0E0,0E0,0E0,0E0],"parents":[2147483647,0,0,1,1,2,2,3,3,5,5,6,6],"right_children":[2,4,6,8,-1,10,12,-1,-1,-1,-1,-1,-1],"split_conditions":[-2.825E1,6.95E0,-3.974372E1,6.5E-1,-2.232781E-2,-5.3929707E1,3.0223995E1,-5.9961346E-3,9.3875475E-2,2.6949838E-2,-8.663055E-2,-7.703138E-2,2.9727754E-3],"split_indices":[4,6,0,6,0,0,1,0,0,0,0,0,0],"split_type":[0,0,0,0,0,0,0,0,0,0,0,0,0],"sum_hessian":[1.6869492E2,4.9588294E0,1.6373608E2,3.773279E0,1.1855502E0,9.713841E0,1.5402225E2,1.1499289E0,2.6233501E0,3.7616246E0,5.952217E0,3.0753326E0,1.5094691E2],"tree_param":{"num_deleted":"0","num_feature":"7","num_nodes":"13","size_leaf_vector":"1"}},{"base_weights":[-3.4488312E-3,7.0173843E-3,-7.7251114E-2,-3.1115454E-2,2.701952E-1,5.0000586E-3,-2.2002256E-2,-5.49465E-2,5.091204E-2],"categories":[],"categories_nodes":[],"categories_segments":[],"categories_sizes":[],"default_left":[0,0,0,0,0,0,0,0,0],"id":46,"left_children":[1,3,-1,5,7,-1,-1,-1,-1],"loss_changes":[1.3691032E0,1.695765E0,0E0,2.2750847E0,4.4671187E0,0E0,0E0,0E0,0E0],"parents":[2147483647,0,0,1,1,3,3,4,4],"right_children":[2,4,-1,6,8,-1,-1,-1,-1],"split_conditions":[1.9796469E1,2.6401188E1,-7.7251114E-2,7.3369956E0,2.9344358E0,5.0000586E-3,-2.2002256E-2,-5.49465E-2,5.091204E-2],"split_indices":[2,0,0,0,2,0,0,0,0],"split_type":[0,0,0,0,0,0,0,0,0],"sum_hessian":[1.6841895E2,1.6713527E2,1.2836785E0,1.4675339E2,2.0381887E1,1.031825E2,4.357088E1,4.3068867E0,1.6075E1],"tree_param":{"num_deleted":"0","num_feature":"7","num_nodes":"9","size_leaf_vector":"1"}},{"base_weights":[-3.663295E-3,-2.3888664E-2,3.9210618E-1,2.8508663E-2,-6.634041E-1,-1.8459406E-1,6.96929E-1,-5.092273E-4,5.8125336E-2,-2.8158084E-2,-1.15730844E-1,5.989874E-2,-9.605434E-2,9.920947E-2,-3.811723E-3],"categories":[],"categories_nodes":[],"categories_segments":[],"categories_sizes":[],"default_left":[0,0,0,0,0,0,0,0,0,0,0,0,0,0,0],"id":47,"left_children":[1,3,5,7,9,11,13,-1,-1,-1,-1,-1,-1,-1,-1],"loss_changes":[1.3618976E0,5.437199E0,1.5829011E0,2.7964988E0,1.9911113E0,2.795347E0,1.2574399E0,0E0,0E0,0E0,0E0,0E0,0E0,0E0,0E0],"parents":[2147483647,0,0,1,1,2,2,3,3,4,4,5,5,6,6],"right_children":[2,4,6,8,10,12,14,-1,-1,-1,-1,-1,-1,-1,-1],"split_conditions":[3.21E1,2E1,1.3499016E-1,1.65E1,1.5021599E1,-4.0374875E0,9.389395E0,-5.092273E-4,5.8125336E-2,-2.8158084E-2,-1.15730844E-1,5.989874E-2,-9.605434E-2,9.920947E-2,-3.811723E-3],"split_indices":[4,4,2,4,0,0,2,0,0,0,0,0,0,0,0],"split_type":[0,0,0,0,0,0,0,0,0,0,0,0,0,0,0],"sum_hessian":[1.6796953E2,1.6069693E2,7.2726016E0,1.494107E2,1.1286224E1,2.6511881E0,4.6214137E0,1.4178262E2,7.6280723E0,7.250886E0,4.035339E0,1.432578E0,1.2186102E0,3.0478234E0,1.57359E0],"tree_param":{"num_deleted":"0","num_feature":"7","num_nodes":"15","size_leaf_vector":"1"}},{"base_weights":[-3.4307982E-3,-5.4568823E-2,1.5204085E-1,1.2110386E-2,-5.7679176E-1,-1.1334238E-1,4.2447373E-1,-5.1759547E-3,4.062095E-2,-1.0477284E-1,-1.0156094E-2,3.5638757E-2,-3.4515318E-2,6.726201E-2,-3.275315E-2],"categories":[],"categories_nodes":[],"categories_segments":[],"categories_sizes":[],"default_left":[0,0,0,0,0,0,0,0,0,0,0,0,0,0,0],"id":48,"left_children":[1,3,5,7,9,11,13,-1,-1,-1,-1,-1,-1,-1,-1],"loss_changes":[1.3499405E0,4.454307E0,3.0869381E0,2.8964798E0,3.1346278E0,2.527308E0,4.129903E0,0E0,0E0,0E0,0E0,0E0,0E0,0E0,0E0],"parents":[2147483647,0,0,1,1,2,2,3,3,4,4,5,5,6,6],"right_children":[2,4,6,8,10,12,14,-1,-1,-1,-1,-1,-1,-1,-1],"split_conditions":[7.8E0,6.45E0,1.2E0,1.36E1,7.05E0,1.8E0,1.55E1,-5.1759547E-3,4.062095E-2,-1.0477284E-1,-1.0156094E-2,3.5638757E-2,-3.4515318E-2,6.726201E-2,-3.275315E-2],"split_indices":[5,5,4,6,5,6,5,0,0,0,0,0,0,0,0],"split_type":[0,0,0,0,0,0,0,0,0,0,0,0,0,0,0],"sum_hessian":[1.6774936E2,1.2671803E2,4.1031322E1,1.1323643E2,1.3481606E1,2.1080387E1,1.9950935E1,9.8191605E1,1.5044824E1,6.166325E0,7.3152804E0,6.7880373E0,1.4292349E1,1.5080307E1,4.8706274E0],"tree_param":{"num_deleted":"0","num_feature":"7","num_nodes":"15","size_leaf_vector":"1"}},{"base_weights":[-3.3303406E-3,-2.1811341E-1,3.2792337E-2,9.8913096E-2,-9.88364E-1,5.6332916E-1,-4.024694E-2,-2.0253098E-2,7.5612776E-2,-1.4318673E-1,-2.2027612E-2,8.326439E-2,1.5870973E-2,-4.4029456E-2,1.0712325E-3],"categories":[],"categories_nodes":[],"categories_segments":[],"categories_sizes":[],"default_left":[0,0,0,0,0,0,0,0,0,0,0,0,0,0,0],"id":49,"left_children":[1,3,5,7,9,11,13,-1,-1,-1,-1,-1,-1,-1,-1],"loss_changes":[1.3143661E0,6.0529733E0,5.64528E0,3.7559817E0,2.1379108E0,1.7884789E0,2.6238077E0,0E0,0E0,0E0,0E0,0E0,0E0,0E0,0E0],"parents":[2147483647,0,0,1,1,2,2,3,3,4,4,5,5,6,6],"right_children":[2,4,6,8,10,12,14,-1,-1,-1,-1,-1,-1,-1,-1],"split_conditions":[8.5E-1,1.255E1,1.65E0,1.05E0,3.8987389E0,6.85E0,2.3E0,-2.0253098E-2,7.5612776E-2,-1.4318673E-1,-2.2027612E-2,8.326439E-2,1.5870973E-2,-4.4029456E-2,1.0712325E-3],"split_indices":[5,4,5,4,0,6,5,0,0,0,0,0,0,0,0],"split_type":[0,0,0,0,0,0,0,0,0,0,0,0,0,0,0],"sum_hessian":[1.6748708E2,2.338763E1,1.4409944E2,1.7185751E1,6.2018795E0,1.6625294E1,1.2747415E2,1.2256093E1,4.929657E0,3.3838215E0,2.818058E0,9.346451E0,7.2788424E0,1.3540047E1,1.13934105E2],"tree_param":{"num_deleted":"0","num_feature":"7","num_nodes":"15","size_leaf_vector":"1"}}]},"name":"gbtree"},"learner_model_param":{"base_score":"[5.476839E-1]","boost_from_average":"1","num_class":"0","num_feature":"7","num_target":"1"},"objective":{"name":"binary:logistic","reg_loss_param":{"scale_pos_weight":"1"}}},"version":[3,2,0]}